2 32768
128 256
-0.00066174765
-0.030921193
-0.08760596
0.029240524
-0.024523754
-0.05233592
-0.0678146
-0.078355186
-0.0061930157
-0.0742963
-0.06602641
0.031376168
-0.029389692
-0.028395975
0.07033333
-0.027119558
-0.046192016
0.053173054
-0.083748125
-0.004632992
-0.058069907
0.032945644
-0.07932966
-0.022009442
0.082518585
-0.033980515
-0.06547213
-0.05120326
-0.068951674
0.04514724
-0.07865988
-0.022247413
0.06429792
0.038987488
-0.044633955
0.0015967123
0.079176605
-0.0041600415
-0.07695654
0.05282467
-0.043811522
-0.086105496
0.073453724
-0.05127362
0.06675595
-0.08509282
-0.079041906
-0.045308705
-0.033913884
0.0356646
0.025835028
-0.016512409
0.08407245
0.027093068
-0.04937288
0.07724531
-0.08024199
0.050234374
0.01592701
0.010315409
0.019059606
0.012446565
0.004600697
0.04784427
-0.0029470024
0.06670428
0.04487195
-0.013539791
0.01679317
0.014237226
0.010575761
-0.05089096
-0.035243522
0.06747352
0.031553186
0.07760836
-0.030492391
-0.018469349
-0.04075205
-0.04220094
0.060487702
0.049820397
-0.07054352
0.027345771
-0.020803051
0.05752642
-0.075798355
0.0142477
0.003467632
-0.0015986405
-0.02974676
-0.08749883
0.026431616
0.006660667
0.039958805
-0.015664307
0.009136721
0.08314865
0.086604685
0.059958022
-0.008800904
0.029000403
-0.042918283
0.007956239
-0.020540541
0.040905815
-0.084797665
-0.049135618
0.012507066
-0.0008932076
0.009149227
0.013545839
-0.06863358
-0.086331494
-0.009608744
0.042436883
-0.062579714
0.052434187
-0.083825804
0.047533922
0.039224047
-0.057646856
-0.05944144
-0.026358174
-0.027439326
-0.055422608
-0.038189016
-0.0054898164
-0.031508785
-0.05793672
0.08574609
-0.012628207
-0.039830174
-0.009800386
0.06339525
-0.022999967
0.017073436
-0.06636861
0.0577113
-0.07714068
-0.08656247
0.073879346
0.06167601
0.07345728
0.026388047
-0.0164463
0.03338967
-0.034799904
-0.08378808
0.050346676
0.07696045
-0.0122562405
0.0056046033
0.06557551
0.015311181
0.07077667
0.01874911
0.007852411
0.029020308
-0.031890295
0.045030978
0.06968477
-0.060310062
0.008300621
-0.065928735
0.083143994
0.070224516
0.086589575
-0.055713676
0.02423313
0.031083923
-0.04469909
0.07528508
-0.035618037
-0.07963706
0.0011455197
0.086755395
0.08545315
0.07125291
0.022494437
-0.0320054
0.06329385
0.0032496378
-0.065471515
0.026960485
0.0047545014
0.037217364
0.043506876
-0.065136924
-0.034855265
-0.07292347
-0.027673725
-0.07490067
-0.052735895
0.0035982344
0.010933135
0.05675879
-0.07079804
-0.0640241
-0.073028915
0.0148078315
0.050156478
0.05937804
-0.08510394
-0.049247243
-0.0651491
-0.02869627
0.027264975
-0.01429363
-0.079763986
0.06556024
-0.024645496
0.050342303
-0.08538095
-0.043977432
-0.02508868
0.05974328
0.059932753
-0.063752905
-0.0057258075
0.07949386
0.06119775
-0.059734054
-0.028229063
0.058483902
-0.018116929
0.033228945
0.06698654
-0.058933496
-0.026364928
-0.033231407
-0.06830275
0.07571084
-0.028165558
0.0002123042
0.080782324
0.034691915
0.017305063
0.01983673
0.07685873
-0.06234561
0.048544116
-0.06748881
0.06046981
0.08169658
0.061251014
-0.06713744
0.069014564
-0.00040101673
0.011259583
-0.04285595
0.011194782
0.0044202562
-0.04337052
-0.044897836
0.083352186
0.04741536
-0.072445005
0.039897967
0.088359736
-0.032950796
0.012680764
-0.0258339
-0.005612264
-0.083482675
0.0013025694
-0.010237227
-0.048680905
0.028481344
0.04273873
0.04638207
-0.0497378
-0.0255253
-0.0147697935
-0.07919756
0.046644874
-0.061502934
-0.020670015
-0.0640699
-0.041711807
0.06708679
-0.031378772
-0.06272812
-0.033922553
-0.074762926
-0.08562027
-0.07692517
0.04510784
-0.00935463
0.07031659
0.015438496
-0.07115976
0.071403295
0.027710805
-0.06508192
-0.001329143
-0.0848541
0.017874552
0.06939561
0.042262867
0.017383415
0.04807908
-0.044384953
-0.08453763
0.04958974
-0.08314349
-0.035842437
-0.052263692
-0.025732694
0.06950072
-0.014123177
0.033950076
-0.011898298
-0.034007944
0.0019712292
0.055185396
0.003344563
0.08569191
0.083539434
-0.04484748
0.03916126
-0.010364405
0.07999262
0.08801799
-0.01713754
0.07268916
-0.068673104
0.05878436
0.008578822
-0.08056302
0.04794122
0.016721573
0.042674042
-0.035949364
-0.005863343
0.074709356
-0.0015876929
-0.07574457
0.068465255
-0.007196216
-0.052431364
-0.019542314
-0.022860134
-0.044040937
0.025304114
-0.008612044
-0.0731968
-0.0041116886
0.047980193
0.03193665
0.08241128
0.002736795
0.011036279
0.023266366
-0.07355812
-0.05789483
-0.075348735
0.077233374
-0.054484967
0.055864774
-0.053573776
-0.026073864
0.049958628
-0.07615779
0.07983034
0.039404374
-0.026314478
-0.049348786
0.033538017
0.011614144
0.056212187
-0.04981101
-0.0018398364
0.030530892
0.059066985
0.021789204
0.00509882
0.037740584
0.0638479
-0.081275985
0.010808896
0.038916986
-0.04239856
0.005173673
0.035935257
-0.08408058
0.046876937
-0.048369695
-0.069701985
0.083973296
-0.026263755
-0.016585333
-0.06861299
0.039563615
0.05451741
0.07216676
-0.05631451
0.00014620741
-0.006120344
0.011898698
-0.05484841
-0.050703764
0.0593944
0.05150503
0.054990225
0.082459085
0.028257607
0.036571685
-0.037597623
0.04987736
0.041716117
-0.06427508
0.054742157
0.072496645
0.04232922
-0.07823046
-0.058800742
-0.073944315
0.05855665
-0.069454886
0.016625425
0.075984076
-0.02090176
-0.03604588
0.023602994
0.060979165
0.014617085
0.0528061
-0.043243404
0.043208897
-0.08217929
-0.06516685
0.01855102
0.020130862
-0.042048022
-0.03741479
0.017627845
0.057123963
0.0045489306
0.027202861
-0.004781602
-0.047137275
-0.0673352
0.021832203
-0.071607396
-0.06331598
-0.08282961
0.08073388
-0.031688433
0.0110274805
0.03342462
-0.01902122
0.003139308
0.015470043
0.06856123
0.06047219
-0.023279032
0.07655724
-0.011419383
0.028952967
-0.011537373
0.031612515
-0.05728004
-0.042764667
0.06010761
0.010944251
-0.057938367
0.038993694
-0.02999704
0.06366368
0.021679906
-0.072026074
0.07583737
0.047211614
0.049951833
0.007636798
0.040307593
-3.4054654e-05
0.0785412
-0.011327145
-0.04387488
-0.022254389
-0.03246968
-0.03616557
0.07761028
-0.0026374655
0.010129605
0.0055086035
-0.0569508
-0.016780958
0.0562623
-0.07912545
0.040183995
0.061125457
0.07084051
-0.024291515
0.037140656
-0.06841303
-0.0862671
0.025789678
-0.0079080025
-0.056824286
-0.0052859313
0.06566048
0.062378924
-0.059985932
0.088162206
0.022992454
-0.0149066765
-0.0049619908
0.06802271
-0.07779724
-0.072747596
-0.01880154
-0.042449716
0.045843758
0.02225168
0.028212804
0.028989635
0.029482037
-0.050963398
0.069648996
0.012906872
0.01831406
0.03909748
-0.05474003
0.03537251
-0.0069169933
-0.057207055
-0.0368174
0.051178887
0.0857379
0.05873117
0.08580169
0.0027494708
0.0725608
-0.07734072
-0.02185432
0.041558605
-0.039304506
0.01967948
0.016420675
-0.018963374
0.01943507
-0.03709109
0.08434777
0.08134094
-0.05156023
0.0076952768
-0.035330217
-0.06954453
-0.012598841
0.047775086
-0.07316521
-0.02168762
-0.054385945
0.005167288
-0.050542794
-0.01803277
-0.0054375334
0.041940287
-0.08556456
-0.025923863
0.03185602
0.07056571
-0.015372736
-0.06998948
0.034526836
0.019885167
0.05256612
0.028463906
0.02367264
0.05934314
-0.05543224
-0.034512717
0.073134474
0.0124822315
0.07124617
-0.023344412
-0.05637806
0.036051583
0.056698456
0.06289945
0.07612453
-0.041374043
-0.011875939
0.0030517164
-0.017121356
0.055603746
-0.06063078
-0.06546874
0.03934147
-0.073021166
0.06789531
-0.048116907
0.04092651
0.0008652748
0.047025893
0.017855218
0.06934464
-0.081724666
-0.004082702
0.02604317
0.0012691997
0.04156386
-0.05255728
0.008001452
0.0072747674
-0.0018165818
-0.008007796
-0.009277785
0.0791665
0.08246275
0.02849522
0.0060918527
0.007338567
0.05383061
0.06303879
0.07905382
-0.009223964
0.065189585
0.059947908
-0.04019472
0.084825516
-0.07921795
-0.0057872576
0.021866048
0.03898576
0.024196463
-0.07754199
-0.05091299
-0.060922932
0.021804346
-0.066500396
0.04190419
-0.055501793
0.07833253
-0.00160295
0.01711532
-0.062097333
0.027810186
0.06561427
-0.004177785
-0.03448628
-0.07270813
-0.044389356
-0.00626221
0.04808904
0.012355001
0.03596715
0.039852794
-0.01868475
-0.025469836
0.051984787
-0.086956605
0.086036555
-0.034737464
0.04179704
-0.012581592
0.031804506
0.047764495
-0.080817424
0.07855734
-0.07456185
0.035573687
0.024788648
-0.0052099614
-0.013829139
0.039022427
-0.07825782
0.076583646
-0.070280366
-0.038105346
-0.0018936895
0.045260824
-0.0136642605
-0.045502294
-0.010405909
-0.079194516
0.07642351
-0.023951432
0.00028984388
0.08828967
-0.006003292
-0.031535104
-0.077746436
0.074750416
-0.010591956
0.07067954
-0.06261481
0.0015900636
-0.08320343
0.03854132
-0.039998695
-0.043225333
0.041881334
-0.008684042
-0.0029814574
0.0883539
-0.046097673
-0.0044486104
0.038521186
0.017604474
-0.02673717
0.0027292087
-0.03861785
-0.088326894
0.04650897
0.040463135
0.02751125
-0.06901006
-0.08498526
0.015677743
-0.008434575
-0.07153261
0.02931721
0.06492285
-0.0063727614
0.07420569
-0.017620016
-0.08616317
-0.0014080313
0.039025716
0.026620276
0.069298476
0.024715954
-0.03823989
0.008479261
-0.028493777
0.04302169
-0.002872139
-0.063114315
-0.08353528
0.052685373
-0.026238848
0.03592773
0.08151093
0.0072435783
-0.024581159
0.063947506
0.084907144
-0.06928536
0.038206615
0.06745478
0.082059965
0.015834782
-0.020048475
-0.046652123
-0.021923104
-0.032555256
0.07562055
0.0050865347
-0.07604741
0.06678203
0.011428413
0.05317653
-0.08575247
-0.023151537
0.05354914
0.061011788
0.0836987
0.080671936
-0.076283306
-0.058593526
-0.06485175
0.013152019
-0.05182411
-0.08418404
-0.065048434
0.018893579
-0.058985103
0.054946467
0.031350784
0.006258238
-0.07743571
0.026507175
0.03584438
-0.07569539
0.022989146
-0.02017893
-0.0031448714
0.08458178
-0.022938306
0.0691242
0.038004234
-0.01444775
-0.052196596
0.07361103
-0.028615413
0.00028137237
-0.013669561
0.029629245
-0.034650642
-0.078483425
0.06750431
-0.042802896
-0.086820364
0.031070773
0.067427255
-0.013521868
0.046148427
0.07609569
0.014552579
-0.035391036
0.07098874
-0.02886115
0.03562965
-0.021459205
0.080695316
-0.023727316
-0.06019102
0.060099836
0.018211432
0.040126223
-0.033712883
0.07137649
0.048710134
0.059598953
0.015066908
0.0356615
-0.013101758
-0.04893837
-0.07648289
0.053272616
0.02386107
0.07732102
-0.06529776
-0.01573051
-0.086872324
-0.04760474
0.037811477
-0.022704812
-0.05572791
-0.05315941
0.07321287
-0.078833975
-0.08807716
-0.042986583
-0.059183426
0.039135635
0.013941292
-0.030003604
-0.031004202
0.06766431
-0.0077124834
0.027829448
-0.028602367
-0.082056046
-0.05348695
-0.0064867265
-0.058569208
-0.052105896
0.0364116
0.0222868
-0.04448236
0.05170275
0.018263178
-0.08710636
-0.038390342
-0.08234871
0.057771698
-0.04041947
0.0678475
0.06479161
-0.06802609
-0.05236734
-0.06249011
0.068073414
-0.0697728
0.02272597
-0.038190767
-0.02609776
0.06983462
0.037671484
-0.0031619829
0.060222168
0.07480012
0.021082854
0.06866043
0.05708235
-0.075251535
-0.04686703
-0.06718296
-0.050762527
-0.08833846
0.05778558
0.009484379
0.0040115053
-0.07079869
0.010216228
0.0017290218
-0.0041335626
0.02651789
0.05211367
-0.018820886
0.014646219
-0.01997003
0.07357206
0.05990738
-0.039825138
-0.0042040218
0.011680398
0.049953107
-0.046930134
0.013620112
-0.036955558
-0.015707435
-0.045486394
-0.020448638
-0.074599974
0.021389661
0.0753931
-0.06205
0.04980202
0.013166011
0.0015773774
-0.005174442
-0.07194689
-0.070315376
0.012942444
-0.07054717
-0.069063045
0.025827335
-0.08545225
-0.043572214
-0.017699106
-0.06116934
0.043992467
0.017668854
0.06866708
0.0017380517
-0.07897265
-0.064252846
-0.03484853
0.08749868
0.040347103
-0.06321714
0.0040414613
0.051151395
-0.014466442
0.06512801
-0.024356833
-0.0027230973
0.032503437
-0.04373497
-0.05413616
0.036839433
-0.0297006
0.026073832
0.061886735
-0.032236565
0.055373088
0.04157957
0.010133693
-0.027728148
-0.017173344
-0.08143932
-0.049759433
-0.044636704
0.043225702
-0.014302627
0.0592071
-0.05455314
-0.0026356636
0.054373257
-0.07753195
0.003210336
0.045975003
-0.038232543
0.07156801
0.057012938
0.039185084
-0.06513694
-0.0780887
0.06929216
-0.0028218578
0.04422958
-0.0141409105
-0.0031546494
0.04286639
0.015121805
-0.054114435
0.034556992
-0.008481589
-0.08812893
0.0829472
0.075259805
-0.07431187
-0.025491225
-0.050237577
-0.041735232
-0.08252807
-0.020045714
0.06935336
0.041027144
-0.001244765
0.07300527
-0.037779327
0.0034486658
-0.08025889
-0.00167873
-0.05079419
0.071933806
0.050447438
0.040293492
0.039562266
0.06529371
-0.07869932
-0.04419672
0.019786386
0.032647885
-0.08185393
0.0864048
0.018523498
-0.033496935
-0.028313061
0.08334857
-0.0052681454
-0.059109543
0.06989112
-0.08161464
-0.0025580714
0.06713819
-0.049995907
-0.034043156
-0.057581984
-0.05092065
-0.030935228
-0.04318404
-0.05730656
0.048454333
0.07396408
-0.029979179
-0.03942648
0.045452174
0.061900716
0.0842202
0.06298059
0.046944086
0.0075997934
0.008395989
0.03209455
0.06460004
0.08031636
-0.0056881597
-0.04506304
-0.04443988
-0.035873227
0.046943296
-0.062162627
0.0035790892
-0.07444715
0.036321066
-0.03206486
0.02639674
-0.06175312
0.007469317
-0.048670664
-0.04380032
0.009426649
0.04294489
-0.009715512
0.06515359
-0.08093201
-0.026686193
-0.03943725
-0.052704938
-0.042172883
-0.052695412
0.062431566
0.020851025
-0.024521194
-0.021034269
-0.086521275
0.018751554
0.0731594
0.013952703
-0.0394145
0.02557988
0.0522391
0.07499157
0.035985444
0.047921702
0.083786465
0.044683844
0.059890922
-0.046265658
-0.072031334
-0.027422193
-0.08643792
-0.0018051495
0.023639882
-0.009069991
-0.038475584
0.023304183
0.047001954
-0.019931898
0.064788796
0.023080152
0.0039815074
0.025887584
-0.031311505
-0.019994792
0.001652462
0.053877726
-0.07779807
0.07089789
0.062159184
-0.08629094
-0.075208165
0.035587586
-0.049747504
0.011383853
-0.031413574
0.0064455173
0.016837519
-0.0004445228
-0.08553079
0.007287011
0.041400786
-0.027089538
-0.039284192
-0.057604194
0.08203943
0.07293767
-0.06942429
0.030484647
0.034024898
0.009729937
-0.07071221
0.046156183
0.07688152
-0.050287228
0.05171648
0.028030952
0.05656737
0.06753305
-0.04066921
-0.0063069914
0.043324787
0.061830837
-0.017379073
-0.08001567
-0.021629361
-0.083798915
-0.011292711
-0.04392006
0.00075057213
-0.011305924
0.052643023
0.07084827
0.054615792
0.08826241
-0.045093197
0.07619382
0.08031024
-0.05240693
0.023435913
-0.0012142401
-0.08094204
-0.00746349
-0.03770749
-0.07480279
0.008672125
-0.06084864
0.009487719
0.015484299
0.050406754
-0.0039902106
0.04836197
-0.004336331
0.08756695
0.0052115736
-0.07064543
0.07691392
0.018798864
-0.032156937
0.050886557
-0.0073372815
-0.0499551
0.018306157
-0.057428
-0.017046766
-0.05331061
-0.021104991
0.07704313
0.026779307
-0.008187805
-0.0051399767
-0.0076845293
-0.08136803
0.06505963
0.057519764
-0.06328971
-0.012649165
0.061292663
-0.018878521
0.0003512413
-0.07747219
0.071972065
0.033347398
-0.016652219
-0.040174324
-0.077951536
-0.07241249
-0.06202564
0.0640838
-0.076984756
-0.013699601
0.08138858
0.0618171
-0.049544506
0.08726361
0.04430759
0.036056366
-0.017880894
-0.07415247
0.023794856
-0.04687824
0.045098685
-0.017940523
0.055177767
0.08230073
0.0023758495
-0.080079675
-0.030743027
-0.043925993
0.052554917
-0.07771626
0.042509552
0.014537691
-0.016828246
0.0223999
-0.03281895
0.06520765
0.017784221
0.06479854
0.06202727
-0.07022458
0.0007256212
0.040496744
-0.028181942
-0.06582099
0.06769948
0.057441887
-0.05804052
-0.0010334302
0.010318876
-0.07994498
-0.03539544
-0.028586764
0.06371429
-0.058106374
-0.029034521
-0.08279889
-0.08416145
0.06372083
-0.08728119
0.039436277
-0.06869921
0.0377109
-0.018732652
-0.04196842
-0.08377555
0.011015616
0.053903818
-0.019624004
-0.031967066
0.0782144
0.01390218
-0.07100545
0.042304065
-0.05556062
-0.047346253
0.0023133666
0.029430438
-0.01078502
0.014918541
0.08565527
-0.05358823
0.023701986
-0.0045360336
0.050819416
0.04241116
0.007813383
0.08452828
0.046010345
0.086855434
0.061008204
0.07762994
-0.03517032
0.07729407
-0.061176475
0.016555777
0.042503104
0.061413225
-0.03024069
-0.011283913
0.027540848
-0.02983136
0.025935864
0.02279233
0.046266936
0.007892988
-0.050458375
-0.008393598
-0.08570045
0.018093063
-0.02184157
0.0670258
0.016667467
-0.054983597
-0.0393187
0.020225609
0.0029592356
0.034109052
-0.0634239
-0.044683117
0.026139496
-0.037543915
-0.0789886
0.0049418863
0.03001904
-0.02743253
-0.017317845
-0.029812383
0.082689576
-0.06703041
-0.07740437
0.046448786
0.07504124
-0.08282258
0.002875416
-0.00081310753
-0.02425668
-0.009984146
0.0028351236
0.054552615
0.037135683
0.06898911
-0.060071364
0.04452843
0.06833135
0.05867195
-0.05797927
0.04562701
-0.08168496
0.07987037
-0.017995082
0.020902066
0.078483656
-0.062656485
-0.057047337
-0.06696266
0.024120472
-0.0016342335
0.065090306
-0.057570454
-0.027600547
-0.06693325
-0.07524338
-0.022673445
-0.08109184
0.06847018
0.03087284
0.010192752
0.08094848
0.0035733467
-0.08193832
0.067264006
-0.05384229
-0.018772407
0.034714147
0.04800155
0.05677052
0.07658191
0.020036707
-0.059802458
0.067737326
0.060095314
0.009817982
0.00871385
-0.03312819
0.005922791
-0.00268997
0.000916283
0.062228788
0.070146
-0.021620627
-0.041106105
0.056893714
0.041346796
-0.05456134
-0.06715655
-0.052124545
-0.036358178
-0.040079482
-0.083198644
0.04829248
0.07225796
-0.07311433
0.019121604
0.08687397
0.08423246
0.07318509
0.045113903
-0.051722106
-0.015391418
0.026039472
0.03573017
-0.026366288
-0.0053980732
-0.066538565
-0.08079829
-0.070516996
-0.08611529
0.035637423
0.033723935
0.0770817
0.050862174
-0.0068422984
0.05192327
0.041679546
-0.0320527
0.079045504
0.012750475
-0.04180507
-0.021841107
-0.05677994
0.06849557
0.055297192
-0.086632796
-0.010782396
-0.038586207
0.04503576
0.070357695
0.030607546
0.020341912
-0.06561148
-0.0034182041
-0.07608737
-0.014250155
-0.012590739
-0.07527082
0.040259544
0.031205917
0.082595706
0.08281311
-0.07833314
-0.05144892
0.018020159
0.049859382
0.01852844
0.07620337
-0.06613573
-0.012268632
-0.06683447
-0.06960543
0.0056406814
-0.04290684
0.07826854
0.06418624
0.031948354
-0.02189925
-0.05668353
0.032173544
0.037171498
-0.032864753
-0.024427596
0.076868124
0.04114864
0.069794625
-0.007904715
0.039648604
0.080186665
-0.02951392
-0.06402712
-0.021276793
0.04307605
0.03147674
-0.018072873
0.0701034
0.047279682
0.06805193
0.031133497
-0.019136492
-0.054886386
-0.059770446
0.05370504
0.034131475
0.062077746
-0.07139856
-0.053750675
0.06752054
0.042455554
0.0065974463
-0.07235048
-0.0052661537
-0.052953944
0.059163816
-0.08622
-0.06855593
0.023721173
-0.08536335
0.00092639826
-0.0005673914
-0.0017997968
-0.04402134
-0.08026477
-0.049774162
-0.05887564
-0.010679252
0.05408134
-0.051466517
-0.06794663
0.035967268
0.04973327
-0.016158564
-0.019072143
0.046829384
0.03168203
-0.047709927
0.08435235
0.029283494
0.047169574
-0.06766955
-0.0030303267
-0.049843315
-0.022787357
-0.049338903
0.011634374
0.06756179
0.073119596
-5.262034e-05
-0.0128602255
0.03293361
-0.0017512542
0.06327287
0.046808142
0.0101564
0.051224206
-0.051397774
0.05481894
0.08041192
0.06987451
-0.014822499
-0.026652128
0.07676738
0.03388928
0.039323315
0.030598106
-0.00065715367
-0.008973391
0.05144207
0.022186933
-0.03016825
-0.054251898
0.045967598
-0.007913029
-0.019213451
0.01735565
-0.013445908
-0.08685109
-0.025704868
0.031019531
-0.07319661
-0.023425419
0.07623782
0.02068756
-0.055500288
-0.081073985
-0.016498288
-0.046587482
0.05408608
0.030475847
0.002935412
0.02586118
0.026812498
-0.0350845
-0.025373394
-0.0013631239
0.05323149
-0.063792296
-0.0076039974
-0.08654181
0.06397845
0.08445927
-0.06485711
0.0012166215
-0.048321202
-0.04786411
0.058545142
-0.010651783
-0.068498224
0.010232643
-0.048084676
0.08198339
0.069558054
0.04872808
-0.05621615
0.021109944
0.030436177
-0.0823886
0.013634506
-0.0676909
-0.047435034
0.08042192
0.016696727
0.004945964
-0.017326685
-0.068366654
0.0032146666
0.05917745
0.016568959
0.061495602
-0.06837123
-0.06473762
0.0025379146
0.030524949
0.011516289
0.012816414
-0.007336618
0.03535382
0.081850275
0.015202484
0.045228656
0.04559131
-0.01439239
0.06306318
-0.07679242
-0.079063654
-0.04872928
-0.040830456
0.01337565
-0.017072877
0.0381241
-0.06741578
0.039865986
-0.023586545
-0.02962206
-0.06629441
0.08058258
0.075804375
0.0046762666
0.01968046
0.037015818
0.068853475
0.03446254
-0.057806034
0.017582316
0.008943318
0.019498555
-0.016049404
-0.03724578
-0.019227782
-0.03740679
0.061349403
-0.0014977515
-0.046516854
0.0448041
0.0736462
-0.07513507
0.06988693
0.011956924
-0.064243175
0.05881012
-0.066996664
0.07093443
0.08623675
0.055102326
-0.0805979
-0.0047364943
0.047415562
-0.05264153
0.020056853
0.0657286
0.0745343
0.054204743
-0.08306819
-0.045260604
0.03736852
-0.061298564
0.08574224
0.019266788
0.05309504
-0.0540745
0.076963335
0.012746314
0.08526752
0.05053442
-0.062059075
-0.050196264
0.075572856
0.037790116
-0.04421864
0.050049435
-0.040713612
-0.062289573
0.045267865
0.029290795
0.033344775
-0.04316404
0.07473144
-0.02358094
-0.036514554
-0.07458591
0.07010636
0.04156593
-0.024298975
-0.017313957
0.005810565
-0.007895359
-0.049361523
-0.033854138
-0.020158479
0.065705724
-0.051872484
-0.009636655
-0.019523263
-0.008069541
0.055317484
0.012184822
-0.0516739
0.0460513
0.0063230284
-0.018097425
0.024301872
0.053119
0.05752581
0.0076656686
0.075580634
-0.036878575
-0.0044497903
0.057642914
-0.013555217
-0.06578975
-0.07509004
-0.07280931
-0.08631162
0.057371363
0.06257577
0.0025063888
0.03624769
-0.02721127
-0.023616575
-0.018904863
-0.026911827
0.050043724
0.042754214
-0.04027539
0.061752424
-0.054905258
0.06454674
-0.035861574
-0.06530012
-0.06126178
-0.08514406
-0.030757463
0.055460773
0.0016058581
0.086635016
-0.0072615016
-0.049739886
-0.012658195
0.07951289
0.05758393
-0.08542221
-0.044709597
0.019992769
0.0054666675
-0.07070827
-0.0022074834
-0.0009932221
0.017450038
0.021311922
-0.07517315
-0.020746607
0.009709169
-0.04274781
-0.021701338
0.07599567
0.004834591
0.06305131
0.04796212
-0.037636336
0.047872193
-0.014989748
-0.011113607
0.013884173
-0.077946685
-0.073313475
-0.064117365
0.07008219
-0.009086344
0.06783999
-0.021108668
-0.008794351
0.072699465
-0.056351736
0.059343245
0.012857844
0.03661793
0.07395818
0.003976081
0.07960923
0.030773005
-0.0025514965
0.027119325
-0.0017525502
-0.07207939
0.070216805
-0.009775867
0.007878215
-0.00017560484
0.031085134
-0.0075586787
-0.03789244
-0.08023419
-0.019958746
-0.08507432
-0.021641089
-0.028046146
0.08044864
-0.050632007
-0.05894247
0.0019519049
-0.056709617
-0.034884945
0.0016622928
0.0551189
0.05758328
-0.06838133
-0.06196894
-0.06423054
0.00035054586
0.084325306
-0.055931006
0.011753713
-0.0012969954
-0.07193977
0.0072424407
0.058614
0.00510117
0.057990365
-0.0068583563
0.02183683
0.040763218
0.060064916
0.062498022
0.081546724
0.051303282
0.050561476
-0.06898151
-0.015349925
0.03046467
-0.08735651
0.06631248
-0.08385334
-0.041069575
-0.025379347
-0.0041837804
-0.008453594
0.029348515
-0.008252806
0.034118634
-0.03526355
-0.032243405
-0.05476495
0.045846466
-0.035491113
0.08081501
-0.04390066
-0.056266177
-0.03602802
0.071879886
-0.008877517
-0.056827616
-0.057044495
0.057547063
-0.029953238
0.03288336
-0.08086693
-0.06423895
-0.07464589
-0.06040776
0.0165001
0.06939625
-0.050973155
0.08421919
0.0838271
0.039265856
-0.06904722
-0.06795434
0.003973626
0.07889051
-0.008956911
-0.08052926
0.054983735
0.0068371883
0.066636644
-0.012025423
0.036133397
0.03610004
-0.06634785
-0.023072828
0.0629073
0.028020257
-0.017733613
-0.0202317
-0.017115109
0.022163404
-0.017303187
-0.011207195
0.0037022738
-0.08016166
0.05497322
-0.016350891
-0.051461384
0.0069107553
-0.05417536
0.015933974
-0.0856601
-0.08032619
-0.06196418
-0.08272547
0.062169615
0.0079099415
0.02789036
0.06281718
0.047679264
0.018684635
0.058453474
-0.06826475
-0.08290364
0.016972946
0.0057615163
0.05387957
0.081685014
0.04193411
-0.037411187
-0.027647037
0.04971544
-0.03914837
-0.06924767
-0.077081874
-0.061852332
0.010792059
0.05190634
0.032929566
-0.05087408
0.036872108
0.06992183
0.045485657
-0.019711606
-0.08594978
0.08085299
-0.06136228
-0.087148
0.0061522177
-0.008610453
0.045166552
-0.0049447524
0.029597718
-0.05207949
0.07563247
-0.06058423
0.08708541
0.03303959
-0.07370022
0.02955181
0.057500016
0.04009298
0.028944684
-0.014234192
0.0017109829
-0.03279287
-0.056498334
-0.010318286
-0.054703817
0.06599673
-0.077240095
0.0158748
0.07531241
0.029957822
-0.012245303
0.07761625
0.07757196
0.021000415
0.03630005
-0.021614695
0.03902713
0.029054962
0.054258842
-0.076473914
0.041289285
0.044325367
0.008026414
-0.07220116
-0.055065036
0.034036182
-0.022843286
0.00832043
0.04761672
0.021249313
0.041772857
0.035848856
0.06518989
0.058742497
-0.06619527
-0.03983128
-0.03875879
0.049270846
0.036281947
-0.015670672
-0.062260028
0.029900175
0.066539824
-0.0021537778
-0.025367703
0.06227356
-0.0025023005
-0.011410722
0.020657867
0.00878139
0.08275209
0.03192701
0.030705633
0.024457436
-0.04014683
-0.031595353
0.037409227
-0.08740845
-0.07784259
0.0145141
-0.03006933
-0.067940444
-0.059683204
-0.015360514
0.014611143
-0.0005965676
0.03947107
-0.022829378
-0.027361892
0.0018606358
-0.053618323
-0.024534132
-0.070874274
0.0020765436
-0.00784394
0.0024565079
0.032060497
-0.04982538
0.026899572
-0.07031366
0.08803488
0.06214249
-0.0069892853
-0.08502943
-0.023722047
0.052121997
-0.015369175
-0.052157715
0.013202542
0.0030734641
0.07578687
-0.043366123
-0.0818737
0.026123954
0.052574493
0.07561392
0.07444653
0.04956459
0.017554848
0.018885707
0.04771373
-0.05161148
0.030566327
0.084219046
0.0008465194
0.06263573
0.08214937
0.07323018
-0.016417956
0.038785364
-0.06263901
-0.06871314
0.06043291
0.0775697
-0.057749853
-0.026093535
0.014105349
-0.029889354
-0.003919056
-0.02774841
0.07679987
0.059965577
-0.08550956
0.026959958
0.083141
0.022863084
-0.081016086
0.039961398
0.069045775
0.0218934
-0.013054838
-0.053297862
-0.017045565
-0.020278303
-0.019492539
0.052393503
-0.005285552
-0.0075003584
-0.05074472
0.038388383
-0.00053959555
-0.07538801
0.020556366
0.025574476
0.032280535
-0.041584175
-0.016281538
0.06578142
-0.07442652
-0.025932029
0.060356595
0.0174768
-0.039581705
0.08772813
-0.023740591
-0.035887472
-0.014078195
0.021876521
0.06468857
-0.041334044
-0.008476784
-0.08746104
-0.002193438
0.022047332
-0.073457055
0.04877696
-0.017138341
0.06601835
-0.030528164
-0.056775838
-0.015082366
-0.029566403
-0.030788757
0.067204736
-0.033833984
-0.086533934
-0.044487946
0.051418576
-0.06819994
-0.031741053
-0.008260087
-0.036091167
-0.01663965
0.04455371
-0.070532136
0.08415726
0.07282116
-0.040052656
-0.08080236
0.04682207
0.0686353
0.058464125
0.08823341
0.07198241
0.024392245
0.0642535
-0.08290986
0.013904424
0.015303162
-0.08563724
-0.0076474613
0.07178008
-0.025154872
0.0061312914
-0.03705475
0.042729884
-0.027739896
0.06612848
0.019158028
0.041706476
-0.080665834
0.05791829
-0.022503467
-0.016273288
0.05516952
0.07739438
0.074704245
0.08301483
-0.07011681
0.059916582
-0.023216285
0.002662901
-0.00029089753
-0.035155643
-0.07247798
-0.07925932
0.032787528
0.028943283
0.08362734
-0.044316735
0.005072942
0.07702896
0.07303125
0.027279137
-0.0072093024
0.07346162
-0.080991976
-0.058802914
-0.06298897
-0.02096438
-0.031637542
0.046586964
0.034243852
-0.07031872
0.08485881
0.07054655
0.07152317
-0.076246575
-0.0068996707
-0.063321486
0.029379725
0.011154521
0.020490216
-0.02467012
-0.02411711
-0.0465929
0.01710868
0.010052813
-0.04166963
0.043217093
0.030492643
-0.045888424
-0.05752287
-0.03731665
-0.063167006
0.0076337317
0.082906105
0.07642997
-0.01886946
-0.0010394888
-0.08058829
-0.05352854
0.021582
-0.044307128
-0.07191524
-0.053596154
0.019797776
-0.03989576
-0.035983376
0.042434406
-0.083457746
0.05783953
0.079993546
0.056276843
0.02559145
0.039533965
-0.071912594
-0.08588542
0.04649966
0.022001034
-0.04289272
0.06532893
-0.0718766
0.08263918
0.046883214
-0.013765835
0.055697914
0.039924562
-0.04996965
0.08192874
-0.028437858
0.021153366
-0.0036783346
-0.08736202
0.067941554
0.06348658
0.030199312
-0.06529801
-0.07739483
0.034536645
-0.075288
-0.051070526
0.014463333
0.0700583
0.022793606
-0.077220485
0.0010230199
-0.035348993
-0.08228252
-0.07713587
0.024242751
0.048754
0.03809152
-0.009902834
-0.051269103
-0.0767248
0.072266765
-0.034712575
0.012713649
0.05587552
0.023388667
-0.0076251654
-0.029518146
-0.049596164
-0.021318117
-0.021261683
-0.05239321
-0.011404727
-0.028056862
-0.027796447
-0.0613982
-0.08831219
0.07017231
-0.0007707394
0.00039216588
0.0023993885
0.0789013
0.06738195
0.06472636
0.03577772
-0.051679622
-0.055942405
-0.040636275
-0.07034991
0.04312826
0.04812697
-0.058901567
-0.053081267
-0.0024144244
0.08632424
0.029844573
-0.029584968
0.07747214
0.043521687
-0.055079345
-0.08594069
-0.029104685
0.027110402
0.05277954
-0.05748476
0.024093414
-0.008497553
0.054869432
-0.017186737
-0.011741774
0.005733815
-0.0515223
0.012779356
-0.058264982
0.009820237
-0.052274503
0.058680687
0.007690493
0.08341732
0.009910589
-0.06810853
0.028477572
0.049726285
-0.0807886
0.02850506
0.029207902
-0.075966135
0.06021247
0.08511749
0.029639233
-0.018885517
0.07168876
0.05934844
-0.085916646
-0.032366693
0.015717803
0.018776167
0.0016192714
0.06941765
-0.074722365
-0.0797091
0.0321666
-0.0033442047
0.045642402
-0.050964117
0.041209932
-0.009088926
-0.08361183
0.07780695
0.057744343
0.07382232
-0.0037551683
0.06491367
-0.081647255
0.08120587
-0.083323464
-0.012900487
0.05474078
0.034717485
-0.0373135
0.068435356
-0.020709412
-0.03668626
0.0019379121
-0.08776555
0.08449473
-0.05566332
-0.07638229
0.08738704
-0.065444626
-0.06560454
-0.08479481
0.06428632
0.06650851
-0.029399524
0.010548176
-0.018062422
0.0872412
0.07684965
0.08830041
-0.0012557126
-0.054691784
-0.08592047
0.026554411
-0.048604578
0.049302623
0.016798606
-0.058686998
0.020616952
-0.074348174
0.0027911856
0.07504005
-0.080354504
-0.083989024
0.019577073
-0.05881814
-0.07986903
0.057062153
0.061139997
0.059560377
-0.039754517
-0.0069016833
0.043391846
-0.063841425
0.020061625
-0.0680146
0.0029742504
0.01169104
-0.012295774
-0.03016609
0.054911926
-0.05977997
0.027962146
0.073444635
0.052837756
-0.015531472
0.07760053
0.087413974
-0.002518622
0.052323733
0.07259731
-0.053595282
0.00951483
0.030683864
-0.017751241
0.007737034
-0.012448093
-0.0350494
-0.064077824
0.08357618
0.082934566
0.06631913
0.018389218
0.05162304
-0.0448755
0.08713215
0.07298714
0.016034706
0.028400548
0.03201933
-0.06638095
-0.03441149
0.08107542
-0.06497786
0.027338037
-0.063809276
0.0018603302
-0.02113167
-0.066781424
0.086156026
0.0643075
0.07537306
-0.08558935
0.056609232
0.05043708
0.06944311
-0.015062609
0.07389911
-0.0067852736
0.03488465
-0.0763897
-0.048910953
0.050962273
-0.027217118
0.087606385
0.080580875
0.05237558
-0.056494687
0.06073505
0.059733074
0.083299085
0.08739486
-0.013947688
0.07198707
0.024881033
0.037219595
-0.07223634
-0.06443169
0.07795413
-0.060384832
0.083488435
-0.029590575
-0.049154647
-0.022818608
-0.0022431712
-0.05819482
0.036566954
0.069281116
0.05029
-0.041241765
0.043255363
-0.020485833
-0.07268295
0.040994804
-0.054828435
-0.0046909335
-0.084724605
-0.0827985
-0.036328632
-0.0065898704
0.06296869
-0.056736927
-0.066479795
0.059697468
0.010882516
-0.05337794
-0.070094936
0.02459394
-0.053459927
-0.039083995
0.07206187
-0.053247485
0.056430247
-0.08533224
0.079912655
0.06741713
-0.062055998
-0.039863247
-0.04362991
-0.08598239
-0.023766385
-0.026712114
0.017888155
-0.02469996
-0.06801314
0.030980082
0.048080504
0.08824167
-0.0685935
-0.004469431
-0.044886444
0.059930816
-0.051848095
0.001457027
0.023569677
-0.06414568
-0.08411208
-0.068045594
0.011595578
0.028664134
-0.007878594
0.025715467
0.0377134
-0.04350229
0.07999438
0.027781505
0.07361103
0.023824265
-0.03812744
0.025978832
0.0441537
0.0014048598
0.00088349276
0.040763102
-0.081615485
0.07484858
0.061764117
0.07126237
-0.036513668
0.049426746
-0.0344354
-0.008393587
-0.05109574
0.04929449
0.053481735
-0.030943425
0.031785056
-0.06898633
0.07839084
0.057761442
0.04081977
0.00074824353
-0.022350969
0.08110462
0.0743303
-0.04404571
0.06175417
-0.066205435
0.02759137
-0.073563814
0.009602791
0.029389093
-0.050961733
0.048072316
-0.06696393
-0.06823753
0.03597088
-0.03775503
-0.086926915
0.07239421
0.031668562
0.050924044
0.035852257
-0.087645434
0.0018245371
0.06503879
-0.008282962
0.024224006
0.028502323
0.0055499286
0.06075353
0.061261896
0.030399151
-0.071635194
0.020854734
0.0281715
0.051992014
-0.025228819
0.036612745
0.07714869
-0.07028324
0.07693072
0.015625132
-0.016116565
0.05126768
-0.059355564
-0.037857383
-0.048303638
0.0196235
-0.044782206
0.015870374
0.07975834
-0.08490567
0.012190227
-0.02333497
-0.07272504
0.022955513
-0.00601307
0.013704575
-0.047413297
0.04947337
0.053043336
0.051210284
-0.03525722
-0.069809005
0.046995852
0.04113194
-0.08734699
0.022918444
0.06469698
-0.0810807
-0.055145893
0.041302036
-0.06580819
-0.016982682
0.081550166
0.03585328
0.046704408
-0.0108108455
0.06545241
-0.06837067
-0.030314289
-0.029114326
-0.0452395
0.049944814
0.0452666
0.0064644623
0.051083885
-0.048510622
0.009759756
0.08113234
0.016018994
0.009012851
-0.04365324
0.06514363
0.040172014
0.038077824
-0.042595427
-0.08783403
-0.052474175
-0.0034972401
0.06994192
0.04543805
-0.019152677
0.06398926
-0.083956406
-0.0088580875
0.036603536
-0.08085291
-0.02042767
-0.024470638
-0.083747886
0.067715324
0.0055871233
0.057288725
0.0397082
0.03188648
0.0857717
-0.046003904
0.015006912
0.021715678
-0.051979233
-0.023744734
0.08791655
-0.016714323
0.029899817
0.08323161
0.07575763
-0.060548276
0.0002314178
-0.013678928
0.027546043
-0.00021764632
0.06803833
0.03892394
0.027625868
0.0120607
-0.020949207
0.06377784
-0.034688424
-0.026237814
-0.03944904
-0.012863523
-0.03823423
-0.08567963
-0.0027260475
0.060991313
0.043754864
0.02491768
-0.022951813
-0.03499828
-0.06145417
0.015373843
0.02646978
-0.06631732
-0.03379972
0.07543448
0.041390777
0.0039646486
-0.04540185
-0.06432883
-0.055936474
-0.084305
0.081939586
-0.028608827
0.059786946
-0.016686844
-0.074039266
0.05831003
-0.028532658
-0.034751877
-0.034458272
-0.030503266
0.011550048
0.042176876
0.016436996
0.014023847
-0.00028143558
-0.03374123
-0.009408946
-0.016835822
-0.06291441
0.07346995
-0.06815605
-0.00035794266
-0.012114543
-0.0033239322
-0.06680736
-0.086262435
0.07814548
0.078627855
0.039079938
0.059929814
-0.060665183
-0.024164895
-0.04833038
0.008098528
-0.03857135
0.029064087
-0.072404966
-0.028609123
0.084542274
-0.035645254
0.0053588455
-0.076151125
0.054607954
0.025018495
-0.017374089
0.0562008
0.026112564
0.059337776
-0.064028
-0.03611377
-0.08482545
-0.032812152
0.016088527
0.07451679
0.059852656
0.015797049
-0.06618916
-0.019950505
0.02051835
-0.07727212
0.032394048
0.017798908
-0.05922988
-0.05709235
-0.0030189997
0.050190058
-0.017761387
0.059490297
0.064208455
0.07438797
-0.048310425
-0.054615527
-0.035960186
-0.05276309
0.0137926405
-0.086071685
0.046759885
-0.038039923
0.017157085
-0.0102748955
0.041151803
-0.05082719
0.023916988
-0.011820073
-0.006012227
0.020418726
0.050446827
-0.060474806
-0.027147606
0.045244303
0.023575356
0.037495986
-0.0136072785
0.052669905
-0.07300011
0.08813419
0.028991004
-0.018064203
0.04809852
-0.043303113
-0.031210678
0.006467455
0.08333288
0.038686097
0.029565297
0.014170339
0.045717612
0.019161232
0.036410082
0.08026871
-0.013698874
-0.03643599
0.05005957
-0.012584311
-0.0061408062
-0.06114497
-0.0301712
0.035488952
0.062136192
-0.085323185
-0.08697942
0.058205325
0.0647034
-0.08021337
0.068125255
0.040069684
-0.0043736207
-0.044758983
-0.035288006
0.0830481
0.07711219
0.046358973
-0.073861435
-0.008856581
0.04162532
0.006198147
0.07460588
0.07433906
0.03661996
0.058969826
0.04502275
-0.082726695
0.07466855
0.08715293
0.04408183
0.014678293
-0.06676262
0.06859911
0.041442785
0.042429727
-0.025037546
-0.066964306
-0.04058417
0.07717335
-0.025020087
0.08115714
-0.049083333
-0.071781285
-0.08767291
-0.03388831
-0.08129354
-0.0701462
0.0448231
0.07372509
0.0044004577
-0.06244006
0.07570933
-0.078889206
-0.07650985
0.055271175
-0.06363744
0.079115905
0.017948804
-0.032934148
-0.01888221
-0.036085013
0.041027743
-0.053639807
0.087338835
0.0039674724
0.058742896
0.083188586
-0.0139171
0.047483332
0.00085989054
0.0052192234
-0.041948304
-0.009048886
-0.008419886
0.0142707545
-0.022898762
0.06228317
0.08413987
-0.027961262
0.08672714
0.06327457
-0.046988215
0.009651617
0.04546524
-0.020452231
0.0134528205
-0.0851153
-0.040908974
0.062889874
-0.052804068
0.070353776
0.08723447
0.051667716
-0.020247461
0.06332558
0.08029488
-0.05153103
-0.07802
-0.058494914
-0.060676057
0.07695186
0.010742968
0.06848596
-0.08238796
-0.029465735
-0.086783275
0.008618114
0.06883072
0.009808952
-0.027587093
-0.0035078926
0.049181018
0.045651674
0.040032573
-0.06662844
0.047709726
-0.041751172
-0.07301243
0.07576207
0.07221009
0.041557983
-0.0059162164
0.08701633
0.064345255
-0.082030505
-0.060497425
0.058604643
-0.026587611
-0.017044364
0.03522366
0.080267616
0.0075923014
0.02335478
0.07316589
0.070667356
-0.024303116
0.086469054
-0.07174401
-0.01448899
0.01389846
0.05292346
0.03697264
-0.075709075
-0.021846587
-0.0344645
0.04501887
-0.07295158
-0.051937096
0.08261668
-0.06119162
0.01407357
0.06713765
0.052480508
-0.060154658
0.022905812
0.039836757
-0.0034434923
0.0148405265
-0.00088494684
-0.03490645
-0.05796048
0.036886733
0.08544137
0.024502965
-0.016783128
0.06645116
-0.06398059
-0.057057023
-0.005460693
-0.06781645
-0.07839267
0.060771257
-0.04132416
0.042954434
-0.012233534
0.010923946
0.027362071
-0.022376647
-0.05346179
-0.03830431
0.013776308
-0.034589674
0.006592178
-0.022700207
0.08654662
-0.08444168
0.08372553
0.072658285
0.06283803
-0.051974893
0.074250005
-0.07875136
-0.009922875
-0.06751553
0.036684692
-0.027715662
0.00049293897
-0.048491295
0.0847596
-0.06497828
0.0073477337
0.03413095
0.029070515
0.021505946
-0.06668901
0.048599087
0.043901715
-0.0074848165
7.594862e-05
-0.010636221
-0.06176278
0.07191405
-0.01532824
-0.060797565
-0.07604945
0.029474609
-0.028731886
-0.08786306
-0.07457688
0.06846054
0.061503198
0.076975584
-0.010783239
0.045622803
-0.071600094
0.07927978
0.032721043
0.0035923654
-0.0004257569
-0.088028274
-0.050719347
-0.0010298372
0.031604804
0.030849364
0.0027831881
0.042341113
0.034543008
-0.08167071
0.037568815
-0.030439222
0.07537834
-0.0666688
0.022893809
-0.029155018
-0.044961624
0.0035668982
-0.062724285
-0.03290734
-0.06861083
-0.08287978
0.07134253
0.06042448
0.049056634
0.08720457
0.0813374
-0.066267624
-0.010841276
-0.08797547
0.08830567
-0.060232766
0.013468721
-0.017359802
-0.07768126
-0.07708759
-0.006080557
0.04103022
-0.08641144
-0.014027124
-0.018918097
0.021035397
0.083027564
-0.06616975
0.011883515
0.05239986
-0.047505252
-0.061951052
0.022216372
0.041025627
0.0007849218
0.077467814
-0.015000285
0.08535048
-0.03004359
-0.08675683
0.013522521
0.08231647
0.028202973
-0.027834442
0.08530922
-0.06742384
-0.018193351
-0.0026308694
-0.028989466
0.01269776
-0.043206725
0.0676394
0.016997486
-0.053373314
0.08720481
-0.039280273
0.04145253
0.04021939
0.06226931
-0.0049016993
0.010778456
0.07370218
-0.01997338
0.039912105
0.040533982
0.059976492
-0.052564863
0.044663236
-0.02336519
-0.07025199
0.04082743
-0.06558891
-0.08235193
-0.06324763
0.063649386
0.040252853
0.053871512
-0.069267094
0.033678427
0.07975883
0.088067986
-0.07114997
0.0013407861
0.026540313
0.034908276
0.06865486
0.04643375
0.079257324
0.041461065
0.044505395
0.062529735
-0.0081987
0.07872147
-0.058031373
0.043580875
0.011323762
0.08238752
0.073491715
0.02873393
-0.059091967
-0.036152944
0.042062912
0.039197505
-0.047209747
-0.017282674
0.08217664
0.07427106
-0.085900314
-0.037886612
0.023101825
0.047744337
0.07984481
0.015489862
-0.063675836
-0.045796406
-0.016525548
-0.060288105
-0.048034403
0.015934112
0.03197967
0.032705784
0.04130862
0.050942283
-0.070592396
0.009325042
0.06563328
0.083570786
0.08154306
-0.027839806
-0.061533038
0.081684604
-0.074515544
-0.030387182
0.00010139478
-0.044984583
-0.075488895
0.06928369
0.079354525
0.0031546073
-0.081595905
0.0018906866
0.048757643
0.07115991
-0.0041594724
0.020320786
0.006561021
-0.0013318615
0.070913866
-0.06927448
0.08701005
-0.031712152
-0.07374416
0.05915837
-0.06612613
0.055956252
0.008951769
-0.04580139
0.07573504
0.051781144
-0.008103416
0.00023337764
-0.076582775
-0.04687511
0.014407689
-0.044264264
0.033407457
0.08443866
-0.064255655
0.043684512
-0.076155216
0.04974524
0.041983232
-0.059946485
0.07914127
0.0053574755
0.06057207
-0.081839666
0.021603167
0.036885697
-0.06728504
0.081014484
-0.063960224
0.0397496
0.028945643
0.06483362
-0.075145416
-0.03472115
0.07736083
-0.04307708
-0.008537002
0.021046586
0.0015213431
0.08786081
-0.009774623
-0.05822156
0.010547723
-0.07439133
-0.05853802
0.05613154
0.024032101
-0.010059715
-0.044865087
-0.060825013
0.054287795
-0.047763873
-0.021124432
-0.064494826
-0.017670603
-0.069391295
0.032899514
-0.03408577
0.042886145
0.043746375
0.03379684
-0.020885564
-0.02463379
0.0850931
0.05873231
-3.2421463e-05
-0.044208545
-0.03615384
0.04798348
-0.028326886
-0.023160493
0.031675093
0.011256707
-0.071865804
0.067827515
0.07450956
-0.049133975
0.04163722
-0.020126816
0.06678747
0.0006776054
-0.027414734
-0.060649008
-0.00069834164
-0.015503517
-0.06299271
0.049899604
-0.068273276
0.08423369
0.06606588
-0.0011562567
0.029783145
-0.06953621
-0.063599005
0.017628994
-0.03421168
0.01650068
0.011596411
-0.040915515
-0.05505294
0.008789272
-0.086719945
-0.06452561
-0.0426018
0.024265174
-0.0015226075
0.0024654325
0.036144663
-0.034717508
0.0031696747
-0.021790784
-0.049985643
-0.037991874
-0.07262142
0.07806344
0.023154436
0.08778778
-0.075926095
-0.08544106
-0.00015181294
-0.026372569
-0.04197511
-0.043789417
0.07993442
0.020068105
-0.00567069
0.061379433
-0.08686949
0.040865615
0.02105491
0.03847634
-0.013790755
0.0035970437
-0.0012719602
-0.021797137
0.043616086
-0.037076194
-0.03511082
0.044915315
-0.07362591
0.07815472
-0.061496835
-0.0043241084
0.0074008177
0.053279325
0.04507229
-0.070127055
0.051935315
0.04235692
-0.07541162
0.08456526
0.07868458
-0.040501826
-0.00929553
-0.041660283
-0.06404947
-0.041683782
0.02885191
0.07792435
0.0483851
-0.031215895
-0.06098981
-0.007969622
0.033116717
0.032997694
-0.044655595
-0.081345566
-0.07630075
-0.053881016
0.007123755
0.05890454
-0.045417707
0.043305296
0.051535387
0.055473153
-0.065878965
-0.00083968113
-0.03323378
0.042814612
-0.053179923
-2.4582148e-05
-0.086742155
0.032821964
0.015302678
-0.045270573
-0.05310879
0.038929295
-0.04844619
-0.062282674
-0.022469075
-0.037569467
-0.035137586
-0.054309964
0.085781395
0.010051612
-0.047607046
-0.017950606
-0.08239971
-0.026318895
-0.014402663
0.0797718
0.022571344
0.021295654
0.04956913
0.030511864
-0.04928118
-0.058655936
0.05587059
-0.048247434
0.0015142309
0.033679366
-0.06418929
-0.078454725
0.06868699
-0.07520617
-0.0881854
-0.0402206
0.018490676
-0.08075689
0.06478083
0.02011569
-0.031227104
0.051305547
-0.08432141
0.016018467
-0.07397924
0.042402554
-0.041382335
-0.034300096
-0.0150909005
-0.025192626
0.034795742
-0.056082483
0.023148535
0.044723727
0.0879568
0.030175352
-0.044498
-0.021358252
-0.07106976
-0.056806628
0.046658352
-0.05729275
0.023370743
-0.06326158
0.07371095
0.023524474
0.058381613
-0.035675317
-0.064915605
0.0010346208
-0.01897448
0.033744093
0.0074837627
0.047330026
-0.043782808
0.052955195
-0.043245204
-0.08724632
-0.04365699
-0.026303321
0.07059229
-0.03218937
-0.008132498
0.0027393766
0.051823817
0.04153688
-0.07321449
-0.008380774
-0.08553752
-0.03960886
-0.08068423
0.002443358
0.06458048
-0.0604645
-0.054647457
-0.022434989
0.051032826
0.057919253
-0.039720085
-0.06161689
-0.08238704
0.020726271
-0.037431587
0.002071939
-0.047694027
0.015440519
-0.0068680607
0.055869125
-0.06433179
0.041339662
-0.068135925
0.06099159
0.016907576
-0.080302924
0.0030426967
-0.016420485
-0.05509257
-0.027967373
-0.08166618
-0.03643572
0.08391709
-0.041820537
-0.0511491
0.08122985
-0.074226014
0.009237725
0.045181546
-0.07352151
0.014250587
-0.06521999
-0.039121706
-0.038249962
-0.07893695
-0.052662622
0.0593751
-0.012050121
-0.035347182
-0.035478227
-0.02376372
0.023449926
0.025231706
-0.021220643
0.018021634
0.028574962
-0.04193116
-0.01842006
-0.07153392
-0.0564164
-0.022095969
0.050877042
-0.079355024
-0.085053205
-0.01122046
-0.0122926235
0.009442253
-0.04506929
-0.050327465
-0.057209782
-0.042562805
0.053802874
0.069501214
-0.04137908
-0.081580564
0.04356686
-0.041804288
0.05553057
0.082100965
0.014010624
0.054991193
-0.05354142
-0.042700678
-0.014317242
0.04190543
-0.017232867
-0.0060909255
-0.06929648
0.084415756
0.086492
-0.050408706
-0.059490446
-0.03297915
-0.02109101
0.059869725
-0.001012146
0.043531258
0.038294002
-0.0578538
-0.062647805
0.07460631
-0.06655166
0.085565
0.075403884
0.0016578146
-0.071780026
0.03128513
0.019817784
0.08666114
-0.017706787
-0.019846508
-0.023261594
0.021863002
0.07065494
-0.0023661768
-0.013101485
-0.028071824
0.035515442
-0.019900614
-0.02370933
-0.038550973
0.067743555
-0.012705979
0.06933134
0.000872229
0.046538517
-0.02270986
-0.08019545
-0.063618004
0.075546086
-0.05641148
0.02554217
0.054798964
-0.06324299
0.04344434
0.058812786
0.085391894
-0.0287143
-0.03253659
-0.050213207
-0.008472033
-0.08250804
-0.004195181
-0.084340654
-0.047968242
0.005828024
0.0064100404
0.013136277
-0.06504274
-0.07281525
0.01611881
0.071255535
-0.062064394
0.0751913
0.011340379
0.087159134
0.06260904
0.00010681065
-0.01473478
-0.041249227
-0.0031758389
0.07730941
-0.059400797
0.03226866
0.024414647
0.076938726
0.06512757
-0.00455147
-0.08529021
0.029737078
-0.08491004
-0.041982044
0.0770561
-0.068259895
0.0027483539
-0.08476838
-0.086744644
0.010475894
-0.05610972
-0.059215404
-0.035955917
-0.008032231
-0.03774147
0.07167963
0.026658008
0.05630682
0.06350372
0.056455925
-0.056105483
-0.0711052
0.0453687
-0.06407788
-0.05581843
-0.04489318
-0.020045746
-0.003982445
0.018646209
0.07862717
-0.07535733
-0.088025585
0.034092396
0.06771944
0.01020725
0.0203348
0.03436967
0.08237432
0.03745404
-0.01033525
0.072691575
0.030065075
0.04546979
-0.034729805
-0.057252415
0.049139243
0.018090596
0.086014464
-0.078862675
0.08592214
0.022516765
0.047720253
0.02564092
0.075950556
0.052366722
0.04792436
0.043585774
0.07477722
-0.07542979
0.071124196
-0.035796404
-0.0060883122
-0.03766427
0.0038679638
-0.060734693
-0.02717514
0.08773527
-0.071269065
0.021813722
0.029400904
-0.08118744
0.060011916
0.054473042
-0.022824941
-0.029144809
-0.061385345
0.04286877
-0.037358966
-0.042335246
-0.012273742
-0.07565756
0.07611879
0.07645798
0.0549832
-0.009347655
0.010222433
0.081413314
0.06473548
0.08058642
-0.022352971
-0.053419877
-0.0060198237
0.017828591
-0.039541595
0.0072724596
-0.08341972
0.04115076
-0.063681886
0.0029441891
0.010681592
0.08756601
-0.05135388
0.04048092
-0.07567432
-0.0070292936
0.054471176
0.007835025
-0.07964743
-0.06349273
0.042117618
-0.06739345
0.02338323
-0.059913028
0.07689793
0.07978363
-0.06385291
0.0059631364
-0.043679435
-0.010457571
0.00327422
-0.0063923914
-0.041549362
0.068315834
-0.023783898
-0.039855998
0.005099063
0.031026717
0.054248776
-0.0010158865
-0.07381255
-0.041282143
0.021258375
-0.042079583
-0.028872097
0.0038350997
0.022104872
0.025357218
-0.009572761
-0.011947346
0.0026707193
-0.06934166
-0.0025477032
-0.058504988
-0.027855758
0.016211353
-0.077523686
-0.007571755
-0.05479281
0.050071657
0.011311824
0.044473648
-0.046068527
-0.06461391
0.022295546
0.02795965
0.058499645
0.013026326
0.02377139
-0.07398449
-0.02750852
0.06280875
-0.03537724
-0.02018009
0.06390182
-0.07614004
-0.07562995
-0.05529362
0.07964533
0.009846589
-0.06744336
0.023222208
0.026054582
-0.04017702
-0.02147817
-0.034175456
0.06733212
-0.005696863
-0.06248246
-0.05722972
-0.005222184
0.08737704
-0.051613737
-0.01438454
-0.014994552
-0.08193303
-0.0074951006
-0.04456497
0.05395044
0.05960773
0.08596287
-0.071189515
-0.07661124
0.08063297
0.041947197
-0.05514718
-0.025355343
0.003926569
0.08488847
-0.030462708
-0.05415671
0.07132643
-0.05466153
-0.0805835
-0.038027193
0.042240467
0.081401765
0.04050076
-0.06280478
0.077423014
0.027091794
-0.023826435
-0.034445334
-0.070727624
-0.042558044
-0.0002188475
-0.0077120303
-0.026687067
-0.06298067
-0.07524797
0.079088785
-0.059179675
0.007920362
-0.074601375
-0.00035711023
0.04271523
-0.0716849
-0.08736663
-0.07066807
0.044461776
0.088053375
-0.051469866
-0.040304758
-0.04470176
-0.069518454
-0.026207311
0.04283023
-0.030167608
-0.07070923
-0.03714109
0.04190189
-0.052206554
-0.08769311
0.0015945733
-0.026580868
0.05366757
0.05392095
-0.04437965
0.06909507
0.06140896
0.07737441
-0.015382703
-0.027482938
-0.080406226
-0.036470626
-0.019966332
-0.014695025
0.03133413
0.0648997
0.026219375
-0.06729378
0.027676117
0.07871275
0.07617173
-0.06840463
-0.0018188051
0.053082194
-0.04066876
-0.07510866
0.064080685
-0.007056183
-1.0536712e-05
-0.056044023
-0.08691412
0.055790827
0.015910583
0.011602522
0.031606555
0.07083977
-0.03959822
-0.04494561
-0.039482523
0.0017080853
0.063847415
0.036049146
-0.03464672
-0.051003143
-0.00908174
0.08597483
0.047400862
-0.08135342
-0.08389233
0.005515547
-0.016281601
0.014986861
0.041278612
0.057753615
0.048048574
0.045762975
-0.010969897
0.013184145
-0.040158603
-0.0678032
-0.0040322943
-0.059410185
-0.0660176
-0.03078529
0.008415345
0.053924594
-0.026385097
0.07359722
0.06354042
0.084021255
0.009226546
0.002029413
0.054549642
-0.06806094
0.08347257
0.046952147
0.07869741
0.084984854
-0.025405804
-0.037408825
0.06553458
-0.015835151
-0.016847696
0.0012072754
-0.008157933
-0.08247081
-0.008319145
0.035732675
0.03224291
0.011824151
-0.02148151
0.08089715
-0.03677476
0.04718283
0.08467862
0.070314765
-0.066475675
0.0062200213
-0.087578095
-0.076408915
0.011707267
0.046986528
-0.06862648
-0.033701167
0.033018082
0.05895376
-0.05182252
0.0013631977
-0.057286818
0.045963928
0.045085717
-0.07008491
0.062967926
0.024488036
0.0018597613
-0.005112339
-0.077629186
0.036279246
0.07102515
-0.08228941
0.051515177
-0.036869958
-0.042635802
0.006509907
-0.01763206
0.061154086
0.027611896
-0.049335204
-0.069451064
-0.016398422
0.030219438
-0.06494709
0.058652587
0.034943026
-0.07940115
-0.08356845
0.056523368
-0.00024133285
0.014288013
-0.04894579
0.014261629
-0.056288905
-0.036316104
0.033238396
-0.08757182
0.0869967
-0.08203188
-0.041918453
0.037257604
0.022241734
-0.02342565
-0.04167201
-0.0541697
-0.0760874
-0.06936326
0.03964757
0.05741272
-0.06242571
0.023685263
-0.0791687
-0.025437256
-0.0849914
0.027983768
0.035337657
-0.074386254
-0.07328048
-0.028243963
-0.026281351
-0.04999302
0.006516187
0.050449736
0.013755182
0.0021680337
0.065770134
-0.026554031
-0.013994808
0.009770946
-0.07523949
-0.038209733
-0.052879836
-0.054050993
0.016069138
0.053244397
-0.017550506
-0.0021766739
-0.08117193
0.08301573
0.08532931
-0.048396762
-0.039189395
0.07894345
0.07182962
-0.038112838
0.024644516
-0.026406644
0.021450207
-0.078673065
0.049742322
0.006530907
-0.03444628
0.042214513
0.08308101
-0.07915237
0.00487383
0.07802018
-0.06798547
-0.023108348
0.073641926
-0.00058852806
-0.0806343
-0.014526743
0.0699568
-0.039076187
-0.0450135
0.0442886
-0.023357108
0.019921836
0.0016903837
-0.04682972
-0.010676313
-0.022847932
0.077609815
0.04589112
0.08019324
-0.004563071
0.05742487
-0.055645935
-0.06751855
0.03469128
-0.019286746
0.068634406
-0.013803799
0.012442856
0.05230837
0.027094934
0.040150203
-0.040846966
0.02093948
-0.08800218
0.08041968
0.085339166
0.05955163
-0.010567774
0.0570157
-0.071971126
0.020155814
-0.0024243079
-0.042572994
0.013559726
0.0016767808
-0.030597948
0.041755177
0.023701511
-0.06385885
-0.022485659
0.015483888
0.082021676
-0.056767896
0.047366925
0.030363295
-0.048646323
-0.009053301
0.046427544
0.040975988
-0.029194795
-0.06296502
-0.010128119
0.044338938
0.037989482
0.03787832
0.040776137
-0.04649484
-0.022444598
0.0064484784
-0.062087018
-0.04626311
-0.072054
-0.044254526
-0.065704964
0.0006066301
0.036140945
0.054228663
-0.0720546
0.015031494
0.03550579
0.08424108
-0.08084543
0.047444444
0.06641081
-0.054198023
0.057426374
-0.004196467
0.00024058475
-0.045114998
-0.07695481
0.0005065524
-0.057303023
-0.07907572
-0.028500646
-0.04736153
-0.016114056
0.006998389
-0.056492783
-0.00833062
0.031852733
0.068387784
0.041797977
0.006743938
0.030339219
0.0023896736
0.020807603
0.07026429
0.07518995
0.07659097
-0.07611966
0.0005511438
-0.06384335
0.00560041
-0.077580675
0.0010436929
0.08767024
0.009780987
0.05073882
-0.008750022
0.04780247
0.07701075
-0.054510023
0.029026229
0.04266809
0.0075348765
0.046858907
-0.07092759
-0.050340373
0.08721101
-0.014885919
-0.042415608
-0.021585498
-0.08053924
0.01249495
0.07314467
-0.05512792
0.040603977
-0.033289067
0.06527911
-0.0150089245
-0.08473496
0.059606064
-0.016946636
-0.061897345
0.05807552
-0.061806552
-0.079328895
0.034177784
0.049195528
0.0146649955
0.011680019
0.019813413
0.0018015354
0.013011912
-0.011605388
-0.010728364
-0.08324591
0.06105076
0.047345314
-0.06735621
-0.050890118
0.020392722
-0.07948038
0.08042935
-0.007510442
0.009799553
-0.08528407
0.020346845
-0.08832612
-0.022745611
-0.07646816
0.055921577
-0.014119057
-0.014343879
0.06774839
-0.07149133
-0.0679656
-0.05727392
-0.044357304
-0.0012830028
0.04642899
0.04378068
0.062948495
0.044320837
0.05303502
-0.041902903
0.019096125
0.0065702614
-0.042823758
0.081384085
-0.03707674
0.021351151
0.08074663
-0.050476518
-0.037758846
0.008429664
0.03002379
0.07283626
0.06976591
0.036967285
0.08602827
-0.036513038
0.07729001
-0.043819394
0.035192195
-0.005493915
0.08177362
-0.04674512
0.08086467
0.019665202
0.0059737046
-0.04518927
-0.028173586
-0.010733959
-0.026581142
0.012891677
0.06506014
0.029005904
-0.03012919
0.06332884
0.014884928
-0.01363892
-0.07770414
0.07824917
0.026964847
0.013151429
-0.05132935
0.07537474
-0.08653273
-0.0782522
0.061345518
0.06797651
0.0155905085
-0.059232704
-0.03338418
-0.042838152
0.014775663
0.00058775884
-0.015863083
-0.029152585
-0.060577434
0.0021639771
0.07872778
0.021216555
0.07090172
0.03075998
0.07604073
-0.06605025
-0.03524543
0.028613558
-0.057267904
-0.03767923
-0.051517453
0.020771978
0.04054549
-0.008555842
-0.07495641
-0.06544355
-0.013241022
-0.024634242
0.07396087
0.06982742
-0.023920434
-0.0638829
-0.0026664308
0.06014111
-0.069456495
0.011305628
-0.0745076
0.06945517
-0.03834653
-0.04086392
0.069594435
-0.01712615
-0.013076333
-0.07331911
0.06934251
0.04575522
0.0016446016
-0.08487038
-0.02210461
0.03760445
0.015912343
0.03275671
0.014652267
0.08585501
-0.022767738
-0.036460605
0.055166725
0.0038916713
0.0041888067
0.027535621
-0.044038188
0.020103563
0.07247318
0.06315238
-0.026469158
-0.0707126
-0.0799145
-0.0817897
0.088003725
-0.02328174
0.021801637
0.036958423
-0.07676003
0.02844515
-0.04132075
-0.080459155
-0.04272441
-0.010760849
0.06522376
0.06796825
-0.010526144
-0.033306587
0.034451224
-0.08155955
0.017327517
-0.040592123
-0.024858642
-0.07304439
0.03699248
0.07667289
0.059420314
0.015806995
-0.070321344
-0.06774017
0.018995479
-0.04336354
0.06204668
0.07041932
0.040739007
-0.08701918
0.003071852
-0.067158185
0.04137556
0.009093551
-0.069695316
-0.08774225
-0.05837624
-0.029627401
0.08353805
0.06611998
0.009100348
0.031970058
0.075090855
-0.079603024
-0.06002884
-0.013021469
0.06842707
-0.024015991
-0.05254637
0.045809958
-0.05629663
0.03824211
0.03197929
0.07609603
0.043824945
-0.032399967
-0.040282723
0.072180025
0.06823897
0.048348777
-0.01486632
-0.046223827
0.020284498
-0.047803227
0.021147497
0.08460642
-0.06374675
0.030749012
0.065032415
-0.07232995
0.049745735
-0.079346456
0.07078225
-0.062018022
-0.025686681
0.0081792595
-0.077122755
0.054681446
-0.002519391
-0.08771744
0.06370868
-0.009135382
-0.07907502
0.06258974
0.081456706
-0.059189156
0.030013455
0.031403217
0.06873845
-0.06358309
-0.08270557
-0.047290556
0.011457705
-0.06432017
-0.041095126
0.073179014
-0.035926994
0.021527778
0.037617695
-0.034530524
-0.0839211
-0.067956924
-0.06102083
-0.074972436
0.0072888234
-0.031806465
0.06777486
-0.038245294
0.05071605
-0.0076000355
0.054753095
0.007888246
0.03522782
0.036233686
-0.003587529
-0.02453643
0.0045699407
-0.0015515414
0.0016070909
-0.017432474
0.06452688
0.059054878
-0.05610601
-0.020501701
-0.055478632
0.03086635
-0.068044156
-0.03270584
0.0639744
-0.025695838
0.0747535
-0.05529306
-0.045330334
0.01730501
-0.04735529
0.061377652
0.0073297475
0.042009756
-0.05992209
0.060184088
-0.049601994
-0.041731257
0.08823721
-0.042196676
-0.025843646
0.077644944
-0.022784818
-0.029330665
0.07036556
0.060253806
-0.008272246
-0.03967835
-0.06224472
-0.07630144
-0.08471385
0.011677659
0.07607604
0.019413587
0.053887367
-0.011077983
0.065452345
0.016888779
-0.026353128
0.05165153
0.014291617
-0.01962648
-0.059060063
0.07949211
0.060416747
-0.08013609
0.0476866
0.008182958
-0.0867068
0.051733263
-0.03744996
-0.006182869
-0.06439076
0.02176557
0.07876269
0.0107619865
0.07884222
-0.084763706
0.06573133
0.024748787
-0.062053066
0.032077555
-0.054545145
-0.022094684
-0.03601938
-0.047376595
-0.063169144
0.05598194
-0.07958336
0.056966007
0.0053191744
-0.036029357
-0.011223136
0.025160257
-0.0719564
0.01697027
0.05202984
-0.05430281
0.029297117
0.04518792
0.086759426
-0.020137459
-0.051854648
-0.011316081
0.0024511237
0.019664265
0.05090863
0.07828148
-0.030455787
-0.05277329
-0.03830825
0.07698943
-0.05448438
0.028359655
0.07652372
0.02621791
0.019676108
0.08230446
0.06221763
0.07910603
0.08578481
-0.0035052057
-0.058616087
-0.076549225
-0.008534463
0.019376602
0.054764435
0.05937806
-0.027290685
-0.07461126
-0.0796428
0.024582686
0.085346565
-0.049541008
0.031903256
-0.037656743
-0.08505396
0.086049035
-0.08015289
-0.01987128
-0.057316836
0.01959878
-0.011085443
-0.033712946
0.054341502
-0.033379693
-0.08517583
0.05151214
0.026823845
-0.0068636667
0.03547983
-0.07367473
0.008253891
0.0024953147
-0.013656517
-0.0243515
0.05659916
-0.03195218
-0.08616747
-0.08028595
-0.06068125
0.02973241
-0.06711303
-0.048482962
-0.07337931
0.014318074
-0.014770594
-0.04284422
0.012126892
-0.031525556
-0.08032494
0.06841367
0.00051292713
0.034488946
0.08231551
0.0495419
0.056792498
-0.015760455
-0.030822244
-0.077423096
-0.043378368
-0.04103162
-0.012863587
0.0015344825
-0.020443033
-0.008093839
0.07281071
-0.06376355
-0.06408844
-0.006912178
-0.07042155
-0.012234882
-0.04528403
-0.06931107
-0.07813459
0.032879524
-0.018893199
0.038276576
0.07167139
-0.05767227
-0.0699566
-0.06021992
0.08675229
0.012571382
-0.06906495
-0.06639436
0.02720891
0.0033001404
0.049590297
0.06929547
-0.0065686177
0.068140835
0.024095554
-0.05780234
-0.07625769
0.058960047
-0.010473302
-0.08351658
-0.07009796
0.06893501
-0.045322433
-0.033928096
0.06332535
0.014676048
-0.009874637
0.050668128
0.0405547
0.05327682
-0.032150637
-0.039552845
0.03430983
-0.043143474
0.07902203
0.027827552
0.017117742
-0.021127276
-0.03589101
-0.081367
0.07022156
0.01605483
0.00058003544
0.031588726
-0.016347025
0.049996033
-0.06943256
-0.07358859
0.017555648
0.057425387
-0.035202775
-0.03057266
-0.011865149
0.049100477
-0.043706145
0.06692684
-0.03648951
-0.07945182
-0.027907452
-0.018714812
-0.037898455
0.07061467
0.06665739
0.041414388
-0.038720846
0.0035573835
-0.04868842
-0.0011756126
-0.08174814
0.02778334
-0.033915926
-0.05275324
0.05697627
-0.07176932
0.06421979
0.063930824
0.04354075
-0.059655998
-0.028005147
-0.026582038
0.08531249
-0.022881018
0.07950868
-0.004619674
0.07682665
-0.06661825
0.022687765
-0.0492291
0.007109193
-0.08515069
0.045791075
-0.0061086062
-0.03848984
-0.00057297584
-0.07880491
0.08123312
0.08632626
0.03161017
-0.08610399
0.032193806
-0.050635498
0.06967004
-0.07077371
0.035873596
0.022093104
-0.062187675
0.045132298
-0.07768747
-0.033541232
0.021379495
-0.009429061
0.037227973
-0.032104887
0.065630615
0.009354577
-0.08695919
0.06657633
0.046631716
0.047753338
-0.037461743
0.068832695
0.069408536
0.024812292
-0.06997125
0.052053053
0.08293543
0.066587076
-0.01388217
0.03630736
0.0066512995
-0.07036378
0.072901785
0.030828038
-0.012195127
-0.013544227
-0.025433335
-0.01552124
0.0059503447
-0.011866613
0.08105181
-0.063909225
-0.05678056
-0.076981194
0.029781869
0.012576693
0.0655551
-0.028070696
0.029201759
-0.041653614
0.055322964
0.05146813
0.016748609
-0.034890108
0.0851641
-0.024673313
-0.033011794
0.038820986
0.03191583
-0.047474336
-0.021256605
-0.006520697
0.041522305
0.037632182
-0.07626059
0.018503552
0.083740056
-0.071157746
0.06892718
-0.083935015
0.031044599
-0.04412052
-0.06443231
-0.031459175
-0.008633602
0.06476641
-0.02639109
0.008680659
0.07265041
-0.06245715
0.026302299
-0.012564102
-0.04703373
0.06588652
-0.03547123
0.06889169
0.03849278
0.04998649
0.047389556
0.08829469
0.07367034
0.0016357508
0.009485264
0.006181257
-0.08822885
-0.07223155
0.0140225515
0.076347336
0.08200102
0.0038834
-0.039091498
0.057465572
0.027799323
-0.07516579
0.07100901
-0.011219186
-0.027622033
-0.04447362
0.07284244
-0.08460007
-0.04715306
0.07314434
0.043721464
-0.07355194
-0.0683261
-0.046796277
0.07925525
-0.044448487
0.009888367
-0.08195715
0.041039735
-0.044435613
0.060348492
0.0044187177
0.038303994
0.07715569
-0.06584098
0.047446202
-0.048858143
0.014142606
0.054884594
-0.08123779
0.049878243
0.005029689
0.06960227
-0.064736106
-0.082391605
-0.04335803
-0.034891322
0.0015870711
-0.061151642
0.06724233
0.07451391
-0.06821697
0.08832091
0.0051534427
-0.03685077
0.013034208
-0.035088524
-0.007409837
-0.02871805
-0.036951743
0.04638427
0.0223292
-0.06283735
-0.012923393
-0.021756202
-0.035445478
-0.028032206
-0.06968507
-0.045152243
-0.036920693
-0.014142618
0.04609877
0.047622092
0.044398237
-0.02781082
-0.035306025
-0.04809007
0.06477468
-0.07326754
0.012106208
-0.04476308
-0.06178843
0.022217236
0.011861809
0.06445543
0.010237817
-0.061174307
0.05318677
-0.0058663352
0.027627848
0.06916235
0.020318141
0.08448831
-0.041100733
-0.03236882
-0.07488533
-0.013023976
0.0120912455
-0.055819117
-0.0492549
-0.086024836
0.060233347
-0.08189829
-0.046399318
0.08148094
-0.083320305
-0.0113121085
0.047394384
-0.048590373
-0.021065574
-0.025055373
-0.06418151
0.027561856
-0.021064721
0.0410551
-0.04056475
0.004684116
-0.046795014
-0.08061923
0.032080125
-0.014406572
-0.0723348
-0.029796315
-0.019502737
-0.028425025
-0.038773194
-0.06075564
-0.023084978
-0.0016169216
-0.02272321
0.018576276
-0.06561015
0.04078896
0.08229101
-0.00048420407
-0.05219432
-0.08096721
0.04788104
0.028319774
0.028155716
-0.07121101
-0.05569259
0.08035926
-0.05722052
-0.026904756
-0.07593838
0.06463507
0.009549865
-0.08396607
0.0493
-0.025624841
0.030560542
0.034553863
0.0781715
-0.02649532
-0.058149554
0.07060689
0.03210416
-0.043933105
0.07750566
0.03614559
-0.066661306
-0.02215958
0.004593427
-0.07751122
0.042466458
-0.06336139
-0.012217486
-0.041996215
-0.050924394
-0.009554669
0.044329435
-0.06853156
-0.059467852
-0.007980727
-0.07838073
-0.03494199
-0.087764554
0.06418115
-0.0055699483
0.042326942
0.055714402
-0.047442168
-0.07728934
0.0028414878
0.06369693
-0.041311137
0.06670495
-0.0713557
-0.039238673
-0.0011734841
0.07999402
0.03445176
-0.06527888
-0.037987407
0.070200145
-0.00086436863
-0.031308703
-0.05932078
0.025696648
0.023260066
0.013777878
-0.0043042046
0.041036036
0.020601105
0.051527336
0.005062469
-0.05631548
0.043630786
0.053198416
-0.018722694
0.032424822
-0.008152022
-0.05291584
-0.0016833135
0.06765023
0.06577633
-0.059249964
0.0009215514
0.050527517
-0.042290937
0.024157193
0.05927713
0.009105932
0.04797936
0.07515759
0.06389148
0.06022947
-0.0777491
-0.081662185
0.052132964
-0.0032424412
-0.08718098
-0.036753453
-0.06963872
0.0108708525
-0.05621747
-0.013248745
-0.048849598
-0.030221092
-0.0046363114
-0.038767703
0.0588476
0.0009992175
-0.086694725
-0.058739997
-0.00933598
-0.00364605
0.06770394
0.0070904484
-0.0759784
0.024620397
-0.01215669
0.071571946
0.051610615
-0.07084685
0.006727543
-0.038089793
-0.02503446
-0.0058028623
-0.07514796
0.08704006
0.046666425
-0.0014169243
0.079986654
-0.08475956
0.05226644
0.027160957
-0.051384572
0.08077551
0.08032283
0.08351702
0.04427557
-0.069793716
-0.018317474
-0.08835795
-0.0658797
0.034386843
-0.060424365
-0.010347157
-0.077285044
-0.05556398
0.018126452
-0.0005333684
-0.07690901
0.063571274
0.000689122
0.07447647
0.015213611
-0.013565964
-0.007770351
-0.082080245
-0.042760473
-0.047608763
-0.026594808
0.055450182
-0.041904166
-0.06737063
0.015882334
0.06185776
-0.07619599
-0.0034460633
0.02406722
0.008275418
0.07827679
-0.017436784
0.0040910784
-0.0025840444
-0.043121252
-0.024984483
0.02281589
0.07470709
-0.05003106
-0.03737572
0.031841278
0.02914191
0.043764897
0.011353665
-0.013000216
-0.07106444
0.085246384
0.0018439773
-0.02492064
-0.06911898
-0.013080632
-0.07058741
-0.009937384
0.032035924
0.08335004
-0.054343503
0.06933913
0.07848434
0.085950784
-0.0816351
-0.021193838
0.0785665
0.012860025
0.051940553
-0.05698944
0.02347353
-0.024567956
0.0007257582
-0.03725459
-0.0025073898
-0.018338937
0.0022876782
0.07628201
-0.03479629
-0.021254571
0.03425758
-0.05793064
0.026873147
0.0067571723
0.076928884
-0.043809246
0.038147345
-0.072206706
-0.036254033
0.043243404
0.0089017935
-0.076902635
0.018627578
-0.05883152
0.027597513
0.04690347
-0.05091944
0.00530495
0.012787143
0.07859756
0.036173545
0.042951263
0.045944415
0.078987025
-0.00624944
-0.003382316
-0.06870955
-0.047278553
-0.06572302
0.066431485
-0.07991884
-0.054516833
-0.024293253
0.04359806
0.047211993
-0.0394465
0.0048254556
-0.0813342
-0.05886661
-0.085403234
0.016224187
-0.024718588
-0.08309618
0.0067271744
-0.047940638
0.017480426
-0.08723759
0.042933088
0.04910309
-0.07812635
-0.07487308
0.005328731
-0.032655146
0.042159807
-0.009809026
0.08333483
0.006879988
0.0009456804
-0.0743588
0.009199899
-0.056806322
0.07867438
-0.043414373
0.0028754054
0.073396616
-0.06773303
-0.057400383
-0.0670996
-0.07165377
-0.019168101
0.015632266
-0.0641594
0.013176854
-0.06296285
0.0019084619
-0.08116394
-0.07426858
-0.059556816
0.06249714
0.0015196363
-0.042874556
-0.059776623
-0.0054071983
-0.0325333
0.071626805
0.05993151
0.022640917
0.059834354
-0.0035592485
0.060677003
0.0154874595
-0.06380313
0.02097145
-0.038277123
-0.013800438
-0.030648682
0.06736846
0.027803158
-0.08751527
-0.0049509164
0.07053182
0.0467938
0.057788163
-0.030850986
0.0385244
0.0728338
-0.0027480694
0.033376385
0.04432139
-0.059820432
-0.04826973
0.032000702
-0.079132296
0.07511192
0.073360406
0.084180765
0.06187933
0.06772892
0.03822014
-0.07098917
0.064723596
-0.056133162
-0.08316418
0.06721999
-0.045675192
0.050215695
-0.0065554995
0.038895007
-0.08565408
0.0061649773
0.030694675
0.07764012
-0.013668002
-0.047494408
-0.08341488
-0.045255505
-0.027378866
0.066439636
0.04903322
0.06256114
0.018518997
0.0843091
0.02000047
0.07678087
-0.002394278
-0.036718514
0.002932799
-0.00031506876
0.008419033
-0.034037784
-0.054224774
0.0042497087
-0.046037517
0.023788776
-0.075268455
0.084466
-0.07513124
-0.060454078
-0.0077121565
-0.015795754
-0.062204204
-0.00104226
-0.061970744
-0.051158067
0.040831413
-0.03800224
0.044245645
-0.078492805
0.08434377
0.0234231
0.029265497
0.07269976
-0.0011537384
0.01760891
0.08153498
0.036619384
0.019414261
0.06454724
0.024913823
-0.0026649558
-0.079440095
0.04411109
0.06364146
0.023106862
0.063655965
0.019152487
0.034570634
0.018352708
-0.024008077
0.03675065
0.0028106046
0.028930344
0.04405626
0.049778692
0.019729182
0.0671504
0.06828351
-0.054796677
0.052609045
-0.06842799
0.04559739
-0.005996822
-0.059504386
-0.06560554
-0.03534248
0.07736856
0.00046698708
0.0017104982
0.04898294
0.03909684
0.052071292
0.0485049
0.033875488
0.0660551
0.0487854
0.040370297
-0.071995184
0.011669303
-0.045841884
-0.07672885
0.05659406
-0.049353957
0.016665664
-0.07706483
0.057316035
0.021591103
-0.03273123
0.0642189
-0.0045998544
-0.025394129
-0.019113217
0.054234702
0.04094601
-0.04853024
-0.068893015
-0.073493764
-0.052011024
-0.05206675
0.07738035
0.008639188
0.078758985
-0.038588136
-0.049284354
0.051011752
-0.06464328
-0.079583794
-0.07689658
0.07923311
0.05703124
0.0021421872
0.023263415
0.08633768
0.026231144
-0.04348424
0.087593734
0.0028844986
0.051410083
0.030057393
0.01588971
0.033568617
-0.018940615
-0.0006002343
0.059246097
0.054283127
0.042039003
0.03769398
0.058171492
-0.07501898
-0.015538152
-0.061816245
0.040780235
0.05511128
-0.05818818
-0.018077215
-0.08608423
0.08202999
0.015439718
0.041650716
-0.011029525
-0.082551494
-0.030493688
0.068573445
0.07799683
-0.0077063087
0.08212027
0.05536193
-0.027225673
-0.070574
0.007821896
-0.06222606
-0.024380023
0.04055705
0.015986077
-0.0050620786
-0.024006149
0.03777645
-0.057723004
0.011031252
0.062899895
-0.052226223
0.033147104
0.01412678
0.025815755
0.008018122
-0.0123325465
0.04489907
-0.056305617
-0.06921421
-0.02760764
-0.046517972
-0.053322673
0.0072629135
0.0845142
-0.036841486
-0.022319611
-0.018922638
-0.049921256
-0.083671026
0.05012588
-0.067035854
-0.018190337
-0.08271842
-0.010055195
0.08459497
-0.066997744
0.06499225
-7.4831725e-05
0.038957134
0.06120504
-0.027269496
0.045426935
-0.071309686
-0.066441484
-0.046171725
0.022146061
-0.055889405
0.017354006
-0.0133645125
0.005839857
0.07001764
-0.020747228
-0.040484775
-0.00360816
0.066342555
-0.073009506
0.05962401
-0.012768535
0.016761865
0.07181598
-0.0010370127
-0.07216694
0.012034727
-0.012772096
-0.026775219
-0.029244034
0.069056936
0.0773259
0.08155403
-0.04652324
0.071237296
0.07530496
0.04349617
-0.0012088876
0.051641174
0.005648215
0.046594825
-0.06854185
0.05447557
-0.0054145106
0.016799998
-0.043471996
-0.03729901
-0.014607044
-0.022874359
-0.059292883
-0.0489659
0.02844042
0.011106094
-0.047310323
0.07132823
-0.051655
-0.05998117
0.08365122
0.019926472
-0.049010716
0.028772483
0.016396051
0.00551305
-0.08465835
-0.050271254
0.050288554
-0.006511119
0.06639445
-0.0075802687
0.04263477
-0.02188159
-0.030043306
-0.08001677
-0.044715844
0.065771356
-0.039776824
0.028579915
-0.0068654264
-0.03247208
-0.04636428
-0.035461083
0.06332761
0.040559262
-0.009275921
-0.035724606
-0.020107344
0.021856882
0.0690879
0.07244922
-0.064467594
-0.06545539
0.055720747
0.021897532
0.014892937
0.017556997
0.042073395
0.06597503
-0.021764359
-0.075993925
-0.034504507
-0.026061673
0.08167531
-0.07155545
-0.04081254
0.08581948
-0.050136425
-0.0059501654
0.029691886
0.06792355
-0.04636145
-0.04535727
-0.060148705
0.018999008
0.04325161
0.07460084
0.057627745
0.004699005
-0.031243501
-0.079211906
-0.019118631
-0.03874131
-0.07783115
-0.037225857
-0.039109133
0.01678868
0.041584335
-0.00766805
-0.037498377
-0.05527444
0.015837615
0.0202824
-0.0020221109
-0.05536015
0.054210845
0.08094675
0.07719135
-0.0072878115
-0.027843736
-0.010888975
-0.08787397
0.08829554
0.072549276
-0.08755305
0.01582023
0.052847564
-0.07117596
0.036526144
-0.043908942
-0.026040282
0.060181357
-0.0113785425
0.073253855
-0.08031269
0.044115264
0.07925724
0.034688298
0.048757613
-0.086557105
-0.060174834
0.025959603
-0.06748689
-0.03414152
-0.046121486
0.07374913
0.008692124
-0.07581136
-0.030662253
-0.0003494395
0.053203862
-0.08158864
0.047774527
-0.027589863
0.0054506306
-0.06784797
0.05491362
0.024549348
0.057945047
-0.06595117
0.083902374
-0.06687574
0.07787808
-0.061908685
0.0059864433
0.08187071
-0.03691806
-0.03171838
0.009350415
0.07739859
-0.044399206
-0.08684794
-0.003299603
0.07908633
0.08327798
-0.044184312
0.08677612
-0.036181785
0.079373114
0.0711239
-0.0023713186
-0.051714014
-0.07523903
-0.008232438
0.033530474
-0.060414124
-0.066247426
0.04878331
-0.046330385
0.011898487
0.06966546
-0.029613787
-0.041408353
-0.010499791
0.002306518
0.056890152
-0.054871656
-0.0059630834
-0.003799433
-0.03595364
0.037055075
0.0062202318
-0.024013167
0.034940854
0.030960463
-0.009805391
-0.03517542
0.01424811
0.07831714
-0.011260848
-0.0005982113
0.07053117
0.056339767
-0.06735806
0.07339723
-0.009617647
0.029900258
0.053117882
0.07623733
-0.039924424
0.020553026
-0.0013777699
0.049115293
-0.07636925
0.054351985
-0.0036590314
-0.053431742
0.04699857
-0.030546075
-0.054415807
0.03802067
-0.032607194
0.0486429
0.06614204
-0.07460049
0.02532269
0.06711979
-0.0004262732
-0.06849972
0.028543279
0.012045495
0.03689946
0.0015376329
0.0715354
0.0016395334
-0.07416689
0.04506127
0.048184793
-0.028285423
0.05390661
-0.05009211
0.05908063
-0.04552147
0.01768406
-0.06938813
-0.011599803
0.007214708
0.007115663
0.011696878
0.05184823
0.08115219
0.042560235
0.018342162
0.017460734
-0.06480387
-0.022900416
0.010547207
-0.06685588
0.036384616
0.031892467
-0.00807835
0.013336116
-0.047068376
0.01675253
-0.07386338
-0.04711019
-0.0710721
-0.0029273094
0.0144752925
-0.052783478
0.057592317
-0.07082426
0.07513338
0.035977222
-0.052181885
0.078515746
0.04397093
-0.062262885
0.050198182
0.014483016
-0.0879787
0.011496416
0.055012174
-0.013489572
-0.06376187
-0.087458216
-0.0707443
-0.021681266
-0.08673628
-0.0071414253
0.00038641284
-0.0365681
-0.06425635
-0.029877458
0.016808163
-0.0008836192
-0.061347455
-0.036143463
-0.04946808
-0.08828594
-0.087747775
0.024905205
-0.046216536
-0.04203025
-0.018501097
-0.076658264
-0.0313874
-0.013616761
-0.031879075
0.058859844
-0.052626472
0.07949995
-0.054137606
0.065491885
-0.029638601
0.0084938435
0.005309839
0.042083006
0.0508142
-0.02605849
-0.012197098
0.075208806
-0.073407024
0.053717107
0.06727849
0.037819516
-0.064122275
0.054260872
-0.065169595
-0.048430163
0.038772065
-0.06355678
0.078577295
0.014908541
-0.009839951
-0.067908466
-0.08039232
0.063871115
0.018583925
-0.021663375
0.06607992
-0.06973373
-0.0066479384
0.08505542
-0.080540985
-0.025548555
-0.031309586
0.044308666
-0.053342156
-0.07087814
-0.05217389
0.008969492
-0.019414702
0.08405722
0.070374414
-0.034441013
-0.08189962
-0.025127424
0.08634401
0.01535534
0.0029460646
0.0685735
0.02236044
-0.0036295601
-0.0347038
-0.056221366
0.057850227
-0.02034046
0.07236402
-0.057993103
-0.074328214
-0.0073710727
0.05527735
0.08280295
-0.04276314
-0.05574794
0.03271751
0.0012361144
0.086742796
-0.059343837
-0.02109495
0.057591856
0.08098916
-0.0772719
0.07248927
-0.083822355
0.058516253
-0.028988011
-0.02018384
0.052924987
-0.054188255
-0.04179159
-0.0823573
0.008355001
0.07499036
-0.054154757
0.01066565
-0.025821108
-0.03134011
0.02783302
-0.016754247
0.027662609
-0.048059195
0.03209097
-0.08712521
0.034281984
0.022430088
0.03092544
-0.02806289
-0.015202821
0.021474114
0.044205457
-0.039555553
-0.072490185
-0.03701765
0.023443488
-0.07212302
-0.022298886
-0.08680855
-0.022849808
-0.032994784
0.043660995
0.043516167
0.06793299
-0.03326952
0.046256017
0.0021344533
-0.017613789
0.062385723
-0.037924428
0.012820902
-0.00613224
0.0329625
-0.02310566
0.07165297
0.026590005
-0.017843626
0.073517315
0.06571741
0.017748702
-0.07408689
-0.04126089
0.03790816
-0.019386
-0.040348567
0.032933306
0.03919272
-0.026148506
0.0030157333
-0.029916665
-0.045731228
0.04182002
-0.07729124
-0.022734778
-0.017672857
-0.011391102
0.0069567375
0.08003256
-0.073037066
0.07363888
-0.057848994
0.047091674
0.03841502
-0.0029853033
0.078040354
0.0392612
-0.0669765
-0.0054656034
0.024720022
-0.02681709
-0.07478586
-0.010867754
-0.035380866
0.01291587
0.05064358
0.028439702
-0.085035585
-0.015418707
0.033051886
-0.01424673
-0.017928405
0.0028159046
-0.032216746
-0.022530535
0.00938802
0.08386737
0.043106258
-0.08514798
0.024060361
0.059856985
0.060803518
0.018139012
-0.066361584
0.06987099
-0.013224143
-0.06684051
0.046520267
0.0028438163
-0.0659452
-0.024846705
-0.08290817
0.030394137
0.052187786
-0.042728726
-0.07689999
-0.04018982
0.073239565
-0.083263814
-0.0006327506
0.03594907
0.022400808
0.047591157
0.0031663768
-0.035879083
0.06443925
0.06883031
0.0060084653
-0.020329963
-0.08176851
0.040749565
-0.06850236
-0.006489224
-0.021608595
0.05252024
-0.022183329
-0.06577542
0.048500095
0.00621215
0.06494223
0.006019887
-0.055721495
-0.005198951
-0.013718019
-0.025149193
-0.041288834
0.043463524
-0.05457942
0.027710805
-0.0006930312
0.031937376
0.045755062
0.02380316
0.01124244
-0.0014779635
-0.042377003
-0.017082907
-0.009042448
-0.050582845
0.064158775
-0.07956758
0.07904809
-0.07985987
-0.07816591
-0.035987
-0.085824125
0.029409533
0.013387251
-0.010219894
0.0018659253
0.025109047
0.08137382
0.08615394
-0.036519926
-0.05660137
-0.07921117
-0.04704605
0.058440473
-0.0043844525
-0.010851507
0.036623884
-0.024107544
-0.034819618
-0.06452034
-0.034624457
0.07209121
0.08065081
0.04321718
-0.08496128
0.049838237
0.06271061
0.082493216
0.01809791
-0.05337948
-0.032510635
0.027642863
-0.05146343
0.08102312
0.0110442545
-0.062823735
0.024512533
0.05105201
-0.0681721
0.04607603
-0.017169066
0.07766611
-0.033142712
-0.038124185
0.018958643
0.082398675
-0.03586546
0.017823955
0.025332531
-0.01330616
-0.03672532
-0.02234176
0.063522056
-0.044292774
-0.018815817
0.037053842
0.010387607
-0.005714291
0.00025370295
0.058292937
-0.034078825
0.06656117
-0.012346329
0.01866939
-0.006505271
0.04238189
0.04060244
0.040667113
0.07109313
-0.009443054
-0.032542657
0.015074431
-0.020175464
-0.043233216
-0.047935452
0.030854454
0.031548675
0.0502991
-0.07775846
-0.08180999
-0.018653184
0.013006275
0.030183118
0.010607487
-0.05916717
0.051717237
-0.079643056
-0.07741192
0.063306265
-0.060881585
-0.071230955
0.0700539
0.019875916
0.05686029
0.06041151
-0.056371767
-0.06763905
0.032768257
0.071544684
0.019660356
0.06334553
0.031045126
0.06887042
-0.07525464
0.056622162
0.071073934
0.06989254
0.054814503
0.048333846
-0.018788781
-0.0134567935
0.042699434
-0.03541116
-0.01951516
-0.020709738
0.082877666
0.007444756
0.0059327693
0.017689148
0.054307625
-0.024022449
-0.023167575
-0.07170651
-0.03645268
0.07984705
-0.04937517
0.054492913
0.026675299
-0.054003756
-0.014877216
-0.08043441
-0.050198022
0.07564679
0.03813195
-0.06794225
0.07042575
-0.069409244
-0.00045759886
0.021586098
0.07329585
-0.00420183
-0.057992544
-0.086119525
0.0174004
0.045804255
0.0817296
-0.02929718
-0.012191092
-0.05111003
0.042215556
-0.06821482
-0.05362997
0.0015681051
-0.029526995
-0.025117235
0.02130974
0.02457548
0.07472182
0.07873506
0.04452099
0.08666956
0.006536818
-0.019537235
-0.053719446
0.052277844
0.0049465857
-0.058266435
0.038821124
0.040349633
0.03535525
0.08186572
-0.04209449
0.024051026
0.055268943
-0.011415368
0.020567387
-0.07856182
-0.07831757
-0.0037743135
0.046062764
0.05795788
-0.029077984
0.009352733
0.0484727
-0.059474904
0.04968791
-0.05785421
0.08312121
0.023501052
-0.0882752
0.05590478
0.0026523643
0.0389082
-0.035794854
0.017216565
0.041683264
0.0174104
0.034485754
0.05748883
-0.05856609
0.025725076
-0.013789964
0.056367826
0.0319887
-0.07191277
0.030136988
0.022999978
-0.054210823
0.026333267
-0.039629724
-0.008843705
0.034123532
0.07141963
0.05323539
0.05853354
0.075923935
0.06729099
-0.08034314
0.05364891
0.071217686
0.07683831
0.019344918
-0.062183257
0.08405333
-0.079062946
0.020438135
0.070611894
0.015659988
-0.07574313
-0.0693144
-0.08661072
-0.060795363
-0.01206443
-0.059875317
-0.05087133
-0.06989972
0.0056520505
-0.068155766
-0.029535446
-0.07182737
-0.06033631
0.022485143
-0.017190129
0.05491377
-0.078055024
-0.08194025
0.03394151
0.04035879
-0.037201136
0.04210292
0.06663971
-0.07403292
-0.070868984
-0.014625504
0.030665794
0.036725488
0.015808566
-0.08384685
0.03407323
-0.025894728
0.065783404
-0.023748789
-0.063098334
-0.055422854
0.019072007
-0.037306663
0.023832504
0.08336118
-0.006279933
0.019750245
0.0867635
-0.070323266
-0.017978117
0.066829056
-0.01361712
0.017320236
0.0056576557
-0.025810003
-0.002612894
0.019819524
-0.065736555
-0.054296732
0.08005013
0.06034734
0.07743497
-0.04707648
0.013749197
0.035751905
-0.0057484508
-0.06710049
0.027194822
-0.061311767
-0.07844142
-0.0800321
-0.058405828
-0.0542388
-0.05886271
0.044296633
-0.08355098
-0.018145619
0.0265497
-0.013526704
0.06894374
0.026625134
0.01649598
0.0019350777
-0.031173337
0.048170853
-0.06864912
0.06979646
-0.070927404
-0.05758627
-0.030246897
-0.0064753257
0.049565703
0.06415114
-0.032029275
-0.055227585
0.07042834
0.040318772
-0.029092483
0.024069559
0.060715474
-0.0006770259
0.051099103
0.061948344
-0.056803625
0.07008837
-0.053792305
0.06933421
-0.05897875
-0.08537665
0.041677944
0.060898077
-0.029619455
0.08001667
-0.049963854
0.03229632
0.07000427
0.026685214
0.08029511
0.04008256
0.04473543
-0.03842547
0.046990372
0.019836983
0.007853738
-0.0019240457
-0.0027681207
-0.024409715
-0.03982288
0.025764104
-0.03629122
0.030500157
0.009583971
-0.016872343
0.067453384
0.056236908
-0.07708932
0.0335986
0.038131285
-0.0049628336
0.066858165
0.06067239
-0.06413997
0.060195953
0.01866528
0.05745804
0.079278566
0.015490146
0.0848433
-0.06145176
-0.07002757
-0.06439973
0.017979488
0.03571252
-0.06304701
0.060493045
0.06509657
0.015970811
0.06654115
0.020446246
-0.03738556
-0.086620584
-0.00084258924
-0.059504617
-0.006196219
0.029476957
0.062638395
0.068760514
-0.040010847
-0.052023172
0.056467503
0.023685886
-0.08571506
-0.050310187
-0.053887475
-0.015729457
0.02987593
-0.06456089
0.047757763
-0.027830206
0.08012904
-0.010415097
0.072248936
0.08075215
-0.008490082
-0.02246152
-0.06601858
0.07887377
0.05790435
-0.020470355
0.018058218
-0.027911402
-0.027209815
0.080875404
0.050333958
-0.01325924
0.07447925
0.07786472
-0.034659386
-0.042547695
0.00817298
0.023441454
0.03226532
-0.061168805
-0.0121962335
0.04767031
-0.00053941645
-0.051194914
0.02678899
0.006612714
0.04799411
0.045739908
0.023241848
0.051440872
-0.08214175
0.022730649
0.08003355
0.04778637
-0.07144622
-0.050221287
-0.031702437
-0.012145637
-0.032356534
-0.08157089
-0.01664475
-0.02127734
-0.040569704
-0.048096076
-0.037562218
0.06445619
0.0300536
0.02049363
0.07383097
0.07047523
0.023452539
0.08410542
0.08620333
-0.07964517
-0.07516869
0.059274644
-0.03513333
0.024631724
0.035617817
0.027243786
-0.014347398
0.06098335
0.03425855
0.07205407
-0.063527405
0.037035648
0.047280777
0.08611913
-0.033757042
0.07239527
-0.0800564
0.044050515
0.047892023
0.014107213
-0.042268157
-0.070852704
-0.02463166
0.031173674
-0.014485503
0.025586108
0.029261028
0.08484632
0.028916035
0.087311186
0.04131312
-0.022532664
-0.0727393
-0.048478853
0.009185663
0.004539953
-0.07278213
-0.044508513
0.017712107
-0.044761512
0.042118505
0.06330446
0.062186074
0.030552208
0.030545106
0.06377621
-0.06464987
-0.055028632
0.007925672
0.06092859
0.08787386
-0.024757827
0.04284103
-0.030487545
0.08228072
-0.08222652
-0.033694077
0.067289226
-0.0053431666
0.060100984
0.08291587
0.010145241
0.04284952
-0.046344746
-0.0008572037
0.048882123
-0.08747701
0.01967654
-0.08656761
-0.017453326
-0.051858347
0.04914507
-0.0224427
0.08235759
0.04615004
0.035301093
-0.07157356
0.06491188
0.025157074
0.0054104226
0.039073247
0.06570845
0.07391753
0.0018907076
0.049012918
0.025549745
0.057340764
-0.07058313
0.008932856
0.073868714
-0.025809528
-0.042169124
-0.07179731
0.0016864113
0.03702395
0.048531517
-0.07258072
-0.039408725
-0.076169014
0.07937401
-0.06101714
-0.05150073
0.01872006
0.06582378
0.048369862
-0.0630408
0.030696003
0.0130849
0.08330828
-0.0051041413
0.08154745
-0.013497422
0.019990409
-0.008825328
-0.0732738
0.018215077
0.0148974145
-0.015852325
-0.045144733
0.010775527
-0.019020388
0.050247345
-0.026794933
0.004109792
0.07989644
0.06514991
-0.08063422
-0.067563
0.042784847
-0.017468035
0.064966805
-0.047260873
0.052878667
-0.02002617
-0.060465004
0.06909113
0.005263646
0.05869011
-0.08687856
-0.055861685
0.0649696
-0.08384204
0.022380292
-0.023377119
-0.07902266
-0.087360375
-0.01885613
0.018986544
-0.030188354
-0.023212904
0.04928606
-0.046786215
-0.06030371
0.03070675
-0.027430402
-0.016106786
0.03727732
0.053610526
0.026215319
-0.06979118
0.061026823
0.065238915
-0.016591223
-0.034938905
-0.058639392
-0.05411704
-0.010240125
0.06893
-0.08615234
0.027739275
-0.04927688
-0.04978291
0.083131485
-0.004862366
0.018143838
0.02140828
-0.08273171
-0.08506353
0.08104395
0.020175148
0.06970283
0.08304413
0.045362454
-0.056989502
-0.08621807
-0.008362672
-0.039316285
0.0114610875
0.011814763
-0.07297114
0.048081566
0.033815227
-0.08594211
0.063803025
-0.0766324
0.04284169
0.05847259
0.0767194
-0.042388633
0.0689242
0.050868947
0.06329301
-0.066707216
0.0350444
-0.010921154
-0.0022431712
-0.0005178478
0.050097756
-0.035875786
-0.04514523
-0.039737746
0.08328216
-0.06902672
0.015740583
0.034226708
-0.039395206
0.08098986
-0.050340015
0.05466486
-0.06568601
-0.061317857
-0.012248085
0.016366474
0.08585677
-0.042860035
0.02189278
0.03188709
-0.086749986
0.07270115
0.06046101
-0.0654691
0.0049596303
-0.07241868
0.0816874
-0.08199525
-0.08524454
0.070452794
-0.01385172
0.016699286
0.06862808
-0.036375932
0.05420207
-0.039065093
-0.05359429
-0.06312233
-0.047151335
-0.08645711
-0.00019825877
-0.06911386
0.08199573
-0.04356724
0.035204038
-0.050151683
0.019232323
0.055405233
-0.08823442
0.00035802694
0.049878232
0.06812555
0.030559583
0.044400796
-0.08354503
-0.05366616
-0.015937494
0.03265738
0.07826311
0.08414831
-0.050371815
-0.00685823
0.03293185
-0.07666217
-0.0657521
-0.06448285
-0.052835435
-0.08355253
-0.020306837
0.06802021
0.04454
-0.0754624
-0.053103257
-0.082046345
-0.060487565
0.00015040103
0.004909349
0.06655628
-0.043225974
0.0038281877
0.03356459
0.04069096
-0.029555183
0.08529073
-0.048660148
0.08470805
0.0014814934
-0.020897493
0.070807666
0.063496135
-0.0061197225
0.01824321
0.03773598
-0.025775557
0.02093888
0.065980054
0.07962726
0.06879237
-0.07414459
0.08059977
0.08642442
0.072367236
0.057027467
-0.08736119
0.06870236
-0.049634002
-0.079354644
-0.021326706
0.056603998
-0.076847695
0.034029767
-0.027323127
-0.00096583716
-0.08245721
0.03618264
-0.01810009
-0.079382405
0.06492807
0.0428252
0.039620165
0.04924185
0.07996378
-0.081544176
-0.005503072
-0.08268993
-0.07624578
0.07260096
-0.028013904
-0.046465255
0.014205806
-0.036270894
0.018518219
0.07769914
0.0880373
-0.03759248
0.08821939
-0.018223539
0.032563254
-0.018122818
-0.0102274595
0.054563276
-0.040505525
0.027002843
0.01679435
-0.030682653
0.04007045
0.0038534969
-0.040815607
-0.020974146
-0.070912115
0.07133336
0.021460311
-0.07627633
0.06212948
-0.042102255
-0.037931487
0.03389127
-0.08096835
-0.035503145
0.04138596
0.04915213
-0.010365154
-0.023568654
0.03841559
0.016039774
0.066068664
-0.08138358
0.07585434
0.006958771
0.02142297
0.068944365
-0.008301886
-0.03969722
0.07466211
0.047839094
0.06904556
-0.0727918
0.060860354
-0.059792984
-0.078425474
-0.03694251
0.032318078
-0.010255603
-0.04084136
-0.012589538
-0.07347483
0.0048538204
-0.060481507
0.017207336
0.0074896426
0.01601594
-0.04838848
0.015332812
0.035246387
-0.019102838
0.05244112
-0.0065961187
0.04572441
0.06622967
-0.04147961
0.08514795
-0.05801053
-0.042293254
0.0234561
-0.03385099
-0.06238527
-0.009720813
0.039377306
0.023580128
-0.015062356
-0.06601571
0.019488808
-0.058704164
0.06584283
0.027348826
0.026137441
-0.07393559
0.03674813
0.05003682
0.051704593
-0.009141472
0.022253377
0.0009938964
0.022764355
-0.015838375
-0.0069987793
0.0059130867
0.017286478
-0.03901049
0.043743033
0.053153824
0.05152372
0.0544312
0.020584794
-0.05281947
-0.018282596
0.027041491
0.08009804
-0.01268775
-0.057987288
0.029232252
-0.08362372
-0.07967092
-0.036863044
0.061633423
0.010722327
0.0035698065
-0.030476553
0.033436213
0.026601214
-0.06446182
-0.05055685
-0.05048361
-0.03482377
-0.06149283
-0.046226695
0.061603393
-0.018498948
0.08095942
0.04321897
-0.07963861
-0.021435138
-0.010762872
0.06812663
-0.050976485
0.06649364
-0.062212307
0.084214136
0.061140083
-0.03523198
-0.014262725
0.08229158
0.06289837
0.05549585
0.066051275
0.07394067
-0.07343358
-0.0053977785
-0.023877148
0.047345344
0.00049951393
-0.018985448
0.058714077
-0.055643816
0.055135064
0.014393043
0.07505065
-0.046182092
-0.027219793
-0.056551356
0.056537226
0.056131363
-0.015859753
-0.07907335
-0.0076516652
0.04788039
0.03924766
-0.023708392
0.079725474
0.01542718
-0.075688444
-0.054826114
0.012212902
-0.028129037
-0.044669718
-0.026790338
-0.07733345
-0.079747155
0.08241772
-0.030316249
0.074417986
0.025173964
0.043406796
0.0703399
0.058193922
-0.008920992
-0.07853812
0.037750814
0.04297282
0.011631033
-0.04093287
-0.07358906
0.031109547
0.0781372
0.059904117
-0.082903944
-0.084337294
-0.048466608
-0.025457645
-0.053760517
0.011409173
-0.058121253
0.07400617
0.0275417
-0.041578464
-0.0697371
0.07060486
-0.016588883
-0.03927987
-0.03823694
-0.0019281234
-0.04165784
0.0067011276
-0.08505451
0.029146295
0.067763984
0.0826563
-0.06053737
0.035711445
0.032943755
0.054615773
0.03302117
0.045549247
-0.08363118
0.049487196
0.00772557
0.009866282
0.018698543
0.017529918
-0.016746935
0.010715066
0.013584298
-0.079412855
0.019601066
0.058377568
-0.025835048
0.017623167
0.047565814
-0.024563625
0.08129794
0.001476836
0.012539183
-0.015037005
-0.019192558
-0.06261049
-0.08504441
0.060921814
0.04749247
-0.05952746
-0.026278919
-0.0119810635
0.0071113217
0.052279826
0.029110396
0.01568614
-0.04620209
0.08129424
0.032323513
0.05073113
-0.05672498
0.06281323
0.02894497
0.046443887
-0.002162523
0.039918132
-0.037890743
-0.0776494
0.036894664
0.007160602
-0.01174738
-0.08294236
-0.02979684
0.056514625
0.004736937
0.0614685
-0.032668233
0.036201224
-0.062496305
-0.010490604
-0.025374742
-0.07726251
0.05777216
-0.053011842
-0.0019022032
-0.03403299
-0.039737817
0.02006015
0.021319678
-0.038608987
0.086017534
7.429436e-05
0.044857502
0.07932119
-0.046687108
0.0666237
0.023992546
-0.018310256
-0.07857372
0.0011663297
0.06705034
0.024523808
0.08024751
0.020658793
0.07750844
0.054320008
0.06963293
0.0030359218
-0.07741607
0.062558934
-0.07255254
-0.05513482
0.050172187
0.00681072
-0.05386703
-0.08131426
-0.08822138
0.034911603
0.065407485
0.058865145
0.039296288
0.014079966
0.034667574
-0.08519043
-0.044631425
0.015612941
-0.044405792
0.028450618
0.06510692
0.041204687
-0.05008543
0.087929785
0.03941293
-0.038582478
-0.0006780901
-0.029667905
0.059871305
-0.061505083
0.00027462887
-0.03530632
0.030789463
-0.023879476
-0.035669584
-0.058693554
0.08428181
-0.032922514
-0.042538393
-0.061770137
-0.046524744
0.03685668
0.026819851
-0.030883903
-0.006591746
-0.06300094
-0.010788561
0.021186378
-0.031083595
0.0325875
0.053475004
-0.029785756
0.080412425
-0.0029520495
0.014376501
-0.024119504
0.0022102334
-0.0048534097
-0.018477958
0.053670198
-0.022756116
0.08424932
0.082454614
-0.08464758
-0.0075898464
0.005892772
0.05740542
0.050725248
0.03366984
0.00025646357
0.018676091
-0.05117323
0.05134387
0.055641722
-0.0018203224
-0.005181839
0.02133426
0.05800895
-0.015373716
-0.06654594
-0.0076105827
0.009801966
-0.067402124
-0.08029696
-0.07638234
-0.032598384
-0.053046223
0.03420361
-0.058591872
0.025993489
-0.036012143
0.07892166
0.08221866
0.07187566
0.05992602
0.0648519
0.08672501
0.043152165
-0.059853677
-0.047495756
-0.08605744
0.045727972
-0.022376858
-0.069164716
0.07332914
0.0036521298
0.019585313
0.071149275
-0.061272465
-0.07996591
0.0644643
-0.035581023
0.0043844734
-0.083938405
-0.05015237
-0.049511492
0.008014339
-0.056387942
-0.04537659
0.06559308
-0.07899886
-0.011005448
0.06194166
-0.07462662
-0.043718766
0.009317983
-0.023794541
0.044985503
0.028444327
-0.08808471
-0.027587177
0.012021303
-0.030375633
-0.026027143
0.023541365
-0.08409611
0.02639636
0.019695507
0.055496935
-0.086702704
0.051440112
-0.031358697
0.03650648
0.025392117
0.014545267
0.055153016
0.06316454
-0.040138833
0.006523015
0.048387203
-0.032911316
0.017115561
0.00958176
0.06484555
0.05619806
-0.07212457
0.0514167
0.046775952
0.035614654
-0.0672108
-0.08621616
-0.07226686
0.011241249
-0.050092425
-0.028994523
0.06903788
-0.08783461
-0.074683994
0.04552575
-0.027783908
-0.007891639
0.060670115
0.025632532
-0.07640026
-0.024295267
0.057327185
0.055173755
-0.0645619
-0.033682548
-0.047432907
0.004559583
0.04326432
-0.011295355
0.069303684
-0.023307597
0.070658654
0.06268923
0.022893967
0.03679442
0.04224818
-0.040848903
-0.07403261
-0.018559523
-0.015893018
0.040974397
-0.039536208
-0.047145873
0.0501114
-0.081782594
0.046996392
0.04872399
-0.06197286
0.04716701
-0.016668458
-0.008229773
-0.02021247
-0.023531059
-0.07387536
-0.04214335
0.060665634
-0.0016064376
-0.036649518
-0.073333085
-0.052456155
0.030229678
-0.028902896
0.020083636
-0.02138667
0.034132972
-0.08142191
-0.0392039
0.0030297788
0.05910462
-0.039469205
0.052260563
-0.046063893
-0.0779624
0.03622804
-0.041554105
0.060022295
-0.007652519
0.07187777
0.017869622
0.021318823
0.0060566706
-0.053909853
-0.028780965
-0.038706716
-0.034916945
-0.06928224
0.067428656
0.08374981
-0.0736905
0.041289106
-0.07098152
0.010836249
0.069216356
0.012449168
0.030662084
-0.06861653
0.08707367
0.013908186
-0.03897791
0.06685587
0.023321843
-0.03385594
0.061951946
-0.07814032
-0.030004973
0.0014693445
-0.049845792
-0.00045573385
-0.07890971
0.03806049
0.064012915
0.056771982
-0.011921626
0.07922849
0.07233395
0.032999255
0.06755631
-0.060183033
-0.05187831
-0.048712432
0.08545069
0.077889495
-0.07189634
-0.05910754
0.06147969
0.04184983
-0.0066400464
-0.034935713
0.003860293
-0.026609771
-0.028933527
0.07762755
-0.076905735
0.07318791
0.06251393
-0.056648597
0.06479131
0.063257426
0.086144656
0.06394136
0.08511179
0.023376232
0.06201344
-0.012378719
0.053581215
-0.014972457
0.0402371
-0.026646322
0.0509412
-0.057952434
-0.018896202
-0.011190673
0.034035064
0.07549921
0.055433296
-0.056730006
-0.06652572
-0.015723862
0.034291055
0.010740092
-0.013562308
0.003372949
0.07238208
0.017619595
-0.032638192
0.0763475
0.046785932
-0.02174104
0.054503396
-0.05405127
0.046785794
-0.012997139
-0.034477092
0.03421341
-0.015108517
0.07250829
-0.027561646
-0.04222326
0.07765206
0.059485532
0.02663545
0.038077623
-0.030108644
0.050620176
-0.05665055
0.018857006
0.075489976
-0.032473683
-0.07042905
-0.029389534
0.06693747
-0.057158943
-0.059748743
-0.039840046
-0.07519982
-0.08381246
0.04108245
0.009804042
0.061099842
-0.04063936
0.01911389
0.07411871
-0.00654373
0.01186478
-0.034453772
-0.018686205
-0.029631363
-0.06250984
-0.020268852
-0.08550073
-0.014234929
0.033550914
-0.077687226
0.07141149
0.08572611
-0.07799781
-0.014756233
0.068926714
0.010708987
-0.0002784537
0.018931605
-0.087410435
-0.0006940954
0.055232886
0.04312749
-0.03483277
-0.082284495
-0.03013311
0.013938711
0.032035775
-0.017322555
-0.078986146
-0.042265438
0.033928055
0.07804053
-0.008145784
-0.08801151
-0.032098956
0.048270427
0.05805232
-0.009042258
0.0541371
-0.044184238
-0.010724455
0.005816697
0.03172884
0.014081325
0.028736342
0.007685815
0.07823034
0.0823061
-0.029543422
-0.03532164
-0.015091269
0.071746916
0.07028803
0.0851817
-0.051291406
0.026343003
-0.0010579491
0.07432248
-0.07615171
0.038828027
0.07234175
0.003870187
0.04262567
0.007788284
-0.050681837
0.07916668
0.029241873
0.03133399
-0.0043560346
-0.022187017
0.076153055
0.03567406
-0.083892524
0.00923214
0.0056972634
0.07205988
0.07455459
-0.030624248
0.030969346
0.04991252
0.004212356
-0.0463155
-0.05109432
0.02908636
-0.011154037
-0.079582214
-0.0738902
-1.10214005e-05
-0.07286709
0.002743117
-0.034634743
0.080291316
0.040508505
-0.08391776
0.050278947
0.01754981
-0.052432448
-0.06636027
0.03308531
-0.07638963
0.061547767
-0.0628692
-0.039145857
0.07359688
-0.071406096
-0.0419563
-0.0048728813
-0.0058782315
0.04550843
-0.04674019
-0.021641731
0.045037035
-0.046103593
0.056419026
0.038576547
-0.0270554
-0.06489238
-0.023905218
-0.057713807
-0.0060137124
-0.060883526
-0.058890462
0.07625064
0.05181368
-0.056038026
0.0770099
0.04273148
-0.027372692
0.07359668
0.026562788
-0.00566598
0.010187198
-0.048355173
0.058705606
-0.013024408
0.0010779161
0.02351163
0.022738025
-0.03852341
-0.0025662899
-0.0018381821
0.053573996
0.04648221
0.07829915
-0.07718182
0.028235734
0.0016759378
-0.025784925
-0.015018566
0.042790536
0.012337752
0.023187984
0.033203267
0.049330853
0.032777857
-0.036256205
-0.0028915056
-0.039736006
0.024600556
0.06795174
-0.07671188
0.039972734
0.031636603
0.061440136
-0.021595338
0.07192274
0.078056015
-0.074761376
-0.06758292
-0.029063972
-0.07745276
0.028452968
-0.048946727
-0.06512429
0.038981188
0.016018867
0.05024979
0.03201224
-0.00455383
-0.06666879
-0.030383473
0.059314713
0.013900568
0.027766502
-0.016715102
-0.07825985
0.05589263
-0.049629726
0.083055094
0.075509
0.017589882
0.083759435
-0.07041974
0.044483144
-0.055189062
-0.03147104
0.05723133
0.04453315
0.011472488
0.010291439
0.05441217
0.022651708
-0.046481546
0.06258855
-0.067394264
-0.085407406
-0.025787042
0.056752373
0.02945798
0.083452076
-0.0016962631
0.04862191
0.018743925
-0.058886584
-0.059251294
-0.06254923
-0.025370495
-0.060743775
-0.03947617
0.08173349
0.0685544
-0.01724335
-0.043639835
0.004159409
-0.050567124
0.012562142
0.07419724
-0.06981935
-0.00280109
-0.044584822
0.045076337
-0.08577277
0.08229547
-0.040081304
-0.015009399
-0.07584847
-0.07101594
-0.025148308
0.083730705
0.07557996
-0.024673924
-0.046940915
0.031738736
0.058458477
0.08599508
0.017455792
-0.0015116283
-0.0059724506
-0.03479054
0.022198398
0.048419543
-0.07110886
-0.08617523
-0.006091705
-0.057393532
0.032971248
0.01737723
0.0763676
-0.035839055
0.026035266
-0.029542295
-0.042829752
-0.012738853
-0.015632857
-0.06901753
-0.00799237
-0.08603806
-0.016788702
0.087008655
-0.07411203
0.08586411
-0.031227706
0.01459597
-0.040978853
-0.0051390072
0.027376475
-0.04380976
0.008623361
-0.055644576
0.05920781
-0.042205095
0.008431982
-0.0030146586
0.023801157
-0.07933996
-0.0010303746
0.036387745
0.045316197
0.07820377
0.0098398775
0.011425536
-0.0710289
0.08321069
0.007437106
0.06898741
0.052644975
-0.019570773
-0.08272736
0.070121944
-0.08459777
-0.025106572
0.07568184
0.02185551
0.08715432
0.07668713
-0.0396766
0.075035214
0.007313985
-0.08089235
0.048399016
0.046066873
-0.014104685
0.083429545
-0.012352798
-0.010209062
-0.045450307
-0.01958916
-0.060025077
0.08788588
0.02313864
0.068407856
0.00030281456
-0.026466703
-0.041600287
-0.073606856
0.048825618
-0.07711697
-0.081447296
0.053045444
0.06520928
-0.020311756
-0.0019809334
0.07241526
0.0019100214
0.06435289
0.08628832
-0.025855731
-0.02668475
0.051083453
-0.022386983
0.025775379
-0.057157416
0.0029193647
0.07470503
0.063826874
-0.0005545893
0.0009608533
0.04816645
0.06237485
-0.042990733
-0.062672034
-0.034747757
0.036818232
0.083480574
0.022031253
-0.013713141
0.0013329152
-0.05282374
-0.07454539
0.03258337
-0.03241966
0.07211217
-0.03941295
-0.07293814
-0.023416052
-0.024838645
-0.04097407
-0.073300324
-0.002049517
-0.022220818
-0.044139646
-0.030682178
-0.041974436
0.007279298
0.016903698
0.033267573
0.053498436
-0.08382421
-0.072302505
0.08807642
-0.01617105
-0.012960145
0.07986961
0.068401664
0.029007927
-0.016555281
-0.06410819
-0.07312605
0.030529743
0.07050929
0.03833358
0.07001856
-0.038228277
-0.043641493
-0.02050913
-0.06679123
-0.023123331
-0.0671722
0.009939238
-0.076801546
0.050840635
0.0031675885
-0.0037289634
0.028626982
0.07710653
-0.020045916
-0.083179176
0.053120613
0.010918088
-0.010050527
-0.008788398
-0.07887013
-0.06907981
0.061678898
0.08216868
-0.042454466
-0.015784048
0.07251027
-0.046595193
-0.07922696
-0.058296908
-0.009040246
-0.0494671
0.058521025
-0.045723155
0.050238337
0.08282395
-0.07579944
-0.08307583
0.019205507
0.04784057
0.047125928
0.014964744
0.054293603
-0.039220054
-0.051525574
0.0015109119
-0.05842155
-0.08045189
0.06697301
-0.08523472
-0.02207614
0.057329006
-0.031760156
0.008955626
0.07588777
-0.05030438
-0.08757444
-0.008419823
-0.0035954528
-0.07989627
0.046957225
-0.03704205
0.02982312
-0.060899444
-0.05328017
0.07951465
-0.019380301
-0.024171596
0.0786535
-0.023497742
0.0775568
-0.01361516
0.06183913
-0.0062636537
-0.08750176
0.05149173
0.042061448
0.0018186575
-0.07184426
0.0103432685
-0.067071766
-0.043308213
-0.04457317
-0.0010088691
0.08001135
0.032958794
-0.019256527
0.030119844
-0.043661594
-0.010761112
0.014909026
-0.016334474
0.032870706
-0.06706985
-0.025147654
0.06736907
0.030836288
-0.032020066
-0.017910061
0.058031425
-0.01295475
0.00919797
-0.031484716
-0.06750332
0.0754541
0.07353042
0.029529262
0.0073136794
-0.030470738
-0.06620333
0.0044701155
0.07714401
0.054669697
-0.038739443
0.023795046
-0.002275382
-0.03736704
0.03761899
-0.05604141
0.04976548
-0.029369157
0.07938708
-0.057291526
-0.017024945
-0.020212311
-0.023992589
0.012143276
-0.015525097
0.03932066
0.06693718
0.07258509
-0.0563793
-0.0037210188
-0.042153824
-0.04986501
0.021004314
-0.08762271
0.07716289
-0.03443211
-0.05518589
-0.0062848325
0.059928264
-0.07119511
-0.04534629
-0.0035217379
0.061868474
0.07261424
0.06026935
-0.054350268
-0.08208219
-0.05876677
-0.023624668
0.059029758
0.04396956
-0.043744825
0.083152756
0.027321473
-0.00752984
0.065512836
-0.032169953
0.029878132
-0.018905621
0.08037692
-0.0068985224
0.017263548
0.02867504
-0.03091955
-0.06670559
0.073881276
0.07869703
