2 4096
32 128
-3.1477334
-4.1470137
0.07785616
2.30671
-0.56376815
-0.27635512
-1.0425861
-1.2920444
0.92713135
4.877897
-0.15625842
0.6262776
-2.249011
1.7450962
5.16188
-2.5511024
1.7788951
-0.60563195
2.5447452
-2.5224967
-1.4087262
0.18304025
-0.5773926
6.163092
-0.25369313
-0.56084967
-2.3036358
-4.879902
0.2985833
3.2932048
-1.9913704
-3.2166271
-1.8403002
-0.4317998
0.3859421
3.0458262
0.5763466
2.096075
-0.50325304
-1.3467226
1.2418329
1.8107737
0.3620836
-1.4533974
1.2727008
-1.6591681
-4.4868984
1.66236
-0.91015935
-2.475484
0.51988655
0.26729932
-1.3381517
0.4457601
0.9070862
0.5530124
2.4780805
-0.4727535
-0.06444414
-1.8439589
0.8752339
-3.521483
1.2327144
-1.8434681
2.4441423
-2.5488405
6.70158e-05
2.2720253
2.6661928
2.4465973
2.5061302
-3.3380582
2.138587
0.9061001
0.913654
-1.7515519
-0.18295537
0.1048004
1.777295
1.3709165
0.762723
-2.8943484
1.3789321
1.8406603
2.3108947
2.4976418
2.4573383
-2.301249
-2.4924839
1.1209966
2.825
0.106853254
-1.3549154
-1.0995833
-1.4797481
0.5317801
-2.4759195
-0.4833316
0.14475206
-0.2177483
-3.0689144
2.4865108
1.5763879
-0.6810378
-2.149955
1.1421725
-2.9618983
0.97496796
0.2717998
-2.1697934
-1.3435924
1.7910845
0.30469087
1.8591205
-2.8878865
2.7127607
1.3464324
-1.4008895
0.27737466
-0.07969423
0.2762661
-1.9662843
1.3643295
0.93950826
0.44821852
0.4388983
0.06309799
-2.5334055
-3.2577608
-4.366985
-0.055579517
2.163179
-0.49039719
-0.48501325
-1.0860444
-1.5032823
1.0135416
5.0111704
0.07933104
0.56497395
-2.4113755
1.6913081
5.365978
-2.7728946
1.8027457
-0.7572285
2.6295795
-2.8723981
-1.5160065
0.21121626
-0.8449131
6.4453864
-0.54386723
-0.46826255
-2.329228
-5.1117973
0.22750406
3.401048
-1.8502419
-3.1464827
-1.9197637
-0.5567862
0.60999084
3.064577
0.6888597
2.162471
-0.36087248
-1.5882448
1.3032019
1.930791
0.5523079
-1.3867671
1.3552974
-1.6909939
-4.7235537
1.3150779
-0.95491076
-2.6246004
0.4843666
0.15726157
-1.1988443
0.52050585
1.0174205
0.5949126
2.6421661
-0.19160162
0.04955195
-1.9764074
0.97529435
-3.5554543
1.1998196
-1.8084707
2.3013597
-2.8303847
0.12170781
2.133568
2.6304455
2.5083864
2.385887
-3.5138998
2.2019584
0.8942451
0.9168981
-1.8531743
0.06596151
0.028951645
1.8723265
1.4344698
0.84023
-2.9786768
0.9654554
1.8809888
2.5390935
2.3911386
2.422152
-2.2372825
-2.620014
1.2604157
2.7877781
0.31284994
-1.3366711
-1.1176717
-1.5639577
0.6649088
-2.6555433
-0.36729932
0.14052668
-0.46831724
-3.2371166
2.3763041
1.6011895
-0.5819418
-2.2793756
1.3371094
-2.956629
1.1514096
0.12860736
-2.3259165
-1.3918165
1.8527699
0.4365275
1.8854359
-3.048242
2.6747227
1.4194769
-1.5850887
0.38551086
-0.03900115
0.4222861
-2.228956
1.2539582
0.9321521
0.29911798
0.38699108
0.091411784
-2.6259081
-2.6396108
-3.666113
0.18821622
1.6918619
-0.77942336
-0.29883328
-0.705243
-1.2433395
0.9455787
4.2416277
-0.05719155
0.60018814
-1.8160203
1.351767
4.772501
-2.4527807
1.667076
-0.5692261
2.2354786
-2.1023328
-1.2550215
0.089672975
-0.5034478
5.2699428
-0.27917853
-0.42939967
-2.0137172
-4.24907
0.31500196
2.8644454
-1.808191
-2.661396
-1.9361562
-0.4563734
0.42840979
2.576293
0.548495
1.6407729
-0.2122023
-1.3250121
1.0833696
1.585295
0.3618364
-1.4485531
1.0668973
-1.5070636
-3.72739
1.4109124
-0.9021944
-2.0922005
0.53564
0.3070981
-1.1138688
0.42152157
0.85410976
0.8135898
2.097346
-0.35757753
0.01533483
-1.4882562
0.63935906
-3.2701912
1.2538662
-1.6346558
1.8955698
-2.0660748
-0.023768641
1.7269617
2.4233224
2.0413907
2.1339154
-3.0482087
1.8329669
0.891688
0.6765095
-1.6710826
-0.09209401
0.15943813
1.5231808
1.3008589
0.821591
-2.303236
0.97602016
1.6462636
2.156825
2.1886172
2.1911483
-1.9942981
-2.114864
1.0125413
2.412133
0.18165502
-1.0467877
-0.9506243
-1.3332386
0.5720673
-2.2137856
-0.6276316
-0.004789123
-0.18785825
-2.6431103
2.1077716
1.2804165
-0.43313274
-1.8091878
0.9634991
-2.5373733
0.76230884
0.1458407
-1.688137
-1.2753584
1.6681213
0.42131978
1.633845
-2.5518053
2.25541
1.2398078
-1.2110133
0.21204737
-0.04905567
0.22034295
-1.714616
1.2363044
0.75440603
0.4643363
0.26832664
0.2678109
-2.143844
-3.3702824
-4.241075
-0.006185593
2.1939733
-0.502747
-0.41119453
-0.9768984
-1.7605747
0.99757296
4.902383
0.08915839
0.93131065
-2.3078442
1.798292
5.459496
-2.8049386
1.6655918
-0.8216251
2.473897
-2.9282706
-1.588164
0.27418518
-0.7867936
6.4229655
-0.42977715
-0.6168219
-2.3347554
-5.1602983
0.3065354
3.3731833
-1.8875389
-3.2050982
-2.0109189
-0.56610495
0.44249648
3.0724819
0.8701245
2.149334
-0.41588384
-1.6557143
1.1512121
1.8020482
0.35153043
-1.2875513
1.3523359
-1.5821822
-4.6525083
1.6715641
-0.90367365
-2.6470597
0.6296196
0.43588227
-1.2108467
0.54127264
0.94717836
0.7850605
2.55563
-0.40717256
0.030371744
-1.928621
0.8394467
-3.6589847
1.4431559
-1.8416287
2.3297307
-2.7569568
0.055368718
2.285852
2.9276638
2.6822386
2.3962114
-3.5529406
2.4447222
0.97809637
0.9051773
-1.8690557
-0.25773686
0.17316926
1.7042867
1.3270317
0.8047977
-2.7492244
1.0120226
1.9271097
2.5316231
2.4818764
2.6242776
-2.3058848
-2.5195193
1.0159031
2.8381777
0.4893904
-1.5957859
-1.2551268
-1.45935
0.56640583
-2.5749023
-0.28100973
0.038030893
-0.39150298
-3.1546552
2.3926482
1.5960668
-0.42294484
-2.407185
1.3320777
-2.9952075
0.9688955
0.18552372
-2.0229456
-1.4985492
1.7698106
0.43075946
2.005889
-3.0566757
2.6800783
1.5839982
-1.6016893
0.24373764
0.14822112
0.4927449
-2.1418967
1.2708671
1.0015204
0.5162429
0.33293158
-0.084672384
-2.6765182
-3.131176
-4.156657
0.06480981
2.2664871
-0.620033
-0.39016867
-0.97515476
-1.587945
1.0144079
4.892265
-0.004761129
0.6519275
-2.201121
1.6275493
5.4688983
-2.6848133
1.7971385
-0.7072848
2.6098075
-2.938458
-1.3672092
0.27287036
-0.6406694
6.283038
-0.44634768
-0.44042316
-2.5152748
-5.0286293
0.33398566
3.339677
-2.0760527
-3.227439
-2.1373913
-0.55688334
0.55261254
3.206179
0.5977463
2.1271749
-0.3632731
-1.6158555
1.2333225
1.918619
0.40429857
-1.3615981
1.3282627
-1.6707476
-4.59272
1.5676593
-1.0197489
-2.506536
0.34681377
0.26676252
-1.3648108
0.55936056
0.92511046
0.6734385
2.4666517
-0.22454028
0.038359795
-1.9511282
0.9748098
-3.779971
1.3711424
-2.0159454
2.3441787
-2.6457093
0.04502999
2.0691369
2.8690486
2.5822034
2.4908123
-3.6534674
2.181586
0.9768038
0.9884897
-1.81305
-0.10240593
0.0833074
1.7766528
1.3169096
0.9016592
-2.7423415
0.92342836
1.9084437
2.4977033
2.4685655
2.4191825
-2.2245224
-2.5706098
1.1692342
2.8427908
0.4619348
-1.4208294
-1.1835927
-1.7669357
0.53779155
-2.5432062
-0.3514423
-0.050126817
-0.4670102
-3.2924309
2.2809377
1.6625818
-0.5471826
-2.1608088
1.2468921
-2.9938173
1.0505527
0.22813332
-2.1377902
-1.408119
1.8847188
0.4523548
2.1215699
-2.989898
2.6498563
1.5022571
-1.6329408
0.4152037
-0.007870104
0.45487493
-2.2675228
1.2513322
1.0144467
0.26861268
0.44494888
0.12906234
-2.6467319
-3.1126835
-4.1976132
-0.07442428
2.2007813
-0.6192297
-0.4647695
-0.9769398
-1.3570912
0.88872945
4.943745
0.03230416
0.7563276
-2.4463925
1.5798855
5.481445
-2.6588469
1.647008
-0.7209453
2.6577446
-2.5957398
-1.4695505
0.33066532
-0.6844794
6.1332345
-0.3402101
-0.58374894
-2.3109965
-5.0906463
0.4851748
3.3274624
-2.061776
-3.0266428
-2.0650408
-0.45552093
0.4080507
3.0431902
0.6876248
1.9922885
-0.4671536
-1.4405153
1.1417007
1.9462557
0.5636103
-1.3658576
1.3699743
-1.8809117
-4.443856
1.5926023
-0.9915031
-2.453421
0.58868706
0.21891487
-1.2462243
0.39520395
0.9035704
0.69091034
2.536405
-0.49119186
-0.068955295
-1.6367297
0.81076777
-3.6651933
1.2191128
-1.8453143
2.3697264
-2.6343412
-0.023945687
2.1951783
2.540268
2.6195745
2.487862
-3.5969846
2.2465641
0.9093139
1.0012449
-1.6960745
-0.023851108
0.1901091
1.8568588
1.3204813
0.8777665
-2.9176729
1.1219958
1.9036583
2.4446383
2.3639343
2.3286388
-2.1571944
-2.463868
1.0996389
2.8390272
0.22592919
-1.2770782
-1.2890435
-1.5009462
0.3950615
-2.4546163
-0.58673483
0.12496532
-0.34877858
-3.1250787
2.3127217
1.589619
-0.6056335
-2.3164775
1.1009948
-2.9132774
1.0183773
0.1892455
-2.134701
-1.4954119
1.7593765
0.4232601
1.9545081
-2.9264636
2.4935973
1.3816271
-1.4288766
0.337547
-0.14008726
0.3866387
-1.9359363
1.2206072
0.85099685
0.32165426
0.4041398
0.24955252
-2.4608805
-2.763447
-3.8106287
0.025625853
1.8775905
-0.5155852
-0.40079948
-0.85900116
-1.2894137
0.8323293
4.432058
0.05310587
0.69627273
-2.0818655
1.59753
5.017127
-2.3017902
1.6751889
-0.7012502
2.2781274
-2.5837924
-1.2249756
0.24341014
-0.69145447
5.9440546
-0.32753724
-0.5827607
-2.306742
-4.5846057
0.40491647
2.9778628
-1.7965008
-2.9133966
-1.9142853
-0.50555146
0.324173
2.8538206
0.48724017
1.9799896
-0.31920028
-1.4024144
1.1328796
1.8074139
0.39461708
-1.1769488
1.3423237
-1.4782932
-4.0810804
1.5812612
-0.99244595
-2.396578
0.6168945
0.28992993
-1.1844517
0.52139455
0.7333854
0.59308636
2.227529
-0.42106035
0.13127954
-1.7121935
0.83028877
-3.425395
1.2360843
-1.6699276
2.243907
-2.3883133
0.08107872
1.8407706
2.6044288
2.4138982
2.4295564
-3.4112792
2.0323331
0.8924843
0.87181175
-1.5829512
-0.07993471
0.010428732
1.5815831
1.471767
0.80341923
-2.601504
0.9310844
1.8144174
2.260166
2.423701
2.172435
-2.0372639
-2.4259775
1.0207089
2.682142
0.22394386
-1.207763
-1.1717502
-1.5053712
0.25679952
-2.1606295
-0.43017104
-0.100664616
-0.24880838
-3.1211567
1.9126407
1.383498
-0.3360193
-1.96812
1.0230021
-2.767907
1.0189339
0.2962757
-1.990823
-1.4234061
1.7393026
0.49582225
1.6543224
-2.6761944
2.4729369
1.3820014
-1.430257
0.41584373
-0.0066717197
0.3645588
-1.7948341
1.0920645
0.8198178
0.36810178
0.41900036
0.17907305
-2.3548388
-3.2165005
-4.3865438
0.01948096
2.0861542
-0.70071113
-0.27668905
-0.8859638
-1.6320953
1.0113537
5.0910378
0.044522088
0.8139887
-2.3086693
1.724299
5.5197945
-2.7999046
1.8062904
-0.66228133
2.5377476
-2.5737307
-1.4789445
0.27898884
-0.9016202
6.279691
-0.35400537
-0.43450913
-2.433703
-5.1723924
0.4458981
3.5208666
-2.0231667
-3.1416435
-2.1163611
-0.6097381
0.4263316
2.9569223
0.629672
2.1933234
-0.37953287
-1.5404272
1.2150917
1.8673356
0.47793716
-1.5879103
1.2385151
-1.7436359
-4.541731
1.6547825
-0.90893984
-2.5937781
0.5059072
0.3895415
-1.3415778
0.48150867
0.94322956
0.662554
2.5533502
-0.37601814
0.06518641
-1.8536986
0.94315624
-3.7235177
1.193597
-1.786966
2.2602904
-2.6832364
0.026078718
2.1714635
2.6576388
2.525494
2.4103177
-3.6508274
2.2931492
0.8859434
1.0103006
-1.9322945
-0.092537515
0.0395944
1.7976775
1.3216057
0.9124131
-2.788229
1.0002759
1.8155782
2.4593132
2.379037
2.525116
-2.271311
-2.5991042
1.1367947
2.873482
0.25289965
-1.3710868
-1.2098824
-1.4486471
0.58799267
-2.4976823
-0.44004002
0.044099085
-0.34887984
-3.1627266
2.3442414
1.6725852
-0.64784837
-2.2652035
1.3658178
-2.8901703
1.039257
0.18784776
-2.1217058
-1.5718093
1.8565644
0.35250378
1.9705919
-2.9591815
2.5621321
1.4028057
-1.5504652
0.2930704
-0.019712072
0.44915536
-2.1915784
1.4868526
0.91620815
0.31053516
0.34919727
0.26950625
-2.4193394
-2.6033316
-3.4177291
-0.044251584
1.7078996
-0.61650974
-0.3525967
-0.77619267
-1.2190894
0.86916155
4.1374173
-0.06260652
0.49012753
-1.9522451
1.4534066
4.755988
-2.3080397
1.5014174
-0.48559788
2.2480547
-2.2712772
-1.2416749
0.20734891
-0.48708928
5.1330256
-0.42475814
-0.2537002
-2.249635
-4.287304
0.4174556
2.7784855
-1.8728086
-2.560149
-1.8467358
-0.46717244
0.40932813
2.6966655
0.5364186
1.772301
-0.25740233
-1.340818
0.9465793
1.6892383
0.37565142
-1.2316884
1.0785284
-1.6399474
-3.6532032
1.3340892
-0.83117276
-2.0249321
0.45703664
0.25901648
-1.2184736
0.30904892
0.93733764
0.58475137
2.2218916
-0.39743286
-0.13304354
-1.5261316
0.7035179
-3.143473
1.0970212
-1.7001504
2.052572
-2.242424
-0.122989066
1.8146608
2.2782955
2.1624002
1.9546916
-3.2173984
1.9349561
0.8636251
0.8643456
-1.6988736
-0.13692544
0.12312474
1.4970725
1.0641254
0.7555095
-2.3787346
0.77871746
1.5944695
1.9030787
2.011117
2.1040883
-1.914542
-1.9919385
0.8247604
2.483567
0.32026768
-1.1805208
-1.0166705
-1.3562038
0.3658165
-2.0481331
-0.38472196
-0.25806025
-0.3698157
-2.6319153
2.0861464
1.3840973
-0.5511387
-1.9014106
0.9418006
-2.3978364
0.7917424
0.116739534
-1.8313845
-1.3502421
1.5563279
0.34525454
1.6986014
-2.3133686
2.1515598
1.2301979
-1.3038329
0.31896967
-0.21730937
0.45779383
-1.8174134
1.1330696
0.87543833
0.21714656
0.27899852
0.18202713
-2.0565197
-3.2767272
-4.3293386
-0.049428653
2.0879424
-0.6500761
-0.20133191
-0.8503146
-1.6267438
1.06317
5.1105976
0.17910445
0.7352101
-2.444918
1.8474723
5.781183
-2.7071223
1.7022383
-0.8548853
2.5593708
-3.0680366
-1.5294101
0.35629535
-0.9398249
6.6841617
-0.5057686
-0.49057838
-2.4410026
-5.0813193
0.33713832
3.4003592
-2.0927284
-3.193684
-2.0748723
-0.77676815
0.52497697
3.0091164
0.67141086
2.2937875
-0.2776262
-1.7639773
1.36026
2.036367
0.29846126
-1.4743726
1.4278919
-1.6330839
-4.874221
1.5863651
-1.0496843
-2.645464
0.6417805
0.26164746
-1.2406162
0.6732384
1.0063949
0.71797365
2.6973326
-0.27523732
0.17280938
-1.9936795
0.9583423
-3.8676689
1.2754029
-1.8995116
2.3269417
-2.7651055
0.005972397
2.1184204
2.8175185
2.6955328
2.5637026
-3.7602243
2.3185222
0.87120885
0.81831074
-1.9347941
-0.08060055
0.12308438
1.6296643
1.4376578
0.73561484
-3.0385838
0.91323376
1.9728711
2.4712272
2.5221882
2.558023
-2.2720933
-2.5851376
1.0671647
2.9210777
0.43309227
-1.4430512
-1.2764572
-1.582059
0.45994398
-2.5772948
-0.3782466
0.061153382
-0.45853305
-3.5023155
2.3218899
1.7293619
-0.36846846
-2.4338303
1.3671292
-2.9735312
1.2290694
0.246827
-2.141933
-1.529576
1.8104578
0.46161783
1.8946054
-2.9637027
2.7397609
1.6070186
-1.6607909
0.38971463
0.16487306
0.4194526
-2.3309367
1.2836096
1.0400792
0.5049809
0.37032625
0.11274439
-2.7557368
-2.9913504
-4.001238
0.04726903
1.9268305
-0.5222425
-0.25976402
-1.0978434
-1.4104023
1.1251807
4.8038197
0.05989872
0.7062599
-2.1018124
1.6237783
5.1616874
-2.7380373
1.6771314
-0.76723194
2.4750376
-2.6303802
-1.4508747
0.04090915
-0.6393778
6.1460433
-0.5814399
-0.4129058
-2.0363026
-4.836729
0.3234473
3.1659486
-1.783239
-2.9245324
-2.007545
-0.6008236
0.548538
2.9319973
0.59433424
2.0421672
-0.2546608
-1.5393022
1.133556
1.725897
0.41822952
-1.263876
1.2820344
-1.3878919
-4.300274
1.5189548
-0.89866847
-2.3927915
0.46594787
0.29327008
-1.1777979
0.5760689
1.003698
0.7302262
2.4296753
-0.22665475
0.1576885
-1.8035007
0.76831883
-3.3520818
1.2496111
-1.5730978
2.1402102
-2.4751132
0.0740357
2.0469267
2.7022715
2.1732266
2.2390125
-3.2363527
2.0519898
0.95766985
0.78713423
-1.7701716
-0.17714158
0.25181183
1.7238709
1.2803484
0.70769966
-2.6088715
0.8583635
1.8273612
2.4296348
2.3196003
2.435301
-2.1553228
-2.3975525
1.0245045
2.5774798
0.2647412
-1.2721432
-1.0323162
-1.4251995
0.50876886
-2.56977
-0.35072896
0.14845034
-0.3879917
-2.9872937
2.227997
1.3621393
-0.3638255
-2.1132166
1.197844
-2.8141468
1.0315695
0.1303199
-1.9948392
-1.3236954
1.8278476
0.5817004
1.7884268
-2.8378656
2.4729302
1.3711436
-1.4754652
0.36830914
0.085801944
0.25571564
-2.0678225
1.4301386
0.8415869
0.37655583
0.3463869
0.030228963
-2.5176573
-2.8602076
-3.6200013
-0.03669058
1.9005648
-0.6181553
-0.37543383
-0.7012879
-1.5826104
0.9673785
4.263664
0.029659778
0.6727934
-1.9120423
1.4746505
4.610787
-2.407872
1.2402898
-0.5669823
2.1097186
-2.3380058
-1.3993279
0.39078116
-0.6309612
5.4212503
-0.29647055
-0.26922926
-2.01607
-4.2229548
0.18628293
2.8864932
-1.6418434
-2.5473511
-1.6666282
-0.5795239
0.506977
2.4105463
0.5677857
1.7437532
-0.13564491
-1.4264286
1.0965695
1.4547611
0.38692358
-1.2791109
1.0301535
-1.3086143
-4.065138
1.3581086
-0.85796803
-2.227272
0.4154643
0.3703307
-0.96027505
0.45479596
0.8060281
0.7056211
2.2596614
-0.32517165
-0.10340585
-1.4906076
0.7513711
-2.9242496
1.0573585
-1.4187328
1.8539814
-2.272241
0.14537068
1.8210545
2.4341445
1.9382635
2.119091
-2.8449574
1.862613
0.71547586
0.78789693
-1.5556109
-0.13410173
0.31287923
1.4730463
1.0281979
0.671988
-2.4254858
0.8393175
1.4421676
2.2843583
2.067469
2.1577578
-1.9092282
-2.144697
1.0893986
2.3865848
0.35604787
-1.22368
-1.0283607
-1.1989888
0.46390307
-2.167656
-0.40952715
0.27444595
-0.4147235
-2.7046745
2.0965059
1.252034
-0.47865096
-1.8907076
1.0745218
-2.503802
0.9816925
-0.060221825
-1.7291813
-1.1864088
1.5391107
0.3571592
1.5370387
-2.572819
2.2288818
1.2359077
-1.2400073
0.3431914
0.20783243
0.27589995
-1.9740851
1.09049
0.8488061
0.41140825
0.37297654
-0.0018930383
-2.1935914
-3.3294373
-4.23194
0.12366479
2.1169765
-0.48682556
-0.39941257
-1.0083045
-1.5453998
0.96309257
4.964708
0.07419178
0.67900324
-2.37942
1.7929162
5.66118
-2.6393054
1.924806
-0.76114815
2.7411215
-2.7548532
-1.470877
0.14703354
-0.75790113
6.599159
-0.20099424
-0.68490297
-2.3489108
-5.2801123
0.37226862
3.477467
-2.0830293
-3.3683918
-2.2168274
-0.47391665
0.41663918
3.1913075
0.77281195
2.182505
-0.5348375
-1.5763928
1.2994276
2.0236807
0.45518336
-1.3534867
1.5420259
-1.7893993
-4.685607
1.6541452
-1.023255
-2.7319145
0.7339352
0.21397339
-1.193367
0.5202981
0.95497364
0.6588607
2.5193226
-0.41202867
-0.0799116
-1.7911133
0.7886593
-3.809889
1.4491582
-2.0780554
2.5539262
-2.6024716
0.049216233
2.1470904
2.9385827
2.7617934
2.563625
-3.8241696
2.4258947
1.0224696
0.8378612
-1.8134602
-0.15481828
0.17608596
1.8087584
1.5228474
0.89507884
-2.8329215
1.0814369
2.1065993
2.4197397
2.7521474
2.4560933
-2.28223
-2.6007144
1.1838444
3.18375
0.32614315
-1.4773638
-1.3079667
-1.7251561
0.404849
-2.6243615
-0.43039948
-0.10522639
-0.46431917
-3.1754308
2.4044003
1.6629796
-0.40671933
-2.3195949
1.2222098
-3.2405686
1.1026769
0.35083494
-2.1456044
-1.5275815
1.7835827
0.52783275
2.0004458
-3.1377733
2.7835763
1.5773767
-1.5967047
0.41287532
0.013921067
0.50562596
-2.0626407
1.1460912
0.9895947
0.5690308
0.22308636
0.13346526
-2.702093
-3.1273198
-4.2857656
0.05556958
1.9059007
-0.63411343
-0.33712804
-0.9116631
-1.4899037
0.95452666
5.0510607
0.041761305
0.74469095
-2.308063
1.760085
5.5749006
-2.82976
1.9167806
-0.82083184
2.639856
-2.7094357
-1.4614673
0.1268087
-0.92127556
6.481055
-0.37516162
-0.6541642
-2.2723875
-5.10331
0.4432404
3.3087983
-2.0245016
-3.203592
-1.9687903
-0.7302665
0.39329645
3.247476
0.6540462
2.1221757
-0.3660779
-1.60339
1.2465987
1.9318159
0.45116383
-1.3350289
1.3845825
-1.6596321
-4.442516
1.5664401
-0.96878
-2.5086749
0.7256024
0.33224538
-1.3258306
0.41229048
1.0008628
0.7014912
2.482681
-0.299701
0.19758978
-1.8418286
0.75742686
-3.8255706
1.3981407
-1.836833
2.4495308
-2.666714
-0.13436727
2.0261164
2.8843312
2.6408832
2.351879
-3.737615
2.1228275
1.0305609
0.78193545
-1.848689
-0.022409732
-0.10533577
1.6096337
1.6077799
0.7720251
-2.8409305
1.0043138
1.930145
2.3023582
2.549517
2.4386997
-2.1692593
-2.5354354
0.9944475
3.0044422
0.2792915
-1.3137156
-1.2857753
-1.6656498
0.3759482
-2.4345746
-0.5630349
0.031509835
-0.3120268
-3.2689772
2.3215156
1.8276559
-0.32074192
-2.1828682
1.248408
-2.9966486
1.1104866
0.31874198
-2.2398596
-1.513093
1.7083881
0.45217672
2.0026703
-3.0129936
2.6738658
1.6143078
-1.6047376
0.35685337
-0.12665562
0.32375422
-2.0867982
1.3186203
0.8306071
0.42854917
0.21907306
0.18848911
-2.4144838
-2.8976598
-3.879297
0.031297646
1.9599771
-0.59815484
-0.41602057
-0.84187937
-1.342963
0.80230796
4.413273
0.022846097
0.5506726
-2.1255372
1.4706188
4.960031
-2.4872384
1.7478107
-0.6116623
2.3425674
-2.3736932
-1.3485802
0.2647797
-0.7125508
5.746669
-0.19506475
-0.6613605
-2.2006135
-4.647384
0.34551278
3.0933888
-1.7532041
-2.9353573
-1.8472636
-0.43883735
0.34479782
2.6725872
0.651957
1.7029531
-0.43083438
-1.4120494
1.1023027
1.7467147
0.39941394
-1.4109246
1.1883614
-1.6445084
-4.1340327
1.4563867
-0.8868143
-2.4309456
0.56133395
0.26047727
-1.1548405
0.42171085
0.80607355
0.649626
2.3111353
-0.3182449
-0.06347614
-1.6709014
0.8325657
-3.3210793
1.2938306
-1.7667389
2.1090858
-2.404896
0.03764438
1.8128276
2.5912833
2.463467
2.352297
-3.3302717
1.9517766
0.9718527
0.86105853
-1.57101
-0.05110631
-0.0663338
1.5268251
1.3668483
0.77367914
-2.6082761
1.1073434
1.8432893
2.2478068
2.299581
2.0440738
-2.1099505
-2.3642242
1.111902
2.5901437
0.23104984
-1.2737724
-1.1908447
-1.5053402
0.6508484
-2.3108325
-0.36368933
0.080636576
-0.32983035
-2.8482738
2.125307
1.5566456
-0.5602292
-1.915034
1.2102762
-2.7170906
0.88450897
0.2703196
-1.9077401
-1.4137601
1.6929722
0.2894507
1.8542198
-2.786658
2.450873
1.2799945
-1.3973817
0.2947093
-0.07702922
0.39414117
-1.8776581
1.2196426
0.809032
0.42739415
0.35988426
0.2517422
-2.3918724
-3.6528738
-4.7548676
-0.11135992
2.390919
-0.6598834
-0.47976413
-1.0456469
-1.6704413
1.113899
5.5247493
0.052216843
0.86820006
-2.6047335
1.9678304
6.0335584
-3.075486
2.010206
-0.92864877
2.9254189
-3.1119587
-1.6392034
0.2768394
-0.87841344
7.165945
-0.35301858
-0.5947669
-2.6907098
-5.7455087
0.42035654
3.74231
-2.2103653
-3.428127
-2.133015
-0.697342
0.58302563
3.467889
0.7241259
2.470492
-0.4299553
-1.7660118
1.3070781
2.13258
0.44786966
-1.5555512
1.3901643
-1.8731774
-5.149928
1.7225914
-1.1256595
-2.7811205
0.55440646
0.41450405
-1.5215055
0.60989994
1.1369028
0.688762
2.8875809
-0.36409187
-0.12947564
-2.0631745
1.0655531
-3.9291494
1.500835
-2.1825504
2.5847564
-3.0509105
0.009835728
2.5088797
3.0778952
2.717192
2.6732483
-3.9622464
2.4505146
1.0408592
1.0199562
-2.2786753
-0.13734254
0.2341248
1.9073617
1.4935877
0.8891012
-3.0715039
1.0118859
2.0791323
2.7212381
2.6806557
2.8849392
-2.604103
-2.8480825
1.3322687
3.0857325
0.38481864
-1.5631897
-1.3721962
-1.7618127
0.6590556
-2.7666326
-0.4172767
0.054517664
-0.43235645
-3.5566256
2.7128427
1.8324746
-0.7581486
-2.4036443
1.359009
-3.2144656
1.2676636
0.070352755
-2.3510215
-1.6028714
2.131786
0.50580865
2.0931258
-3.2482784
2.8864088
1.6198076
-1.7536727
0.5239334
-0.07632538
0.4505086
-2.4954884
1.5127326
1.1357646
0.52820045
0.3227501
0.09655524
-2.7023153
-3.249515
-4.3346725
-0.017339766
2.1759672
-0.6369189
-0.28385067
-1.0681386
-1.4880314
1.0541036
5.189475
-0.024744801
0.6567772
-2.403128
1.8521336
5.617607
-2.9062767
1.863314
-0.7315331
2.6821148
-2.8274353
-1.5149236
0.089148685
-0.70937145
6.5419455
-0.5730293
-0.4809054
-2.3926833
-5.29364
0.40605527
3.337771
-2.1504693
-3.1997974
-2.0339005
-0.7082264
0.40110117
3.2691882
0.6718968
2.2243602
-0.48599315
-1.6117672
1.224534
1.9322727
0.5013975
-1.2938154
1.4306061
-1.7490475
-4.6184525
1.5517077
-0.8707291
-2.5695448
0.5805559
0.22339115
-1.3487593
0.5084027
1.1686684
0.6200484
2.7541866
-0.30953178
0.06788427
-1.9684851
0.8216423
-3.672924
1.3038532
-1.9339266
2.5095487
-2.7160804
-0.027532447
2.2714531
2.8701787
2.5089033
2.406254
-3.718913
2.2995265
1.031719
0.97919536
-2.0382688
0.00551726
0.09698386
1.790547
1.3419597
0.8302567
-2.8907533
1.1412128
1.8771769
2.447395
2.5248988
2.5021513
-2.251954
-2.5265784
1.1676732
3.02703
0.23164146
-1.6077821
-1.2407793
-1.5959662
0.40627843
-2.5536447
-0.43209943
0.016592808
-0.4112375
-3.2392442
2.6175494
1.7804439
-0.46195403
-2.2793534
1.1792967
-3.0745647
1.0873767
0.16769576
-2.3114278
-1.5112574
1.9424509
0.40527046
1.9937212
-2.8925211
2.7870116
1.5088454
-1.4452907
0.25158024
-0.058958787
0.4988614
-2.3129344
1.3857341
0.9013342
0.45615685
0.3748352
0.19672795
-2.5875049
-3.178755
-4.2096686
0.12388522
2.014384
-0.55765975
-0.4617361
-0.90159106
-1.4914387
0.95837724
4.7859983
0.15918544
0.6804539
-2.2790337
1.833427
5.383711
-2.6049027
1.6958047
-0.6831268
2.5182543
-2.9258046
-1.3858868
0.13726637
-0.697474
6.494324
-0.33745468
-0.38158733
-2.3736486
-5.160553
0.34099996
3.4224234
-2.0011795
-3.3227122
-2.1228454
-0.6280034
0.4839905
3.1735623
0.83185023
2.1785994
-0.5166421
-1.5304195
1.2080562
2.001699
0.36009043
-1.2544007
1.4303122
-1.6823559
-4.573682
1.5818014
-0.985509
-2.638054
0.57286346
0.18046214
-1.3116108
0.4497922
0.9218249
0.65978783
2.383581
-0.3965636
0.06298059
-1.8895556
0.7041167
-3.702378
1.3651314
-1.9957362
2.4087193
-2.57532
-0.04324133
2.0494409
2.857988
2.6006799
2.4562325
-3.6531918
2.2195444
0.89161444
0.78488725
-1.8230934
-0.02176454
0.0048570717
1.5787076
1.4354229
0.7900415
-2.710744
0.9847089
1.9920151
2.4905343
2.5543122
2.3269057
-2.2052555
-2.5357306
1.2141578
2.9000506
0.22755682
-1.3033541
-1.1924014
-1.7043645
0.4808065
-2.489622
-0.34390545
-0.048344426
-0.42486075
-3.0709615
2.2536726
1.6007271
-0.5095361
-2.1311944
1.2242079
-3.0598192
1.0685711
0.3483636
-2.1115746
-1.3523922
1.8073812
0.42114368
2.0350513
-2.9725595
2.6360655
1.5706034
-1.5390036
0.27310857
-0.0048548407
0.5291511
-2.1880615
1.1428182
1.0041959
0.48547736
0.34736302
0.010218291
-2.5485961
-3.078341
-4.186366
0.21579273
2.2356143
-0.41664782
-0.5506669
-1.0605389
-1.5122055
0.93863094
4.840527
0.087064005
0.7767236
-2.4185524
1.7440146
5.124574
-2.5160356
1.6626923
-0.6460862
2.5122685
-2.5254023
-1.4032619
0.30854878
-0.7232504
6.1511073
-0.29297128
-0.57805085
-1.9959557
-4.9290357
0.2826784
3.2260978
-1.7440864
-2.912994
-1.9582386
-0.64556694
0.27156493
2.9499962
0.63186544
1.954888
-0.42835054
-1.374266
1.2143584
1.8200954
0.44196615
-1.298821
1.3681631
-1.598487
-4.3402133
1.3638461
-0.9836956
-2.5471814
0.58942705
0.32683522
-1.1726307
0.37367567
0.9447339
0.6830829
2.474949
-0.3812918
0.14115001
-1.7162385
0.7850125
-3.4928
1.1284201
-1.628007
2.1855445
-2.5607412
0.10215684
1.9708095
2.5457852
2.2893157
2.393493
-3.4012563
2.0566084
0.8448077
0.82975
-1.7021972
0.017319197
0.13216847
1.567675
1.355808
0.64638644
-2.7678907
0.99793625
1.8753126
2.4271715
2.4883199
2.199725
-1.9813473
-2.5266035
1.0706077
2.8473208
0.33643723
-1.476151
-1.1400653
-1.5994313
0.40282154
-2.3750358
-0.47056472
0.25071386
-0.18475696
-3.0893931
2.119075
1.5687145
-0.47842792
-2.1390023
1.2633139
-2.9025679
1.1864121
0.21002214
-2.2151828
-1.283028
1.7229091
0.50216067
1.9773434
-2.8956692
2.55588
1.3002672
-1.3499237
0.35145995
-0.04184806
0.36558977
-1.8588911
1.2325184
0.6922638
0.3067978
0.27225277
0.19007885
-2.5423946
-2.8550928
-4.0399313
-0.049023308
1.8616371
-0.50754046
-0.3119007
-0.9828527
-1.324273
1.0723723
4.6830053
0.19824134
0.6715814
-2.3728323
1.6192598
5.272209
-2.4754376
1.7706041
-0.7981083
2.6661327
-2.596111
-1.3971266
0.2611054
-0.9217085
6.088303
-0.4272816
-0.61410344
-2.1470196
-4.796153
0.4370102
3.171027
-1.9189895
-2.9151113
-2.0814242
-0.6283156
0.35624057
2.7958825
0.5846939
1.9492109
-0.26595315
-1.459015
1.0340232
1.7940229
0.43308464
-1.3948501
1.4018643
-1.7291491
-4.232337
1.3785031
-0.87919366
-2.419181
0.6842629
0.28396124
-1.2666641
0.47804108
1.059851
0.7749907
2.4620087
-0.39108512
-0.07118411
-1.7187512
0.8098901
-3.4582403
1.1746129
-1.6214484
2.1382787
-2.5407197
0.0009417425
2.017968
2.4627345
2.5825584
2.1498578
-3.3305707
2.2063162
0.83362275
0.7776128
-1.7239275
0.0014949886
0.16031905
1.7515762
1.4185842
0.6957008
-2.5609794
0.9070155
1.8971677
2.2254336
2.3353314
2.2928553
-2.1216614
-2.40663
1.0082096
2.847889
0.27970114
-1.1854204
-1.1793393
-1.6171714
0.4443084
-2.4075165
-0.37427297
-0.022818236
-0.4070561
-3.0044403
2.0593472
1.5476614
-0.3441029
-2.1470292
1.0901597
-2.8128765
1.1277397
0.1863995
-2.101514
-1.4200677
1.791986
0.4421963
1.7896115
-2.7361264
2.430932
1.2339644
-1.5667729
0.43334937
-0.13406454
0.4565153
-2.0364478
1.3202488
0.6808755
0.4309548
0.18632527
0.3176873
-2.4355521
-3.0035577
-3.9900036
-0.08500139
1.9579616
-0.63934606
-0.28770012
-0.7836285
-1.4515032
0.88977873
4.6340294
0.1417145
0.824858
-2.1922321
1.6893914
5.1292405
-2.4438105
1.55486
-0.7575031
2.370639
-2.7475054
-1.397505
0.33850133
-0.6851134
6.0662565
-0.42014864
-0.37111738
-2.1020517
-4.7311234
0.2893799
3.1933222
-1.8525324
-2.9368818
-1.9846786
-0.62139434
0.45080373
2.8603108
0.7228659
2.0262277
-0.3052902
-1.456225
1.2093536
1.8618822
0.37052175
-1.3634983
1.3156831
-1.5186684
-4.437007
1.4635525
-0.9867393
-2.2757766
0.44945917
0.21974379
-1.2458819
0.5238074
0.90723574
0.6697064
2.4354732
-0.28933066
0.056145653
-1.7587771
0.7655451
-3.518291
1.1788133
-1.8387638
2.0325832
-2.5046718
0.034583673
1.9795902
2.5335126
2.2160668
2.3747356
-3.4350197
2.087522
0.8692015
0.7666747
-1.7739933
0.012840509
0.16826083
1.5807292
1.2379353
0.73021996
-2.676543
0.833201
1.7690998
2.3757992
2.2585006
2.2540612
-2.1691046
-2.3509872
1.1544987
2.6607604
0.38612643
-1.3539532
-1.102744
-1.4372715
0.50160843
-2.253458
-0.42239183
0.11782178
-0.2682547
-3.071564
2.0914848
1.4645216
-0.47907302
-2.2352254
1.2124211
-2.7247846
1.070653
0.16384251
-1.9171987
-1.2010678
1.7705228
0.45311227
1.8337735
-2.8655963
2.4079921
1.3782871
-1.4701711
0.27337027
0.0792148
0.2839863
-2.1009994
1.1442746
0.90102077
0.3943163
0.27339894
0.097193055
-2.4144366
-3.661924
-4.6328506
0.059419453
2.365149
-0.8337798
-0.37047714
-1.1165053
-1.7945448
1.1439462
5.6649904
0.013635214
0.69420004
-2.5872219
2.0794992
6.336116
-3.0637603
1.9772451
-0.81772035
3.082578
-3.133729
-1.8589219
0.31927532
-0.7497469
7.223338
-0.48818842
-0.5779622
-2.6742642
-5.809699
0.44584033
3.7572439
-2.3657477
-3.724939
-2.3559065
-0.6310466
0.57871425
3.6315036
0.7715287
2.3721952
-0.40082416
-1.768354
1.3604748
2.1407762
0.53445774
-1.6302156
1.5306553
-2.0036283
-5.3919272
1.7922615
-1.062677
-2.9633973
0.7038719
0.36624637
-1.7035055
0.53050673
1.2760237
0.77957815
2.9223
-0.5472033
-0.106127255
-2.1954443
0.8095469
-4.202435
1.5194815
-2.1111062
2.7218564
-3.0447266
-0.084159106
2.5085058
3.1011572
2.8144784
2.8206725
-4.0057497
2.606761
1.0741501
0.97670704
-2.2418585
-0.06645226
0.16018865
1.9863726
1.5560864
0.8441561
-3.2399397
1.1624503
2.1419313
2.792756
2.9627376
2.8981962
-2.6031768
-2.7621503
1.2453792
3.350859
0.4735349
-1.472649
-1.0834504
-1.7269007
0.5660416
-2.972937
-0.6369003
-0.02584126
-0.44392133
-3.5254903
2.9037
1.7569904
-0.71483797
-2.6546977
1.3712918
-3.4320288
1.233145
0.24356155
-2.4608436
-1.5794607
2.0664663
0.4728453
2.1721246
-3.535178
3.067023
1.6754501
-1.6455835
0.5741229
-0.043036684
0.4799802
-2.5429
1.5282516
1.0835463
0.5662988
0.24668308
0.08982405
-3.0234797
-2.9256034
-4.1527085
-0.029273545
1.9995228
-0.5628472
-0.48047528
-0.9981501
-1.4468027
0.83031565
4.99706
0.062465932
0.7141268
-2.2154086
1.6250466
5.1770844
-2.529658
1.7342011
-0.8531054
2.4021802
-2.6193287
-1.3333455
0.35435787
-0.86445576
6.0898685
-0.41826037
-0.4734738
-2.1773157
-4.80505
0.2518961
3.194307
-1.7884291
-2.9664001
-1.8807313
-0.6556559
0.50209516
2.9049332
0.52718455
2.0463967
-0.1847199
-1.4929093
1.0744591
1.8283894
0.44659287
-1.3813568
1.3535554
-1.6168364
-4.3093834
1.277325
-0.92050624
-2.4293792
0.54888946
0.15936169
-1.3262887
0.54212356
0.9893767
0.66291726
2.5159938
-0.3775169
0.15407841
-1.8731694
0.8755812
-3.496387
1.1761885
-1.7808584
2.2321134
-2.5941172
0.09077222
2.0198314
2.4907563
2.3110085
2.1996887
-3.3605092
2.0991147
0.81435305
0.7820119
-1.7669358
0.10786366
-0.028880352
1.6975992
1.4904722
0.8171304
-2.636913
0.89349884
1.8698473
2.3261886
2.2575102
2.3069503
-2.1134963
-2.2821398
1.2205213
2.7095408
0.31558353
-1.2530526
-1.0388144
-1.6126581
0.6538906
-2.2749178
-0.4161574
0.13304307
-0.26507133
-3.0397575
2.1694722
1.6245453
-0.42940763
-2.0600493
1.1563969
-2.8298793
1.1215211
0.2149309
-2.2359462
-1.2539338
1.817321
0.29770473
1.7976857
-2.7433403
2.5520115
1.2889613
-1.603674
0.5213229
-0.14423989
0.31607926
-2.1380503
1.294458
0.8235177
0.39547688
0.19745107
0.23352447
-2.3440535
-3.248539
-4.5685906
0.20786248
2.231407
-0.66903186
-0.33421597
-1.1679379
-1.524904
1.1602379
5.261156
0.12421202
0.7009553
-2.510767
1.7271892
5.91244
-2.7971275
1.9370577
-0.7387154
2.8193934
-2.774058
-1.5848732
0.13235451
-0.8289524
6.6457753
-0.33464548
-0.60196686
-2.510046
-5.350732
0.328207
3.568032
-2.1353998
-3.3709633
-2.2431264
-0.6291205
0.52233094
3.2455237
0.71871424
2.1742296
-0.476433
-1.5865673
1.471002
2.012462
0.39576122
-1.6762818
1.4009871
-1.8513019
-4.8137474
1.652694
-1.127519
-2.6267345
0.5487383
0.38055027
-1.3989462
0.50972193
0.9325167
0.7754481
2.6060252
-0.4776443
-0.06915255
-1.9742094
0.933063
-4.074101
1.3656809
-2.0118182
2.4890175
-2.7647996
-0.22160897
2.2877185
2.8314772
2.6818643
2.8381176
-3.756829
2.276661
0.96160114
0.8851047
-2.0469856
-0.087544315
0.10121733
1.779001
1.4978625
0.834341
-2.9780881
1.1711751
1.9717331
2.5687735
2.7243624
2.5482123
-2.4025302
-2.702161
1.1883198
3.0309906
0.1840366
-1.3694952
-1.1329372
-1.7187289
0.5834235
-2.7378159
-0.5208413
0.047894895
-0.3789188
-3.391626
2.3545742
1.733569
-0.6131095
-2.3493679
1.3194404
-3.2050796
1.2384294
0.31050158
-2.2592044
-1.5526767
2.013687
0.425012
2.0877318
-3.2131054
2.764483
1.5961971
-1.6245579
0.40214953
-0.17150153
0.44843918
-2.1639676
1.3713957
0.9358116
0.34175763
0.4093559
0.22677983
-2.8772285
-3.241221
-4.328541
0.13797173
2.2920668
-0.5587422
-0.40856114
-1.065646
-1.6048672
0.8967064
5.091307
0.13832733
0.7823573
-2.3704293
1.9595052
5.520269
-2.6729448
1.8461963
-0.76136893
2.4960797
-2.9839091
-1.4212738
0.3119716
-0.7478587
6.678181
-0.37774846
-0.5686203
-2.4997644
-5.2468777
0.36989278
3.3691022
-1.9387053
-3.3421965
-2.093902
-0.666685
0.44961768
3.2303057
0.6495578
2.1868503
-0.4112786
-1.6433209
1.2187594
1.9712228
0.4947182
-1.370982
1.5236998
-1.7046335
-4.784579
1.5736207
-0.9824562
-2.7251682
0.46734825
0.28102335
-1.3834844
0.59414357
0.98608565
0.6304025
2.6421945
-0.44529858
-0.005226759
-1.939741
0.8935487
-3.7347832
1.4409204
-1.8790842
2.5091693
-2.742368
0.19490466
2.1060843
2.8063424
2.5199153
2.5130866
-3.6684241
2.3938932
0.84350806
0.7482709
-1.9033315
-0.01963047
0.08460652
1.8168267
1.3631847
0.76557374
-2.725929
1.0560937
2.016603
2.7009351
2.639957
2.5584722
-2.2592466
-2.609578
1.1791887
3.0729158
0.39394426
-1.4398655
-1.1624501
-1.6716908
0.4815568
-2.5496018
-0.35036427
0.086267404
-0.37869734
-3.3112175
2.2399094
1.630121
-0.38538772
-2.1500356
1.3239965
-3.0436194
1.2505184
0.24183923
-2.2852895
-1.4781955
1.9235102
0.40161127
1.9633149
-3.0994158
2.841049
1.3686199
-1.6558852
0.57946444
0.095285885
0.49758732
-2.2503266
1.3363011
0.9004429
0.34378895
0.3865216
0.15392913
-2.7104425
-3.2494245
-4.087863
-0.040506754
2.1416242
-0.5928028
-0.26351294
-0.71105194
-1.4247363
0.89550525
4.594335
-0.038416173
0.6028972
-2.2330532
1.7438926
5.191874
-2.606575
1.614363
-0.6866271
2.5094144
-2.820355
-1.4152645
0.2429269
-0.57153404
6.1303544
-0.35157457
-0.3390613
-2.3353574
-4.886819
0.31715885
3.1678517
-1.9628543
-3.0540442
-1.9700433
-0.5386692
0.49365813
3.0105228
0.78434485
2.135796
-0.32310095
-1.6010977
1.2049224
1.822525
0.39467382
-1.4149922
1.3218865
-1.6424571
-4.581971
1.5647928
-0.9422497
-2.4957454
0.49057952
0.26778358
-1.186912
0.42434978
1.007166
0.64383143
2.569449
-0.28321552
-0.0038035768
-1.7337773
0.7908569
-3.5149214
1.4106536
-2.0129676
2.350846
-2.4276984
-0.032422017
2.1306496
2.8156202
2.4796467
2.212548
-3.5843134
2.3307083
0.8911913
0.8110747
-1.8475419
-0.20280278
0.20357732
1.7263929
1.2148557
0.74709845
-2.701843
1.0798159
1.7624247
2.371059
2.3281975
2.458537
-2.3223743
-2.3572247
1.1074514
2.8031237
0.4750857
-1.5396795
-1.3056834
-1.5146164
0.44184068
-2.4454355
-0.36525533
0.031437986
-0.43436605
-2.9441211
2.4785376
1.5957472
-0.39051998
-2.32578
1.153858
-2.794036
1.0011513
0.12644348
-1.9484249
-1.3460766
1.6636037
0.46940616
1.891262
-2.8487606
2.6819072
1.4721794
-1.4344726
0.27658466
0.07792107
0.4039967
-2.171759
1.1231678
1.009129
0.5247786
0.28307143
0.015309772
-2.4515681
-2.873813
-4.10087
0.007894359
1.9677057
-0.5473384
-0.42764944
-0.9310715
-1.3260872
0.96530306
4.653502
0.033376884
0.66224766
-2.1739964
1.4110061
5.216563
-2.4925127
1.7314368
-0.786792
2.4887748
-2.7147293
-1.2596645
0.22857966
-0.8115023
6.1003294
-0.5021176
-0.46776664
-2.0944939
-4.760352
0.3218586
3.2483823
-1.9028155
-3.0360281
-2.0348294
-0.597497
0.5551876
3.016403
0.6088298
1.9504155
-0.3892165
-1.5026829
1.1653956
1.9217058
0.40316996
-1.2978238
1.389479
-1.5714699
-4.30032
1.4382722
-0.9059091
-2.3180876
0.51781243
0.13997893
-1.1850947
0.5654851
0.93362993
0.72591054
2.3011715
-0.23540273
0.1702361
-1.6868984
0.8086075
-3.4676075
1.3115567
-1.8194861
2.232584
-2.4918444
0.07065658
1.9323006
2.6233954
2.5550697
2.2179039
-3.4702282
1.9944097
0.97282094
0.7741792
-1.6283712
-0.00866807
0.108018495
1.6912404
1.4843482
0.72775817
-2.7129974
0.86805546
2.0440931
2.278698
2.2136118
2.3262591
-2.0842583
-2.4038153
1.0438619
2.648472
0.30919972
-1.1720716
-1.2097698
-1.640349
0.5362164
-2.3864388
-0.39781636
0.05066504
-0.3818385
-3.0773275
2.0541182
1.5857294
-0.5138728
-2.1066592
1.0584537
-2.832494
1.0429089
0.25064942
-2.052082
-1.3042986
1.7587099
0.46666253
1.9398171
-2.8007128
2.5583663
1.3216499
-1.5368441
0.34173083
-0.08380961
0.38364562
-2.0472116
1.2701461
0.91195047
0.41058913
0.26479045
0.060283847
-2.4171536
-2.7297108
-3.647933
-0.08248656
1.7936821
-0.5476411
-0.36722565
-0.8821578
-1.3321933
0.6189813
4.465519
0.024699938
0.6155691
-2.0363295
1.6147449
4.8407807
-2.3072655
1.5973566
-0.6112203
2.2875743
-2.4437382
-1.163574
0.1781618
-0.6288657
5.5934987
-0.4100108
-0.51731855
-2.0240896
-4.558983
0.3906321
2.9624052
-1.8406043
-2.9237487
-1.7934834
-0.54768103
0.3593958
2.8352184
0.58932066
1.8111656
-0.44356367
-1.334254
0.9833094
1.8014944
0.4355031
-1.1843549
1.2384561
-1.5754247
-3.9860134
1.3595136
-0.7952565
-2.2344337
0.44284943
0.26027966
-1.1842806
0.40630543
1.0440938
0.6662437
2.1836128
-0.47673863
-0.019052338
-1.6117088
0.6515159
-3.2729154
1.2548162
-1.6300331
2.130111
-2.427923
0.007994849
1.9428515
2.2939847
2.2198012
2.0566037
-3.1183784
2.0629408
0.77794063
0.7637124
-1.6141467
-0.022104496
0.016462455
1.5180762
1.2305919
0.75177795
-2.495045
1.0649856
1.6543504
2.176689
2.2663574
2.1378286
-2.0201871
-2.1168072
0.95142895
2.6691773
0.31993032
-0.99319535
-0.8994514
-1.3053042
0.46151048
-2.22156
-0.45284578
-0.064376056
-0.16800317
-2.8065054
2.108366
1.3577158
-0.3803365
-1.8992792
1.0423709
-2.630271
1.0765353
0.32820678
-1.9825826
-1.2800272
1.6671084
0.31636745
1.7011412
-2.5036173
2.4864752
1.266036
-1.3905189
0.38703343
-0.12663595
0.34562182
-1.9374312
1.2370561
0.83266425
0.32915777
0.20254418
0.12968723
-2.2038438
-2.7680635
-3.61841
-0.0012630533
1.8882282
-0.4658866
-0.38055137
-0.9215165
-1.3485727
0.7100605
4.328404
-0.02880156
0.6274258
-1.9782327
1.5449138
4.6587853
-2.1790648
1.4862636
-0.51018494
2.1311045
-2.5496514
-1.1274472
0.29208645
-0.5523051
5.4059877
-0.50118154
-0.37306985
-2.0867326
-4.3472037
0.31683767
2.974144
-1.7165118
-2.9091833
-1.8497993
-0.5649864
0.28752017
2.6850545
0.5620738
1.7138735
-0.45891514
-1.3903152
1.0114797
1.534036
0.4119937
-1.0972466
1.2479502
-1.4050065
-3.9576745
1.299041
-0.8807217
-2.071496
0.5484005
0.22616564
-1.144562
0.35070398
0.759623
0.61135334
2.2501905
-0.2450407
0.24499726
-1.6127944
0.71533847
-3.3020437
1.0626423
-1.6081668
2.051312
-2.4058397
0.016147349
1.7773087
2.1979532
2.120764
2.023795
-3.1461403
1.9788965
0.82605875
0.7796165
-1.4720289
0.018368257
0.023835052
1.468626
1.1558901
0.7728018
-2.413315
0.82654494
1.7088244
2.2138252
2.0676708
2.022416
-1.7858588
-2.1339579
0.987484
2.5303714
0.29832283
-1.1937654
-1.0655432
-1.415928
0.5867104
-2.1942108
-0.27981344
0.09662438
-0.22701418
-2.9255679
1.8591849
1.4131565
-0.42070648
-1.9773788
1.0952033
-2.600144
0.89693385
0.35518995
-1.9135199
-1.3426079
1.546336
0.39238995
1.755543
-2.499225
2.3669066
1.2220345
-1.5067296
0.25408846
0.083027214
0.43177894
-1.8649297
1.1050565
0.9333937
0.12807694
0.4116778
0.077875555
-2.2532656
-3.3053749
-4.161965
-0.04121436
2.236462
-0.5931904
-0.4964151
-0.87135935
-1.5915717
0.9084517
4.7558284
0.081551775
0.75115985
-2.3740351
1.6455982
5.35031
-2.6687162
1.5996383
-0.63487965
2.5074875
-2.6069179
-1.4573685
0.35247192
-0.7472517
6.167429
-0.33526486
-0.5005072
-2.4831188
-5.0279827
0.31814817
3.276006
-1.9562075
-3.1541924
-2.1361938
-0.5857399
0.47947532
2.8861916
0.7450381
1.9921014
-0.40056252
-1.5529522
1.1926087
1.801138
0.44072258
-1.4376658
1.1723689
-1.7861036
-4.708895
1.5771997
-1.0564563
-2.3885417
0.46953604
0.38308775
-1.1974452
0.42651534
0.96010107
0.75864166
2.4747853
-0.38183755
-0.1993685
-1.7488894
0.9107032
-3.5322819
1.3323725
-1.9375678
2.4026697
-2.6005025
0.06643931
2.1275976
2.6036077
2.4153636
2.3882332
-3.5245652
2.3463542
0.83357304
0.94810116
-1.7699345
-0.16493797
0.28782046
1.7466148
1.1119287
0.80489916
-2.7946868
1.0264801
1.8126061
2.3611016
2.4031544
2.4107382
-2.1834357
-2.3811524
1.1142124
2.7480452
0.41587728
-1.4761615
-1.289671
-1.4726467
0.5138185
-2.534408
-0.34965035
0.13687198
-0.46436912
-3.0485933
2.3402207
1.6313837
-0.6466908
-2.2530649
1.281873
-2.8363693
1.0873275
0.15342914
-1.9217486
-1.4942688
1.8178273
0.3617323
1.9042737
-2.8689532
2.6780543
1.3981378
-1.5547279
0.4729958
0.15656051
0.41080686
-2.1511457
1.1904147
0.98747045
0.40415347
0.35012802
0.10994243
-2.4971216
-3.431
-4.5769124
-0.08711617
2.3806293
-0.597977
-0.3940584
-0.9908005
-1.6981467
1.1522948
5.319196
0.09852538
0.9541328
-2.585381
1.9309171
5.7484684
-2.8885837
1.841561
-0.70366484
2.7844064
-2.9097884
-1.6756798
0.37588003
-0.7246164
6.7177396
-0.47506207
-0.4628257
-2.5193095
-5.4839745
0.41717708
3.6506531
-2.1680117
-3.2540758
-2.2520716
-0.6900731
0.4406161
3.3123155
0.8635378
2.3532035
-0.4128643
-1.6641033
1.200431
2.0745113
0.5536291
-1.5660827
1.4424618
-1.912547
-4.842008
1.7657213
-1.017155
-2.632652
0.61883473
0.31425393
-1.3508365
0.5370576
1.0887885
0.68652606
2.806799
-0.4464915
-0.035077743
-1.9108776
0.8888856
-3.8815775
1.4216309
-2.102527
2.4561331
-2.9598699
0.023223354
2.397721
2.8338063
2.706767
2.4787726
-3.9665244
2.4267266
1.0734318
0.81796837
-1.9910722
-0.20244953
0.26381132
1.913199
1.2901148
0.8013859
-2.9901698
1.1121112
2.0697458
2.6224918
2.5240245
2.718845
-2.5478992
-2.606886
1.0964606
3.1443992
0.37920624
-1.6237738
-1.4013389
-1.7484016
0.53329724
-2.5681639
-0.48951432
0.14954974
-0.25069103
-3.2612088
2.3956878
1.8350816
-0.5687347
-2.5570362
1.4754869
-3.1056309
1.1874254
0.12992555
-2.266017
-1.3944389
1.9556357
0.42979553
2.177526
-3.1526837
2.8383167
1.4798305
-1.749223
0.2985081
-0.07994784
0.4060542
-2.2595735
1.44274
0.98827285
0.37527063
0.18969503
0.08764871
-2.6264808
-3.4626951
-4.5412436
0.04680111
2.2732856
-0.5362672
-0.47876936
-1.0050105
-1.4626989
1.1959033
5.2387304
0.16320102
0.64244837
-2.5533714
1.9244272
5.7371674
-2.9851139
1.8411311
-0.7011034
2.772683
-2.9238696
-1.6267155
0.09222965
-0.8157808
6.876732
-0.5122876
-0.37729037
-2.529958
-5.46763
0.28733957
3.4913
-2.0868561
-3.3236692
-2.1846652
-0.62123406
0.6086037
3.329099
0.7769888
2.390545
-0.38798207
-1.5769519
1.4395034
2.147434
0.5661389
-1.5999439
1.4689434
-1.9149271
-4.938256
1.6581267
-1.0572371
-2.7592769
0.59639764
0.13262689
-1.2782183
0.47716814
1.1700604
0.67177516
2.6852503
-0.4592435
-0.0043064486
-2.0358467
0.8876885
-3.8886647
1.319124
-1.9912053
2.530349
-2.8269336
-0.08498463
2.3125303
2.89649
2.570852
2.589253
-3.8310673
2.391801
0.9550227
0.775463
-2.1171124
-0.002616429
0.11359623
1.8636168
1.483062
0.82020557
-3.07081
1.1351932
1.951935
2.51145
2.6464279
2.597214
-2.4185445
-2.6813893
1.2179104
3.091484
0.28745732
-1.5311662
-1.130588
-1.7545735
0.5079701
-2.6919203
-0.52084994
-0.04168889
-0.43866682
-3.2803447
2.6134412
1.708433
-0.5627328
-2.4244611
1.3652102
-3.204573
1.1872187
0.21164547
-2.4030197
-1.376736
2.0019097
0.3711889
2.0590794
-3.161512
2.9192407
1.5486515
-1.6078448
0.35711634
-0.049452323
0.45460787
-2.3156433
1.2349482
0.9435652
0.4277869
0.3355478
0.16477013
-2.7502587
