2 512
1 512
0.05477371
-0.03543981
0.012452848
0.015588313
0.042297043
0.03326354
0.031495072
0.00046930462
-0.017554492
-0.0141991675
-0.016781233
-0.023470692
-0.03289304
0.04188489
-0.04149261
-0.05386325
0.040863812
0.058199152
0.0047124475
0.060631633
-0.026338384
-0.0043428093
-0.06194152
-0.04387279
0.044702098
-0.013321161
-0.032328628
0.025513396
0.03244885
0.055229023
0.039096348
-0.035183035
0.026648179
0.021193117
0.029265061
-0.0032765642
0.053186417
0.03615775
-0.030468598
0.05967453
-0.020811953
-0.04363568
0.04607985
-0.032215767
0.06127931
0.054458193
0.012460448
0.038799465
0.040877
-0.0053946227
0.04908906
-0.03017193
0.039042912
-0.02026175
-0.027676329
-0.0177821
-0.03211888
0.05821617
-0.059785783
-0.061527893
0.013092272
0.019211441
-0.0018107519
0.0035429075
0.016145408
-0.034971997
0.05176595
0.028276749
-0.042119116
-0.040415756
-0.055482954
0.058335938
-0.021079041
-0.0325064
-0.04136399
0.00027234852
0.058431685
0.05898712
0.027892284
-0.0045336783
0.015519358
-0.006457649
-0.046008416
0.029576235
0.0198868
0.010245107
0.04512985
0.057060175
-0.03635039
0.00873176
-0.04878903
0.033958055
0.0123965815
-0.025487907
-0.01000876
-0.04228428
-0.005121574
-0.058670923
-0.0045803934
0.021958455
0.04569654
-0.048219025
-0.04383205
0.057973504
-0.02205196
-0.039797187
-0.053067476
0.05305081
0.014665209
0.0415913
0.045758173
0.0036661997
-0.042111687
-0.058856554
0.0560268
-0.0020556822
0.041578397
0.035222106
0.029993713
0.020285845
-0.0018936917
0.0056657344
0.05366773
0.046250254
0.049174443
-0.03168145
-0.0021844953
0.017356083
0.040217966
0.04885952
-0.048825353
0.061045066
-0.008205451
0.051250815
0.025109865
0.004508838
0.030205347
-0.033559754
0.021725297
0.05739905
-0.034691423
0.00028322637
-0.011149086
0.045082085
-0.012635663
0.00924357
0.02949775
-0.052924566
0.05979328
-0.04430776
0.026238598
-0.016834468
-0.024373904
-0.030372322
-0.0124620795
-0.062000267
-0.0123689845
-0.033021323
-0.0032628179
0.007713698
0.038548447
-0.05588965
0.024167359
-0.03472513
0.029238202
0.01999151
0.048939876
0.031135455
-0.01932539
-0.051649816
0.014407434
0.02355346
0.027449638
-0.018339954
-0.003423959
0.05597177
-0.03006564
-0.019516386
-0.006447792
-0.057942063
0.032598957
0.018715277
-0.044636168
-0.045754083
0.024162784
-0.043763272
0.020481527
0.0054005533
0.05791256
0.039636165
-0.051595554
0.0536023
0.054771885
0.04777924
0.002182871
-0.012046143
0.043526933
-0.034701824
0.055633485
-0.05627986
0.039971933
0.0032973066
-0.012533195
-0.027412377
0.011235245
0.028873563
-0.04395026
-0.046124242
-0.042467445
0.05770172
0.04262764
-0.042570733
-0.0215035
-0.029813573
-0.031475797
-0.05733779
0.038243674
0.034829512
0.005909592
0.026972778
0.039873905
-0.023687065
-0.047787517
0.007724099
-0.052242167
-0.047326446
0.01604376
0.019141987
-0.010296196
0.011854865
-0.002139531
0.04858981
0.009081662
-0.020568036
0.040681735
0.05526559
-0.024623081
-0.0018181726
0.053055994
0.023081422
0.042205222
-0.04099025
0.042552143
0.05904577
0.05411473
-0.028978035
0.015287332
0.016208716
0.055103533
0.001434654
0.013484336
-0.03851354
0.01782231
0.020446867
0.030135706
0.05994734
-0.0021854416
-0.024118736
-0.05658731
-0.041300945
0.034312107
-0.019975401
-0.035693526
0.007225342
0.03757017
0.018474773
0.040981226
-0.041122988
0.025159858
0.053883724
0.026690349
0.031923704
-0.042850308
-0.007822178
-0.0621057
-0.052146077
0.043021895
0.030201733
0.027054101
0.003355123
0.00456059
-0.041193716
0.036250435
0.01907815
0.049665235
0.04674229
0.0067065135
-0.003561221
0.04585751
0.014318705
-0.024038091
0.00042791665
-0.05286686
-0.02616094
0.016570099
-0.016027644
0.028361186
0.049456485
0.04356987
0.04606504
0.008414663
0.0035991222
-0.060420662
0.058523923
-0.007352166
0.017142378
0.028762877
0.062116362
-0.03124746
0.032952808
-0.054049753
0.040680215
-0.056084484
-0.0003009811
0.018786728
-0.028635405
0.016670957
-0.013789669
-0.025326699
0.027617477
0.018742442
0.002897784
-0.009202234
0.012510195
-0.048619054
-0.044061266
-0.060546346
-0.0034864321
-0.04207596
-0.041829683
-0.0017335415
0.0053585693
0.037266314
-0.056357846
-0.024422482
0.05419215
0.04443629
0.023574762
0.036504358
-0.0012757853
0.028040081
-0.03735824
-0.016207173
-0.03383889
-0.010575354
-0.001398839
-0.031762756
-0.052466437
-0.009758212
-0.015005738
0.04775341
0.013642348
0.0015992746
0.006032385
0.046681345
-0.014641799
-0.058172487
0.04096456
-0.0013413057
0.0062499866
-0.040162295
-0.026021563
-0.062393956
0.035626
0.046609506
-0.01904434
0.008253455
0.024607122
-0.0038561448
0.025155604
-0.020468824
0.045095585
-0.009931214
0.049171187
-0.03942243
0.041947693
-0.0026492923
0.061254248
-0.011918403
-0.018062726
0.01694762
-0.022288188
0.051116884
-0.028824717
-0.03891778
-0.017338574
0.041709527
-0.05879783
0.012603119
-0.0085099265
-0.048757933
-0.049071133
0.035176493
0.05573778
-0.036873356
0.010591477
0.053002104
-0.016249143
-0.017336719
-0.05433596
0.030484661
-0.0380556
-0.054238632
-0.033746704
-0.04596751
0.056365676
0.05509018
-0.05402202
0.046452098
-0.0397027
-0.020266324
0.038549587
0.0026417226
-0.027835935
-0.041281402
0.011346005
-0.049204424
0.018221602
0.054067813
0.04908584
-0.040491298
-0.028675668
-0.016690552
0.060187943
0.036244825
0.016413778
-0.03983108
-0.0015746579
0.0060839355
-0.05727599
-0.05132971
0.027787477
0.0015549064
-0.027251802
-0.034173742
0.0098878965
-0.044975832
0.044431694
0.017357655
0.03086824
-0.025911622
0.009664595
0.061194748
-0.006963484
-0.0410019
0.04153511
-0.011469722
-0.056783274
0.03306193
0.023793504
-0.04703542
-0.023438126
-0.018774912
-0.05966419
0.000687398
0.042554066
-0.022027627
-0.03393072
-0.043811217
0.026112773
0.0073574707
0.031508945
-0.014443852
-0.03301803
-0.038884692
-0.04155241
-0.059829213
-0.056482784
0.013325088
-0.035974294
0.047541738
0.018770166
0.0446252
0.028698139
0.025172547
-0.045303516
-0.018547602
0.026274942
0.011451662
-0.057813577
0.05103916
0.02329152
0.059274994
-0.06094022
0.042411186
0.036378287
0.012806483
0.027688518
0.012232207
0.03633765
-0.019299708
0.0056835935
0.02342344
0.04544142
-0.018483795
0.044583015
0.033010595
0.06065198
0.03954144
0.03356634
-0.024056964
0.055800818
-0.007943705
-0.03343357
-0.053833656
-0.022739902
-0.013594583
0.03690155
-0.028692365
-0.04295092
-0.05308474
-0.04389654
