2 128
1 128
0.12859584
-0.01870926
-0.07418218
0.09229685
0.014938634
-0.0786374
0.04137512
-0.11788494
0.16429874
0.15494429
0.081526205
0.09351977
-0.17572612
-0.09826795
-0.17010641
-0.09213705
-0.14656097
0.13012028
0.0953732
0.104106106
-0.078477345
0.13473693
-0.025544193
-0.04580083
0.095182315
0.11706708
-0.12705481
0.16829662
-0.017841984
0.04708273
-0.17602302
0.019679755
-0.08748965
-0.110687084
-0.073808886
-0.00082344405
-0.050360363
-0.11324211
0.12656939
0.05259092
-0.16451626
0.03708202
0.043425035
0.0064957566
0.042925913
-0.014800519
0.077311985
-0.12444719
-0.07537435
0.1324245
-0.10952033
0.08673221
0.16356659
-0.1616465
-0.077446684
0.15085667
-0.010689157
0.034898117
0.025158782
0.07284952
-0.07283759
0.022949548
0.12041692
-0.014913346
-0.16218486
0.061103806
-0.04512861
-0.037294313
0.09219528
0.030980736
-0.10694143
-0.081577204
-0.026871756
-0.043675367
-0.037423577
-0.12082846
0.12806168
0.09168024
0.034886166
0.04002602
0.020694925
0.13218196
0.040001214
0.026928758
-0.09717609
0.058971196
-0.16538285
0.055753324
-0.15322815
-0.07316288
0.09332724
-0.10529033
0.14076255
-0.09767273
0.16744126
0.054484706
-0.076606914
0.107812375
-0.15655215
-0.111986406
-0.11075235
0.023270877
0.017367072
-0.1520469
0.17058256
-0.00016894564
-0.09439817
0.004222524
-0.07588199
0.048771277
0.0639948
-0.050144676
0.010305747
0.10518355
-0.11498109
-0.03941908
-0.02607891
-0.11695773
0.014397974
0.006497
-0.1427876
0.03626342
0.16872743
0.09402642
-0.0958904
0.1618155
-0.121515244
-0.08988135
