2 128
1 128
8.306981
-37.72637
-4.463561
-5.622419
-33.82246
-5.08404
-4.892808
0.51227236
30.006807
15.999555
1.7640939
-1.844127
-39.164833
9.334544
50.07881
1.230282
14.381207
-2.2089772
1.9667044
-7.745425
-33.296745
-12.92616
-21.040659
51.81451
-6.38437
-26.314865
-11.542969
-36.81281
2.542353
30.564884
-17.490986
-35.78885
-30.428213
5.526879
22.768438
34.044693
33.87823
-5.4200454
-0.66878664
-9.7897835
25.602013
42.110233
23.503206
-15.118986
40.031116
-13.460333
-34.116463
44.705235
-15.446102
-29.829628
12.371732
0.20362449
-31.892714
10.467559
-1.801203
10.747463
12.068237
16.364994
-1.9428906
-21.111742
-4.3937597
-46.452713
18.11097
-27.634556
14.956871
-26.891022
-6.6106815
0.3795858
-4.435825
1.7463509
34.98453
-23.836384
26.283085
-3.363278
14.6294985
-22.742573
14.594471
5.936559
36.721085
28.09069
22.995174
-32.95173
1.460772
33.511196
18.189611
37.08645
-3.6816072
-31.803818
-20.801992
32.55454
30.21236
54.281494
-1.0394765
-9.713621
-22.052353
-22.129988
-21.18875
6.924682
-23.078445
-34.10147
-11.888008
25.057743
26.856564
-13.728554
1.4405769
16.453304
-29.456379
-3.8709083
11.607249
-17.284119
-24.081608
11.835214
25.187538
16.40487
-11.392957
40.289036
9.168496
-12.223116
7.0069327
12.399244
17.619629
16.875702
11.239797
-7.24841
6.0334196
-8.293263
38.730247
-35.80323
