2 128
1 128
-6.0995154
-8.124562
0.027017437
4.033738
-1.1165991
-0.7302107
-1.8095814
-2.9151845
1.9129081
9.483058
0.1261007
1.376623
-4.498908
3.2592704
10.438186
-5.1953526
3.3718863
-1.4484384
4.9708343
-5.214425
-2.8444033
0.5003158
-1.4803813
12.119834
-0.80073625
-0.99871767
-4.494592
-9.691526
0.71262467
6.39465
-3.7627902
-6.0203285
-3.9715543
-1.1320417
0.933339
5.863078
1.3238571
4.0140705
-0.69804144
-3.0220528
2.314848
3.6693652
0.8826871
-2.7578342
2.5515754
-3.2916722
-8.799598
2.9859285
-1.8896623
-4.898741
1.0477922
0.54059285
-2.435683
0.9379372
1.9023755
1.3428404
4.8694506
-0.72212136
0.06407334
-3.520376
1.651763
-7.0345507
2.5598948
-3.5654035
4.444594
-5.074131
0.045153454
4.057326
5.2767816
4.7999716
4.620682
-6.854726
4.3368883
1.778252
1.6308848
-3.5410147
-0.12578565
0.24639511
3.344974
2.7058165
1.5536333
-5.394373
1.9380817
3.6725724
4.6872005
4.7551317
4.7072263
-4.3494463
-4.7491064
2.1367474
5.485594
0.6524137
-2.619567
-2.2318172
-3.0189278
1.0042796
-4.8068
-0.89252657
0.10397758
-0.69471574
-6.0305815
4.4837656
3.0897784
-0.9267164
-4.341132
2.421166
-5.656976
2.079442
0.37292683
-4.1086197
-2.721245
3.495152
0.827882
3.7221496
-5.664054
5.079945
2.7656136
-2.9585114
0.73979664
-0.04938288
0.74205875
-4.1067595
2.4763186
1.7406363
0.80103636
0.58929414
0.3250942
-4.926354
