2 256
1 256
0.029596139
-0.045942035
0.063901015
0.07739806
0.08628647
0.08413691
-0.0016980227
0.07036142
-0.023947239
-0.07099125
-0.014847671
0.04386749
0.014985891
-0.08188207
-0.034111414
0.020547926
0.060151074
-0.08034013
-0.040872548
-0.025355965
0.057524525
-0.04030304
-0.044253275
-0.08677015
0.042553406
-0.069106825
-0.03155977
0.081494346
0.067862265
-0.00429744
0.046162102
0.035017394
0.025680665
-0.021854099
0.03759874
0.07942503
-0.08018842
-0.08008467
-0.07811966
-0.04374017
-0.046756312
0.00487344
0.061818436
0.07157986
0.024619944
0.07671198
0.053482812
-0.0805007
0.035140608
0.06794303
0.011153952
-0.079759054
-0.046041742
0.005186212
0.057207413
0.028009772
-0.08350993
-0.07716043
0.08698163
-0.02422938
-0.008614194
-0.084765874
0.0675501
0.016124152
0.035647456
0.067436345
0.02799027
-0.0473378
0.07735635
-0.08412761
-0.06681589
0.063593134
-0.012448145
0.04131786
-0.06183697
0.023240393
0.07839436
0.027234713
0.008003971
0.025769932
-0.04204933
0.07766356
-0.07726711
0.06254783
-0.053583384
-0.005219202
0.010381591
0.06725108
0.071478926
0.048340507
-0.030143088
0.058790956
0.06651254
0.06962119
0.023059858
-0.0023800218
0.029606411
0.07165983
-0.042928495
-0.03624982
-0.028138122
0.07558867
0.061465953
0.057894837
0.015171095
-0.065085374
-0.014911681
-0.026512474
0.07044076
0.03093075
-0.057545725
-0.049841523
0.030402398
-0.06501284
0.081801824
0.029752893
-0.047586035
0.059845015
0.083820544
-0.076144405
0.012449115
-0.05626579
-0.076213606
0.0064839446
0.047350224
-0.049048036
0.052307587
-0.00535972
0.043734476
-0.0317084
-0.0774194
-0.06545729
-0.021964524
0.08027481
-0.0693616
0.08023403
0.00596576
-0.07932939
-0.015057625
0.03593299
0.04636874
-0.086916946
-0.039362404
0.010513584
0.03882791
0.000723419
-0.061648298
-0.021284632
-0.038484402
-0.0263467
-0.010839463
-0.041668396
-0.081331395
0.0075557074
0.08377901
-0.041901395
0.08759152
0.052413724
0.060782455
0.030106315
-0.018166356
-0.011538995
0.009492429
-0.061420042
0.028504018
0.048959147
0.004408023
-0.06470282
-0.03539685
-0.071007706
0.07389273
-0.061846454
0.059727952
0.0317209
-0.00018307538
0.01880684
0.03110154
0.05626011
-0.08698985
0.08190101
0.07064088
-0.026166491
0.028857442
0.023757651
-0.05063905
0.046693787
0.07463409
-0.028503997
-0.023740435
0.080151774
-0.00906114
-0.06782453
-0.059265137
0.07219895
0.072697125
-0.011336606
-0.015008587
0.03937546
-0.0749873
0.08438366
-0.062340487
-0.030274924
-0.0032624821
0.04193745
-0.059139404
-0.023357773
0.0024108628
-0.0028662279
0.046099346
0.055843234
0.040982235
-0.041623298
0.08506218
-0.0020476414
-0.0062449407
0.07042519
0.08476724
-0.021105645
-0.045168396
-0.0138051575
0.02185588
0.07112786
0.055981677
0.052934892
-0.05230428
0.038548496
-0.024855029
-0.031401373
0.018988557
0.012988067
0.061188415
0.0649437
0.01722529
-0.08296095
-0.021161532
0.05441333
-0.041664194
-0.006108669
0.054277785
0.0877317
-0.02148266
0.01133236
0.005476951
0.0524115
0.035708886
0.06528012
-0.045213442
0.06555739
-0.01798603
-0.058776487
0.06658049
0.055159066
-0.02268552
0.027897105
-0.065904826
0.063293874
