2 131072
256 512
0.055032402
0.029995374
0.042408943
0.045033947
0.03149806
-0.017186724
-0.0072860196
-0.04656589
0.056704253
0.00490728
-0.05461792
0.025971204
-0.053783275
-0.0057000667
-0.014671065
0.015847176
0.021592624
0.02422519
0.06164726
0.02948159
-0.0104758665
0.029272497
0.027965255
-0.016984537
-0.012469046
0.051437713
-0.022893816
0.0041522384
-0.008872449
0.035250686
-0.02550473
-0.030869313
0.04925462
0.05347965
-0.0093141645
-0.04373485
-0.05087898
0.00897897
-0.04634744
-0.0011010692
-0.049198613
-0.060167186
-0.035222284
-0.018445335
0.020535208
-0.0024466664
0.029600225
0.028245822
0.004883334
-0.00751622
-0.048066616
0.047424227
-0.059467115
-0.020576738
0.003030844
0.010135211
-0.034254223
0.0040346906
0.042169623
0.032940015
0.036047257
0.0034768954
-0.010384977
0.019395798
-0.0353091
0.04450225
-0.054965384
0.012972325
0.017711468
-0.051892728
0.051313072
-0.02761902
0.012748152
-0.0076411217
0.059604377
0.054795697
-0.059434325
-0.05711826
-0.05922635
0.013928242
0.024233699
0.024464518
-0.060157165
-0.024754152
0.02017185
-0.009086199
-0.050087206
0.041864842
-0.0021344349
0.0007790923
-0.023927227
-0.04769525
0.038532108
-0.032102443
-0.021256745
-0.028152145
-0.027572125
0.03567905
-0.03136781
-0.020011455
-0.048562564
0.024772942
-0.037896954
0.048938163
-0.04650806
-0.043826982
0.02810973
-0.045051403
0.02047214
0.033735923
-0.04113412
-0.015667014
-0.036012955
-0.028845422
0.04975871
-0.04286515
-0.01800204
0.031841025
0.01745198
0.0586979
0.008027799
0.036166817
-0.039817043
-0.045244217
-0.0060509667
0.01268512
0.023871884
0.042806946
-0.039948978
0.0049448907
-0.019279085
0.003825508
0.0011638403
-0.050680593
0.022009224
-0.06248804
-0.020891897
0.030300759
0.05134324
0.041925795
0.0028882101
0.0030743629
0.037962288
-0.0016881004
0.020109698
-0.056356423
0.019756243
0.0028735846
-0.025177784
-0.045926936
0.010153882
-0.014366262
0.029363401
0.045757182
-0.015616335
-0.0539364
-0.03160274
-0.011944689
0.027496077
0.04384455
0.01971642
-0.0063255727
0.020448618
0.047360472
0.042704836
-0.04273241
0.007836588
0.003702283
-0.014819965
0.057763793
0.049711317
0.042358033
0.043986715
0.042606845
0.02227854
-0.01664076
-0.05088511
0.027061261
0.059136793
-0.05000311
0.0044435486
-0.03775852
0.010368742
-0.01659248
0.040694363
0.017271362
0.049010664
0.061311267
-0.018756151
-0.051931217
0.05538576
-0.023650765
0.027310826
-0.03531456
-0.018158704
0.008243404
-0.015049048
-0.034660675
-0.02704753
0.049026772
0.023840927
0.020947188
-0.004433848
0.0593685
0.007226646
-0.050631367
-0.040169507
0.060531884
-0.007642463
-0.047253266
0.045717224
0.033821225
-0.05488067
0.028538637
-0.05491569
-0.00094917417
0.010586105
-0.054236576
0.03515885
-0.012309268
-0.021953389
0.039171644
0.011159502
0.048849054
0.022010975
0.059118286
-0.03295777
0.012363747
0.04294485
-0.021942943
0.051508956
-0.038493566
-0.0524133
0.008505255
-0.026078299
0.05705043
-0.0012802109
-0.023898743
0.0010544285
-0.060139365
0.008277521
-0.01333081
0.02042012
0.031868026
-0.009415381
-0.018402986
-0.048818275
-0.05830884
-0.003870882
0.03592834
-0.052476145
0.056934364
-0.05495675
0.033151895
-0.004549548
0.014366314
-0.043224476
0.049536616
-0.061404936
0.053702205
0.001832895
0.033343025
0.00569652
-0.023260184
-0.030975237
-0.05416192
-0.021300592
-0.033146508
0.0011784509
-0.03459034
-0.044910856
0.03776198
0.043012373
0.021498017
0.03132903
-0.038715318
-0.041940197
-0.046818405
-0.057657383
0.060253188
-0.03061939
0.022694185
-0.008798912
-0.009727076
0.014691278
0.035741583
0.038377613
-0.008733004
0.02033607
-0.007955544
-0.0381461
-0.06017565
-0.045073204
0.056609817
0.054488912
0.026145995
0.039155185
0.035765894
-0.03390362
-0.008181386
-0.016802065
-0.053571798
-0.021463983
0.03663846
0.006100148
-0.027210817
-0.059629
0.029803313
-0.01275982
0.008259065
-0.03332948
0.0386326
0.024028204
0.021280289
0.026081957
0.052708387
0.010710269
0.042661488
0.04500281
0.05616886
0.05704765
-0.04814844
-0.04192751
-0.0054975078
-0.046926223
-0.045302667
-0.017271027
-0.040539786
-0.0077588856
-0.026200622
-0.032000862
0.02447854
-0.004103504
0.035390563
-0.003782615
0.021501318
0.003993541
-0.0010833293
0.01571551
0.046092257
-0.021448798
0.038544357
0.05541522
-0.021267883
0.03160464
-0.011001691
0.014139332
-0.0106996
0.030574836
0.004614249
-0.0005749017
0.00012809038
-0.041453183
-0.04616853
0.043001667
0.05508081
-0.033934146
0.040204212
0.018890657
-0.037659265
0.014705822
0.0421929
-0.04373101
0.03595879
0.054939248
-0.012663357
-0.013157159
0.021194205
0.013431184
-0.061250784
0.04247272
-0.023935474
0.0006635189
0.0071480796
0.044136174
0.046485193
0.049899034
0.0010902584
0.053275995
-0.023553997
0.034046486
-0.06053055
-0.05468701
0.026435807
-0.03233958
-0.015075713
0.017941691
-0.031626858
-0.05084929
-0.009832472
-0.05225998
-0.023855604
0.025301792
-0.03712499
-0.052636966
-0.012957193
0.04216402
0.004035376
0.056864783
0.012253322
0.049190454
-0.05480896
-0.024717636
0.03469222
0.047822088
-0.029807553
0.03277514
-0.061240666
-0.006583348
0.049052402
0.05933258
0.036263973
-0.061028473
0.04111375
0.01341521
-0.017679453
-0.05835756
0.05604928
0.028035425
-0.049226098
-0.0152165815
0.048682354
0.007673241
-0.045972146
0.04604157
-0.030979842
0.0150870085
0.01783099
0.051936127
-0.050282545
0.04287163
0.04129161
0.009805039
-0.036211453
0.017348543
0.041356407
0.03780926
-0.021661945
-0.047211103
-0.05520714
0.046674162
0.014499418
0.043784402
-0.060833417
-0.014257319
-0.025361992
-0.024006091
-0.0060981438
0.02407527
0.03373605
0.035668015
-0.025106035
-0.026332669
-0.035505146
0.053402238
0.054777563
0.017143205
0.043543182
0.049531437
-0.017560996
0.011048906
0.047276758
0.0029757991
-0.055873327
-0.04849316
0.045659788
-0.025233455
0.03822261
0.0038129538
-0.027379245
0.05901803
-0.026091918
0.0040036365
-0.013104737
-0.030692503
0.019728437
0.027476214
0.012441158
0.0132872015
-0.03758736
-0.023606293
0.024267592
0.032920696
-0.016282648
-0.0019327402
0.015249759
0.028859518
0.034812137
-0.0019983575
-0.0016289279
0.06114436
0.058576085
0.042146772
0.050105505
0.03929206
0.030888706
-0.050289027
-0.043853037
-0.028646447
0.02355621
0.0388572
0.023967177
0.0053838715
-0.00871212
-0.033705793
-0.036515795
-0.004125163
-0.03209178
0.014912277
0.02410981
0.010424383
-0.054872766
-0.02594591
0.045189656
-0.0326334
0.020648077
-0.027300805
0.049718753
0.021414697
0.026327312
-0.034289993
0.013980724
0.05083476
0.013792686
-0.013751291
-0.0017639995
0.014626659
-0.02163729
0.05531335
-0.019868322
0.016717024
-0.034208275
-0.02473484
-0.04454934
0.00483758
0.013609938
-0.035118222
0.016759276
0.035592653
0.0007671267
0.007984504
0.061399482
0.052222826
-0.028074875
-0.034514226
-0.057299323
-0.047920823
-0.057380743
0.0013023838
-0.03927537
-0.058965564
0.04548177
-0.030202858
-0.008296885
0.030812815
0.022889502
-0.03399963
0.05165682
-0.027449697
-0.053055443
0.055487208
0.02004037
-0.019036308
-0.025037251
0.021150574
0.0342457
0.05922088
-0.03422285
0.04236827
0.029807463
-0.055629276
-0.036910072
-0.0033414066
0.05913318
0.02283103
0.03178259
0.030440941
-0.0016814247
-0.057283454
-0.006882027
-0.004319653
0.03950613
0.060342267
0.038450293
0.051981464
-0.011443511
0.007865369
0.03854709
-0.014427245
-0.0160788
0.027236208
0.02788598
-0.045150533
0.041783474
0.059418246
0.031825602
0.035618767
-0.041124612
0.061653815
-0.022380337
-0.018644787
-0.056178167
-0.03108219
-0.02752924
0.00346262
-0.028544277
-0.051227212
0.056990147
0.052875474
-0.012840487
0.0524142
-0.036382027
-0.050489165
0.024837606
0.035667427
-0.053975962
0.041684337
0.04501734
-0.05471687
0.059371673
0.030563973
0.020382278
0.036308758
-0.057880476
-0.002465196
-0.052834935
0.021293297
0.034663163
0.035313018
-0.06107436
0.033943802
-0.006896816
-0.041451998
0.034388885
0.011292428
-0.060045786
0.0027409717
-0.025542863
0.01715184
0.04291153
-0.057620518
-0.051155724
0.051738255
0.035804547
-0.05573976
-0.026570752
-0.027045839
-0.0015132949
-0.060520604
0.03012804
0.025880918
0.030704074
0.02226244
0.020838238
-0.058181085
0.033274367
0.015454911
0.055470802
0.043707825
-0.025070429
-0.055427052
0.052087374
-0.009482928
-0.027263887
0.060781397
0.034783594
0.058691435
-0.03719385
-0.050671138
-0.011411712
-0.049002483
0.03088025
0.0600017
0.005962938
-0.010478936
0.054739445
0.048131935
0.04550661
-0.025333926
-0.03983002
0.035613827
-0.052796863
-0.051622577
-0.0004600808
0.051857762
-0.03806068
0.028886944
-0.05888366
0.05194114
-0.052056164
0.0143115
0.04848803
-0.057871483
0.031938545
-0.017227396
0.034528337
-0.01590541
0.047125824
-0.059195064
-0.042045385
-0.04398755
0.060474478
0.015481122
0.04510977
0.004008271
0.059460893
-0.051969573
-0.016997091
-0.053261496
0.051970296
0.03588961
-0.058334082
0.03231415
0.033825234
-0.059172317
-0.0026526079
0.031473972
-0.03598766
0.05730302
0.04605051
-0.004206501
-0.020431131
-0.019007161
0.041697137
0.059036806
-0.014011711
0.048456818
-0.0455406
0.025164708
-0.044508643
-0.0032965988
-0.008587472
-0.0036431774
0.0100177005
0.011675447
0.025199972
-0.023222178
0.03622563
0.0009922758
0.054910168
0.012483835
-0.06170451
-0.038321167
0.015766524
-0.014800169
0.04337219
-0.051754266
-0.029212885
-0.002756551
-0.055719934
0.04767412
0.051791713
-0.027083598
0.048689373
0.017222293
0.012058675
-0.014431372
0.043358497
-0.00365863
-0.02400501
-0.0065910593
-0.050964624
-0.0462666
0.032566823
0.024188295
0.050514117
-0.022467911
0.03864067
0.007047206
0.03757426
0.056835122
-0.04824636
0.017441086
-0.0391263
-0.002262473
-0.00549268
-0.045700096
0.008551344
0.023789741
0.009957939
0.05586776
-0.045315884
0.053365424
0.040565863
-0.03359934
-0.015865505
-0.0025637373
-0.014366068
0.05490841
0.0062759593
-0.015137784
0.060554832
0.058414154
-0.030395366
0.010900132
-0.016931206
0.03698919
0.007919282
-0.0056040436
-0.04348574
0.061074317
0.037756644
-0.02645161
0.03800761
-0.01414147
-0.008574076
0.006776318
0.015906021
-0.00030919164
-0.027804092
0.03303226
0.02477929
-0.016697392
-0.013083912
0.05914934
-0.05436159
-0.02175375
0.01598721
0.037298195
0.024605066
-0.04562337
0.0048839226
0.01713045
-0.021440275
0.011986561
-0.019746244
-0.047702707
0.055188976
0.049380057
-0.025267348
-0.050465904
0.033035822
-0.030274823
-0.026218824
-0.008420572
0.006646715
0.02954553
0.057747565
0.0477105
0.011115834
-0.03233894
0.034094714
-0.048892334
-0.034651004
-0.051755197
-0.028520338
0.039604686
-0.035653017
0.037953183
0.05684858
-0.036565214
-0.04070855
-0.005224511
0.03817515
-0.056670308
-0.0056312457
-0.04615438
-0.025175363
0.059966274
0.053771876
-0.008657508
0.0002605766
0.03184688
0.01625619
-0.01889243
0.004169047
-0.028677903
-0.0011613369
-0.03126359
-0.053914525
-0.046180137
0.043550983
-0.023646869
-0.012656897
0.0052908137
0.04610628
0.028140597
0.009599961
0.015524767
-0.018538564
-0.022739246
0.03980364
0.0065678656
0.05314018
0.022272222
-0.00057294965
-0.019959658
-0.020889498
0.055641145
0.030852266
-0.030295841
0.051532105
0.0491016
0.010502264
-0.00847438
-0.026595615
-0.034794733
-0.04782042
-0.020369083
0.0015158728
-0.011894859
-0.00036733598
0.024235383
-0.032627143
0.03391087
0.010890484
-0.022473842
0.008069932
-0.057851553
0.051776715
-0.018588439
-0.050057396
0.04333935
0.04709728
-0.011754319
-0.018365026
-0.016852617
-0.011121847
-0.03843184
-0.028253362
0.013344489
0.015721418
0.021960951
-0.023770437
0.00840047
0.018294796
0.0070042983
-0.027995855
0.058901146
-0.05305201
0.017224662
-0.043915227
-0.02663827
0.044181436
0.013981678
0.0060526654
-0.039326355
0.037583165
-0.04045713
-0.0036696866
0.03980831
-0.003237836
-0.020778492
-0.05439943
-0.039630957
0.02544523
0.059073463
0.05235748
-0.013058312
-0.0175642
-0.04351213
0.013413191
0.045800038
0.0032164305
0.0037847608
-0.05161968
0.014155842
-0.0383716
-0.023623787
0.053662397
0.057949908
-0.02403099
-0.026999503
0.05942852
-0.025462024
-0.04775347
0.01319731
0.017662086
-0.0624284
0.017188646
-0.04932329
0.054658636
-0.025022551
0.028544344
0.040986083
0.03792739
0.043806836
-0.044805355
-0.034118667
0.038852543
-0.03785856
0.042290747
0.034662627
-0.030714862
0.013292506
0.055333294
0.04958333
-0.028469816
-0.0012416393
0.03211432
0.013319388
-0.036338903
-0.02549237
-0.05221297
0.01823546
-0.056724213
-0.053148963
0.013123862
-0.034325957
-0.027767412
-0.022799775
0.012636796
0.01812534
-0.025330521
-0.0061211064
3.463775e-05
0.00964167
-0.03226187
0.04606971
0.05286532
0.00014396757
0.00054169446
-0.0021711364
0.05970814
0.030476265
0.0436479
0.011993073
-0.022171937
-0.03502351
-0.022030048
-0.033456698
0.058064744
0.053091526
-0.038246587
-0.044019677
-0.058144562
-0.028069936
-0.033214383
-0.030486502
0.006911151
0.0098968595
-0.0318868
-0.000473544
0.060008638
-0.056448728
-0.027160205
-0.037856817
0.054004304
-0.04949245
-0.02647914
-0.060335547
0.016669579
0.04932423
0.026326843
0.049059123
-0.02172985
-0.0037044585
-0.015131369
-0.037777208
-0.017728768
-0.031477027
0.04752902
0.049446344
0.02612497
0.044739857
-0.050140157
-0.024242163
-0.036870614
-0.017635077
-0.009470321
0.03675822
-0.037211157
0.030838199
-0.06179115
-0.025800876
-0.050048538
-0.012528688
-0.016147688
-0.0413158
-0.0124072805
0.0038828552
0.023022398
0.054462835
-0.005963266
-0.044705458
-0.03795539
0.002880238
0.051565684
-0.055947147
-0.0058296993
-0.0400341
-0.000799194
-0.024315998
-0.0471384
-0.046231344
0.029663369
-0.0434653
0.04095357
0.03552319
-0.029762506
-0.0535943
-0.0129602775
-0.012402378
-0.05932249
-0.020972185
-0.039150253
-0.061463982
0.0040811747
-0.041919775
-0.02650854
-0.017955318
0.037272654
0.044221483
0.00935629
0.034589164
-0.042189658
0.060286492
-0.050187856
0.041702457
-0.008712687
-0.0499518
0.05347076
0.0015659556
0.052683614
0.013955303
-0.02056323
0.022719212
-0.013298437
0.056738533
-0.039611585
0.019972593
-0.0049921125
-0.05124042
-0.0007428825
0.019555032
-0.060038388
-0.028121032
0.039233856
-0.055167772
0.0066880807
-0.05522465
-0.038777113
-0.045892537
0.040145054
0.05474937
-0.0033244863
-0.04127807
0.0311886
0.012055725
-0.0542161
0.021557964
0.03951773
-0.025693238
-0.022865154
-0.056785434
0.03295505
-0.053100713
0.046998322
-0.027117766
-0.05262155
-0.037497416
0.030241951
-0.037364513
0.02319017
-0.03417804
-0.009834021
-0.053225435
0.045915037
-0.04907605
-0.040312625
-0.037240423
0.035964727
0.042793095
-0.0555022
0.030949146
0.03014408
0.022787318
-0.023687392
0.009152219
0.04199598
0.0015613064
-0.02384749
0.046003237
-0.054688796
-0.042123422
-0.04860989
0.039343633
-0.0589026
-0.023927614
0.024968855
0.024359718
0.0067841485
0.0453019
0.009211361
-0.017448135
0.012821332
-0.058932766
0.006566219
-0.007450789
0.0579603
-0.035338797
-0.05006767
0.048720628
-0.061841592
0.05716849
-0.017317772
0.03812866
0.04132735
-0.02104801
-0.012411267
0.023042649
-0.045058727
-0.031781934
0.021440879
0.030124128
0.059119202
0.02789998
-0.060266793
0.047754824
0.016526468
-0.045583315
0.038059525
0.04097496
-0.058370203
0.011759572
-0.0056254193
0.042557217
0.041439146
-0.0146568045
0.027501978
-0.05071549
0.026525237
-0.0019876882
0.005626671
0.031838834
-0.0044485405
0.054758124
0.0023165047
0.012126669
0.060975388
-0.035691805
-0.02749297
0.040354513
0.0017456636
-0.01802311
0.039154403
0.007849887
0.04832036
0.008886263
0.023181975
-0.0022123232
-0.009885728
-0.0054506436
-0.053797036
0.027951218
0.016833961
-0.044569783
-0.053203024
0.044296205
-0.058264434
0.044576257
-0.020821624
0.023147278
-0.030015238
0.011998676
0.013413556
0.0018110946
0.008967936
-0.021307021
-0.0077698305
0.017046772
0.050328866
0.0322384
0.040854253
-0.014508963
0.03864052
0.030029811
-0.0035587996
0.036242984
0.0009287596
0.019752271
0.050433986
-0.011074655
0.05292607
-0.044192806
-0.03358715
-0.014259912
-0.058740996
-0.03303677
-0.020484753
0.058202527
0.03981404
0.03798165
0.027057692
0.052176736
0.03696786
0.055945724
0.05447782
0.023058921
0.028777108
-0.050266266
0.0010048524
-0.03538838
0.024772435
0.018657453
-0.031754784
-0.035025448
0.0074396133
-0.04959806
-0.0389605
0.047747023
0.018277839
-0.029252067
-0.01976239
-0.0038030967
0.049472146
0.016443916
0.05002065
-0.0098667815
0.014155485
-0.03586758
-0.06168706
-0.059826463
-0.0034914538
-0.017449364
-0.015181199
0.027321272
-0.028726988
0.011797585
0.024769098
-0.025840878
-0.043309137
0.03229343
0.00093351305
0.004083745
0.00299792
0.02817709
0.0016658828
-0.0021330565
0.04844982
-0.020802446
-0.004502028
0.0015745908
0.04925833
-0.040370896
0.04657603
-0.0038186759
-0.00091738254
-0.039699256
0.008165114
-0.062050767
0.033957385
-0.004498109
-0.029071726
0.052177213
-0.013233133
-0.02208051
0.005653292
0.0050610155
0.0066333488
0.026225857
0.059537135
-0.005871497
-0.041582465
0.019749507
0.02030319
-0.039744146
-0.045893878
-0.017754614
0.024852589
0.054797366
0.025948323
0.046611533
0.03110037
-0.02353412
-0.056865066
0.027788222
-0.01689218
-0.03286554
0.062096737
0.012072578
-0.021279812
-0.03190607
0.05152896
-0.040707618
0.015881673
0.033410817
0.005303219
-0.05547812
0.01788088
0.02694194
-0.018351674
-0.022710733
-0.041673847
0.021124303
0.036466554
-0.055464655
-0.036687
0.042434014
0.001807943
0.00074617565
-0.051512875
0.021372698
0.042372435
-0.049600273
0.04325948
-0.057416677
-0.057152636
-0.037122004
-0.05456399
0.03883159
-0.027856596
0.044109106
-0.045449823
-0.045977376
-0.03489338
0.044500113
0.058640875
-0.047414936
-0.034913093
-0.009828612
-0.011877127
-0.0076193437
0.02027867
-0.04889886
0.01171577
0.043321893
0.019799545
0.011917658
-0.022398226
0.03558822
0.024524786
0.02207081
0.03181334
0.001284264
0.028231792
-0.010265335
0.046987236
0.021754846
0.0038970262
0.05946336
-0.05416944
-0.015603237
-0.013671823
-0.033941828
0.027555332
0.033912316
-0.042491473
-0.021163024
-0.024931699
-0.03334646
0.0343246
0.027109422
0.0030501857
0.060747012
-0.02406694
0.034356125
-0.02107355
-0.02082304
0.02091825
0.015368
0.057802886
-0.02292826
-0.047685556
-0.055051424
-0.0273377
0.024033733
-0.020277895
0.040752724
-0.003703311
0.025895946
-0.0075111613
-0.05151721
0.01964654
-0.02811081
0.016901746
0.014285296
0.01863899
-0.03130973
-0.022856481
-0.035761908
0.006379433
-0.010938115
0.008497015
-0.023785353
-0.044489488
0.041152835
0.034283265
-0.02045314
0.030808903
-0.024697967
0.039688528
-0.044462882
0.04299412
-0.051184103
-0.00754831
0.032010227
-0.010477982
0.008854918
0.017928846
0.022645988
-0.058263257
0.028004862
-0.016331218
0.05653044
-0.021305554
0.012367919
-0.04838679
-0.0400222
-0.054560967
0.023589633
0.060259677
-0.04599709
-0.026959725
-0.018341191
-0.018967934
0.026843913
0.02701477
-0.042543367
-0.006860502
-0.038383454
0.002527319
-0.022999913
-0.060869314
0.045873307
0.0049993545
-0.0022325069
0.05188425
0.042333372
-0.06033107
0.02197425
-0.055765755
0.024100639
0.039649136
-0.005601406
0.027053416
0.050328158
-0.012822285
-0.035638593
0.04274302
-0.04609283
0.023836963
-0.006303087
-0.014621675
0.027469002
0.049880512
0.05693639
-0.0010574758
-0.018681146
0.0068556443
-0.0045824647
0.058888093
0.01823435
-0.053193115
-0.020945042
-0.0001379773
0.04428035
-0.046548337
-0.050956175
-0.025090173
0.025959648
0.004506752
0.00017929077
0.060601808
-0.04045119
-0.03649413
-0.010972619
0.06154859
0.05204571
-0.02732987
-0.028779306
-0.0051423833
-0.026318789
0.0037268326
0.012243241
-0.054978587
-0.04155895
0.031766593
0.030879393
-0.057791784
-0.048043534
-0.009188481
-0.037919812
-0.048452288
0.052956432
-0.047882497
-0.03331078
0.0521968
0.0033338591
-0.015444994
-0.039515294
-0.02963996
-0.060812242
-0.035736345
0.014722422
-0.00543198
0.05015953
0.03736391
0.0010588542
-0.019190066
-0.041448377
0.046371162
-0.0267343
0.04902327
-0.026807472
-0.05634334
-0.02026467
0.00077460706
-0.0068596303
-0.034115866
0.0128548145
-0.0069422573
-0.052869394
-0.037573494
-0.0561428
0.0061806813
0.0140761435
-0.00024068356
-0.007941268
-0.013499074
0.03592801
-0.006789632
0.048142843
0.039366998
0.05615171
-0.062118396
0.026231758
0.027862094
-0.029694311
-0.012502253
0.048768513
-0.02802296
-0.058835305
-0.021010742
0.044342794
-0.011965394
0.061278634
0.02897384
-0.041585222
-0.049890347
-0.00485301
-0.053151175
-0.030733831
-0.014588289
0.04805003
0.03588611
0.027002007
0.0136718005
-0.056189165
0.045384884
-0.056334123
-0.053240024
-0.037220202
0.024103783
-0.038744204
-0.00475809
0.045363076
-0.015227139
0.005981855
-0.017426051
0.030808687
0.012485139
-0.05289191
-0.035190888
-0.009441987
-0.031980537
0.027489528
-0.01191327
0.029243328
-0.014026515
-0.04657361
-0.0077597424
-0.017548151
-0.04825581
-0.027700663
0.017903358
-0.052498743
-0.033193797
-0.004218869
-0.0214395
-0.04731354
-0.038768843
0.054027714
-0.054108918
-0.056967735
-0.0364388
0.045301296
-0.024879694
0.028155312
0.020659529
-0.04366888
0.02303578
0.03328404
-0.019877687
-0.05807423
0.04222338
0.030372895
-0.034409933
0.04348994
0.029170632
0.0016947985
0.042905435
0.030007347
0.007180169
0.04408844
0.0011610985
0.026545249
-0.031300873
-0.010212429
-0.006293282
0.051262558
-0.03568411
-0.0027990863
-0.060506195
0.0617247
0.013256788
-0.053236715
0.026097253
0.05361215
-0.04977399
-0.053499304
0.001060985
-0.040599197
0.035406247
-0.006056629
-0.03586939
0.021873698
-0.015721694
0.02078148
0.02378273
-0.010772236
0.04677169
-0.04108715
-0.0010669902
0.03624127
0.040894203
0.030223086
-0.027275309
-0.032748997
0.046035714
-0.022975296
-0.0042478815
-0.054497883
0.023156494
0.026950866
-0.026210569
-0.059027486
0.00716915
-0.017879605
0.018081628
0.045313373
-0.024242505
0.02021169
0.0029340014
0.0015858039
-0.048645474
0.028676324
-0.0055466816
-0.050730973
0.041259617
-0.021366067
0.045793578
-0.0006425455
0.0095043555
0.031405628
-0.029910386
-0.052963756
0.062434897
-0.05883397
-0.0011762753
-0.015022062
-0.01709383
-0.059265636
0.024026126
0.027690627
-0.009735726
0.062388025
0.012309268
0.04724268
0.030836716
-0.009191208
-0.022651382
0.050143063
0.04559485
0.025926769
-0.02548609
0.009500489
-0.027753599
0.043628246
0.040344402
-0.044648103
0.055778258
-0.020447321
0.036509812
-0.02601137
0.048220463
0.02827511
0.019425265
-0.018013462
0.025152966
-0.047905184
-0.02892796
-0.045207992
0.056172058
0.02918037
0.040583298
0.048578642
-0.0006426349
0.035257332
-0.008817345
-0.04613211
0.015605465
0.053381205
0.058421656
-0.027484499
-0.00662113
0.0394338
0.044974804
-0.05426666
-0.027811803
-0.03932634
-0.06220422
0.012076922
-0.053982496
-0.0562784
0.030417792
-0.007756509
0.028750867
0.042182304
-0.046446763
-0.043281935
0.013048902
0.06065707
-0.04670605
0.03153371
-0.052731916
-0.045921728
-0.04473859
0.048073225
-0.017102025
-0.038964868
-0.006258324
0.022287317
-0.046375252
-0.06091834
-0.050782144
0.056107707
-0.020915702
-0.05141571
0.012688503
-0.002461955
0.047577806
-0.024637401
0.023475662
0.016927488
0.014214136
0.010559693
0.04536873
0.014255121
-0.044806167
0.017039746
0.034617536
0.055152394
-0.0014258176
0.020094477
-0.0089388415
-0.016425207
-0.013215706
-0.012795202
-0.005790524
-0.031394623
0.02941341
0.0067784935
0.03951274
-0.007532954
0.05390756
-0.030833475
0.05425515
-0.033092216
-0.038853586
-0.033588156
-0.058205128
0.00816641
-0.04471916
-0.051050022
-0.022976212
0.060185947
0.055478193
0.03981243
-0.04107613
-0.023726098
-0.013502024
0.012588233
0.037165977
0.03635008
0.019030482
-0.047559574
-0.009286433
-0.046633415
0.001837872
-0.021000527
-0.058769867
0.0026814193
-0.03772521
0.047181316
0.010627039
-0.04049333
0.0033650547
0.03631489
-0.02641616
-0.042023838
-0.0394639
0.010268338
0.026229896
0.036143437
-0.019921057
0.0085577965
0.032476842
-0.04559251
0.037572846
-0.026492953
-0.035855398
0.048305415
0.005294919
-0.017206505
0.0078007504
-0.06172324
-0.0053610504
0.041154243
0.030734643
0.03865383
-0.0138922855
0.04046534
-0.046363384
-0.061578214
-0.021538407
-0.027667195
0.056763537
-0.02574563
-0.030769281
0.030713513
-0.034408063
0.03207875
-0.012398072
0.021712087
0.019456081
-0.053234644
0.014064886
-0.05110892
-0.052599035
0.055545792
0.060601182
0.058655478
-0.044629924
-0.012178935
-0.01927992
-0.023520604
0.019109547
0.016142264
-0.0431125
0.022314958
0.006011069
-0.021502167
0.045567967
0.038461335
0.0092627555
-0.00578624
-0.042871736
0.03494916
-0.012930974
-0.054973274
-0.00378751
0.037939906
0.028282523
0.05134987
0.014991112
-0.043581426
0.026551232
0.04544422
0.025357716
0.049003147
0.012552872
0.0045569614
-0.02932164
0.01868695
-0.061092608
0.023793668
-0.015310496
0.0024645478
0.04397901
-0.058645844
0.030421712
-0.05463244
-0.012760155
0.02892223
-0.042229705
0.001619406
0.0024995506
0.03177049
0.017403312
-0.012655787
0.016126491
0.03925795
-0.0032011792
-0.0565454
-0.016154528
-0.013668075
-0.061827675
-0.028927617
0.007898204
-0.0019538775
-0.010077365
-0.026917152
0.024791159
-0.059570476
-0.050673656
0.037914097
0.009464517
-0.0032962114
0.00794445
-0.041458465
0.040289067
0.0015513673
0.004988782
0.007102892
0.011928804
-0.02577199
0.06158884
0.0604484
0.056399077
-0.014786169
0.00926657
0.0471275
0.05844935
-0.026564136
0.036070168
0.0024981648
-0.011857808
0.008011527
0.061493427
0.04734754
0.05484376
0.033812232
0.0052516237
0.024498962
0.056842335
0.057289407
-0.011442021
0.05415801
-0.03190431
0.06141725
-0.028093278
-0.026362129
0.03018751
0.00847359
0.043845735
0.04697258
0.04643295
-0.051855862
-0.052342393
-0.009496704
0.029032052
-0.01776629
0.0071013346
0.048580952
-0.049545467
-0.04873033
0.016287155
-0.01874569
0.0066647083
0.0078801215
0.021345653
0.029275142
-0.025726631
-0.005657442
0.014106251
0.012271471
-0.005106151
0.06194099
-0.018494219
0.028123952
0.058909103
0.0375928
-0.026804827
0.025542162
-0.022532016
0.017761447
-0.004860848
0.006419137
-0.035042293
0.05737091
0.0011977404
-0.0060097724
-0.016022854
0.038296103
-0.051784612
0.037365682
0.028276578
0.039984845
-0.05618144
0.008949406
-0.017253302
0.055594996
-0.05770172
-0.029559746
0.05562669
-0.0030629039
-0.05563213
-0.020826243
0.056355268
-0.05145114
0.056807704
0.056842215
-0.024567917
0.027421191
0.031027317
0.052744858
0.05956593
0.04536874
0.00070708245
0.007059507
0.025471494
0.00072588027
0.0492469
0.056766734
-0.026640177
-0.053409547
-0.026015177
0.040060513
-0.022011586
-0.041268326
0.038378984
-0.034350567
-0.01670327
0.013548054
-0.033664554
0.026857294
0.0024373531
0.035147227
0.035944104
0.036137387
-0.045425527
-0.026873559
0.042500615
0.0065204576
0.021640338
0.061723843
-0.02724132
0.04768008
0.038659573
-0.026988387
-0.039516762
0.005370192
-0.027398095
-0.061602138
-0.029988214
-0.059108995
0.017753437
0.016659603
-0.036216795
-0.047123723
0.046185836
-0.05385939
-0.027511522
-0.030508116
-0.0009965152
0.010810472
0.0058192536
-0.043647878
-0.045842305
0.03347943
0.0152293965
-0.033808157
0.013146013
-0.019549198
-0.042625673
0.021042459
-0.06010641
-0.0012151673
0.053765655
-0.026022345
-0.053713217
0.026616558
0.002198048
-0.0077286884
-0.012802884
0.017600216
0.043970592
-0.019440673
-0.04283285
0.016772024
0.026676416
0.008274958
0.0038596243
0.0054347515
-0.028529443
0.02278947
-0.044211105
0.034349434
0.036282144
0.04797437
0.022490509
-0.007750839
0.044880733
0.04829421
0.027708143
0.014243804
-0.0104242265
-0.04670237
0.018466167
-0.01379814
-0.01745411
0.048979484
0.03196998
-0.017650664
-0.0062708855
-0.03636563
-0.017513081
0.014465615
-0.031786688
0.02535332
0.028905295
0.052969493
0.024235815
-0.044762857
-0.05154746
-0.009533331
-0.05699853
0.034434073
0.010144465
-0.011465386
-0.010629579
0.041464634
-0.02851104
0.048920244
-0.041991003
-0.0040922165
-0.03362266
0.059519716
0.0037114993
-0.041568473
-0.0040904507
-0.009403698
0.015326545
0.021451391
0.014776379
0.04861918
0.06163104
0.015381157
-0.03666635
0.0101924315
0.029868267
0.0102772415
0.018267266
0.03386429
0.059414685
0.024979398
-0.04579568
-0.021602333
-0.022796743
0.05290185
-0.017773807
0.05478876
-0.0362773
-0.062170066
-0.0320379
0.04002914
-0.014937542
0.04789958
-0.0140366405
-0.054392666
0.018223092
-0.042010345
-0.053925477
-0.004422255
0.0049822107
-0.027165025
0.025108702
0.033333503
-0.02017431
0.011882812
-0.026601054
0.0051741526
0.018409751
-0.02601228
0.027914159
-0.012900606
-0.02149164
0.004505463
-0.05974225
0.024632141
-0.018690117
-0.054168522
0.05257462
0.033035077
-0.032891348
0.030965678
0.05731176
0.0138911605
-0.04894469
0.026572995
-0.04195991
0.0098377615
-0.048217647
0.011967629
-0.01043728
-0.032106787
-0.038896702
0.038279787
-0.008960679
0.034019582
0.03777308
0.017510168
0.009770669
0.011413172
-0.02285301
0.00037495047
0.06039241
0.03788031
0.0036853626
-0.036946893
-0.025765866
0.040339366
0.005133271
0.023108333
0.028996646
0.014245652
-0.05217026
-0.010964148
0.041892283
0.05972396
-0.017148793
-0.00272917
0.022735275
0.028630212
0.011311762
-0.0035408735
0.062134355
0.012156226
-0.046855904
-0.0125390515
-0.051920965
-0.05689521
0.03477335
-0.045833364
-0.034225635
0.058440752
0.032100365
0.06054026
0.046584167
0.0398207
0.0072507784
-0.052124955
-0.054374814
0.023318008
-0.0027622804
0.060533307
0.014029518
-0.018149197
0.031729445
-0.0036021173
0.0067427456
-0.01492019
-0.0017618313
-0.053493656
0.04671236
-0.025181808
-0.062036134
-0.04919721
0.060824007
-0.033167608
-0.015449345
0.014570117
0.03745152
0.0514075
-0.043970875
-0.02477733
0.0200326
0.025073439
0.0026714727
-0.028593116
0.026154682
-0.004543029
0.016503468
-0.055041507
-0.057116233
-0.037168518
0.03827618
0.04028283
0.011116147
0.00456398
0.03838247
-0.009147003
-0.056310117
-0.032998353
0.020431533
-0.013633534
-0.04000491
0.035678692
-0.0619139
0.03215924
0.054528393
0.02592066
-0.01800879
-0.00748986
-0.041566722
0.02662675
0.0040825903
0.033464715
-0.01960215
0.053409375
-0.011582382
0.004297808
0.041011102
0.032318123
-0.014514692
-0.029155768
0.042748474
0.03303922
0.01918333
0.03928929
0.045604475
0.045347787
0.00064097345
0.05009041
-0.039251775
0.013405465
0.029836945
-0.02625376
0.053014785
0.0050935447
-0.02305276
0.01842925
-0.03342451
0.033867173
-0.017774403
-0.01688625
0.05916506
-0.05151111
-0.04187838
-0.052999616
0.0011503473
-0.06246663
-0.00500755
0.03786917
-0.011201136
0.005091585
0.052226655
0.023331769
0.042539507
-0.050648905
-0.036010467
0.041562423
-0.011709891
-0.019764632
-0.05762689
0.0074620843
-0.053157628
0.006131351
-0.05178088
0.0244774
0.05828908
-0.026357315
0.044806756
-0.029344201
-0.022043519
-0.051461935
-0.059422456
-0.0489299
-0.01305528
0.04620085
0.006842591
0.039695874
0.05182305
-0.062479243
-0.044041507
0.046767607
0.029725686
0.03389249
0.013150133
-0.023579642
0.0507494
0.060553066
-0.02339232
-0.013599813
-0.010516927
0.04320109
-0.026791267
0.028759956
0.057786077
-0.047215007
-0.014141306
-0.04073631
-0.031536184
-0.044638537
0.0052064955
-0.023638897
-0.007934719
0.028000616
0.0037031993
-0.05705867
-0.015949063
-0.016665451
0.023845434
0.030935943
-0.055318795
-0.0005695
0.0139795765
-0.06160959
-0.026418403
0.0143411085
0.044355303
-0.02662316
-0.0077836663
-0.034200616
-0.017408706
0.023716517
-0.03723871
-0.062441558
-0.012946576
0.05214709
-0.024116084
0.033526964
0.0014529601
0.032586686
0.03419818
-0.0027352571
-0.0067129135
-0.0106283575
0.0046756566
0.019800685
0.008138403
-0.03809057
0.009531818
-0.050899126
0.045023873
-0.04847692
0.020468593
-0.031316467
0.0021001995
-0.008330718
-0.026166826
-0.041548617
-0.037868895
-0.0024327338
0.041676424
-0.06198375
0.003644526
-0.05013594
-0.043060772
0.019424163
-0.0041895956
-0.018735282
-0.0012828484
-0.025389686
-0.012602881
0.050044395
-0.040209025
0.053370938
0.012698822
0.032541975
-0.0035832524
-0.037449114
-0.0043743104
0.0034607425
0.04993844
0.0075087994
0.054911666
-0.026560001
0.054125406
-0.04686456
0.04290156
0.014085144
0.0012321919
-0.014390998
-0.05442986
-0.05837466
-0.021609753
0.037070736
-0.052692227
-0.004316665
0.040138476
-0.028068982
-0.057518914
0.03634081
-0.04316797
0.039520532
0.056194723
-0.0052289143
-0.040932305
0.038204968
-0.039547108
-0.05492407
-0.05455903
0.0017655119
-0.010526799
0.0051293373
0.058048546
0.012760922
0.059586987
-0.030590877
-0.013510697
0.01633048
-0.006072007
-0.00801678
0.053488225
-0.027422711
0.059265845
-0.025595278
0.031968698
0.018625602
0.031565726
0.039644256
-0.059244707
0.049087994
0.0462614
0.033971228
0.061145954
-0.06041836
-0.029042147
0.0052128807
0.042398937
0.02824165
0.037763357
-0.0030957386
0.0049171373
0.035837926
-0.0125588775
0.04456882
0.017504849
0.017842814
0.053250574
-0.021185637
0.040816315
0.012169994
-0.03532441
-0.016088545
0.05258496
-0.010944568
-0.014957175
0.0053838417
0.0612932
-0.051075816
0.060371473
-0.05010868
0.0032026023
-0.011547789
-0.060026757
-0.03153947
-0.040106416
0.0024722293
-0.0153705925
-0.021987647
0.054796062
-0.035233878
-0.03587623
0.059937544
0.00077497214
-0.0050883368
-0.050060242
0.00010481477
-0.023390442
0.019702151
-0.02811487
0.010112509
-0.05312211
0.031802803
-0.040398695
-0.04581006
-0.038705572
0.02488152
-0.044441737
0.003410332
0.04323443
-0.024754278
0.018559232
0.008911349
0.0096163675
0.03983689
0.0018639714
-0.0029340237
-0.023567766
0.02905345
-0.008581936
-0.014263056
-0.04734142
0.028391644
-0.016155973
-0.008182518
-0.050171494
0.015329845
0.037449405
0.013271049
-0.031917237
0.05314468
-0.047138415
0.059972264
0.017763048
-0.0036332607
0.010073505
-0.051476605
-0.02174826
0.04806149
0.005334072
-0.03104788
-0.010969438
-0.047150947
-0.039799772
-0.032542393
-0.018019907
0.057948492
0.021785766
-0.04446532
0.02227825
0.050885208
-0.019486949
-0.031673633
-0.021880955
-0.030726701
0.059151217
0.059080027
-0.0010565147
-0.0068571046
-0.039160214
0.047578804
-0.019528836
-0.00698971
0.019140184
0.026164964
0.0110242665
0.026484743
-0.034538448
-0.03464505
0.04298509
0.0023015365
-0.001541391
-0.01698313
0.062260754
-0.033891313
-0.028017104
-0.06093666
0.051805496
0.012002513
0.023915417
-0.0021348223
-0.040958375
0.0077893585
-0.0071629137
-0.047113664
-0.062373303
0.012032159
-0.052874535
-0.05591151
-0.029282652
0.011915967
0.026020966
-0.04356791
0.008538626
0.057288773
-0.004912138
0.03566113
0.031262033
-0.011162214
-0.032337964
-0.051278733
-0.0043739453
-0.009920061
-0.01815775
0.00039164722
0.05762458
0.017271817
0.030589417
-0.0012286901
-0.0110029355
-0.039531723
-0.056703247
-0.01397939
0.014935844
-0.03023991
0.04056406
0.04630784
0.060380287
-0.010046788
0.0025637895
-0.05553575
-0.053072333
0.060398147
0.022511892
0.010090388
-0.046739154
0.039331533
-0.0021316707
0.0066197366
0.033466578
0.04601042
-0.030734144
0.056341894
-0.053481057
-0.01333002
-0.022305302
-0.015542008
-0.040032484
0.03437057
0.014851637
0.021981247
0.05720652
-0.01046896
-0.027207807
-0.037247233
-0.057346895
-0.051096506
0.021989793
0.0029334128
-0.02876535
-0.017125145
0.028110124
-0.014820449
-0.028225653
0.024884775
0.033462197
0.024956658
-0.04374726
-0.037607007
-0.016455024
0.05157759
-0.046161145
0.01350411
-0.050809927
0.00025735795
0.011627227
-0.025540404
0.035352923
-0.016166948
-0.03965287
0.014679857
-0.058416918
-0.049918935
0.04685215
0.049510337
-0.016189344
-0.05854568
-0.0101065785
-0.03757727
0.05806888
-0.011825912
-0.04470551
0.019776389
-0.06220886
0.048561953
-0.026251093
-0.00757087
-0.056635268
0.006142698
-0.0317237
0.023294784
0.058779836
-0.0044134855
0.014120467
0.017578468
-0.03230288
-0.0018954128
-0.030603074
-0.013265289
-0.030272715
-0.060163245
0.034659117
-0.021840967
0.0069377422
-0.0525361
-0.0029441714
-0.030962847
0.026668511
-0.010683276
-0.02656667
0.020155668
0.039343134
-0.03834667
-0.015158281
-0.034759745
-0.020878553
-0.0051441193
-0.040898256
-0.030032843
0.0056705624
-0.0075060725
0.05204086
-0.037554473
0.022088513
-0.016504452
0.037193567
-0.021656483
0.003997043
-0.011021428
0.025141582
-0.0026875064
0.004740134
-0.0026340708
0.04274626
-0.051600777
-0.03181304
0.05094018
-0.039021052
0.042447656
0.05777824
0.014678158
-0.004853174
0.057829507
0.025133722
-0.039176524
-0.031021424
-0.00028437376
0.005250193
-0.025212519
-0.04772515
0.0319456
-0.029177591
0.029350884
0.056554884
-0.047484815
-0.03677669
-0.013290577
-0.04345321
0.0097904205
-0.053474963
0.028966464
-0.0051025003
0.009039417
-0.05498276
-0.038403958
0.019530825
-0.0060596764
-0.050716735
0.033120967
0.045599088
-0.046577893
-0.0020489544
-0.008679107
0.0023940876
-0.021369338
-0.0005548373
0.026658945
0.010316312
-0.003209293
0.0010450333
0.0045333356
0.0053749606
0.050123133
-0.038105644
0.056066096
0.026670486
-0.0014046356
-0.0035399497
-0.043617092
-0.05610156
-0.021228664
-0.031176463
-0.0031865165
0.041772358
-0.0075537115
-0.00028081983
-0.035954863
-0.05383593
-0.053603433
-0.04365401
0.014413282
0.060162924
0.013134524
0.038289666
0.01332403
0.01640962
0.013150416
0.05890038
-0.03287168
2.7440488e-05
-0.059082136
-0.06075962
-0.046269506
0.0068941787
-0.020940654
-0.04949242
-0.005746521
-0.022516668
-0.041337326
0.012314513
0.008507155
0.030740783
0.059996836
0.032293968
0.03307406
0.046256468
-0.048278257
0.021442294
0.0482814
0.00281623
-0.04867193
0.059785098
0.03401137
-0.013775952
0.058076113
0.059155248
-0.019535154
-0.0073632
0.004422486
0.029098906
-0.061979383
0.04182773
0.026406758
0.0408051
-0.024842225
-0.023811452
-0.038069397
-0.020532459
-0.036969624
-0.016505457
0.008011185
0.04803759
-0.019638732
0.026864968
-0.004772015
-0.060957447
0.01634629
0.021722801
0.061613783
-0.0324037
0.027353346
-0.014835425
0.0038416907
0.03115952
-0.0073870867
-0.0022013858
-0.058565617
0.061809465
-0.03219258
-0.021637663
-0.021743983
0.00767415
0.042095847
0.050520062
0.04687214
-0.02579239
0.03148722
0.05879411
-0.022348225
0.0425092
0.04725551
-0.015495673
-0.046966255
0.02405908
-0.052804977
-0.041156776
0.021129169
0.024983197
0.025088444
0.016047753
-0.05562368
0.026605606
-0.05934894
-0.045846216
-0.02011577
0.012442119
0.023500428
-0.028125182
-0.040876903
-0.057923205
0.007404223
0.004412487
0.032902002
-0.04513459
0.0007720515
0.008858219
-0.033491105
-0.040841937
0.055991136
0.05457054
0.020135812
-0.051255845
-0.0407985
-0.05578219
0.04364726
0.03653551
-0.045305684
0.013702057
0.033017896
-0.015953727
0.038103335
0.0034366995
-0.001220487
0.0010335296
0.008190043
-0.061112903
-0.0576535
-0.043445975
0.044053942
0.009349614
0.047363713
0.052434616
0.02724877
-0.016867593
-0.03402213
-0.037890293
0.058124103
-0.042498976
-0.0058017597
0.030138932
-0.007989608
-0.041167416
-0.015037872
-0.014241464
0.061712436
-0.050196677
-0.054038838
0.0024778396
0.024443544
-0.044956446
0.06048481
0.016006276
0.014806524
-0.01276359
-0.031403475
0.04323887
-0.048773505
-0.018925726
0.04454294
0.04907363
0.03838437
-0.008307613
0.006016299
-0.010150082
-0.018575847
-0.061651766
-0.017873563
-0.061545134
0.019070774
0.027871259
0.004276119
-0.057947427
-0.03695152
0.053688094
0.054228254
0.005818501
0.039825633
-0.017178722
0.06001369
-0.046882987
-0.010207593
-0.03985528
-0.059000842
0.048496358
0.03174743
-0.037731417
0.009951204
-0.042108923
0.046559982
0.023047395
0.024838753
-0.05570458
-0.026377209
-0.018263228
0.02943734
0.046807952
0.052324735
-0.051236622
-0.0020038337
-0.01659786
0.014338233
0.020244531
-0.056047805
-0.056824185
-0.06149801
0.026404575
-0.022837609
0.046209335
-0.0441553
-0.039726473
-0.013446502
0.0440097
-0.04052586
0.018040694
0.05959083
-0.005628906
0.022549413
0.037465803
0.03204499
0.05761084
0.035286665
0.0039043576
0.0058368817
-0.025428347
-0.053601712
-0.036083035
0.0048678145
0.005846396
0.05933082
0.03287828
-0.015834868
0.009669051
-0.060472652
-0.06030628
-0.019857906
-0.028752744
-0.037902027
0.0011617094
0.054336905
0.028488263
0.051865533
0.050498255
0.062335543
0.003948927
-0.0499468
0.043062665
0.055594668
-0.0013050511
0.039806105
0.060543202
-0.034375556
-0.061311543
0.0013353825
-0.012890056
0.040097497
0.039824843
-0.05844003
0.055256106
0.061107814
0.029923618
0.046134092
0.054198727
-0.03796749
0.0062948987
-0.053692356
-0.054879703
-0.04095143
-0.061107427
0.03869798
-0.016826935
0.003018409
-0.037259735
-0.0030751005
0.039329797
0.0020722002
0.012926862
-0.028969564
0.060697034
0.019602276
-0.053166367
0.026459955
0.057023533
0.058297
-0.029734269
-0.020909928
-0.05600054
-0.0036497936
0.053937905
-0.011407785
-0.055166297
0.023449227
0.050438136
-0.049365193
-0.048216768
0.0048961565
-0.04729122
0.011103936
-0.022570781
0.004895538
0.05428128
-0.013125159
0.041149713
0.013545133
-0.050777175
-0.049190007
-0.042388305
0.02137179
-0.03587132
0.0062259957
-0.02518034
0.024306476
-0.04422427
0.016268708
0.026119262
-0.062065043
-0.029245213
-0.061595485
-0.004986964
-0.02672021
-0.020979002
-0.04707542
0.04235828
0.03697732
-0.0572894
0.032430895
-0.060430646
0.060950547
0.0128887445
0.014296658
-0.03318873
-0.0339429
0.050577313
0.051790014
-0.049886964
0.012231521
0.031311348
-0.012735814
0.041945815
0.02845496
-0.014784209
-0.060398087
0.00036165118
0.0050683618
0.05819898
0.03387838
-0.023127414
-0.017703265
-0.017979205
-0.054390162
0.0475588
0.009677358
0.011597723
0.015018575
-0.062344454
0.037486717
0.008287586
0.05088815
0.058069974
-0.00078848004
0.0013746992
-0.048228644
0.060132816
0.013753563
0.017033458
0.040735498
0.001315847
-0.05766034
0.024062604
-0.035816327
-0.061666034
-0.019934528
-0.032409154
-0.013714105
0.024255343
-0.0066128224
0.039640054
0.06098502
0.009902611
-0.036147542
0.02166915
-0.00033393502
-0.030596547
-0.032505967
0.02590464
-0.05404734
-0.011712052
0.016587362
-0.04773496
-0.009419404
0.038809523
0.0087854415
0.034160145
0.01822342
-0.043243684
0.036205634
0.041252315
0.00948675
0.022473328
-0.050323434
-0.049794987
-0.05595438
0.04141055
-0.033098474
0.060645714
-0.023449324
-0.0560164
-0.036496654
0.009612739
0.046447277
-0.04779776
0.032729305
0.046434343
0.019481063
-0.06188394
0.03331671
-0.041878685
-0.05590623
0.06073135
-0.024677888
0.028651044
0.019655555
0.03188148
0.019407824
0.047747776
-0.002741605
0.044228487
0.0076226667
0.018012226
-0.041890033
0.028846465
-0.056451194
0.055444017
0.031549603
0.02358701
0.05911941
0.020385444
0.06174981
-0.024981655
-0.059801333
0.057568237
-0.026511714
0.023185216
0.038796343
-0.015633792
-0.050158575
-0.041060127
-0.017026298
0.019140497
-0.019524828
0.04608345
-0.017380126
0.03130828
-0.005083747
0.022666454
0.014540769
0.052809857
0.051392958
0.0010504872
-0.04715562
-0.0501234
-0.036626033
0.03736162
-0.006985694
-0.005279675
-0.055636354
0.0013554469
0.054121025
0.051325217
-0.008093722
0.037577726
0.053374164
0.006867543
-0.03166637
0.053793214
0.040726237
-0.037275374
0.046200387
-0.037596636
-0.02324012
-0.0046835467
0.06083645
0.05641
0.024410173
0.0098741725
0.015180446
-0.058890566
0.019838706
-0.01656305
0.013831273
0.013776228
0.04123754
-0.059187874
0.000112861395
0.009847164
-0.044771917
-0.0077714548
-0.05905173
-0.008103333
0.016370423
0.038764946
-0.034192033
-0.01209493
-0.028259411
0.056070156
0.018249713
-0.035460554
-0.05934076
0.005876854
0.03489562
0.014241926
-0.051262684
-0.031945616
0.058353253
-0.044468544
-0.034889445
-0.049863547
-0.030165076
-0.023108259
-0.037062943
-0.046895444
0.0023926347
0.030643523
0.022599705
-0.009785555
0.023423418
0.021656848
-0.040506616
-0.022904217
-0.0028888062
-0.029951043
0.04078851
-0.048539616
-0.001923509
-0.045470096
0.055629894
-0.047380276
0.04427447
-0.009584472
0.040191844
0.02047684
0.025324315
0.004102722
0.005285397
-0.040981233
-0.043793194
-0.018331274
-0.0424591
0.050660104
0.047841363
0.048793025
-0.049961388
-0.016715199
0.039790846
0.0069582164
-0.031603694
0.04348083
0.008553244
0.03475462
0.05077458
0.0301482
-0.024139263
-0.019270353
0.0067575723
-0.043651827
0.052097335
0.03662683
0.051184416
-0.05349966
-0.022003688
-0.0034531653
-0.031937324
0.049911283
-0.04639911
0.03731119
0.04304277
-0.025732927
-0.06093862
0.018772036
-0.057550006
-0.045031816
0.030381776
-0.01720497
-0.03227844
-0.031895183
-0.025202401
0.0039243028
-0.051042333
0.046799764
-0.040155053
-0.03783066
0.029619567
0.022523962
-0.028716967
-0.0045425
0.038274072
-0.0031737238
-0.042118043
0.036691964
0.04745516
0.05914361
-0.0030918494
0.031024702
-0.0006887093
-0.0026100352
0.02195011
0.03888222
0.044386864
0.02145265
-0.01544565
-0.030765243
-0.058795415
-0.022180267
-0.017029598
-0.04621435
0.019428551
-0.05095902
0.017118968
0.031911008
0.031722136
-0.046898663
-0.04554663
-0.018426754
0.026638523
-0.033414215
0.051423997
0.041095078
-0.060161747
-0.039771177
-0.029778793
0.031153403
0.040774867
0.015616342
0.023644805
-0.03790939
0.041485213
-0.0055890754
0.038649097
0.0039107203
0.017405264
-0.0030025244
0.019545816
-0.04236871
-0.057890303
-0.025167301
0.032963715
-0.013384834
0.042690307
0.019027948
0.001619339
0.040000767
0.011938706
0.0124787465
0.009074889
0.0067120045
-0.012072779
0.041828714
-0.018163957
0.0035749152
0.0580765
0.047389098
-0.004192665
-0.026192121
0.05240231
-0.0017885566
0.0320217
-0.023069248
-0.011341408
-0.03943214
-0.012491085
-0.018385522
0.026748419
0.0033866316
-0.04105074
-0.048083723
-0.018770695
-0.034651347
0.05327285
0.03210686
-0.0072116107
0.04770734
-0.013518035
0.03649757
0.008769371
-0.017100595
-0.060556844
-0.028396323
-0.053080246
0.017875463
0.056957252
0.026062198
0.05708947
-0.025013268
0.044867486
0.047064133
-0.055464886
0.039584965
-0.020035438
-0.06103427
-0.0057711974
-0.029208504
0.011090554
0.006287098
0.014458112
0.034234397
0.054277442
-0.021549918
-0.051054463
0.05033964
-0.054098427
-0.022853725
0.06073384
0.00133802
0.060865328
0.024259046
0.014968947
0.061339974
-0.024796091
-0.034362927
0.05398357
-0.00047647953
-0.007827431
-0.009490773
0.02905263
0.026010953
0.012014903
0.050081983
0.03269101
-0.024812974
-0.02190303
0.020194054
0.034502625
0.019502133
0.001442954
0.049838416
-0.034640156
-0.0041386113
0.019194081
0.017029643
0.028424658
0.0030689612
0.056402594
0.023431718
0.0573285
-0.022955954
-0.051918015
-0.018043503
-0.06114851
0.008020975
0.002879493
-0.005567029
0.016966812
0.016901463
0.03185284
0.019737408
-0.029799297
0.031553008
-0.027211607
-0.024303593
-0.038076706
-0.012974054
0.029620044
-0.023782112
-0.0073147863
-0.01637645
0.03473869
-0.049058735
0.024164133
-0.05388982
-0.0431944
0.040971607
0.026078641
0.0003825277
0.022778735
0.040080354
0.043180667
-0.038842343
0.034034565
-0.05971451
0.038427964
-0.038127773
-0.010844789
0.05589222
0.003078021
0.0166016
-0.0001744479
0.003425181
0.010751724
0.03248714
-0.032774925
-0.014225028
-0.015876986
-0.026606672
0.05720909
0.051401444
-0.01854106
-0.030020215
0.028411418
-0.026120447
0.020106852
0.00051911175
0.0021003857
0.038570814
-0.045224696
-0.056936294
0.001549162
-0.047055207
-0.045854434
0.017430343
-0.06184291
-0.02604033
0.0035244673
0.061221577
-0.047309227
0.031646855
-0.046601698
-0.011137724
0.02307769
0.059827104
0.013954133
0.053705283
0.004057184
-0.02268441
-0.044226676
-0.01970011
0.044533826
-0.008694209
-0.026582986
-0.053285114
0.026516937
0.04929649
-0.06103863
-0.049108155
0.051265843
0.00044944137
0.0516608
-0.02724681
0.0016336218
0.029783033
0.021184303
0.022991642
-0.03335081
-0.021017492
0.059068494
-0.009642564
-0.031841546
0.022778347
0.022560298
-0.04999318
0.04081077
0.032380193
-0.05532585
0.019688636
-0.022069916
0.025873087
0.0074575394
-0.041449927
0.041819803
-0.04022772
-0.047376312
-0.0053254887
-0.007969812
0.0065964013
0.013921045
0.058009423
0.04450628
-0.020920642
0.05707719
0.045269623
0.033993952
0.04599011
-0.0009224415
-0.0539037
-0.04881221
0.02266594
-0.023250066
-0.046610482
0.05490496
-0.028314285
-0.055417426
0.018798478
0.01883521
0.04517766
0.036584362
0.04063151
-0.009145431
0.060783908
0.054300077
0.02896835
-0.013701275
0.039872058
0.031973332
-0.014738031
0.017485239
0.0107486695
0.045958735
0.049833372
0.0153975785
-0.0049592927
0.013153382
-0.030978717
0.023986556
-0.03985797
0.05495663
-0.061307773
-0.04190871
0.048901767
0.034554876
-0.008601829
-0.011545695
-0.056636147
-0.014191516
0.019860543
0.006234832
-0.015451595
0.050824918
-0.041397445
0.003647484
0.0417075
0.0057706684
-0.040520616
0.01325722
-0.037538618
-0.0081856325
0.00924167
-0.022288881
-0.051769316
0.054016933
0.008431733
0.033106305
-0.011964925
0.0059549212
0.060160577
0.019774668
-0.010001719
-0.04811188
0.02543623
-0.051166043
0.029768571
0.057077616
-0.062467337
0.059731945
-0.007214546
0.05188305
0.015215464
0.04551074
0.056591086
-0.04040394
0.033614703
0.0064284727
0.0460629
-0.062365107
-0.05206918
-0.060771428
-0.032992087
0.0602884
-0.04085569
-0.028807975
0.0026893914
0.037161402
0.043122746
0.060335256
-0.027270779
0.01189848
0.0097710565
-0.030464754
-0.001431793
0.009831332
0.0077724457
-0.049447685
0.0059593692
-0.00011597574
-0.028703608
0.03661135
-0.036822505
0.06148141
0.045164064
-0.036731154
-0.049240567
-0.03582997
0.018338569
-0.05267842
-0.04781463
-0.058811568
0.06229689
-0.013222031
-0.019324087
0.059813745
-0.04841453
0.04706701
0.052863546
-0.017679833
-0.007748015
0.01672206
0.038791247
0.0067430288
0.052513734
-0.048681967
0.03450407
0.025398947
0.040307194
0.01764401
0.049545713
-0.0066187307
0.031999953
0.038909324
0.035983615
0.0154453665
0.04350713
0.037032105
0.020018913
-0.015952088
-0.022366047
0.012123182
0.009512737
-0.009205908
0.036597215
-0.032758266
-0.018681616
-0.057735518
0.0397778
-0.02347023
0.057769768
-0.058473594
0.01689136
-0.04881847
-0.051831044
-0.039104007
-0.043074906
-0.013057411
-0.03146285
-0.044260986
0.029507592
0.04595913
-0.020477645
0.042074755
0.0031970441
-0.04829725
-0.033670068
0.03551279
0.0015853196
0.053465545
0.055986255
0.055889584
0.0339633
0.036894448
0.061503
0.018328577
-0.0046090186
0.02661743
0.016066737
0.04453917
-0.02382043
0.036624692
0.053660646
0.04542397
-0.040140748
-0.03190404
-0.058985986
-0.045539267
0.010462612
0.056910448
-0.04193253
0.008943029
-0.01841148
0.025955752
-0.049818218
-0.03280464
-0.04108657
0.038385965
0.010069832
-0.03868673
-0.05580444
0.0043266267
0.035185277
0.020981207
-0.025741316
-0.016965903
-0.060754396
0.01800669
0.06188163
-0.018100388
-0.06120801
-0.0030152574
0.0006230399
0.060124874
0.030736536
0.0607552
-0.030960836
-0.045861118
-0.010179058
0.013144247
0.033522695
0.0027249977
0.034780174
0.055502914
-0.0220097
0.03459443
0.038358852
-0.060883306
0.021492347
-0.00935901
-0.027430601
-0.020439737
0.016579397
0.024256974
0.05216962
0.008468628
-0.02052319
-0.06216304
-0.045231186
-0.012386948
0.016618848
0.03753969
0.043932475
0.021747388
0.021171398
-0.048050232
-0.020264529
0.013230301
-0.014979161
0.04313691
-0.029619
-0.054215148
-0.056421123
0.027082376
0.02829989
0.003459923
0.04342135
-0.016472004
0.05093901
-0.060638055
0.034193717
-0.060546763
0.038073264
0.057028517
0.061047465
0.013906248
-0.037716113
-0.008245431
-0.04810965
-0.01300396
-0.036063157
0.029637128
0.033501722
-0.051774032
0.0005961284
0.061756253
-0.011797421
-0.052155547
-0.017182462
-0.044472173
0.020831719
-0.042331673
0.057101548
-0.042697057
-0.041776285
0.014834374
0.013299696
-0.0006442368
-0.046157293
0.028945498
-0.014177449
-0.048062757
-0.05921839
0.055082858
-0.018207707
0.05248127
0.020714134
-0.0022257864
0.062132172
-0.05341871
-0.059230216
-0.011856921
-0.012213223
-0.04464347
0.0062533915
0.003834553
-0.0076689273
-0.018022344
-0.017641447
0.020400964
-0.047977887
0.062385187
-0.04815641
0.014959604
0.042389244
-0.04278533
0.05229169
0.024027362
0.059714243
0.042292543
0.042920418
-0.058169127
-0.041587226
-0.003922835
0.039698444
0.020941399
-0.060620427
-0.059069358
0.0077861845
-0.013361804
0.008434862
-0.05549963
-0.03496232
0.046531007
0.038455926
0.006379761
-0.026811793
-0.051130794
0.014129445
-0.053402714
-0.04371675
-0.009333082
-0.037306793
0.0006482899
0.044474587
0.020911306
-0.059832662
-0.045297384
-0.015254103
-0.060672544
-0.010055698
-0.0053879917
0.036112197
0.025663704
0.018064596
-0.02635748
0.027997956
0.047441132
-0.014372215
0.033075184
-0.04743997
0.053180702
0.019071423
0.04264681
-0.022528656
-0.03672445
0.0010548905
-0.060737103
0.023990922
-0.03498263
0.0530321
-0.052590586
-0.0016445294
0.032280102
-0.041922882
-9.009987e-05
-0.0078008324
0.017616339
0.062234975
-0.053489245
-0.013719946
0.02865602
0.03316772
-0.00016248226
0.038934804
-0.037136503
-0.0042190924
0.05292598
0.024588592
-0.05296182
-0.012649752
0.04093822
-0.029221378
-0.018596932
0.023062743
0.04075943
0.061051957
-0.035390235
-0.03583532
-0.011208817
-0.0509123
-0.014008701
-0.01941932
-0.03812144
0.025178805
0.011052273
0.026642792
0.054374658
-0.0035090074
0.012630545
0.01249367
0.03866244
-0.032436855
0.01140891
-0.05467754
-0.021720372
0.039560705
-0.029334083
0.05151104
0.040615432
0.03573151
-0.0019782633
-0.0037408546
0.010796748
0.017891705
0.049881473
0.020831533
0.028173551
-0.042757884
0.017439231
0.055543683
0.027962618
0.04257378
-0.045583993
-0.0395094
-0.057041742
-0.016024508
-0.013346359
0.042599678
0.051536687
-0.03353458
-0.016666465
0.037191212
-0.054418683
-0.031234957
-0.05002851
-0.04919839
0.034988806
-0.0031705648
-0.011315353
-0.018099949
-0.009710364
-0.032784067
-0.017593421
0.0021657348
-0.002128154
0.05105325
-0.046213858
0.03758426
0.028869696
0.05550822
-0.061703436
0.052783698
0.03688991
0.038104177
-0.058369525
0.040275544
0.006569922
0.057970427
0.05513619
0.03530755
0.042863727
0.03798507
-0.024954371
0.032186784
0.030797072
0.057441175
-0.059197173
0.027844109
-0.01596459
0.05239717
0.05208429
0.00822825
-0.05129245
0.039198376
0.028161243
0.054077342
-0.019533835
-0.009974666
0.042870454
-0.037320293
-0.009957321
-0.040354937
0.056542553
0.008588709
-0.017672077
-0.020280108
-0.01791279
-0.026105657
-0.028009258
-0.041490518
0.04240945
0.045349695
0.052582346
0.0032523125
-0.001884535
-0.035495155
0.02898202
-0.02848728
0.037474543
0.035990596
-0.0127091855
-0.030026488
0.0047438666
-0.019396678
0.030050643
0.009074546
0.02061247
0.05172231
-0.054424144
-0.047820754
0.060964465
-0.0018033013
-0.009691082
-0.015119858
0.0073163062
0.009413697
-0.018871248
-0.03016682
0.026231468
-0.04456485
-0.04354874
-0.0021373108
-0.036647804
-0.050111517
-0.0033995882
0.047762103
-0.021160036
0.06201858
0.0048414394
-0.018872686
-0.03702727
0.023787968
-0.060186744
0.013830647
-0.03881453
-0.05443109
-0.033457264
0.055269808
0.022338606
-0.017478757
-0.051067874
0.05289544
-0.028275765
0.011201076
-0.048374876
0.02331905
-0.022439338
0.012330785
-0.0036071092
0.013229944
0.04983624
0.026675433
0.0064072832
0.03612467
-0.043530554
-0.018837169
0.033095263
-0.00029952824
0.02941294
0.040658966
0.018536903
0.053234287
0.038695566
0.01494433
0.054540686
0.012773298
0.029231437
-0.06177436
-0.024413928
0.0060156137
-0.042672373
0.047109112
-0.06090065
0.055016756
0.05372107
0.00950788
0.015272111
-0.026729263
-0.012727238
-0.019848257
-0.02644369
0.045033775
0.05836136
0.055053614
0.025177754
-0.051232718
0.020353109
0.056653254
0.03894674
-0.020306967
-0.040223487
0.014573529
-0.05484555
0.059644483
0.0554702
-0.022496127
0.038815543
-0.027150378
-0.014109261
-0.04790572
-0.04143749
0.00093796104
-0.03234338
0.0022207797
0.048089787
-0.031259
-0.03827087
-0.0014046729
0.012353413
-0.05748754
0.024055786
0.041040666
0.012332611
0.031316996
0.03460212
0.011290379
0.002877742
-0.016638786
-0.024679452
0.03198172
0.05583763
-0.038079217
-0.036207356
0.010243669
-0.021906279
-0.038483918
-0.04404313
-0.013919413
-0.03698679
-0.02681949
-0.0024101585
-0.043647476
0.062422834
-0.019368283
-0.038447574
0.03519562
0.0014200136
-0.028020002
-0.05361682
0.012526482
-0.021433793
-0.04232251
0.024010353
-0.015778646
-0.035769597
0.056891516
0.0073852763
-0.026439302
0.026652217
0.044143833
-0.018387616
-0.0029844865
0.012650296
-0.045040518
-0.0038009435
-0.03303065
-0.02253452
-0.04532458
0.060842954
-0.026610747
-0.0272386
-0.05979015
-0.057629727
0.02692891
-0.0131547
-0.003378719
0.045025393
0.048165515
0.0023960322
0.056665793
-0.037208393
-0.02380523
-0.011581391
-0.026026398
-0.057479262
-0.026159048
-0.044641636
-0.060248934
-0.025844313
0.029835291
0.01111266
0.0073357746
-0.052538194
0.049515523
-0.024548978
0.0409702
0.014832631
0.018449292
-0.04386092
-0.03228785
-0.022986948
-0.050946385
-0.036504626
0.017033689
0.0423738
-0.05241324
-0.040181965
0.045989804
-0.007859647
-0.016947344
-0.051299967
-0.013440274
0.002742909
-0.0057790503
0.059969857
-0.03737326
-0.05727563
0.055600323
-0.025002494
-0.052936383
-0.036760204
0.04675751
-0.041464873
0.049048975
-0.05692166
0.05525685
-0.04019756
-0.007103309
-0.028589189
-0.028843299
0.021535069
-0.031355344
0.03061594
-0.04063558
0.031963162
0.035421178
-0.057341315
-0.023087084
0.024799734
-0.030740693
0.017663777
0.028478265
0.037548833
-0.051829398
0.062078774
-0.02456025
0.0464034
-0.044959776
0.021248415
-0.06121365
-0.02009967
-0.042721227
0.00362622
0.047762454
-0.05935532
-0.048858054
-0.041321315
0.05129762
0.039234705
-0.021045402
0.034442365
0.031726614
-0.053591788
-0.043985575
0.039434142
0.05384647
-0.054828405
-0.055278815
0.023302801
-0.029589094
0.04275514
-0.027110666
-0.044484474
-0.0025379509
-0.014339104
-0.04773234
0.004859589
-0.0026217178
-0.04495254
0.044162408
-0.052584566
-0.04843647
-0.010297388
-0.03263267
-0.030047938
-0.059748314
0.009660758
-0.009359255
0.062396005
-0.0039182603
0.02753114
0.024317123
-0.0053893104
-0.035326824
-0.012956187
0.011304587
-0.014238775
-0.052037008
-0.05105646
0.024674162
0.0008119792
-8.928031e-05
-0.041545607
-0.027335927
-0.0037648007
0.04205502
0.011521563
-0.0015099049
-0.003975287
0.01531183
0.021913454
-0.02684021
-0.04192502
0.051727794
-0.052088976
0.047272228
0.059956297
-0.06003326
-0.06010347
0.04371891
-0.057856545
-0.001829192
0.03450808
-0.016221002
0.024248913
0.040034287
-0.0050790682
-0.03686717
0.02102577
-0.028569669
-0.009962194
0.035844423
0.03637754
0.017755337
-0.010761447
0.04268796
0.04662341
0.05736333
0.021728873
-0.041783065
-0.013386838
0.05556067
0.059568673
0.05892948
0.046102464
-0.024080582
0.046033464
-0.05039026
0.024439588
0.03843198
0.053030446
-0.03124702
0.029295191
0.03845673
-0.0097712055
0.04862622
0.061203405
0.003584437
-0.019127905
-0.010621764
0.010748379
-0.037301593
-0.05892507
-0.00078074634
-0.036957845
-0.05559598
0.04775218
0.05499538
-0.059946977
-0.002524972
0.031045012
-0.016642831
0.03829579
0.0447309
0.05596426
0.009899378
0.020671904
-0.029307663
0.02326183
-0.049246646
0.025997713
-0.04285465
0.016349837
-0.003982164
-0.055099763
0.057468906
-0.016782843
-0.03828939
0.033140294
0.020385765
0.026706286
0.017887987
-0.0468496
-0.055957086
0.024766281
-0.034459673
-0.0143857375
-0.023017585
0.024602689
-0.009911455
0.060370125
0.048028834
-0.041818187
-0.0027973652
-0.046853222
-0.04312165
-0.042235196
-0.06174302
0.046138108
-0.055251166
-0.0014530495
-0.017071508
0.05868376
-0.041944146
-0.009969518
-0.0035576448
0.019652918
0.025838047
0.036285616
-0.023251861
0.045978412
0.020993106
0.0012307316
0.01697401
-0.062150538
-0.027034953
-0.026212983
0.060127616
0.02030804
-0.03177189
-0.016863227
-0.056965657
-0.05619847
0.0004175529
0.026307873
-0.025690302
0.04937482
-0.012003355
0.05202599
-0.048856504
0.04456015
0.004755616
0.053807482
-0.03943418
0.04405862
-0.0014058426
-0.050867893
0.046507403
-0.023966484
0.02295883
-0.04501953
0.022604927
-0.030508794
0.027325667
-0.0032729357
0.053329676
-0.015634894
0.01901006
0.010070294
0.027103566
0.05053495
-0.046072744
0.021205418
-0.011523031
0.030467264
-0.030855298
-0.05947818
-0.024303593
-0.043899044
0.027452901
-0.032693066
0.051782683
-0.017666288
-0.050885625
-0.043078877
0.032363825
-0.012967482
-0.011166677
0.05717016
0.057977594
-0.047555476
0.009134084
-0.024009794
-0.03305698
-0.007775463
-0.0036460161
-0.050944604
-0.053774722
0.0019577295
-0.038798027
0.051769584
-0.037514262
0.024348728
0.06158247
-0.0016364679
-0.03461401
0.054570407
0.056343175
0.055303954
0.010433696
0.052796498
-0.026554577
0.023775846
-0.03030543
-0.03787136
-0.04758977
0.04861933
0.012581162
0.059833266
0.03453882
-0.0017572716
-0.0028137937
-0.0045380667
0.015472539
-0.062179983
-0.033763267
0.051777944
0.01288081
-0.0034861192
-0.05947762
0.021295182
0.015119903
0.054205835
0.0019024312
0.0315226
0.028509475
-0.038167365
0.0045100823
-0.021198913
0.013913959
-0.04457462
0.059050307
0.0072434694
-0.023223974
-0.02535095
-0.012852222
0.03755913
-0.032819867
0.035236187
-0.04196336
0.009705067
-0.026849926
-0.017926857
0.008321874
0.020099133
0.046652064
0.03487681
0.050932243
-0.018307783
-0.051137157
0.006920308
0.010242201
-0.0032680035
-0.061937362
-0.017800033
-0.0376456
0.024308704
-0.05739639
-0.002218917
0.034252875
-0.06097532
-0.012993641
0.034725808
0.0007352829
0.02026315
0.04944005
0.030426025
-0.032123208
0.024375431
0.04536254
0.061521605
-0.053561814
0.047543183
-0.0063178614
0.038380936
0.051487856
-0.03339556
0.035200886
-0.030660622
0.0368139
-0.0006961897
0.03124357
0.016257048
-0.02259323
0.0003979504
-0.026759692
-0.051582143
0.04538671
-0.060010567
0.041733146
-0.025379859
0.009494513
-0.052166037
-0.046690665
-0.02773945
0.06236948
0.052015312
0.024352022
-0.02603697
0.011602052
0.03595736
0.014975317
0.062364124
-0.047021598
0.04456815
0.019696966
0.029977098
0.018691972
0.044008553
0.04898645
0.04234018
0.024946503
-0.024303041
-0.0475031
-0.027050234
-0.01973176
0.029723175
-0.013128787
-0.028468646
0.03104724
0.01889357
-0.017386004
-0.05585946
-0.033622272
0.034976877
-0.03178651
-0.058392756
-0.011093333
-0.00036233664
0.060382277
0.032376245
0.013018914
0.047632568
-0.019725762
-0.037441537
-0.01964549
0.03830017
-0.026591726
-0.0061285645
0.012044951
0.034476876
-0.004678495
-0.04491172
0.05511152
0.00507693
0.060546212
0.024842404
0.041111805
0.023196317
0.036950536
-0.01075948
-0.0032360032
0.01178024
0.03535641
-0.047212034
-0.027831234
0.019188523
-0.035255574
0.017263211
0.0064772293
-0.057994984
0.013388537
0.014484189
-0.0045155883
0.044100337
0.028320946
-0.030308746
-0.054845028
0.037794985
0.035202347
-0.049054958
0.006800942
-0.009642623
-0.035294972
0.04340361
0.061305255
0.04809218
-0.039141692
0.0017830878
0.027111389
0.03413506
0.008817896
0.023222014
-0.025700286
0.017864443
0.010808997
-0.057110146
-0.03244382
0.025493309
-0.017926745
-0.05829546
-0.022143692
0.0399547
0.022850372
-0.05270306
-0.032536
-0.0063769147
0.027035698
-0.05955547
-0.00036972016
0.0073486194
0.025627255
-0.017326988
-0.060006715
-0.005985804
0.03641489
0.052233107
0.031656712
0.049534045
0.028836615
0.053135186
-0.0390414
0.023107871
-0.033260264
0.046819992
-0.026164807
0.020920806
0.05894441
0.0067239255
-0.027120292
-0.03410408
-0.04404863
0.046638295
-0.018911324
-0.03499455
0.025395326
0.05363615
0.058755726
0.047409214
0.007748753
-0.02550716
-0.002374202
-0.011180863
-0.039550267
0.0074580833
-0.023519874
-0.012250513
0.041067377
0.042127997
-0.008913763
0.049802758
-0.012771502
-0.0056075677
-0.0070266575
-0.05522608
0.010718815
0.011014506
0.02388186
0.020770326
-0.015242666
-0.032188743
0.009075075
-0.05718954
-0.021566167
0.0014451742
0.007388532
0.052755162
0.0196222
-0.0057302117
0.04184957
-0.036459476
0.02247519
-0.04397417
0.019031763
-0.049604677
0.016349174
0.01223772
0.037385248
0.043861933
0.018916227
0.062393397
0.03840921
-0.039297126
0.0041262954
-0.009525165
-0.052129894
0.018457852
-0.06102547
0.030959986
-0.0066510364
-0.03755638
-0.04463572
-0.056717716
-0.011403635
0.061888523
-0.0029667094
-0.0038483515
0.056890808
-0.038321987
-0.034321547
-0.034761816
0.0075400844
-0.029899247
0.056198396
-0.0040122494
0.039767563
0.020331569
-0.03253442
0.04800947
-0.0375755
-0.011121705
-0.032047726
-0.043749973
0.026093207
0.01172886
0.04416912
-0.021307543
0.039742075
-0.057183526
-0.0009135604
-0.03758157
0.05079358
0.03388069
-0.0045657977
0.03585703
-0.0584822
0.0020260662
0.04071395
-0.036276408
0.017966859
-0.0056131184
0.010410279
-0.059508108
0.03286612
-0.031741217
-0.010343984
-0.044823952
-0.013030142
-0.010271065
-0.046389505
0.016990662
0.039929196
0.0116319135
0.059307143
-0.00661581
0.051311284
0.039373986
-0.045106232
0.011688992
-0.015893012
-0.04902613
-0.037054397
-0.0051727444
0.061674014
0.008725986
-0.051639125
0.024645053
0.017227687
-0.017485403
-0.046718024
0.03375481
0.01132898
0.017253488
-0.043033354
0.022429228
0.009765282
0.061038822
-0.030388407
0.052306466
-0.009773448
0.0029862225
0.026025303
0.035298854
0.03024941
-0.04763212
-0.054885842
-0.03988614
-0.02157826
-0.052204065
0.015563168
-0.023610182
-0.021148294
-0.015764728
0.050927944
-0.038643084
-0.041145697
0.06141167
0.0035351217
0.017386258
0.056713924
0.004716672
-0.042587288
0.057986386
-0.029347494
-0.06022419
-0.022586972
-0.048449874
0.055463217
0.017516553
0.0043024793
-0.011515871
-0.023265414
-0.05691804
0.022814967
-0.060777962
-0.050496213
-0.022719026
0.06191565
0.046228126
-0.05332472
0.03395041
-0.05869043
0.040720105
0.010025829
0.03300388
-0.017286763
-0.025777489
0.039321214
0.021947637
0.007875785
-0.03697624
0.024804093
0.006086163
-0.021572761
-0.024010777
0.0022185221
0.010015041
0.029847264
0.05378902
0.01048293
0.029219165
-0.053042278
-0.026042707
-0.0063512996
0.018907987
0.039511293
-0.03081745
-0.033659674
-0.03353022
-0.0056174845
0.062304825
0.038115025
0.027388178
0.038254455
0.03954052
-0.049448155
0.0066055655
0.004327148
0.0077717453
-0.040524162
-0.052655786
0.0037177354
0.055360615
0.008079052
0.05640439
-0.04290866
0.060759924
-0.055479415
-0.027413428
-0.021172062
0.02870471
0.054648444
-0.037648804
-0.048035868
0.0605855
0.00074293464
-0.046560325
0.035592377
0.020687714
-0.054092325
-0.02287408
-0.015571274
0.029453509
-0.050751425
0.0013058633
0.0006957054
-0.016806334
0.051409446
0.0024559125
0.04040923
-0.037262812
-0.05211789
0.01075802
-0.051362433
0.009331033
-0.013174571
-0.0055666044
-0.038035154
-0.046826974
-0.022260137
0.05544933
0.051961705
-0.0097017735
-0.052671537
-0.029599823
-0.051731683
0.058433905
-0.061056793
-0.035916403
-0.025092788
0.00084716827
-0.062062375
-0.009951159
0.040123172
0.0044498965
0.013648115
-0.054070912
0.0027252063
-0.050010443
-0.061682478
0.02527453
0.023655683
0.04068917
0.023192309
-0.027283825
-0.042880856
0.0059436634
-0.0036572292
0.052768752
0.009966299
-0.0064471886
-0.005045533
-0.04518733
-0.050290413
-0.04140807
0.041412696
0.03714846
-0.026992932
0.024463736
-0.046190463
0.030849919
0.059255958
-0.037396148
0.046987876
0.041623123
0.061921872
0.042990223
0.039483473
0.013099715
0.03385254
0.019357517
-0.03195245
-0.019240156
0.062341794
-0.006987281
0.029568411
0.05484461
-0.005178094
0.06113395
-0.022942282
0.0013345554
-0.021027073
0.021843866
-0.04138635
0.05106716
-0.026613653
-0.04526423
-0.03620605
-0.021331258
-0.039036334
-0.01424861
0.045575514
0.04342407
-0.035794966
0.019350834
-0.012841806
0.0273567
-0.02478458
-0.0025474057
0.057977393
0.054195642
0.025764026
0.032050535
0.031610787
-0.04910489
0.0062729716
-0.0065588057
-0.05502817
0.055601656
-0.040772274
0.0039693564
0.02668798
0.033034295
0.043339834
0.033172682
-0.025429368
-0.002460286
0.052392147
0.0515029
0.02613359
-0.021556154
0.050946727
0.04104449
-0.05035989
0.030563667
-0.044478066
0.044033095
-0.03424876
0.027557619
0.049007177
-0.033308238
-0.004708901
0.042362094
-0.061237335
-0.033635624
0.0062198266
-0.035148367
-0.05372814
-0.024332233
0.019091412
0.05094312
-0.05267501
-0.061609752
-0.024681605
-0.02159772
-0.050503336
0.011907406
0.04693883
-0.052329697
0.0037296116
0.038558826
-0.01840949
-0.0327143
0.04071997
-0.03163927
0.024974927
0.0123534575
-0.027585424
-0.051096417
0.03954006
0.04926695
0.022686638
0.0088541955
-0.058020048
-0.0085512325
0.060568407
-0.050728552
0.002762489
0.04020363
0.027694434
0.0019705296
0.05156687
-0.032240167
0.04457263
-0.011782207
-0.0396716
-0.05872514
-0.018150933
0.024533018
0.03516169
-0.00266736
0.04541132
-0.018577032
0.01752109
0.031776637
0.00023519993
0.013452105
-0.041806787
-0.02666764
-0.04253281
-0.036653936
0.008968398
0.042865135
0.0010317042
0.047160536
0.038103834
-0.014805451
-0.044346303
-0.046246596
0.031593353
0.036242902
0.053697906
0.0070170984
0.0046045035
0.0015735105
-0.0020601675
0.060324147
-0.05463297
-0.033681944
0.026488662
-0.00881014
0.036576107
0.051237598
0.026730716
-0.039822184
0.06077291
-0.05727592
-0.057367384
0.010961793
0.05973608
0.008063979
0.045005307
0.051405773
0.018893436
0.0032019764
0.030572735
-0.057895914
0.0070338696
0.053099595
0.04379054
0.0047566146
-0.04761266
0.014895134
0.044883907
0.035490587
0.056047767
0.027335785
0.05212795
0.032024644
-0.026707903
0.01961165
0.045627363
0.048582897
-0.010180205
0.033771165
-0.028386839
0.011958748
-0.03067702
-0.032337308
-0.012649357
0.03249655
0.014335178
0.02587016
0.013893783
-0.0597149
-0.0051130652
0.039611317
0.015628144
-0.049664006
0.02521161
-0.033768356
-0.054305084
-0.029905409
0.052754425
0.039445154
-0.011504024
0.028432034
-0.05906804
-0.057439424
-0.013937719
0.041838706
-0.044026688
-0.04732579
-0.03426396
-0.054270275
0.0385188
0.0095130205
0.06127362
0.009218425
0.0024545267
-0.057142466
-0.044323847
0.0049826577
0.036295965
-0.014926501
0.04699207
0.0018831491
-0.03864734
0.051927343
0.015548803
-0.0424326
-0.01261197
0.01351583
0.057171054
-0.038818598
0.028068982
-0.060364507
-0.017829143
0.011449888
-0.030173771
0.003578052
-0.01057753
-0.048713766
-0.04214845
0.0148331
0.028457351
0.047193825
-0.048402816
0.015074663
-0.031651698
-0.04084541
0.00070245564
0.039656043
0.017039262
-0.035048038
0.011495329
-0.00329417
0.022672452
-0.034186013
-0.008709431
0.045964666
-0.027266465
0.0463154
0.049432278
-0.02144926
0.02860725
0.022119522
-0.052435942
-0.033289954
-0.026265852
0.022068113
0.04555823
0.013758697
0.04926285
0.007482901
0.03327015
-0.046786755
-0.027384117
0.012093581
0.030804992
-0.0051751435
0.031357735
0.009890854
0.03170362
-0.060702547
-0.032672435
-0.045692764
-0.03451842
0.05192603
-0.028833225
-0.051203743
0.03248091
-0.03147725
-0.05786509
0.042366773
0.040817447
-0.0030950308
-0.04135108
0.044317804
0.0011208653
0.0069012493
-0.053038046
0.03224401
-0.06249305
-0.04834398
-0.032749094
0.06222827
0.03246253
0.051229775
0.031594142
0.032392107
0.029095888
-0.03681144
-0.050378405
-0.040742233
-0.035724938
-0.049190894
0.00073616207
-0.057201825
0.045067556
0.032768555
-0.0341509
0.015174396
-0.021726437
-0.054087073
0.040931396
-0.00105948
0.03249345
-0.0498714
-0.041795865
-0.055067882
0.027573071
-0.0491144
0.056226663
0.0008099079
-0.009035774
-0.011067145
-0.05351922
0.018429011
-0.012756392
-0.009228513
-0.0367127
0.03715329
0.02850882
-0.014327332
0.029057026
0.024865583
-0.0547335
0.04221315
-0.061903216
-0.027496502
-0.045565933
0.019941911
0.048225746
-0.034296192
-0.014761202
0.051256597
-0.0042297393
0.048017703
0.02443228
0.020298414
-0.06160687
0.056512758
-0.025061756
-0.018862136
0.017998531
0.013843901
-0.03872782
0.019203603
0.023817562
0.019009598
0.01172471
0.009329267
0.027136713
0.053377517
0.016048387
0.022219025
-0.0020612702
-0.04780191
-0.008843049
-0.0066375956
-0.033612825
0.033863686
-0.020948201
0.053122863
-0.0059072673
0.023430727
0.025816381
-0.03382837
0.05900745
-0.055906832
-0.027181663
-0.004408367
0.022507474
0.03869327
-0.003307186
-0.06031076
-0.01935006
-0.03995072
-0.06113199
0.027446799
-0.009075671
-0.059731536
-0.04871773
0.05997792
-0.0431213
-0.057275183
0.00017292053
0.058786757
0.03576465
-0.009071723
-0.037386373
0.014737166
-0.053622007
-0.0053329617
0.01750914
-0.0041241944
0.044244908
-0.055129156
-0.029383868
0.038203068
0.044927828
0.0023291335
-0.044423617
0.017822191
0.056090727
0.05894032
0.062479913
0.0010302365
0.055735968
0.053292155
-0.023383342
0.048614413
-0.0011329353
-0.05311609
-0.05055973
0.015982896
0.02634649
0.03828875
0.05394172
-0.024176598
-0.0012483373
-0.02901572
0.0058443993
0.0023233145
-0.04104189
0.010151014
0.04890942
0.009022303
-0.008987337
0.0401332
-0.027927667
0.05637148
0.021120213
-0.053229846
-0.06041199
-0.007049218
0.04995594
-0.046093516
0.0061987936
0.011113502
0.035963617
0.03726449
-0.03260406
0.030277655
-0.057695054
0.060276337
0.012551717
-0.005753912
-0.016822502
0.017708592
-0.027176477
0.035588436
-0.014736317
0.0020869374
-0.021425568
0.05635175
0.06105826
-0.049108356
0.046296388
-0.028513536
0.048101455
-0.0021943823
-0.022239126
0.019833371
0.02573245
-0.007057555
0.015004344
-0.028885618
0.025952294
0.03125576
0.0135695115
0.05289805
0.03712017
0.05599332
0.024840854
-0.058020197
0.043117926
-0.056569055
0.0053358376
0.05595319
-0.0569968
-0.006647423
0.0034422055
-0.012883581
0.038768828
-0.013029389
0.053647228
0.061257154
-0.04344091
0.022117063
-0.006689772
0.004557766
-0.05249747
-0.00039430708
-0.051185176
-0.017737068
0.037225172
0.027409934
-0.028368771
0.028251939
-0.021390542
-0.01378388
-0.045294568
-0.056584895
0.0489558
0.026282825
-0.04623425
0.020515122
0.035374463
0.037529618
0.04857272
-0.0018982887
-0.046197295
0.05102001
-0.030582763
0.033652335
-0.039421953
-0.055619903
-0.054008394
0.0131979585
0.015881985
-0.054671057
0.0020699129
0.05984629
-0.04576642
-0.06190259
-0.004394166
-0.046054274
-0.044969313
-0.001070872
0.035155945
-0.05160188
-0.06238819
0.056630276
-0.027390033
-0.004833147
-0.029732518
-0.009147003
0.054410994
-0.008963786
-0.062025502
0.024149306
-0.053832106
-0.054759085
0.0022460893
-0.00064341724
0.01787766
0.015498437
0.036033683
-0.02622325
0.02790796
0.0053567737
0.011374183
0.013786897
0.013442226
-0.047198452
0.012614392
-0.01772704
0.03940317
0.03569287
-0.059291154
0.04506573
-0.03442575
0.03321284
-0.027158298
0.024485305
0.027056322
-0.014123313
0.049498357
0.0068262964
0.0067222416
-0.0013185069
-0.01693929
0.011750519
-0.024357103
0.045558415
0.042684816
-0.013030425
-0.053178936
0.024052702
-0.0061123893
-0.02663742
0.04247284
0.061089307
0.041458383
0.038144566
0.033967994
0.021499798
-0.018561289
0.006074339
0.016820222
-0.013394825
0.05838284
-0.021659143
0.0327039
-0.03717324
0.027927965
0.005578764
-0.033770725
0.029292509
0.044553712
-0.0061721504
-0.05202911
-0.052189328
-0.009185523
-0.017683655
0.053765893
-0.04744775
0.0020097196
-0.0021015853
-0.049010515
-0.002461128
-0.039973997
-0.0020372495
-0.008677252
0.022328302
0.019764021
0.010011815
-0.0018445402
0.055328585
-0.047174774
0.044420235
-0.004282072
-0.013241366
-0.02136916
-0.060771704
0.05256304
-0.053968355
-0.030206315
-0.055580445
0.04011099
-0.036646202
0.037507333
0.047552288
0.017161258
-0.047755517
0.031121388
-0.023221634
-0.016755305
0.03332199
-0.012447529
-0.019768275
-0.060764894
-0.0024552569
0.05646643
-0.033738233
0.043832496
-0.009553783
0.029402673
-0.012974642
0.028622895
-0.031010337
-0.007751785
0.005678393
0.0545735
0.015890695
-0.048751377
0.028599977
-0.014520101
-0.053634666
-0.0002618581
-0.048638463
-0.0015382022
0.029189669
-0.0007627979
0.04680118
-0.023489282
-0.020210616
-0.03176549
0.007997625
-0.012278117
-0.03318222
0.058782175
0.025514811
0.026658408
-0.016522333
-0.025306039
-0.024800733
0.030042924
-0.032227777
-0.059340127
-0.041985825
-0.034949146
0.035776556
-0.05464101
-0.041034378
-0.056650586
-0.026449502
0.042764008
0.026526287
0.05992885
-0.049523406
-0.052337356
-0.010875046
-0.029735208
-0.0119209215
0.057782166
-0.027079098
-0.053569607
0.0059028044
0.032637164
-0.043144643
0.031040125
0.055713616
0.016781844
0.055956393
0.05091948
-0.055820063
0.041989088
0.024084635
0.040814705
0.05708372
-0.031481497
-0.031019278
-0.006622374
0.005288653
-0.014752187
0.011371583
0.05368671
0.050567143
0.007873826
0.04791923
0.0031894073
0.045088135
-0.046948314
0.059281334
-0.028648503
0.007365659
0.004025705
-0.042372346
0.013669349
0.03675004
-0.034717865
0.006640777
0.017203428
0.03505119
-0.021777488
0.03754001
-0.014695898
0.0615964
-0.032344714
-0.06147828
-0.007047102
0.0020285249
-0.014918216
0.017752409
-0.041908167
-0.0041483864
-0.019709975
-0.0071668103
0.05804146
0.054865062
0.033410028
-0.015735298
-0.033843443
-0.06084401
0.0483998
0.0011511147
-0.05884652
0.016694829
0.04927191
-0.03957303
-0.011939332
0.007258661
0.01863332
0.036340393
-0.0018769056
-0.008852236
0.0015782416
-0.0065568537
0.0047791973
0.04172936
0.060376637
-0.0001129061
-0.055638574
-0.03768286
-0.0019846037
-0.01812838
0.05558829
0.03273409
0.028632604
0.05304668
-0.031452365
-0.010280557
0.037607126
0.034043185
-0.018599644
0.05067853
0.0016364455
-0.0021748468
-0.045983262
-0.00950893
-0.024205089
0.04981555
-0.032607228
0.005666323
0.008526862
0.042253673
-0.0035999417
-0.023608916
-0.008123212
-0.03587141
-0.020551391
0.016862415
0.034942813
0.0008269623
0.018840283
0.021171309
-0.009628594
0.03353942
-0.053070664
0.0499553
-0.008623265
-0.06168019
0.034914613
0.05132951
0.022389948
-0.019064836
-0.006573923
-0.01180537
0.021350019
-0.0572239
-0.04366743
0.02028621
0.018562488
-0.026397072
0.021546714
0.016792484
-0.023979425
-0.011300936
0.05487743
0.042965516
0.010706082
-0.05695556
-0.050631315
0.04714392
0.05771046
-0.040722623
0.025061004
0.02899471
0.03398321
-0.046880566
-0.04351595
-0.031856738
0.008742824
-0.022179373
0.039357044
0.042252555
0.058738753
-0.0008209422
0.03365206
-0.05623348
0.05621534
-0.006164998
-0.027785525
-0.055784374
0.013639867
-0.0259851
-0.005300738
-0.050118446
0.050229013
-0.017723605
-0.015301056
-0.019500218
0.05587613
-0.02279929
0.033155046
0.061854623
0.01606176
0.020293161
-0.027519464
0.030610852
0.0061888844
-0.050506443
-0.013842717
-0.012809612
0.049973123
-0.028378092
0.030518442
-0.015354201
0.017233454
0.02315998
-0.019824646
0.029908478
0.034107447
0.026638806
0.03846349
-0.048019014
-0.014236487
-0.06036827
0.024569623
0.012467198
-0.018623248
-0.012852065
-0.037434444
-0.03815663
0.04337547
-0.0040525943
-0.019625567
0.00322669
-0.0560347
-0.042785548
0.014662206
0.030589111
0.04875187
0.017257683
0.054238074
-0.04933118
0.0027097017
-0.0192798
-0.034279592
0.005768679
0.049448602
0.016394362
0.001143612
0.00041342527
-0.057528585
0.020244211
0.059208237
-0.03699039
0.04215242
-0.029880635
0.028964654
0.061779357
-0.040494666
-0.010809369
-0.007786952
-0.019911893
-0.000716947
0.048911072
-0.030652396
-0.04570458
0.010158539
-0.041494355
-0.01321429
0.030686557
0.047508895
0.03166052
0.0024199486
-0.0032410845
0.05979781
0.051473327
0.058453582
0.0072746202
0.025562748
0.048448443
0.0057371855
0.035133876
0.029265113
-0.012971796
0.026989304
0.028094843
0.0057947934
0.0043260157
-0.013698801
-0.043577746
-0.040240273
-0.030947283
0.052067548
0.019924589
-0.038711265
0.051729806
0.022448726
-0.045051597
0.022360913
-0.031096376
-0.04032117
0.025145538
0.0072321
-0.03715145
-0.04019674
-0.028059147
-0.04972568
0.062418282
0.055226415
-0.039843082
-0.0148062855
-0.010306165
-0.037800692
0.0035460591
-0.03698022
-0.024103992
-0.03752806
-0.06212181
-0.046673775
0.018984959
0.011423901
0.03258288
-0.019258253
-0.03052228
0.042390943
-0.014332131
-0.021979421
0.033927016
0.059489936
0.016364932
0.014069922
0.054262944
-0.023140445
-0.031339183
0.007692635
-0.058847666
-0.031527206
-0.040136695
-0.046167023
-0.060536116
0.027126797
-0.058382004
-0.034286328
-0.027137198
-0.0316376
-0.029143013
-0.050727196
-0.006468892
0.06158416
-0.0050154626
0.014804684
-0.058483593
-0.044638336
0.032038964
0.016726568
0.049790986
0.010374732
0.041408703
-0.00255958
-0.01885426
-0.023640655
0.0045920163
0.029576913
-0.004386835
-0.043055996
0.03224282
-0.0012932792
0.044718698
0.049206756
0.04925845
0.009770766
0.0525603
0.019998215
-0.03579384
0.052337676
-0.060739994
-0.009653196
0.010845922
0.035721764
0.0351789
-0.040064022
0.05943189
-0.058939718
0.053317837
0.029395074
-0.005837947
0.049613997
-0.016874142
0.010622501
-0.016221836
-0.04252412
0.03375049
-0.056090936
-0.005020529
-0.008820429
-0.04664073
-0.025043674
0.021160625
0.034031503
0.032655
-0.048202984
-0.046116352
0.029870406
0.027059928
-0.0060586035
-0.031093061
0.058645904
-0.03146922
-0.002039209
0.0044823587
-0.045590855
0.034975246
0.05683019
-0.013382599
0.05628805
0.04974468
0.058217146
-0.038529992
0.040756375
-0.014347948
-0.030095413
-0.040978655
0.044723354
-0.022557527
-0.026931807
-0.02925153
0.045216896
0.050039575
0.049707726
-0.061841697
0.043036856
-0.035059407
0.060614385
-0.0019015446
0.00815355
0.03985904
-0.047121845
0.04935804
0.025421627
0.01886256
-0.048223384
0.005953416
0.05879803
-0.026504822
0.017171443
-0.029613592
0.038225792
0.03142877
0.00092134625
0.04481709
0.040561922
-0.02238319
-0.0398788
0.021763034
-0.059519336
-0.025832318
0.0037014633
-0.015968993
0.00424394
0.008618422
-0.049484305
0.0032103732
-0.011898793
-0.03298614
0.06129223
0.06090591
0.05024746
-0.03537243
0.0019650757
-0.02684857
0.01013913
0.048026845
0.031595714
-0.054016255
0.038672812
-0.02785366
-0.001612775
-0.026794545
-0.0059770644
0.046454452
-0.048455738
-0.018687725
-0.04065209
-0.037708566
-0.022957817
0.013676427
-0.03126423
0.017660603
-0.026588395
0.014620729
-0.032663643
-0.05799155
0.017587565
0.023442134
0.021041721
-0.021411434
0.015677534
0.037629053
0.005285509
0.042999364
-0.031418927
-0.001246281
-0.029478744
0.06198015
0.051493146
-0.029134855
-0.041196495
0.051544674
-0.034624964
-0.035492837
0.057034105
0.045281373
-0.05622355
0.0069183037
0.021965638
-0.008711778
-0.05774209
-0.038376227
-0.028550126
-0.022122882
0.025684364
-0.061436817
-0.024391532
0.046667963
-0.03579636
-0.038571797
0.060877495
0.03169614
-0.038861692
0.045789294
-0.02209992
0.03142149
0.061169714
-0.0044797584
0.036774367
-0.049973913
0.04373408
-0.03260591
0.029180959
-0.01643309
0.057386898
-0.0018989518
0.015232801
-0.04614108
-0.026466087
-0.060635895
0.023556694
-0.0067702085
-0.0059920773
0.048114277
0.053796902
-0.04512807
0.03812035
-0.014611676
-0.035427712
0.012482643
0.057276472
0.058668017
-0.024982184
-0.035999373
0.009058885
-0.020505458
0.021741614
-0.0252252
-0.019339792
0.01369974
0.05899995
-0.05021385
-0.019377053
0.050638333
0.016552418
0.023542784
0.057801954
-0.021490365
-0.022031166
0.05680892
-0.046069816
0.022179954
-0.050247952
-0.0493503
-0.047374293
0.015673056
0.05268854
0.0076608434
0.048390716
-0.053930312
-0.059039056
0.008340739
-0.0013487116
0.040922165
-0.061673515
0.034359343
0.031234547
0.04882607
0.023872815
-0.04753927
-0.06081848
0.019723825
-0.015928246
0.0014861897
0.062432542
0.02139885
0.055287555
-0.057372995
0.041519955
0.04178933
0.017973043
0.045779295
-0.023917593
-0.007139586
-0.022985063
0.03333942
-0.054525882
0.0014662296
0.0032780617
0.056246884
0.0009983405
0.054658167
0.046124585
-0.00084906816
0.047718592
0.012716882
-0.02484028
-0.04925988
-0.022475176
0.02152066
-0.05845592
0.027933337
-0.020629108
-0.041986637
0.031179138
0.009200871
-0.034167178
-0.044318594
0.014322288
-0.047159113
0.038151048
-0.058701083
0.0482345
-0.036442503
-0.00952626
0.0033142269
0.008994982
-0.047928795
0.023589961
-0.043573402
0.012265123
0.042780787
-0.058146097
0.016114421
-0.023234405
0.020114385
-0.06220445
-0.0063429177
-0.0047650635
-0.059870772
-0.048092656
-0.013385832
0.042584747
-0.039227575
0.008125044
-0.05117847
-0.05147686
-0.04818049
0.04639829
-0.0021022782
0.041966483
0.04042177
0.032058008
0.044149294
0.019229054
0.012737937
-0.028934874
0.048755564
-0.04905755
0.05001592
-0.0113042
-0.0061955974
-0.020908803
0.045430437
-0.05691421
0.016734831
-0.0011183172
0.001390323
0.003865108
0.034770146
-0.033349767
-0.0073923618
0.056811184
-0.00029095262
0.020323
0.036849976
0.061553568
-0.014736414
0.02372557
0.028191298
0.05560667
0.03366088
-0.056002766
-0.03676714
-0.02315718
-0.019954927
0.02855388
-0.04720044
0.01828897
-0.04752356
0.009921946
0.047812007
-0.021689728
0.034783877
-0.058569893
-0.029090516
0.02574958
-0.004962221
0.029882379
0.014902636
0.056971848
-0.0005839467
0.024932459
0.037404053
-0.053711377
0.035040915
0.018031687
-0.053178295
0.01586128
-0.050127797
0.024392113
-0.055477872
0.016719125
0.03966029
0.05800776
-0.0078552365
-0.0582577
-0.0076586753
-0.005628638
-0.059882842
-9.536743e-05
-0.0077201575
0.029673524
0.062437654
0.04573881
0.009524062
-0.017469577
0.04542792
-0.02502469
-0.0073391125
0.04796329
0.043216422
-0.03626983
-0.009106368
0.0029399842
-0.02415318
0.0050740913
0.018866844
-0.05870744
-0.04635112
0.062343843
0.056414805
0.034763217
-0.03949292
-0.050139494
-0.036824778
0.034128197
0.04820764
-0.013286412
0.04910565
0.056457594
0.044471875
0.04226993
-0.012874059
-0.03097593
-0.009781264
0.006684974
-0.06242413
0.036145434
-0.05322068
-0.060464516
0.03540475
-0.048992187
-0.03022632
0.024450175
-0.00981085
-0.036828734
0.024065316
0.05870019
0.048285604
0.06159147
0.03473019
-0.013172492
0.036887966
0.058787465
0.058017656
0.024760097
0.022421874
0.01753693
0.024416544
0.053279966
0.023686454
-0.032163963
-0.05423435
-0.02268029
-0.023035236
-0.0076491833
-0.0355419
0.041645452
-0.037733197
-0.010890022
0.010794252
0.05584883
0.014036909
-0.024243735
-0.007092871
-0.029807568
-0.021740235
0.028522149
-0.024576284
-0.0373414
-0.051205
0.045752548
-0.03547556
-0.023975387
0.009410717
0.05488663
0.060582317
-0.028311364
-0.03796827
0.05396854
-0.014483206
-0.00073726475
-0.055215277
-0.05993005
0.012137592
-0.0044172406
-0.0069976673
0.018589348
-0.010109745
-0.05077701
0.019152015
0.03876172
-0.043017663
0.04558093
-0.052356318
-0.030975044
-0.052771613
-0.0002464503
0.04285592
-0.017538078
-0.04271753
-0.000397712
0.0016206056
0.007307969
-0.008903436
0.026245713
-0.0017211288
0.019569255
-0.018730812
-0.017276235
0.016768664
-0.03349942
0.011182673
-0.060642324
0.013051286
-0.0031504706
-0.028382927
0.038734145
-0.059535816
0.04554882
-0.060348094
-0.008017957
0.021377012
-0.039120674
0.019008942
-0.037811644
-0.003618531
0.005394295
-0.029746026
0.023115076
0.0031449646
0.0023002997
-0.04555267
-0.0047250763
0.042454943
0.026766427
-0.03233069
0.060016192
-0.008030415
-0.0495387
-0.004882492
-0.029324755
0.059028022
-0.030096173
-0.042834125
-0.045839198
-0.033734888
-0.053562053
-0.026968196
-0.019007511
0.04704494
0.0051244125
-0.035164945
0.043126844
0.060852505
-0.0037226528
-0.061414815
-0.040027395
-0.052634664
-0.023510203
-0.05513134
-0.022345245
-0.008957997
0.009973295
0.04099732
-0.04082697
0.007736869
-0.00295797
-0.0049516335
0.01230599
-0.03369976
-0.03454745
0.009938493
0.023939945
-0.027790993
0.023277052
0.056246646
0.04790686
-0.001997687
-0.050619587
0.018524013
0.06238789
0.008806981
0.0074086264
-0.05373078
0.010638826
0.049775667
-0.006640233
-0.039619066
0.008580156
-0.053187296
0.0113703385
0.05982423
-0.0393517
-0.0230565
-0.0616955
-0.029139236
0.024166964
-0.022069015
-0.04249122
-0.019190222
0.06007623
-0.048076592
0.010781594
-0.028905734
-0.020897917
-0.014802098
-0.0038170144
0.031870596
0.034880027
0.049531937
-0.046755336
0.002141811
-0.051224083
0.009558566
-0.0035110414
0.025179982
0.045040034
0.035998084
-0.030027896
-0.01498995
0.021542326
0.034174502
-0.056455217
-0.024800934
-0.019763745
0.051983736
-0.027373865
0.060577586
0.022692285
0.008187816
-0.0545618
0.013271786
0.0073066056
0.0013590753
0.030583061
0.047018893
0.0495139
0.062315114
-0.05512803
-0.06131666
-0.04563649
0.034935467
0.056308866
0.04887843
-0.059110306
0.057080165
0.035935767
-0.038003825
-0.012815841
-0.0395604
-0.00088371336
0.037278637
0.00013123453
-0.016502552
0.045881525
0.009485714
-0.031576313
0.044769123
-1.7784536e-05
0.053999223
0.029877521
0.021547444
-0.05777946
0.007145345
-0.0043042004
-0.05238407
-0.025037907
0.018556334
0.0402657
0.03692788
-0.038426004
0.048592836
0.004836254
-0.022922978
0.043470718
0.024602406
0.05712834
-0.05402328
-0.034631304
0.02918271
0.056611486
-0.034557886
-0.027314603
-0.0015700012
-0.0145166665
-0.017506942
-0.029872626
-0.05675389
0.030045316
0.051665492
0.040815823
0.027739495
0.052408397
0.061530337
0.0058510527
0.004457824
0.014947705
0.059580944
0.012054823
-0.046111174
-0.035866357
0.02065076
0.019825973
-0.018673413
-0.049852572
-0.0010077283
-0.0147977695
0.022559427
-0.034169085
-0.026945181
0.048751086
-0.01966115
-0.00044299662
-0.04402723
-0.059079655
-0.005463101
0.056344226
0.029091597
-0.05333215
-0.04221303
0.02963075
0.050831884
0.046564214
0.011227131
-0.060780354
-0.054905325
0.044558585
-0.015787631
0.039890192
0.035841808
-0.0006791502
0.04454968
0.051903576
0.018677004
-0.016939633
0.027556047
-0.045905136
-0.058640525
-0.039111458
-0.046818048
0.04166092
0.033134438
0.058664776
-0.0030251592
0.022019818
0.05607774
0.0031971335
-0.05504054
-0.0018726811
0.023299389
0.04449909
0.014974073
-0.0013915598
-0.047459185
-0.056379937
-0.05676631
0.015008189
-0.041960552
-0.014453299
-0.018625334
0.031818792
0.035565212
0.05244852
0.04224576
-0.03178697
0.03976646
-0.025735535
0.0495253
-0.015704073
0.055622473
-0.052889712
0.020755656
-0.012414351
-0.030941755
-0.047845535
-0.059638187
0.054528877
0.023492761
-0.05392845
0.046455875
0.057817332
-0.04937195
-0.03300885
-0.013068117
-0.03841438
0.021848641
-0.009732932
0.060762532
-0.009617023
0.009028748
0.017768703
0.05887992
-0.049590558
-0.027922593
0.019681215
0.019440532
0.025127798
0.03208886
0.0051744506
0.007378049
-0.003001079
0.03308525
0.006606698
-0.046109654
0.03687916
-0.05283296
-0.026483797
0.060463153
0.05816099
-0.026481628
0.022202373
-0.056331
0.012682341
0.012717202
-0.029692248
0.05287025
0.038458407
0.01440125
0.013990425
-0.027946688
-0.044102944
0.00051277876
0.036800228
0.036675103
-0.018312395
-0.023020498
0.01178661
0.0034853444
-0.037556797
0.0061864406
0.050755896
0.05263161
0.062205628
-0.033011116
0.04421287
0.025113143
0.03642957
0.037229396
0.04127451
0.042147525
-0.02875711
0.010695241
0.028574973
-0.029460192
-0.031447202
-0.030674964
0.030329071
-0.05388827
0.005042888
0.05979505
-0.027202219
0.06109616
-0.05151934
0.04751324
0.0152841285
-0.04318949
0.04745528
-0.022223085
-0.0017208979
-0.006717004
0.04696486
0.04517959
-0.048296586
-0.05666186
0.016314507
0.027095534
-0.02140776
-0.034438178
-0.061579682
-0.059717774
-0.0057236627
0.027034968
0.037583835
0.043767706
-0.04923605
-0.0070564747
0.009170875
-0.00020992011
0.018891871
-0.058914028
0.024248913
0.0573382
-0.04408565
0.03247387
0.027271584
0.019512244
0.03190784
-0.04106968
0.042175286
-0.025924437
0.012342304
0.0012044832
0.048588306
0.005851537
0.02958987
0.048645355
-0.03673035
0.018072806
0.035515107
-0.036009215
0.0047023743
-0.00056313723
0.014074698
-0.043104805
0.05289153
0.004764743
0.015522137
0.005158253
0.00028736144
-0.0216887
0.014340907
-0.018876016
0.0525316
-0.0154648125
-0.039490186
0.008040555
-0.026994921
0.019448757
-0.029466935
-0.021860063
-0.014867209
-0.05322846
-0.017814033
-0.05167111
0.024868734
0.022258438
0.026932545
0.026212394
-0.0210834
0.062379062
-0.022149317
-0.047357395
-0.047431037
0.030449763
0.025794119
0.009758562
0.04039547
-0.017478451
-0.036634184
-0.0037268698
-0.014161184
-0.04813233
0.035132788
0.05509708
-0.0131220445
0.009670943
0.0484375
0.04410992
-0.058402598
0.015383258
0.022149548
0.042699024
-0.031789258
-0.002994351
-0.04056119
0.05062078
0.037564956
0.01566527
0.026589923
-0.05213896
0.046176888
0.03511537
-0.011259504
0.025700517
-0.005536869
-0.055968627
-0.030927122
0.05350163
0.027657405
0.05296833
0.021020137
-0.043910302
0.025587916
0.010678232
0.020390242
-0.0021404773
-0.05872833
-0.034546025
0.04578682
-0.04949536
-0.009058252
0.023069069
-0.00803072
-0.042963542
0.021842174
-0.04224406
-0.023381293
-0.03144426
0.05175305
0.017791487
-0.020969816
0.05900033
0.031162351
0.023243904
0.0020239651
-0.018601708
-0.032549024
-0.03264053
-0.0059679523
0.047721177
-0.060862146
0.031234294
-0.017304957
0.05830142
-0.0020136982
-0.023875453
0.021306187
-0.03715007
0.034714855
0.037823416
-0.022793874
0.004537396
0.060683787
-0.008165203
0.056999907
-0.030839682
0.047638625
-0.060712323
-0.018747792
-0.05106187
-0.040869653
0.022382349
-0.016251579
0.018671818
-0.0040779263
0.047822475
-0.0014641881
0.020061076
-0.01603742
0.001629971
-0.053579643
-0.04240141
0.012283511
-0.041107826
-0.015405908
0.053376883
0.010737583
0.022661716
-0.05199086
0.045623735
0.00029604882
5.184859e-05
-0.048270434
0.038117416
-0.041621722
0.060870662
0.022484913
-0.004549131
0.057010233
0.039648496
-0.0030507594
-0.052799076
-0.039633147
0.02855277
0.0045859665
0.013729215
-0.04980854
0.03413797
-0.033075243
-0.015558176
0.056440838
0.03011556
0.010558464
-0.04214263
0.041271515
-0.009765074
-0.042278416
-0.0029669926
0.01780095
-0.010414414
-0.027994074
0.055524424
-0.04220397
-0.042751215
0.029269427
-0.02708996
0.0024159476
0.029593594
-0.013783343
0.019467652
-0.023789093
-0.038645625
0.038534217
-0.044850655
-0.009852566
-0.055200174
-0.014546931
0.0067538917
0.0014844388
0.061358646
0.0013720542
-0.053890906
-0.026645072
-0.03046693
-0.052630194
0.0052267313
-0.0072330832
0.002674602
0.062119246
0.004683487
-0.05451531
0.006854303
0.0118948
0.025607526
0.03742353
0.03801748
-0.006694138
0.027403846
0.0009775162
-0.05434718
-0.007698521
-0.0014638379
0.011025928
-0.030301653
-0.058385752
-0.028630584
0.015343107
0.013438731
0.01158601
-0.0084190145
-0.03469
-0.01722262
-0.018458702
-0.035586573
0.019396104
-0.059901394
0.0023402274
0.02030103
-0.021320611
0.022684038
-0.039391994
0.036244787
0.04373665
-0.03582885
-0.05051268
0.021000125
0.045239583
0.017516814
-0.02066359
-0.009707049
0.02787108
0.0146031305
0.045618355
0.0029007718
0.05780428
0.057798743
0.03968808
0.035810478
0.033543423
-0.04770446
-0.0049783215
0.02953332
0.047504738
0.059161127
0.04084053
-0.050799243
0.027978465
0.04623729
0.05383251
-0.025789894
-0.03273853
-0.05954118
-0.058458693
0.05016111
0.034670167
-0.031098448
0.007127613
-0.04676359
0.022945367
-0.030360512
0.016259111
-0.044781208
0.0063752383
0.025336772
-0.037779488
-0.046702713
-0.032475486
-0.031009935
0.049613677
-0.02443678
0.058001444
0.032801002
-0.04529109
0.047008276
0.0027942434
-0.0061413124
-0.013297439
-0.029084027
0.033527568
-0.023834646
-0.035537593
0.012952253
0.030628793
-0.038765013
-0.017064877
-0.059415124
0.032695413
-0.037218735
-0.012900785
-0.021915935
0.015488543
0.04553874
-0.036042996
0.041835368
0.0021812543
0.022233047
-0.032629564
0.0437408
0.031550445
0.025400579
0.043354854
-0.054902136
0.054803565
0.03282682
0.052692927
0.051453568
0.03898699
0.03491492
0.027557038
-0.0062209517
0.05692687
-0.04296066
-0.0007082075
-0.0023905486
-0.05129183
0.055650122
0.030049391
0.047682323
0.056423105
0.00094196945
-0.02102641
-0.017236821
-0.03334096
-0.05420445
-0.028411865
0.00051502883
-0.030881844
0.043278083
0.046386376
-0.006441608
-0.01521723
0.01694224
-0.04119263
0.061157838
0.016265653
0.046961524
-0.06148912
-0.010509327
0.023299545
-0.012017056
0.0011936724
-0.018159993
0.01724857
0.028392464
0.037949815
0.05838819
-0.025032267
-0.046789214
0.0149637535
0.0015198663
-0.022244357
-0.046495557
0.0023378655
0.050833777
-0.038394935
-0.047627904
0.03068792
0.03259714
0.033955
-0.06165202
-0.002803959
0.04170993
0.04681001
-0.055665784
0.021317989
-0.008136392
-0.0025745109
0.04297933
0.033212774
-0.04100143
0.059946664
-0.057638086
0.040796816
0.032254256
-0.057218067
-0.02173692
-0.012335934
-0.0054283068
0.005050756
-0.06084071
-0.00846196
-0.034890346
0.00941813
-0.04668101
-0.028605498
0.027215876
0.043203637
0.062113553
-0.0012352243
0.00094709545
0.051981606
-0.057107575
0.059296355
0.00943473
-0.05776459
-0.017644145
-0.010420412
-0.015760526
-0.03169796
0.012520388
0.019221999
0.017318778
0.03836
0.012399502
0.022654489
0.021641396
-0.035909787
0.05535923
0.0075591877
-0.01439774
0.038764536
0.042556874
-0.053628013
0.015913315
-0.06201414
-0.023507543
0.03973282
-0.032166652
0.005293973
-0.019047655
0.054696478
-0.010307521
-0.04401864
0.028605185
-0.013292305
0.05728995
0.047422096
0.055686414
0.035699658
0.0021538138
-0.030569062
-0.03843528
0.041138723
0.046030417
-0.03736852
0.014121033
0.046581417
-0.028941594
-0.04679837
-0.0015316084
-0.0052081645
0.015211403
0.0021855533
0.043767728
-0.029956833
0.0031216666
0.060690932
0.04590448
-0.027644373
-0.0076794103
0.029559582
-0.009733811
0.06062579
-0.002606161
0.042370334
-0.04002613
0.0091966465
0.0013851672
-0.031082682
-0.018473461
0.0019699782
-0.024088465
0.035447158
-0.023123413
-0.041744053
0.046132483
-0.037825942
-0.027560212
-0.018771581
-0.04234782
-0.013659641
0.040732242
0.023485929
-0.0061100945
-0.025127202
-0.037430406
-0.044380687
0.03291674
-0.04986389
-0.028747655
0.02760639
0.0024098977
-0.04892455
-0.00031987578
0.021673486
-0.012012795
-0.019952342
0.019200705
0.019128487
0.025648944
-0.056290284
0.056737654
-0.05097062
-0.030023567
0.05566702
-0.02919957
0.045055866
0.04003135
-0.024612114
-0.03483957
-0.004804574
0.011338837
-0.017800607
-0.017261967
-0.058027662
-0.015728816
0.014250934
-0.033204623
0.015237339
-0.03443613
-0.06244105
-0.030485064
-0.0028007478
-0.016808465
-0.02421616
0.02950652
-0.036421694
0.048764296
0.03858597
0.042741753
0.029941075
0.04155802
0.024014793
0.03336987
-0.03228809
-0.045395114
0.01905378
-0.03766436
0.006052308
0.030523561
0.06097178
-0.02114617
-0.038609497
-0.025535718
0.006275624
-0.05592048
-0.051041067
0.017379977
0.011652477
-0.0087336
0.05070091
-0.040457085
-0.05434376
0.053439796
-0.045749575
0.059426814
0.040573366
-0.023237504
-0.043586716
-0.048398875
-0.001054123
-0.014434546
-0.03822439
-0.008501999
0.06143938
0.018147603
-0.04520061
0.017571539
-0.05729401
-0.029955
-0.04843448
0.0015846342
-0.0139235705
0.007710643
0.00022920221
0.0059354454
-0.0063062757
0.005899541
-0.02854719
0.032774
0.04915551
-0.045770377
-0.006833747
0.037506953
0.055853784
0.03366422
-0.04646089
-0.00038276613
-0.042858087
-0.005229965
0.005690068
0.049614966
-0.029360607
-0.007304676
-0.055592604
0.01810503
-0.029657446
0.0070779324
-0.045059465
0.019855224
-0.036972135
0.047199443
-0.042886376
0.02019523
-0.04527475
0.053260066
-0.035569645
0.027609512
-0.03779003
-0.018915087
-0.041618444
-0.03754256
0.0115403235
0.0075882003
-0.053159587
-0.038497746
0.00044094026
0.01362139
0.0067214295
-0.045431405
0.02069088
0.037139386
0.060418762
0.018367082
-0.012907319
0.03303402
-0.029892325
-0.03638865
0.024148166
-0.02794329
-0.048524752
0.053538032
-0.055191614
0.010578997
-0.049186274
-0.047587506
-0.008627027
0.03798666
0.05877994
0.015469544
-0.054084472
-0.042621806
0.03605079
-0.020182878
-0.031811804
-9.971857e-05
0.03016226
0.048882127
-0.06193964
0.018364765
-0.05462707
-0.02573333
0.0069331527
-0.033564627
0.041658066
0.040605463
-0.062187254
0.060155906
0.00896506
0.034178793
0.024301268
0.048212916
0.034698613
-0.048021004
-0.036119945
0.026991725
0.048930198
-0.013539061
-0.038423523
-0.05646751
0.03338808
-0.012560256
-0.038701624
-0.02764915
-0.043600164
-0.048486717
-0.02118408
-0.05114852
-0.002679713
0.034307152
0.017764732
0.024825804
0.053791434
-0.052286476
0.04974053
-0.008250929
-0.019921377
0.012769997
0.022350706
-0.057940073
-0.016857065
-0.042502552
0.04004816
-0.007577136
-0.0067339838
0.029037029
0.015857942
-0.05053091
-0.049048737
0.044104896
0.04937701
0.033499658
-0.044745065
0.006806694
-0.05624818
-0.059987
0.019281857
0.0033816695
0.028418027
-0.061352767
0.043378435
-0.0072176456
0.060941778
-0.06204179
-0.046167374
0.012144677
0.054185376
-0.03881838
0.011536501
-0.054990463
0.039844543
-0.053531095
-0.05636587
0.03951156
-0.010588817
0.040264264
-0.021615349
0.018739618
-0.0063281283
0.027894102
0.036424972
-0.045878105
-0.044408806
-0.026093684
-0.0042492896
0.015296146
0.05802446
0.04953946
0.011265509
-0.031699233
0.023368925
0.061910182
0.0015446022
0.027905896
-0.008758977
0.018697314
0.040303253
0.016039617
0.0058888197
0.0026329383
0.026880197
0.049050197
-0.012126386
0.017315954
0.025862895
0.03246077
-0.028396226
-0.013331816
0.023759477
0.0056241974
0.0077321827
-0.052302018
0.024995744
0.040950805
-0.059139296
0.031755842
0.054516234
-0.007063836
0.023768477
0.040585287
0.036743335
0.05051469
0.034240976
-0.014432766
0.04297757
0.00881274
-0.05543755
0.029784381
0.0559519
0.01601369
0.022345334
0.037446268
0.0334476
-0.028427288
-0.058843702
-0.049895257
-0.054164886
-0.04756257
0.05520305
-0.045153566
0.02934073
-0.0008543208
-0.009222068
0.042905338
0.026738577
0.03642585
0.05694165
-0.020643406
0.04050141
-0.060709722
-0.04393865
-0.027988493
0.028302632
-0.04006365
0.014869593
0.011819236
-0.0124452785
0.008290492
-0.056111008
-0.017785475
-0.04184159
-0.030698955
-0.03417775
0.02734629
-0.004719682
0.0045088306
-0.028647803
0.043874584
-0.02442947
-0.04952059
-0.051787533
-0.020259567
-0.0017504096
-0.044704452
-0.022899576
0.033193186
-0.01563187
-0.048286512
0.056330696
0.0055740327
-0.030072868
-0.055463575
0.04620807
