2 4096
32 128
5.261222
-18.876915
-2.023022
-1.5427872
-17.059118
-2.368365
-3.2571545
1.2220051
15.376845
8.125494
-0.25584397
-1.4587702
-19.639372
5.518889
25.66833
0.7758579
7.0678334
-0.10253063
1.3606396
-3.179242
-16.028522
-7.240147
-9.923601
26.556137
-3.212072
-13.767046
-5.8473825
-18.127155
1.3643004
15.375898
-9.398674
-18.729267
-14.671836
3.3172846
10.942098
17.440817
16.871128
-1.9039356
-1.0781484
-3.9266758
13.158764
21.600004
11.510599
-8.318612
20.11975
-7.3995156
-17.045036
23.81565
-7.8508444
-15.585198
5.9455233
0.516135
-16.496565
5.2478647
-1.2675282
5.7278705
6.035441
8.4023905
-0.80163825
-11.027758
-2.5011322
-23.14176
9.1659775
-13.747302
8.4747095
-13.89956
-3.4015026
1.3493842
-2.5751672
0.94931227
18.252455
-12.228758
13.517283
-2.0431936
7.669504
-11.134387
7.2918963
3.4637454
18.186977
13.68922
10.880754
-17.472496
1.9886675
16.278196
9.457051
19.106077
-2.432115
-16.135828
-11.230983
16.38842
15.1173525
27.472164
-0.35634917
-5.5498457
-11.227953
-11.228398
-10.134943
3.561651
-11.894384
-16.734034
-6.042995
13.498096
13.7921
-6.7562094
1.0461824
7.8531003
-15.542934
-2.1007555
5.9832807
-9.409036
-11.722762
6.0463443
12.507074
8.301574
-5.8562145
21.053122
4.477037
-6.265974
2.847968
6.004417
9.034911
8.584691
6.283129
-3.0182157
2.8485005
-3.2423065
19.121332
-18.229284
3.708483
-20.029623
-2.3721268
-3.1428404
-17.358334
-3.3903553
-3.3062394
0.08065137
16.386684
8.131003
1.6367742
-1.8685117
-20.817265
4.9885445
25.744364
0.3048771
7.97167
-1.1493148
1.1689669
-4.756952
-17.511658
-7.065649
-10.93378
27.219938
-4.201742
-13.909649
-6.0802765
-19.055824
0.7137691
16.271551
-8.49556
-18.555847
-15.139861
3.1448472
12.1839485
18.22117
17.931316
-2.9333463
-0.42928794
-4.9511566
13.82858
22.3735
12.929983
-8.309036
21.1242
-6.933538
-18.336243
22.708124
-8.345537
-15.561128
6.7269087
-0.19966908
-16.42122
5.0860276
-1.0197275
5.4616494
6.6074996
9.515256
-1.1252404
-11.843228
-1.8432239
-23.801369
9.273299
-14.594463
7.5712
-14.680406
-3.7709007
-0.31396338
-3.3437898
1.0111637
18.51238
-11.997453
13.893654
-1.8935542
8.003691
-12.270489
8.242115
3.322876
19.65841
14.707909
12.198998
-17.98712
0.63349056
17.692287
9.966801
18.872532
-1.9163884
-16.903172
-11.803379
17.827944
15.5549345
28.767393
-0.5846347
-4.626033
-11.783933
-11.227321
-11.608344
3.671629
-11.6533785
-18.5594
-6.6411533
13.777843
13.894137
-7.367133
1.0084789
9.117452
-15.115974
-1.6452041
5.85451
-9.324765
-12.409653
6.4602356
12.882681
8.310038
-6.0194764
21.892437
4.797292
-6.8387313
3.6068292
6.6491776
9.782945
8.34843
5.9267955
-3.4249809
2.7621577
-4.5407124
20.536892
-18.946606
4.387022
-17.279104
-1.4660231
-2.817535
-16.031094
-1.6742414
-1.3554696
0.40630332
13.028731
6.94497
0.5838599
-0.61640114
-17.231129
4.5395803
23.05068
0.25325534
7.07788
-1.0064263
1.3080518
-2.0314147
-14.646577
-6.091753
-8.425545
23.020931
-2.3777134
-11.437025
-5.2789483
-16.432247
1.4575294
13.840361
-8.1155
-15.866868
-14.074541
3.1814137
10.461488
14.993471
15.115374
-2.732912
-1.0664843
-4.931328
11.55542
18.575212
10.193896
-6.6800594
18.326094
-5.879682
-14.241567
20.87812
-7.158481
-12.820467
5.317196
-0.0028193742
-13.982084
4.7432413
-0.5035724
5.505542
4.7493134
6.8501306
-0.68370235
-9.56768
-2.0749297
-20.846643
8.294567
-12.365759
6.4656396
-11.712952
-2.1111755
0.21495561
-1.8896021
0.8525077
15.525286
-10.443693
11.620132
-1.8219715
6.34939
-10.032094
6.6065273
2.6806335
16.383303
12.02527
10.800388
-14.920015
0.6300949
15.152163
8.734849
16.514109
-1.3039535
-14.630774
-9.879576
14.601775
13.391329
23.414648
-0.5019254
-5.520619
-9.6811495
-9.2112665
-9.7322445
2.4960065
-10.193197
-13.767862
-4.9993787
10.468415
11.615787
-5.630495
1.3506119
6.280526
-13.348228
-2.5794868
4.891817
-6.9340854
-10.865416
5.2097616
11.664629
6.845871
-4.8006444
17.418026
4.2968435
-4.8573565
2.1743073
5.330139
7.306316
8.292117
5.565901
-2.8104668
2.754869
-3.306266
18.041523
-15.589488
3.6848462
-19.963453
-2.7958548
-3.3550768
-17.956657
-2.6175857
-2.2322094
-0.32812625
16.140322
9.326947
0.26593047
-0.10089783
-20.67627
4.886264
26.507355
0.22597888
8.062206
-1.6399425
0.4122462
-4.298125
-17.619993
-7.13235
-11.534889
27.754652
-3.870037
-14.172155
-5.5623693
-19.480062
0.69031775
15.81002
-9.405723
-19.075468
-16.254044
2.347181
12.08107
17.428604
18.993351
-2.510348
-0.13948621
-5.1712756
13.175495
22.184877
12.117384
-7.9381986
20.873552
-6.2323556
-18.024708
23.529284
-7.7139764
-15.99739
6.630205
0.5394618
-16.41347
5.13118
-0.85249054
6.3774967
6.6581864
8.668802
-1.6264408
-11.253765
-2.919118
-24.18261
9.952949
-14.770395
7.765324
-14.393746
-3.5180132
1.0745498
-1.8214537
0.5939633
18.52647
-12.35219
14.312977
-1.8811306
7.922276
-12.163488
6.756741
3.1895335
18.670387
14.026782
11.720894
-16.700542
0.47619677
18.04993
9.977789
19.233261
-0.94028294
-17.256403
-9.934137
16.712645
15.973354
28.955582
-1.1889613
-5.46397
-11.408279
-11.541028
-11.18338
4.291611
-12.276853
-18.568106
-6.262255
13.605825
14.238389
-7.707671
0.33245057
8.845448
-15.716188
-2.5811443
6.4147234
-9.082842
-12.932672
6.3587923
13.343527
8.61974
-6.357457
21.717106
5.328971
-6.339479
3.4882195
6.882374
9.705917
8.418231
6.1138387
-3.704586
3.7801971
-4.8490076
19.325336
-19.917906
5.2058454
-19.963055
-2.635908
-2.4239852
-18.25078
-2.406818
-2.2295637
0.09476039
15.894543
8.215507
0.89516956
-1.3372357
-19.521215
5.124633
26.50016
0.841093
7.556643
-1.1658174
1.6194756
-4.6544523
-17.202955
-6.375894
-10.876537
26.542038
-3.627755
-13.762648
-7.1482286
-19.068224
1.5432429
16.200949
-9.292495
-19.06396
-15.642565
3.5863037
12.925896
18.725445
17.524256
-2.9094465
-0.3444557
-5.4649363
13.203735
21.736816
12.019633
-7.481557
21.066614
-7.0614676
-17.85898
23.166674
-8.744114
-15.463463
5.9572587
-0.1989398
-16.772564
6.141911
-1.4728398
4.952983
5.4712796
8.713465
-0.9482115
-11.4527645
-2.26393
-24.802933
9.89499
-15.100034
8.076748
-13.837997
-3.3182142
0.10113815
-1.5561999
1.2061393
18.676805
-12.342469
13.876093
-1.5575174
7.828992
-12.019498
7.9083285
3.0561008
19.41872
14.725509
12.769099
-16.912123
1.0907211
17.510021
9.686233
19.51528
-2.363022
-16.64942
-11.159959
17.264671
15.801435
29.23598
-0.37875658
-5.060122
-12.079885
-11.502223
-11.598805
3.5038853
-12.60621
-18.389557
-6.574091
12.777759
14.396716
-7.317635
1.2434998
8.44994
-15.601973
-2.3940601
6.5472393
-8.936205
-12.520172
6.3025846
13.32053
8.941282
-5.8568587
20.670912
5.183377
-6.2405534
3.6913035
5.873066
9.118857
8.501375
5.7106905
-3.555984
2.3436313
-4.025703
20.465433
-18.72893
4.062823
-19.119724
-2.1716092
-2.4521005
-17.935766
-3.1707923
-2.352828
0.8088549
15.117504
8.3934
0.49891803
-0.7336372
-21.156904
4.4360347
26.353859
0.6015173
6.9381104
-1.2341993
0.9647178
-3.3666623
-17.094719
-6.205992
-10.951282
25.734203
-2.4744427
-14.021942
-5.9030843
-19.14085
1.7381384
15.951819
-9.774895
-18.06846
-15.867188
3.4923224
11.63985
18.068323
17.257254
-3.176732
-0.5311381
-4.796186
13.194287
21.81638
12.891274
-7.5150256
21.171604
-7.57995
-17.21349
23.393164
-7.9239655
-15.309085
7.080685
-0.46108776
-16.44738
5.0264754
-1.2016909
5.4634867
6.2261715
8.033817
-0.61931217
-9.641596
-2.570735
-24.441051
9.140825
-13.880279
8.121061
-13.799242
-3.7025778
0.43784678
-3.528693
1.5960681
18.231892
-12.480776
13.732038
-1.8078324
8.164936
-11.2656
8.0455065
2.7248502
19.803978
14.477916
12.534314
-17.505165
1.4728817
16.810234
9.1488905
18.656448
-2.2769933
-15.7699
-10.873125
16.787722
15.619009
27.456541
-0.69890004
-5.2016406
-11.477236
-11.674803
-11.196395
3.6674662
-11.948889
-17.469973
-5.9196153
12.431552
13.558247
-7.0992994
0.5068197
8.191011
-15.316446
-1.8277124
6.0378056
-9.097486
-12.688184
5.732596
12.606283
9.342035
-5.4314375
20.76706
4.5067625
-5.895669
3.233529
6.169316
9.164122
10.026407
5.882331
-4.0119963
3.1465495
-4.1910086
20.737234
-18.11585
5.0038342
-17.827915
-1.702648
-2.3536227
-16.481504
-2.7558951
-1.8335476
0.62350976
13.865934
6.9400144
0.34226504
-1.0306357
-18.507683
5.0601993
24.417303
0.66056484
6.378048
0.06987723
0.21264043
-4.1465726
-15.6082
-6.562954
-9.679665
25.154121
-2.7750652
-12.593508
-6.5289006
-17.943123
1.7101254
14.155031
-9.210523
-17.302937
-14.15621
2.2876606
10.634448
16.790981
15.543392
-1.863735
-0.055051446
-4.521127
12.405288
20.19423
10.653237
-6.5613284
18.97225
-6.158457
-16.182516
22.067974
-7.679267
-15.131143
6.61551
0.33659688
-14.96024
5.2194605
-1.6416569
5.047865
5.3661227
7.383279
-0.66657466
-9.401337
-2.2105863
-21.981005
9.328212
-12.738964
8.151713
-12.689078
-3.0461583
0.37888902
-1.5670607
1.4488418
17.398296
-11.938121
12.533
-1.2875632
7.010338
-10.680954
6.5926037
2.4480066
17.78146
13.829095
10.833973
-15.776739
0.67946947
15.34375
8.03318
18.36657
-1.8870224
-14.808581
-10.312694
15.503033
14.913023
26.041994
-0.43863997
-4.823332
-10.665497
-11.357586
-9.709087
3.0697234
-11.772717
-15.7947855
-6.6404614
11.192649
12.300839
-6.275331
0.85540545
7.3540063
-14.238936
-1.2695342
6.0462074
-8.710236
-11.881811
5.8229804
12.330921
7.8622727
-4.891118
19.466988
4.1509657
-5.8918767
3.588181
6.004929
8.609056
8.735472
4.9517255
-3.9038615
2.486005
-3.1589644
18.971306
-16.881424
4.642597
-19.864029
-2.0845277
-2.6979678
-18.357122
-1.8222342
-2.641901
0.0060137957
16.20993
8.529409
1.0378942
-0.4462657
-20.356659
5.056903
26.29115
0.50828004
7.6427193
-0.39364964
0.82141536
-3.5096865
-16.9338
-6.5447116
-11.0138
27.519249
-3.0156848
-13.861791
-6.2069144
-19.755411
1.7852588
16.594645
-9.785492
-18.98494
-15.840709
2.6911976
10.787147
17.33946
17.645506
-2.7275114
-0.15081218
-5.473415
13.916823
22.101194
12.570518
-8.752301
20.661875
-6.99237
-17.72801
24.79573
-7.6401315
-16.03242
6.4806814
0.590575
-16.864208
5.36259
-0.7872309
5.254571
5.8512483
8.771758
-0.8757414
-10.856041
-2.3744543
-24.354074
9.010047
-14.231672
7.8272715
-13.881896
-3.0871098
0.5742553
-2.1927807
0.71658885
18.193022
-13.15914
14.041353
-2.2514696
7.7427106
-12.311137
7.407167
2.6016042
18.740776
14.785512
12.554712
-17.310099
0.7571859
16.836817
9.743626
19.063696
-2.0898383
-16.651558
-11.023108
17.213863
15.591097
28.485552
-0.692399
-5.464639
-10.900582
-11.13707
-10.959949
4.0188713
-12.391838
-18.104183
-6.8457613
13.05986
13.805093
-7.337243
1.1760554
8.973189
-14.726155
-2.4198816
6.2666807
-8.88667
-12.983302
6.503542
13.252656
8.571054
-5.670356
20.68076
4.6136913
-6.5364723
2.9944954
6.947644
9.397544
8.775704
7.10265
-3.78941
2.6138837
-4.47557
21.40603
-18.189018
3.736833
-16.126278
-2.3377998
-2.4533017
-15.074035
-2.164012
-2.0936303
0.3977996
12.463396
6.8636413
0.2658934
-1.2252625
-17.338987
4.731068
22.83312
1.2131808
6.4259057
-0.56557846
1.203302
-3.5484877
-14.240638
-5.0390716
-8.158189
21.844599
-2.3123682
-11.062313
-5.975186
-15.856403
1.6619147
12.981787
-8.438831
-15.529015
-13.410809
3.283546
9.794666
15.59269
14.6167
-2.593321
-0.48260486
-4.644675
10.772576
18.3558
10.154747
-6.238678
17.559553
-6.3187437
-14.112352
19.698614
-6.6711626
-12.63359
5.2302084
0.13151726
-14.536478
4.61819
-0.22370416
4.3187866
5.1950426
6.6279116
-1.5233815
-9.34849
-1.8556676
-21.143068
7.7745667
-12.516755
6.998563
-11.411756
-2.5452387
0.34181884
-1.5079405
1.018883
14.479202
-11.911825
11.90531
-1.2955016
7.041235
-10.1665945
6.201666
2.1491714
16.62111
12.360003
10.689037
-14.193083
0.46408916
14.3878145
7.228716
16.212492
-1.7618356
-13.748325
-9.323323
14.238228
13.084171
23.441193
-0.3011527
-4.391388
-9.9004755
-10.007824
-9.086583
3.6495357
-11.355157
-15.310032
-5.1634135
10.922957
11.397374
-6.329729
0.69775873
7.1072893
-12.504867
-1.9027596
5.1915607
-7.3939867
-11.321173
5.1666074
11.342745
7.2091303
-4.1408625
17.14573
4.560964
-4.919815
2.9399133
5.392332
8.114622
7.7474585
4.864487
-2.7081058
1.9652371
-3.099919
17.059885
-14.93634
4.753724
-20.444302
-2.5002832
-3.4637592
-18.455324
-2.0852585
-2.2990515
-0.34622526
16.139566
8.234559
1.4131687
-1.7003887
-20.938444
5.4648743
27.555183
0.81753695
7.039481
-1.1971308
0.7926908
-5.0600095
-18.172373
-6.0712347
-11.774298
28.33028
-3.9336646
-13.993595
-5.7889667
-19.183088
1.2655172
16.01508
-9.454698
-18.656902
-16.354826
2.5285938
12.62884
17.422525
18.178087
-2.828507
0.21439455
-5.9750967
13.966814
22.496735
12.059721
-8.634063
21.30865
-6.494602
-18.822268
23.505049
-8.683747
-15.986702
7.459892
0.416323
-16.214674
6.224754
-0.86253625
5.2036715
6.661366
8.823443
-0.5197122
-11.874434
-2.1170776
-25.693039
9.405354
-14.328999
7.8482437
-14.04235
-3.500265
-0.18784352
-2.793893
1.8250974
18.582663
-13.304975
14.186853
-1.9788942
7.3007746
-11.654666
7.514987
2.9195895
19.407661
15.455613
12.355552
-17.417166
0.48309213
18.023062
9.004469
20.014946
-1.5419235
-17.060516
-11.190317
17.433899
16.34706
29.328571
0.15894124
-5.802219
-11.407281
-12.322234
-11.47
3.822382
-12.488863
-18.836086
-7.2853956
13.211875
14.771651
-7.173506
0.48942864
9.086604
-15.286371
-1.8403523
6.8737373
-9.2000675
-13.145314
6.2361093
13.417035
7.9207726
-5.3368907
21.954475
5.178229
-6.9002924
3.7102537
6.922803
9.281583
8.735139
5.764613
-3.9652545
3.3222432
-3.751879
20.220036
-19.443874
3.271832
-18.467722
-2.2217007
-2.9354277
-16.836468
-2.1439698
-3.225383
0.6019751
15.427814
8.06265
0.8816571
-0.49272457
-19.248926
4.918643
24.916456
0.4832965
7.274616
-1.0356998
1.2310526
-3.6376314
-16.03017
-7.027858
-10.283961
26.116043
-4.1877813
-12.724034
-5.183666
-17.97575
1.1454242
14.933046
-8.164211
-17.5242
-15.333926
2.375701
11.736236
16.820148
16.499968
-2.3638396
-0.5012961
-5.2011547
12.0030365
20.389107
11.785947
-7.130358
20.429237
-5.9730706
-16.411407
22.181547
-7.4805403
-14.633742
5.875732
0.32814878
-15.420882
5.0931273
-0.80846256
6.0665107
5.870329
8.055065
-0.35288796
-11.1071825
-2.2066255
-22.1904
8.773432
-12.728933
7.3445277
-13.379568
-2.5393457
-0.040918715
-1.8246996
0.44630194
17.257206
-11.812014
12.521001
-1.2669641
7.369612
-10.929332
7.2134633
4.039408
18.393538
13.211889
10.755161
-16.033459
-0.073015146
16.72009
9.328431
18.183338
-1.1505746
-15.92331
-10.861901
15.8481
14.613957
26.404587
-0.5162946
-4.8113065
-10.556055
-11.108719
-10.552644
3.834747
-11.470215
-16.410141
-5.5556154
12.230737
12.940208
-5.813079
0.63302386
7.8339324
-14.841535
-2.1658158
5.322193
-8.516565
-11.951971
5.710654
12.988439
7.6463933
-6.0228205
20.165552
4.6907263
-6.3774085
3.0270925
6.6850333
8.3609915
8.040175
6.592075
-3.082649
3.1662533
-3.538575
18.837605
-18.31828
2.8861835
-16.656305
-2.0576813
-2.0636206
-15.312844
-2.5049825
-2.0108008
-0.7645302
14.625103
6.9052615
0.8091738
-0.33528167
-17.600668
3.5803447
21.780499
-0.033378795
5.8999557
-0.92523825
-0.078427926
-3.7380161
-14.765376
-4.5374384
-10.200743
22.854898
-3.112176
-10.933114
-5.0612698
-16.501116
1.0154619
13.429082
-7.566805
-15.30115
-13.802461
2.5935888
9.953063
14.378217
14.859921
-2.8964658
0.9139959
-4.5344
11.287518
18.535967
10.524546
-8.001764
17.309412
-5.452126
-15.264081
20.070215
-7.201609
-13.521788
5.8139915
0.7882046
-13.417623
4.1957154
-0.5258108
5.448242
5.7872934
7.4192924
-1.0554602
-9.409069
-1.8885163
-19.169178
7.3252
-11.824541
6.546084
-11.555977
-2.7229278
-0.2284026
-1.9158189
-0.43084848
16.396852
-10.396186
11.050934
-2.2826705
6.290393
-9.789733
6.7979164
3.7764006
15.5741
12.182627
10.051111
-14.57225
0.0025681257
14.343599
8.623757
16.07324
-1.5992713
-14.35622
-9.258599
14.703549
13.167653
24.437103
-1.5975726
-4.67957
-9.719819
-9.562101
-9.127178
2.9005425
-9.9301605
-15.517331
-5.3240643
11.572798
11.424638
-5.62535
1.1326172
7.345613
-13.376761
-2.3756962
4.1681767
-7.234623
-10.799096
5.304663
11.198291
6.478109
-5.46326
18.080315
4.482866
-5.608086
2.681429
6.287181
7.83825
6.9810176
5.5210347
-2.7801938
3.5257506
-4.026641
17.08309
-16.239908
4.891633
-20.323965
-2.2595074
-3.4072864
-17.918716
-2.8067865
-2.34842
0.73903906
16.122616
8.17095
0.90079033
-1.7123754
-20.519257
5.0571904
26.755154
0.41594872
7.7925177
-0.4065501
1.2996199
-4.0544496
-18.295183
-7.630776
-11.155619
27.812342
-2.405581
-14.713418
-6.000244
-20.178507
1.2607281
16.797888
-9.535188
-20.033678
-16.791224
3.2246547
12.410808
18.9124
18.546865
-2.4638796
-0.7849872
-4.7249537
14.147236
22.726183
12.356161
-7.144923
22.2856
-7.5907335
-18.709156
23.990492
-8.673444
-16.620485
7.2675543
-0.6956073
-17.200964
5.608691
-1.8067892
5.515203
6.0940146
9.091969
-1.1173671
-10.663737
-2.7623055
-25.49955
10.188678
-15.269134
8.734253
-14.703082
-3.5409088
0.27900434
-2.151652
1.7251388
19.42644
-12.960881
14.4428
-1.4989122
7.731354
-11.639982
7.5624733
3.6550574
19.938158
15.013786
12.630212
-17.277046
1.5021936
18.47637
9.386602
20.737055
-2.4296408
-16.640514
-10.818441
17.115498
17.28567
29.67651
-0.6695372
-5.120248
-12.003533
-12.808298
-11.945481
3.585255
-13.053541
-18.85614
-6.1378593
13.644437
15.0131
-7.5530486
0.9958766
8.614639
-16.528765
-1.9137712
6.8373437
-9.143087
-12.941613
5.622363
14.204153
9.113932
-6.40587
21.828344
4.995717
-6.4015117
3.8672535
6.501411
10.015639
9.712729
5.459591
-3.8356318
3.840923
-5.1267624
20.785227
-18.92732
5.3160143
-20.35793
-2.1332784
-4.216375
-18.356314
-1.9785744
-2.1803648
0.4872989
15.44484
9.007255
0.7402961
-0.9175591
-20.461685
5.972299
26.7166
0.24602386
8.129659
-1.4925108
1.4204248
-3.8235111
-18.429596
-7.4649205
-11.022198
28.301659
-2.794453
-14.367943
-6.1738224
-19.719051
1.8537055
16.011604
-9.608818
-19.695526
-15.270963
2.2951171
12.283974
18.805094
17.482164
-2.3676965
-0.8204975
-5.678804
13.703395
22.661362
12.201941
-6.9552274
21.031713
-6.713532
-17.243063
24.140625
-7.4549456
-15.443603
6.747335
0.076826245
-16.752584
5.2835555
-1.342073
5.3838205
6.185601
8.880166
-0.28900683
-11.792325
-3.3442361
-24.99684
9.967836
-14.817839
7.8352985
-14.5059185
-4.147789
0.31504613
-1.7190235
1.5620651
17.372185
-12.3383875
13.027368
-1.3472189
7.8200774
-12.460687
7.4556417
1.915926
18.380909
14.950998
11.7827
-17.798021
0.8510836
17.963879
9.456518
19.253288
-1.6933023
-16.16827
-11.075541
16.289442
16.365622
28.36561
-0.14799842
-5.934827
-11.660291
-11.941131
-10.890162
3.186376
-11.770178
-17.636562
-6.9122734
13.645382
14.880149
-7.11792
1.3735144
8.528866
-15.429594
-2.3721638
6.314144
-9.013924
-13.404196
5.9044404
13.563037
8.57516
-5.893515
20.810356
5.630488
-6.3361907
3.4878964
6.384597
9.194527
9.680254
5.5234184
-4.3016257
2.5522628
-4.9385796
20.17273
-17.937414
4.3699193
-17.999165
-2.307761
-2.6719816
-16.134787
-2.5632546
-1.8209925
0.31121078
14.608657
7.568502
0.52763116
-1.2523485
-18.349667
4.447312
23.814669
-0.09568864
6.984653
-0.7286271
1.1557763
-3.1458485
-16.108032
-6.2149606
-9.903622
24.540314
-2.071869
-13.321711
-6.045973
-17.696608
1.1323563
15.59262
-8.367385
-17.48841
-13.853077
3.246786
11.39462
16.374222
16.100363
-2.9618337
-1.0801697
-4.755279
12.581309
20.315083
10.633085
-7.3891563
18.839594
-7.06376
-16.239967
21.776852
-8.05822
-14.061212
6.0127683
-0.2273787
-14.945289
4.8574014
-1.5416472
4.96244
5.305318
8.427809
-1.1050886
-9.597387
-2.2382689
-22.405752
9.408351
-12.806413
7.4923844
-13.338523
-3.3183272
-0.06177225
-1.7240554
1.6933104
17.051754
-11.157113
12.026799
-1.2381402
7.0048094
-10.574151
6.8841515
2.3956888
16.784777
13.352306
11.564494
-16.38458
1.2096286
16.128595
9.736172
17.492413
-2.4785116
-15.224111
-10.263755
15.218973
13.497274
25.720537
-0.8924508
-4.889282
-10.368518
-10.29887
-10.962698
3.7850754
-10.993037
-16.233744
-5.680598
11.829336
12.992221
-6.8967695
1.5040808
8.036596
-13.630969
-2.5608685
5.5768166
-7.392022
-11.829901
5.865482
12.011785
7.9896092
-5.5348907
19.277912
4.2750154
-6.023139
3.2480674
5.3054376
8.564428
8.359985
5.677064
-3.9985733
3.0107036
-4.052182
18.766497
-17.3507
4.109855
-21.856163
-3.401805
-3.0801303
-19.901047
-3.104025
-3.3121216
0.4207577
17.666775
8.776147
0.6747053
-1.212423
-22.588306
5.412502
28.962326
0.49015743
9.387787
-1.3388205
0.89720714
-4.5391793
-19.28466
-7.194839
-11.913007
30.730322
-2.5750782
-15.458118
-6.6915903
-21.788256
1.2658
17.393324
-10.506394
-20.959944
-16.651289
3.4192803
12.620374
20.46056
20.11355
-2.8751388
0.0679311
-5.927743
14.431403
24.489704
13.673963
-8.815921
22.635344
-7.6524096
-20.367418
26.302794
-9.028476
-17.094833
6.3824177
0.31457472
-19.138042
6.2227407
-1.310634
5.81124
7.0437627
10.701391
-1.9200255
-12.059595
-1.7293743
-26.63668
10.349679
-16.64071
8.805821
-15.68841
-3.7252004
0.8314601
-2.5027456
0.7217411
20.186031
-14.469153
14.920658
-2.1098883
8.652234
-13.979355
8.134177
3.6314225
21.201633
16.249216
13.25102
-18.43378
0.5910769
19.157349
10.516271
21.236736
-1.8811234
-19.39419
-12.896607
19.397373
16.683977
31.653845
-0.5517698
-5.6855206
-12.53641
-13.173953
-12.050051
4.0734873
-13.916048
-20.866785
-7.2087793
15.153621
15.659409
-8.628986
1.8812397
9.842097
-16.95447
-2.665484
6.496749
-9.604722
-14.281778
7.524123
15.117865
9.540142
-6.059134
23.272894
6.1525373
-7.105026
3.8021715
7.5291553
10.325088
9.515313
6.9533324
-4.082883
3.496519
-5.476927
22.988777
-20.176054
5.090318
-20.444542
-2.6921656
-3.135908
-18.099567
-2.2085319
-3.2689028
0.07185745
16.015633
9.07473
0.7503174
-1.3807884
-20.941141
5.370712
26.738655
1.0509851
8.324225
-1.532442
1.3581799
-4.312629
-17.68143
-7.606758
-10.920548
28.081003
-3.9716423
-14.223068
-5.802778
-18.95296
1.5401222
15.830097
-9.556323
-19.621292
-16.293245
3.0987384
11.1558
18.637276
18.245792
-2.3702195
-0.78389215
-4.912365
13.490189
22.83944
12.700356
-7.640125
22.08807
-7.1374025
-17.615898
23.761566
-7.545262
-15.662409
6.418909
-0.26318672
-17.30336
6.0864673
-0.49991724
4.9839325
7.0342593
8.809421
-0.5199862
-12.267197
-2.5103981
-24.618492
9.640575
-15.342749
8.527456
-14.150197
-3.1007175
0.7772536
-2.2503366
0.2924744
18.39498
-13.344832
14.316449
-1.9401704
8.761428
-12.0788555
7.8575044
3.5198524
19.112345
15.122921
12.510197
-18.000128
1.0831642
18.284246
10.474589
20.070654
-1.7961025
-16.637217
-11.141222
17.974678
16.24888
28.600693
-0.5867292
-5.502524
-12.289367
-12.710257
-11.048031
4.100281
-12.30609
-18.925562
-6.3800554
14.551856
15.444419
-7.0985937
0.69015443
8.835149
-15.765631
-1.9207119
6.11032
-9.870404
-13.055644
6.654455
13.403577
8.128751
-5.0744185
21.822329
5.1740384
-6.214552
2.8676565
7.1165757
10.113369
8.375842
5.9174094
-3.4233665
3.4013267
-4.355209
20.16817
-18.729656
4.5095367
-20.451046
-1.6699818
-3.3649735
-17.969673
-3.1646457
-2.1251788
0.23410334
15.286737
7.49774
1.4685425
-1.3932782
-19.88625
5.311203
25.740131
1.1454093
7.1159363
-0.7601079
0.95975614
-4.8857856
-17.269167
-6.8522325
-10.621005
27.983149
-2.7949054
-13.472037
-6.394122
-20.113277
1.4350559
16.590912
-9.000688
-19.37579
-16.248316
3.5651436
11.897723
17.98176
18.023571
-2.8484313
-0.68835294
-5.24565
13.483381
21.856228
11.818932
-6.9446187
21.093122
-6.983992
-17.911879
22.756618
-8.030696
-15.682081
6.8287616
-0.61366427
-16.8506
5.7799273
-1.0522702
5.2311616
5.8104515
8.311087
-0.21003269
-11.558729
-2.8790102
-24.880617
9.294502
-14.658195
8.166304
-13.678535
-3.8545077
0.34497693
-2.1528096
1.9127517
18.176025
-12.499877
13.283139
-1.9720092
7.632332
-11.398452
7.9036255
2.5439718
18.859238
15.2277
12.565829
-16.794836
1.2279739
17.758213
9.608284
20.066229
-2.1513798
-16.030678
-11.1064005
17.273924
15.805229
27.722708
0.26673144
-5.027594
-11.706668
-12.000184
-11.345972
3.5026941
-12.140622
-18.370625
-6.164697
12.516714
14.309256
-7.094855
1.334264
8.228952
-15.683314
-2.2683625
6.9471607
-8.594578
-12.119135
5.8785615
13.102181
8.715057
-5.7194114
20.589268
4.8794565
-6.2626095
3.1576927
6.326407
9.077224
8.9082155
5.491998
-3.9865227
3.3788662
-3.8347206
19.497688
-18.214853
3.3881133
-18.970354
-1.3391486
-1.4758108
-16.095596
-3.2439039
-2.1776867
-0.07861065
15.667156
8.2639675
0.92227066
-0.12782939
-20.660076
5.344211
24.986675
0.13391282
6.6603637
-0.64372766
1.0817311
-3.8855374
-16.679478
-7.207529
-9.749676
26.237103
-3.2942677
-12.943803
-4.965299
-18.532566
0.78643894
15.606626
-8.08833
-17.885496
-15.09273
1.479018
10.485191
17.513943
16.394163
-2.1411068
0.08376685
-3.7675471
13.546813
21.134502
10.977799
-7.3193
20.463942
-6.6178565
-16.97026
22.643974
-7.6303167
-15.147664
6.2274766
0.6281476
-15.780464
4.7708225
-0.8592301
5.780237
6.0544925
8.416735
-0.692508
-10.50894
-2.368989
-22.436476
8.698142
-12.855759
6.9872794
-13.868924
-3.276823
-0.08190284
-2.422421
-0.17386326
18.059587
-11.240101
12.274131
-1.4430441
7.3925624
-11.109679
7.9133
3.6661866
17.264954
13.399913
10.27015
-17.09376
0.50302213
16.598774
9.343903
18.731722
-2.426012
-15.2427635
-10.6068735
15.937636
15.149418
27.391827
-1.7793416
-4.6758113
-11.978549
-10.947803
-10.561358
3.0814815
-10.395119
-15.848041
-5.935838
12.598549
13.657943
-7.5441604
0.28747335
7.982636
-15.037642
-0.8951834
5.1002097
-9.150312
-12.170992
5.7765913
12.638162
9.117132
-6.318816
20.666653
3.971662
-6.5770445
3.7120407
6.316022
9.705826
8.829102
5.5342474
-3.9517453
2.6761618
-4.0732
19.712614
-17.833633
3.602902
-18.342203
-1.4605033
-3.1836655
-16.751928
-2.3807971
-3.135228
0.6442846
15.006756
7.0666666
0.8723033
-0.89233446
-20.142675
4.617512
25.345402
0.91859615
7.0572767
-1.2912349
1.2662959
-4.1659064
-16.342218
-6.3924623
-10.601955
26.237576
-2.9746556
-13.306933
-5.445098
-18.154387
1.4697585
15.044701
-9.221476
-17.56411
-15.232042
2.1021624
10.759301
16.607635
16.451769
-3.4426365
-0.1422148
-5.2918854
12.022078
20.463755
12.233746
-6.982937
19.913736
-6.950856
-16.517715
22.043772
-7.117802
-15.4063015
6.5029244
0.5964264
-16.096498
4.7288003
-0.4268764
5.8120832
6.8357396
8.146438
-1.0612026
-10.146211
-1.7961278
-22.85689
8.699802
-12.86781
7.2009826
-13.168375
-3.2802947
0.023799155
-2.3911643
2.3091865
16.27004
-12.03834
12.9698
-1.4405175
7.7959933
-11.071487
7.271891
2.9966347
19.214226
14.422214
10.699619
-16.119925
-0.13820234
16.928993
7.9636846
18.168936
-1.6702974
-15.221294
-10.905211
16.010826
15.707098
26.06893
-0.13632603
-4.8892527
-11.232893
-11.160706
-10.5940695
4.0742693
-11.242724
-17.322336
-6.090363
11.74633
13.037968
-6.3606505
0.597503
7.6664233
-14.218066
-1.514813
5.4609303
-9.081271
-12.123617
6.1495624
12.148564
8.446463
-5.33723
19.839115
3.9572742
-6.356574
3.4680717
6.151707
9.053043
8.624304
5.7116194
-3.7576025
3.161409
-3.722468
19.695627
-17.932066
4.003221
-18.848387
-2.6882591
-2.9332676
-17.039295
-2.7332077
-1.9124181
0.13516748
14.083129
7.8673167
1.373791
-0.70355827
-18.660719
4.688828
24.77339
0.70557356
6.8996615
-1.6075959
0.6108227
-4.0797153
-16.57259
-5.553227
-10.044975
25.72142
-3.368234
-12.259799
-5.222833
-18.136782
1.1004435
15.058547
-8.200895
-17.385302
-15.440966
3.2051575
11.184575
16.59973
17.214262
-2.8173215
0.36808836
-5.080375
12.873604
20.640133
10.995563
-7.792557
19.623102
-6.272436
-17.071115
21.326809
-7.9768863
-14.113485
5.4643993
-0.40922865
-15.414223
5.442326
-1.0983286
5.1066513
5.989443
8.156462
-0.72805345
-10.425957
-1.564456
-23.284792
8.465151
-14.0913105
6.5323772
-12.698091
-3.2881646
0.35556653
-3.01481
0.72935516
17.780657
-11.449972
12.683692
-1.1219747
6.8441043
-10.906633
7.4450207
2.9572985
18.051016
13.867306
11.574388
-16.01387
0.83919847
16.68006
8.781927
18.069126
-1.8737426
-16.11663
-10.261117
16.626923
14.890135
26.690388
-0.23209631
-4.5818033
-10.375868
-10.882231
-9.952957
2.5875323
-11.009995
-16.709723
-6.1396866
11.823723
13.200706
-6.998352
0.1793043
8.163602
-14.3804
-1.9609625
5.543277
-7.7716284
-11.361441
6.2294745
12.717838
7.771402
-5.6174054
19.564665
4.304978
-6.1078124
3.324072
6.0862894
7.93701
7.762968
5.3045187
-3.5694053
3.0428405
-4.4946284
18.636703
-17.319422
4.5213737
-22.680248
-2.722631
-4.0474477
-20.589767
-3.3058946
-3.3255415
-0.11261143
17.46691
9.558709
0.9196882
-1.2680384
-23.407217
6.9476542
30.886103
2.1920283
8.103494
-1.4350901
2.0342321
-4.3346925
-20.840258
-7.4310966
-11.9933405
30.837587
-4.3218923
-15.639629
-6.9636264
-21.99225
1.4823714
18.047266
-10.97066
-21.585798
-18.592714
3.8196878
14.00286
20.298237
20.521603
-3.3587675
-1.3697581
-6.0906096
14.9623785
24.600935
13.977775
-8.526757
24.360369
-8.505776
-20.377676
26.437002
-8.599351
-17.6075
7.3844495
0.51372945
-19.510714
6.133079
-1.0461426
6.6914783
7.4969287
8.957613
-1.5534043
-13.331144
-3.199378
-28.108774
10.471159
-16.709106
9.171028
-16.007113
-3.997853
1.0846257
-3.0007513
1.7400129
20.662197
-14.440982
16.03505
-1.8222178
9.238372
-13.439
9.171371
3.9515011
22.399847
16.410938
13.662987
-19.91757
0.2644193
20.176888
10.421894
22.58364
-1.6890306
-19.250118
-12.86501
19.503431
18.629944
32.474277
-0.34735718
-5.26966
-13.407207
-13.425974
-12.527811
3.6511626
-13.731891
-20.14025
-6.0622306
15.270673
16.166248
-8.422416
0.16111082
9.395974
-17.974468
-2.651936
7.07388
-10.128749
-14.093577
6.0846953
15.300789
9.347723
-8.022928
24.393042
5.9126616
-6.790747
5.379499
7.8481975
10.628775
9.7862835
6.5028157
-4.229947
4.0787344
-4.880977
21.44888
-21.879017
4.748026
-18.823318
-2.1811576
-3.2128859
-16.385942
-3.0149329
-2.3347952
0.43920574
14.731869
8.459967
1.3617861
-1.0557876
-19.437878
4.767063
24.846455
0.3299371
7.402056
-2.1701581
0.009508253
-4.5214686
-17.010979
-6.6552625
-10.4340515
26.10514
-2.9542658
-12.7980795
-5.789912
-18.32721
1.2085161
15.010261
-8.227023
-17.992857
-14.6760025
2.7190666
11.506235
16.981585
17.200338
-2.768691
-0.039167166
-4.7586813
12.301127
21.329771
11.602865
-7.3981752
19.97536
-6.7903023
-16.903818
21.767525
-8.021131
-14.844175
5.551016
-0.8459907
-16.453943
5.2939534
-0.2972831
5.166261
6.0360885
8.684806
-0.6285711
-11.007345
-1.639392
-23.052542
8.781799
-14.279577
7.55897
-13.460258
-3.6781304
0.17368287
-2.7919526
0.79638654
17.42059
-11.402947
13.523455
-1.8546939
7.7822394
-12.10594
7.814601
2.3836646
18.451056
14.309805
11.743615
-16.96879
0.041879892
17.386673
8.985454
18.077267
-1.8582447
-15.954793
-10.07366
17.271917
14.802184
27.602434
-0.8133262
-4.53
-11.302195
-10.7021
-10.704611
3.1660323
-10.828735
-16.68489
-6.177584
13.103655
13.783794
-7.5611353
1.1603949
8.697493
-14.202491
-2.0464654
5.439913
-8.881064
-11.811003
6.84859
12.199002
8.057121
-4.9004927
20.151201
3.7684958
-5.8001637
4.08511
5.7766175
8.946692
8.15742
5.3204007
-3.5674064
2.5378013
-4.3146214
20.010326
-17.53901
5.0097528
-21.984192
-1.7557323
-2.766729
-19.337719
-2.3118908
-3.3538237
0.37220013
17.307938
8.473813
0.76769286
-0.95592606
-21.90291
5.4934835
28.25733
1.2945522
7.532044
0.5328611
1.4841826
-3.8625152
-18.59572
-8.126715
-11.427933
28.307064
-3.1741533
-15.384029
-6.6002536
-20.09617
1.6841364
17.376421
-10.34989
-19.827557
-17.421135
3.021046
13.20975
19.26718
18.3842
-3.139983
-0.84697235
-5.516549
14.93716
23.101349
12.637747
-8.439399
22.314354
-7.842011
-18.767591
24.862925
-8.974833
-16.293848
6.7790637
0.6531358
-17.953407
5.9374204
-1.6721678
6.1273446
5.8830905
8.363495
-1.0625021
-11.490668
-3.0681767
-26.530172
10.032487
-15.091099
8.793601
-15.053217
-4.8526783
0.3512205
-2.5159106
1.5622084
19.930891
-13.3886
14.140512
-1.056742
7.9891524
-12.857011
8.093359
2.9491978
20.250858
15.574781
12.499432
-18.093374
1.3162515
18.074858
9.919043
20.992004
-2.1628044
-17.512016
-11.85272
18.050837
16.599197
29.763857
-0.27984113
-5.1893816
-12.132565
-11.91448
-11.821779
3.5806863
-13.503564
-19.181694
-6.3577867
13.46786
14.998774
-7.859246
1.1990774
9.038983
-16.133917
-1.6417911
6.6098194
-9.568642
-13.096847
6.6755724
13.934653
9.603902
-5.9598856
22.308552
5.593956
-6.7457137
3.467506
6.45259
9.604607
9.833186
6.072052
-4.230927
2.9887574
-3.4718719
21.61475
-20.206966
4.2634597
-20.699223
-1.841684
-2.414318
-18.202963
-2.5682106
-2.6993892
0.06377321
16.66957
8.254957
0.99644274
-0.6599351
-21.033438
5.3882966
26.967964
0.9418889
7.6510644
-0.36685798
-0.086458996
-5.013308
-17.652843
-7.300839
-11.640007
28.324274
-3.8045073
-14.28891
-6.667519
-19.807999
1.5208304
16.119139
-9.030704
-19.503185
-16.524334
2.1713765
11.934256
18.415722
18.292374
-2.62382
0.49427137
-4.9681835
13.4277
22.486792
12.68631
-7.7308154
21.749083
-7.5222697
-18.707811
24.433388
-8.254121
-16.18108
5.9390926
0.1618468
-17.626389
6.136209
-1.2169011
5.592424
6.648423
8.169576
-1.3529934
-11.079251
-2.4591823
-24.419607
10.364117
-14.740009
8.89693
-13.954262
-3.106016
0.37338153
-2.2153864
0.24379605
19.41549
-13.212291
14.300016
-2.5529394
7.521113
-12.297508
8.16263
3.813114
19.395357
14.720807
12.024729
-17.45041
0.71026707
18.335197
9.85659
20.625713
-1.9250063
-16.348852
-10.701663
17.954182
17.103014
29.954163
-0.81340957
-5.241656
-12.101065
-12.450158
-11.139976
3.7177126
-12.183074
-18.777998
-6.21399
13.497341
14.963399
-7.333602
1.1316292
8.769965
-15.86056
-1.7762995
6.476478
-10.210534
-12.878522
6.796971
13.060554
8.748046
-6.324329
21.8122
3.9586153
-7.0718427
4.7778563
7.262079
9.698068
8.563032
5.8622823
-4.1642895
3.4376752
-4.1418266
20.472301
-19.299702
4.607457
-19.400421
-3.0553453
-3.136052
-17.457825
-1.9151703
-2.2619255
0.66300666
14.407963
8.081777
0.38432252
-1.6883668
-18.92944
5.0108824
25.433159
1.0047597
7.532973
-1.7641206
1.5838635
-4.1942787
-16.564398
-5.9242105
-10.735239
26.448395
-2.8440778
-12.943184
-5.93914
-18.304317
1.6698415
14.791459
-8.416121
-18.256718
-15.552791
3.8287687
11.520263
16.78651
17.82179
-2.4568682
-0.4815225
-5.1308255
12.655867
20.874954
11.939231
-8.193125
20.3429
-6.5208874
-17.21485
22.350183
-7.716273
-14.854697
6.1809163
-0.02201563
-15.809423
5.834844
-0.8362761
5.274126
6.918512
8.115867
-1.1397431
-11.134431
-2.3608465
-23.644516
9.295051
-14.8725605
7.4275475
-12.567453
-3.1697206
0.88180196
-2.0479217
0.9855193
17.131721
-12.668052
13.797091
-2.1157992
7.077021
-11.608305
6.801071
3.3994565
18.13328
13.912533
11.571874
-15.990176
1.6064484
17.297709
9.109629
18.723738
-2.1694553
-16.313421
-10.280404
16.696411
15.548086
27.662445
-0.12713839
-6.0426936
-11.038146
-11.589417
-10.215989
3.6998203
-11.812647
-17.7691
-5.836841
13.185352
13.879585
-5.8968983
0.5993871
7.9101987
-15.17019
-2.6509192
6.139642
-8.537475
-12.365348
5.9847784
12.957444
7.570895
-5.7504525
19.925304
5.0549164
-5.5891123
3.1531978
6.149629
8.256102
7.972977
5.26425
-3.0905564
3.443817
-4.4738073
18.374844
-17.898716
4.9463434
-18.48307
-1.798414
-3.2707217
-16.968983
-2.9246907
-2.0311303
0.45558065
15.039418
7.8707576
1.0895029
-1.4818553
-18.6846
4.085946
24.944149
0.66081077
6.965637
-1.779629
1.3005542
-4.603434
-16.693577
-6.855079
-10.553172
25.60001
-3.2966409
-13.030355
-5.8316045
-18.49797
0.93334866
16.070292
-9.152912
-18.245
-14.957858
2.6006963
12.398923
17.657661
16.564016
-2.990673
-0.66650677
-5.315026
12.390066
21.412615
11.722578
-6.6240234
19.886452
-6.728695
-16.27146
21.429575
-7.4098635
-14.699968
6.2842107
-0.8584874
-15.609889
5.3667383
-1.3127991
5.5234337
5.1308446
8.428224
-0.48970518
-10.043683
-2.3702443
-23.290758
9.423653
-14.1971245
7.202573
-14.078902
-3.6917894
-0.38004166
-2.403
2.4463863
16.907879
-11.554608
12.507443
-0.59676397
7.6187696
-11.516272
7.7326035
2.5672896
19.105131
14.891756
11.64421
-16.606209
0.53831005
17.230803
8.431209
17.841675
-1.6530049
-15.431391
-11.0588665
16.270205
14.893494
27.097206
-0.48163265
-3.964638
-10.841991
-11.220128
-10.922186
3.1436622
-11.802929
-16.678772
-6.140845
11.523007
13.564816
-7.299634
0.8289646
7.749353
-14.526514
-2.2541795
5.8057942
-8.337336
-11.878953
5.531515
12.70065
8.812684
-5.9719653
20.712765
4.2535396
-6.0812316
3.5217092
5.9098654
8.892707
9.007273
5.7198606
-3.7945993
2.858595
-4.073432
19.07021
-17.617624
4.084006
-16.97908
-2.601893
-2.2521398
-15.639619
-2.6419668
-2.2690012
0.7715701
12.599365
7.954948
0.41577065
-0.6264231
-18.251928
4.614724
23.78188
1.2839953
6.7389884
-1.0515552
0.5191273
-4.1095295
-14.895419
-6.793597
-9.377932
24.14448
-3.1768882
-12.027442
-5.5198455
-17.774555
0.97660565
14.175231
-8.288505
-17.169256
-13.805629
2.4097579
10.022427
16.44526
15.40616
-2.5442998
-1.1258376
-4.4171925
11.492578
20.231255
10.876003
-6.1274376
18.56608
-6.6514926
-15.2631445
20.657436
-6.1900253
-13.707131
5.1683083
0.5771295
-15.071059
5.0460525
0.012029979
5.3705053
5.805376
7.2150745
-1.0869131
-9.954208
-2.0605047
-21.297256
8.583438
-12.611043
6.8988314
-12.698604
-3.2310426
0.40508813
-2.47258
0.5332606
15.66325
-10.871878
12.186445
-1.9603802
7.55183
-10.191147
6.7140136
2.2248247
17.05551
12.527765
10.590654
-15.764313
0.96053886
15.603422
8.68053
17.088287
-2.135436
-14.663615
-9.705018
15.649874
14.813994
24.912653
-0.08445976
-4.148334
-9.898008
-10.285623
-9.710154
3.4376194
-10.69228
-14.822683
-5.6340146
11.376079
11.651025
-6.1713586
0.9960649
7.360698
-13.972716
-1.0899441
5.983007
-8.078337
-11.546037
5.889899
11.659702
7.6534457
-5.4062843
19.06976
4.032705
-5.2738404
3.6603742
5.8184805
8.6271715
7.467611
5.19882
-2.897449
2.3050232
-3.6760914
17.232155
-16.321981
3.6081674
-17.387016
-2.1830146
-2.5905242
-15.911697
-2.6638687
-2.2716804
-0.45469207
13.381884
7.377756
0.793243
-1.0092958
-17.529255
4.993223
22.683878
1.2528498
6.4868207
-0.33424488
0.9139157
-4.2242694
-14.503256
-5.8790073
-8.810294
23.320127
-3.7260022
-12.104478
-5.7849593
-16.29907
1.4823756
14.228782
-7.97673
-17.314901
-14.049956
2.0603287
9.880718
15.193648
15.2905655
-3.0293317
-0.8994844
-4.626285
11.894497
18.541643
10.71654
-6.328151
18.686039
-5.579228
-15.293604
19.921953
-6.745891
-12.53143
6.022447
0.65159905
-14.424784
4.692005
-1.0430337
4.750022
5.8281746
7.1226964
-0.20884553
-9.852136
-2.6654286
-22.143196
8.102462
-12.319153
6.6276174
-11.823071
-3.2602935
-0.15607111
-2.9742148
0.71396506
15.252846
-10.458496
12.226662
-1.2888738
6.6273985
-9.866581
6.799271
2.476971
16.436779
12.715872
11.174218
-14.594528
0.870816
15.4637375
8.436044
16.874138
-1.5674952
-13.92458
-8.907408
15.322076
13.850058
25.134691
0.008823182
-4.4519515
-10.317944
-9.51746
-9.594631
3.4133742
-9.786928
-15.0489435
-6.2940125
11.055359
11.785513
-6.311604
0.17284746
7.2610307
-13.044118
-1.2485645
6.7223682
-7.921084
-11.105766
5.192848
11.107979
6.97197
-4.3581824
18.73562
3.5315006
-5.8506184
2.857315
5.849336
8.525587
7.4002485
5.0267644
-3.012272
1.9444385
-2.6659765
16.99469
-15.520088
3.5457625
-19.135319
-2.4430914
-2.4574232
-17.760206
-3.120524
-2.6896849
-0.27084702
15.624355
7.6528363
0.87568486
-1.214538
-19.777958
3.7935236
25.648373
0.07605609
7.395466
-0.71495426
0.5877708
-4.0372562
-16.633001
-6.335507
-11.3978195
26.014215
-2.4961493
-13.58757
-6.3172975
-18.863363
0.9893974
15.517795
-8.952237
-18.756472
-16.622799
2.516659
11.221428
16.969584
17.2458
-3.7428386
0.20489831
-5.0513077
12.882759
21.276392
12.42955
-8.268302
19.802658
-7.189489
-18.235905
23.087029
-8.271255
-14.330557
6.556924
1.1002994
-16.332844
5.210401
-1.193157
5.8893366
6.069705
8.517093
-1.55173
-10.420014
-2.1439052
-24.03281
9.069426
-14.01552
8.314974
-13.263932
-2.9365823
-0.03541314
-2.8104675
0.32706925
18.182314
-12.579766
13.334957
-2.4127617
7.305018
-10.954916
7.2833567
3.7063985
18.47091
14.018769
11.7967415
-16.460249
1.2832671
17.02121
8.975523
18.883348
-2.076916
-16.241737
-9.963941
17.311787
15.043817
28.552164
-0.8537816
-5.1328955
-11.00702
-11.630942
-10.966351
3.8194268
-11.902255
-18.55848
-6.3236637
12.766884
13.62613
-7.0924287
1.0090778
9.097343
-15.159602
-2.3361151
6.96073
-8.512856
-12.775462
6.6165137
12.607151
8.239882
-5.77491
21.252731
4.824583
-6.503924
3.664939
6.972249
9.128064
7.9419885
5.6679206
-3.7229176
3.6330202
-4.105729
19.85089
-17.979973
3.9676552
-20.859997
-2.8026524
-2.8151402
-18.948845
-2.389779
-2.6887498
0.31708091
17.491613
9.637612
0.858696
-0.37849432
-22.12488
5.0701637
27.869463
0.8330108
8.512668
-0.70200866
0.83735883
-4.268236
-18.35183
-6.5602994
-10.80948
29.408655
-3.5078006
-14.225372
-5.896212
-20.63507
1.4568639
16.995655
-10.31872
-19.796669
-17.033806
2.9258556
11.526277
18.914455
19.384886
-2.9215016
0.3202794
-5.6943197
13.6022005
23.773264
13.538597
-8.860407
22.414904
-7.459096
-18.887398
25.945436
-8.06803
-16.334414
6.6333303
0.27698755
-18.24466
5.649147
-0.34800348
5.776414
6.4962797
9.0205
-1.4709843
-11.467788
-2.5634263
-25.902937
10.177538
-16.038677
7.858883
-14.780233
-3.162943
0.8624568
-2.7817411
0.28787434
19.127428
-13.95047
14.277248
-1.8613169
7.484309
-12.6679125
7.8160534
3.3609893
19.863264
14.970906
12.114869
-18.208557
1.6498758
18.255629
10.344781
20.334324
-1.9810879
-17.987555
-11.197289
18.102808
17.007803
30.376709
-0.92757905
-5.8226075
-12.500412
-12.363325
-10.9803505
3.96513
-12.842385
-18.823189
-6.3358335
13.987874
14.747378
-7.812939
0.29169434
9.996796
-16.671686
-2.0313225
6.3995986
-9.799185
-13.014755
7.145119
14.357535
9.474732
-6.162074
22.532318
4.880439
-7.2723045
3.482976
7.054652
9.389939
8.994157
6.668327
-4.0316386
3.3187976
-5.333412
21.788456
-19.438078
4.158283
-20.850939
-2.4767208
-2.9679036
-18.464626
-3.4229836
-3.1308715
0.76619613
17.004604
8.438353
1.3992921
-1.8655832
-22.006502
5.202209
27.663582
0.4682242
8.055916
-0.6758635
1.2041742
-4.7138543
-18.264929
-7.2344794
-11.310414
29.504377
-3.6901727
-13.930822
-6.415225
-20.4873
1.2336385
16.777018
-9.063003
-19.461092
-17.05217
3.7023187
12.145355
19.439905
18.904747
-2.6318605
-0.54215187
-4.814798
15.218635
23.53234
13.12463
-9.021124
22.656013
-7.5116286
-19.636778
24.606663
-8.867493
-16.580032
7.182447
-0.47195333
-17.63319
5.9918303
-0.5288941
5.8320975
6.5760326
8.875749
-0.78342354
-12.503729
-2.3733292
-25.501371
9.361898
-15.29083
8.469371
-14.689654
-3.653663
0.12245307
-3.1370447
0.82917213
19.46178
-13.57578
14.670974
-2.0901968
7.6371436
-12.836546
8.368712
3.3085046
20.164627
15.813517
12.761326
-18.622692
1.1292887
18.36501
10.345326
21.620995
-2.3451242
-17.827799
-11.854852
18.066465
16.390858
29.874619
-0.3989966
-4.9675746
-12.738455
-12.473644
-11.699519
3.8133764
-13.148282
-19.479425
-6.7548237
14.398091
15.186534
-7.4003215
0.9057528
8.839802
-16.874151
-1.466184
6.6373014
-10.422957
-12.87752
6.7558646
13.576712
9.411588
-6.176657
22.685507
4.862343
-7.023342
3.4663227
6.6490827
9.641344
8.746057
5.983422
-3.6994529
3.2112417
-4.177318
21.64885
-19.682924
