2 256
1 256
26.446217
30.987543
-24.659418
-4.225059
11.427579
-31.13488
4.5737486
56.968735
-21.492666
29.946915
16.696781
6.8816338
35.560196
-3.947476
37.635834
-11.780489
66.88626
9.5036
-12.219772
-14.791799
75.98284
-6.259103
3.2231588
24.625301
-31.591635
-10.317787
-42.027115
7.6316757
-35.075176
16.192724
14.370816
20.799265
-22.11314
11.5042095
-16.030926
0.4964223
-34.05857
-10.667933
-51.099915
-0.5415046
9.066224
-31.861801
52.955025
-9.539883
-8.550476
-6.730031
-26.128223
-19.486526
31.78968
39.428978
47.817642
10.774332
-16.712261
-19.29929
-33.35669
-10.152236
-11.030205
2.663617
-20.335224
2.7659907
-37.6082
-24.526838
-14.4718075
-16.161728
-45.085754
18.273073
-18.328262
16.384346
24.159803
-5.5104537
37.216064
-50.17476
17.321432
-10.1859045
50.647438
-8.342093
-35.60735
-12.02576
-15.741596
20.230467
-43.417225
9.907241
-9.049411
1.9838294
13.570455
-23.38642
6.241748
26.890228
-2.406824
-35.429665
29.328123
37.89562
8.210912
-53.202366
30.08976
48.64418
15.468995
8.415632
19.815388
-8.464376
9.424657
-21.855532
53.029575
4.8553996
-0.88467216
-25.656261
-10.986473
36.453545
-28.861824
3.6136484
4.7452106
11.320553
40.901638
-44.139046
-45.53357
5.4043837
12.924568
-0.5288332
-16.822262
40.093998
22.53129
-1.0750217
-11.599134
12.344468
13.761489
-36.60132
0.023630142
7.1688547
50.808094
21.508228
-24.067118
10.30899
-31.659645
26.489048
-2.784231
4.395238
-15.209817
30.0248
-32.015152
-6.475665
14.887676
-9.43913
40.908634
40.781284
13.187298
34.830727
-48.916782
-5.9239073
-21.998972
-14.573756
24.52738
8.456489
-22.763517
34.272697
17.609028
-29.980408
3.5740252
25.150923
-10.343653
30.867247
6.199994
21.680298
25.196636
-52.524445
-34.397766
15.730856
3.184134
43.450348
17.333302
-20.557438
35.177254
0.08505601
54.585052
21.023201
-11.224268
-15.730267
11.065427
42.51029
-13.475464
-2.279973
-32.769978
20.327444
44.26212
16.36076
-34.4189
-1.4931359
6.1383758
-0.040092945
28.505228
-5.1648397
50.772873
37.246597
-33.35206
58.281624
-2.091729
20.41009
-48.641388
36.870506
1.8677578
-21.421234
39.767857
-15.397376
39.79413
-11.965164
2.3692226
-23.677588
20.699476
15.968896
0.12123364
-4.191599
13.233608
4.782875
-40.768032
-5.1245637
-23.303207
5.9337473
-28.000374
0.9158477
25.7509
16.130531
-35.786575
-23.611643
3.5336037
-54.934425
-26.767437
2.0644631
-0.4073376
-11.529021
0.5228298
0.20422289
16.273624
-4.7653756
5.859251
-19.68276
43.51518
-22.196741
-21.333237
-2.4843173
-19.841219
-53.033016
2.017017
6.728628
7.5229187
5.6922855
0.13338012
-27.567448
-75.90802
-18.726803
6.2591004
59.969746
-0.9815593
-18.407248
-12.34248
-39.03699
5.4762974
9.794543
