2 256
1 256
26.446213
0.0
0.0
0.0
11.427576
0.0
3.2597346
56.96874
-21.492666
0.0
16.696781
0.15623213
35.560192
-2.9883494
37.635834
0.0
66.88626
0.0
-12.45951
-14.7918
12.037583
-6.2591033
0.0
9.610507
-31.591635
-8.05298
0.0
0.0
-35.075172
16.192726
0.0
0.0
-22.113138
11.50421
-16.030924
0.49642426
-34.05857
-10.6679325
0.0
0.0
9.066222
-31.8618
3.0518792
0.0
0.0
0.0
0.0
0.0
31.789679
0.0
47.81764
0.0
-16.712265
-19.299288
-33.35669
-10.152237
0.0
0.0
-19.41569
2.7659888
-37.608204
-24.526836
-14.471808
-16.161728
-45.085754
0.0
-18.328262
16.384342
15.173438
0.0
37.216064
0.0
17.321434
-7.808324
50.647434
0.0
-0.19441487
-12.025761
-15.741597
0.0
0.0
0.0
0.0
0.13706286
0.0
-17.936821
0.0
26.890232
0.0
0.0
29.328121
0.0
8.210913
-53.202362
0.0
32.202843
15.468996
8.415631
1.5536474
-8.4643755
0.0
-14.104151
46.06956
0.84229404
0.0
-25.65626
-10.986473
0.0
-28.861824
0.0
4.7452126
0.0
0.0
-44.139046
0.0
5.4043837
12.924569
-0.5288336
-16.822264
40.094
0.0
-0.17183757
0.0
12.344468
0.0
-36.60132
0.023631215
0.0
50.808094
0.0
-24.067118
10.308987
-23.296072
25.71341
0.0
0.0
-15.209814
0.0
0.0
-6.475663
14.887678
0.0
40.908638
0.0
11.128351
0.0
-48.916782
-5.923908
0.0
-14.573755
21.5824
8.456488
-4.9899926
34.272697
0.0
-2.7111826
3.5740237
25.15092
-3.1221666
0.0
0.0
21.680302
0.0
0.0
0.0
15.730856
3.1841347
17.694324
17.333302
-20.557438
0.0
0.31389418
54.585052
21.0232
-11.224268
0.0
11.065426
42.510292
-13.475464
-0.32995495
-32.76998
0.0
44.26211
16.36076
-34.418896
-1.4931362
6.1383743
0.0
2.4250515
-5.164837
0.0
0.0
-6.1516848
0.0
-2.0917292
2.6390312
-48.641388
4.5491037
0.0
-21.421234
39.767857
0.0
0.0
0.23809418
2.0455236
-23.677584
20.69948
0.0
0.121231854
0.0
0.0
0.0
-40.768032
-5.1245637
-23.303207
0.0
0.0
0.9158462
0.0
2.0740333
0.0
0.0
3.5336025
-54.934425
-26.767435
0.0
0.0
-11.52902
0.5228322
0.0
0.0
0.0
5.859252
-19.68276
0.0
0.0
0.0
0.0
-0.2705554
0.0
0.42228955
6.728627
0.0
5.6922855
0.0
-0.46348894
0.0
-18.726803
6.164505
0.0
-0.9815613
-16.829855
0.0
0.0
0.0
9.794542
