2 256
1 256
0.048777033
-0.07078324
-0.05714574
0.05578616
0.086537026
-0.029846627
0.07851428
0.081471615
0.048010264
-0.05161909
0.06788876
0.00317881
-0.034040555
-0.06455672
0.024979088
0.077103674
-0.0462814
-0.045016047
0.057550613
0.070517726
-0.040464714
0.0069507104
-0.08404849
-0.01763988
0.081682205
0.019993452
0.055179413
0.047109723
-0.00029079217
0.032214995
0.03522208
-0.08483992
0.033555888
0.06735133
-0.021213457
0.03782255
-0.060798157
0.025300426
-0.0766338
-0.06867598
0.0073725795
0.055133797
0.023698835
-0.06862764
-0.08551054
0.050983112
0.028513785
0.0048965365
-0.083708085
0.020684399
0.052803796
0.053706255
0.017132388
-0.06924901
0.058692276
0.064665094
-0.034342043
0.020866536
-0.07970793
0.069159865
0.03868434
-0.057717167
-0.0043240665
0.067647226
0.022981295
0.025617212
0.026086064
0.038492683
-0.06373459
0.010241136
-0.07254205
-0.01734917
-0.06736816
-0.040964514
0.08160364
0.018348146
0.072403915
0.08316191
0.04930366
0.07507956
-0.012664485
-0.061634466
0.013553763
-0.04279725
0.029254
0.029369082
-0.02865364
0.020258168
0.055754
-0.016929556
0.05649214
-0.020198708
0.044205014
0.048166018
-0.08667854
-0.05327861
-0.0731303
0.035481524
0.073122874
-0.02377725
-0.07570262
0.08372541
-0.017276993
-0.0049274196
0.03503913
0.027281128
0.040186
-0.07767381
0.053870626
-0.08698867
0.011581132
0.04416627
-0.02027607
0.051487125
-0.013654282
0.03126607
0.0026548826
0.07834914
-0.07360156
0.06892998
-0.047778297
-0.027607998
0.028103033
-0.013890716
0.0029251599
-0.043380603
0.0020240392
-0.0843401
0.014449572
-0.07104318
-0.031208266
0.074883
-0.05875793
0.069977105
0.0863402
0.0880343
0.08579152
-0.049768906
0.05082815
-0.065806694
0.0329568
-0.025921544
-0.06707496
0.022362348
-0.050077178
-0.0024155413
-0.019883102
-0.044763736
-0.07761114
0.024199456
-0.008008944
-0.018437086
-0.07334179
0.08772033
-0.029765347
0.028526409
-0.039409738
0.010180581
-0.07214286
0.021188011
-0.05005861
0.06126258
0.04492321
-0.008615311
-0.051889375
-0.08096112
0.036256522
-0.045064233
0.061279483
-0.02444574
0.041775808
0.012860953
-0.03689355
0.035002947
0.023145879
-0.0076102456
0.027425366
-0.032115918
0.019391945
-0.059937444
-0.008928978
0.014299119
-0.059120405
0.010528409
-0.034406696
-0.082302384
0.0069924677
-0.06487332
-0.029816134
-0.07401532
-0.029833404
-0.05854782
0.032369107
-0.05078284
0.08202931
-0.07368307
0.071257316
0.004351546
0.02395769
0.08350759
-0.011511516
0.02888923
-0.08421949
-0.046975635
0.03781645
-0.047757246
0.056032464
-0.03117362
-0.06418257
-0.029879132
-0.008343833
-0.032274265
0.028836936
0.071492836
0.04126939
-0.081087455
0.066546775
-0.034298938
-0.031446468
0.022833718
-0.0869365
-0.07482114
-0.054272022
-0.027058635
-0.014982171
-0.05617938
-0.049372893
0.024539834
-0.07868802
0.013236512
0.06544077
-0.08114544
0.048592534
-0.04630277
0.052939843
0.047465537
0.06683628
-0.007564527
0.06646309
0.016123645
0.03429724
0.025075741
0.011604576
0.043893013
-0.053768124
0.08438082
0.047638286
-0.026828723
0.00048856623
0.011703178
0.051284168
0.001325002
-0.019859152
-0.0391165
0.053657677
-0.06532611
