2 4096
32 128
-0.0013234953
-0.11458305
0.09704546
0.08826726
-0.061842386
-0.03404989
-0.124694444
-0.15319644
-0.17521192
-0.040424623
0.014766422
-0.0318093
0.05848105
-0.047985177
0.008061533
-0.12479235
-0.049047507
0.024286551
-0.05932976
-0.087066434
-0.10467184
-0.031050194
-0.11206775
-0.022851894
-0.1356292
0.07864132
0.017727196
0.17401011
-0.15671037
0.13387436
-0.1263375
0.033128478
-0.012386031
0.14517018
-0.010889292
-0.028461197
-0.1485926
-0.1127586
0.07610663
0.14628951
-0.13205282
-0.0074420376
-0.06396134
0.014289214
0.062752336
-0.08430765
0.17646177
-0.074390344
-0.058779385
-0.09973002
-0.09257504
0.12605
-0.05679195
0.042008627
0.054621726
-0.08767029
0.14066666
-0.17524542
0.14713967
-0.11323977
-0.054239117
0.15432578
0.095199466
-0.017717965
-0.09238403
-0.06886422
0.0074528903
-0.0879368
0.10634611
-0.11037178
-0.0138521725
0.050347
-0.16749625
-0.012569665
0.15615746
0.17082158
-0.009265984
0.11985653
0.095935814
-0.0028464296
-0.116139814
-0.14239022
-0.02368027
-0.031747386
0.06589129
-0.09069258
-0.017469784
-0.029935114
-0.15865932
-0.0070434758
-0.049731765
0.108014576
-0.044018883
0.12373695
0.17055367
-0.06644587
0.16503717
0.14522848
0.050872132
-0.14168465
-0.06796103
0.1205387
0.15816732
-0.15432394
-0.13094427
-0.108700536
-0.15915477
0.15899363
-0.10240652
-0.16416438
0.16874269
0.018285347
-0.13790335
-0.11753354
-0.018355437
0.041885264
0.09029448
-0.047249336
-0.14221272
0.0534421
-0.15731975
0.118059516
-0.024902571
0.05243873
-0.044494826
0.08793912
-0.09387548
-0.03245288
0.09483072
-0.08137612
-0.02231229
0.036999602
-0.14489001
-0.034708813
0.007884221
0.08757126
0.079795934
-0.0078614615
0.022073295
0.06882138
0.17671947
-0.034105312
-0.15940292
-0.087559424
-0.06590159
0.14535609
-0.16393739
-0.01546292
0.025361529
0.057290673
-0.019115513
-0.12929279
-0.0516678
-0.07556087
-0.06575922
-0.07554593
-0.011224528
0.055470835
0.038040545
-0.05684455
-0.16696535
0.06846327
-0.110870846
-0.1606379
0.0026051388
-0.14382377
0.08740805
-0.03518756
-0.020474454
-0.12846255
-0.04544372
0.055703446
-0.09736181
-0.03188409
0.1620359
-0.036870275
0.056962688
0.07374415
0.1456248
-6.366281e-05
0.08547746
0.16109233
-0.14207618
0.027197592
0.09276414
-0.0459726
0.09084475
-0.090310894
-0.0994756
-0.054786813
-0.02626716
0.1124147
-0.0510506
-0.118337244
0.15756
-0.008951696
-0.029539587
-0.15207662
-0.1408018
0.041807145
-0.15839513
0.17159115
-0.020492598
0.00073809666
0.09328975
0.04176245
0.1620089
0.036289383
-0.12300587
-0.0759067
-0.16673775
-0.06815485
-0.04134003
0.1680659
-0.0030889425
-0.059359305
-0.1281398
-0.09497773
0.03638672
-0.1630964
-0.083423615
-0.025301049
-0.042269558
-0.04414031
0.13417359
-0.055855133
-0.0009401065
0.09569667
-0.062757544
-0.06434424
0.06401487
-0.0056588044
-0.12545624
-0.1404684
0.04057968
-0.01586852
-0.067845106
0.023940843
0.08249146
-0.011479896
-0.14952585
0.14630948
0.16502184
-0.08697887
-0.17124054
-0.07881764
-0.0291892
0.070317656
-0.15385035
0.12607539
0.026368711
0.12831114
0.09021568
-0.046879876
-0.16108546
0.09647344
-0.14549519
-0.12350335
0.006749607
-0.13790067
-0.03760308
-0.15863055
-0.12461592
-0.12591463
-0.08489943
-0.107664816
-0.1389726
0.031399403
0.091687515
0.016917638
0.14660604
-0.14560902
0.04450336
-0.119515054
0.07246579
-0.016991692
0.05642561
0.06935435
0.022738583
0.05176204
0.05797927
0.14092703
-0.1480423
-0.014165745
0.058964074
0.17479448
0.16096294
0.11973679
-0.101926796
0.14892894
-0.063940495
-0.1180387
0.13929799
-0.03230714
-0.10979231
0.1015319
0.025813743
0.05427216
0.15231091
-0.019683126
0.03662812
-0.047297087
-0.09148892
-0.065433174
0.07819496
-0.1647076
0.093516946
-0.115026206
-0.10948006
-0.17556858
0.02775667
-0.09975763
0.07074502
0.067677364
0.006641479
0.026528701
-0.013833987
-0.069473624
0.09083379
-0.12693292
-0.11441411
-0.1474141
0.019170472
0.031743824
-0.0736348
0.017515028
-0.1545037
0.0039017445
0.102357775
-0.033722367
-0.15072592
-0.10631747
0.1714758
0.019654592
-0.12577167
0.06975474
0.11746234
-0.1749005
0.1285412
0.10627825
0.17160338
-0.033312995
-0.13163926
-0.0830153
0.0054989415
-0.072008945
0.074933305
0.07570309
0.1451216
0.027461052
0.10852851
0.012552469
-0.15468144
-0.1411128
-0.0366462
-0.10620934
-0.04370864
0.07197771
-0.14352795
-0.15957235
0.08311721
-0.14460093
0.12598702
-0.056613162
-0.07860901
-0.04674553
-0.13941476
-0.13736738
0.03935896
0.11186086
0.022620339
-0.029669253
0.03284135
0.075560555
-0.005811861
-0.039319407
-0.03792675
-0.14442433
0.16389659
-0.15173437
0.03887014
0.13346623
0.1478848
-0.093608215
-0.13009687
-0.16556215
0.04095999
-0.101791464
0.037787158
-0.1526357
-0.09731277
-0.050180584
-0.117970206
0.05978604
0.0138925705
0.07521286
0.109892935
0.16348831
0.09518425
0.092249274
0.06270157
0.00820852
0.17208706
-0.13770524
0.012516476
0.13573213
0.15060392
-0.1256913
-0.15487142
-0.1240407
0.07153574
-0.07741139
0.05301435
-0.1743004
-0.17387867
0.009659973
0.07168876
-0.06058114
0.114876226
0.011590868
-0.15139078
0.13775738
0.043836832
0.16788146
0.045978293
0.11207348
-0.14435627
0.04329339
-0.04035786
-0.15529941
-0.15041976
0.096866585
-0.006289743
-0.10080508
-0.030033106
-0.13707244
0.16916355
-0.019410225
0.14563066
-0.0551729
-0.04587661
0.1522172
0.15234128
0.16243671
0.1382484
-0.1119803
-0.15749441
-0.11926517
0.07600847
0.14107032
-0.03483652
-0.051878765
-0.0288955
-0.085711725
-0.12171021
0.10137556
-0.10439319
-0.11535156
-0.08035872
0.10172557
0.14722206
0.0243362
0.07512343
-0.10971958
-0.057230826
0.118234195
-0.15505026
0.1617131
0.00056274474
0.14664309
0.17249337
0.11402501
-0.027339121
0.04647514
0.013373132
0.11641813
0.05925849
0.1113038
-0.00990354
-0.061224703
-0.069301285
0.11704089
0.046976667
-0.019552218
-0.15696685
-0.084196486
-0.109172456
0.13503736
0.13500862
-0.11112663
-0.03432846
0.147782
-0.08560579
0.042311054
-0.06958183
-0.04045505
-0.17364073
0.16733569
-0.16855192
-0.08874491
0.062141545
-0.113181524
-0.06284696
-0.05591858
0.13485451
0.09207562
-0.121628575
-0.16326283
-0.027043736
-0.15448955
-0.10735586
-0.17613134
-0.06808631
-0.10319171
0.10966812
0.16630255
-0.11516397
-0.027661925
-0.10300875
-0.05931147
-0.1018413
0.055890765
0.122412525
-0.060073588
-0.061870456
0.009464686
0.17571527
-0.018012678
-0.08636808
-0.06518954
-0.05032536
0.1473731
-0.11461312
-0.02633725
-0.08434375
-0.1402736
0.096908666
0.0005024326
0.022619981
-0.024402477
0.14792816
-0.17017871
-0.17578536
0.033179514
-0.059958357
-0.09751752
-0.07088684
-0.16669542
-0.07885296
0.1549517
0.13049385
0.08056284
0.09090435
-0.17428695
0.012771844
0.17493545
0.12380143
-0.031164518
-0.15932676
-0.033587415
0.1684404
0.13253483
0.009031332
0.09886685
0.12596118
0.0351243
0.11919756
0.13916282
0.09388817
-0.15963452
-0.10383542
0.1655889
0.015199587
0.13025987
0.04752095
-0.15066615
0.016791979
-0.022324005
-0.14966892
-0.1675573
0.0641891
0.12778051
-0.044852316
-0.03864476
0.12920009
0.029462986
0.16234584
-0.036822416
0.16063271
-0.10902264
0.07298475
0.023789346
-0.011376319
0.17474213
-0.032739
-0.14426567
-0.09012608
0.003922228
-0.076240696
-0.09617523
-0.08887976
-0.12820461
0.04790617
-0.16201511
-0.07174645
0.11899233
-0.06780147
-0.063622266
0.09388659
0.049396716
-0.07875676
0.024170374
-0.12432525
-0.0016499648
-0.15006484
-0.032379463
0.0071581784
-0.074816786
0.028208064
0.049221978
-0.1488943
-0.010937908
-0.04254006
0.16824797
0.07264213
-0.03131068
0.16250883
0.13100384
-0.06412972
0.09280818
-0.14786461
-0.08271034
0.05279348
0.16463877
-0.053002484
-0.17378633
-0.12350624
0.15129751
0.02374309
-0.01682382
0.047403973
0.1519569
0.16973993
0.11911529
-0.009072067
0.0022861082
0.060412552
-0.026178397
0.10163883
-0.0036466506
0.1592959
0.08619125
0.08482232
-0.109149
0.08930974
0.13604754
0.015626766
0.17347209
-0.14637527
-0.077980034
0.16905656
-0.0070100958
0.113249525
0.010769089
0.09202069
0.1589081
-0.07079619
0.038420454
0.17371087
0.119519085
0.022649506
-0.05685538
0.12201641
0.15201199
0.109785356
-0.024846748
0.15525988
-0.15389389
0.025685892
-0.15825233
-0.07034064
-0.124472395
0.17032474
-0.11438372
0.15458813
0.054114297
-0.08512854
0.13403521
-0.12235295
-0.0906597
-0.018696385
0.14642757
0.033111554
-0.15365198
0.15138495
-0.08678607
0.08500621
0.0843993
0.16673332
-0.01335543
0.12282645
-0.05008219
0.17161368
-0.10881473
-0.06048138
-0.004904165
-0.094731554
-0.020405607
-0.022567825
-0.13896589
0.1029383
-0.10405867
0.055081695
-0.049782276
-0.03883596
0.012109738
-0.05966272
0.13129325
0.10657351
0.0761178
0.05187173
0.102974884
0.0109657245
0.09550891
0.04558466
-0.022732366
0.10284988
-0.03117377
0.09253387
0.011353665
0.17671199
0.15971953
0.015785975
0.09434079
0.10818044
-0.044430785
-0.10091675
0.116450414
0.17408358
-0.10287818
-0.016787196
0.10447409
0.025576392
-0.0012322263
-0.1714009
0.026313562
0.056486152
0.033679903
0.036186125
-0.0037973677
0.05288144
-0.1252856
-0.04368314
0.057734396
-0.0074793166
0.0010768309
0.1340516
-0.113423616
0.09620831
-0.098812565
0.033334933
-0.124189354
0.025155073
0.04084624
-0.109967194
0.09890761
0.1416158
-0.12817489
-0.0035025084
0.07888101
-0.13622828
-0.07707908
0.12654574
-0.08030521
-0.10534356
0.0019336342
0.093616284
-0.03975746
0.10390066
-0.12347338
0.0203128
0.009060561
-0.11668481
0.10940217
0.10244841
-0.16771923
-0.16034701
0.06270532
-0.10279555
0.121058665
-0.02245662
0.14015627
0.10963788
0.17578411
-0.059769075
0.023610538
0.16082384
0.15694644
0.1331168
0.0006344154
0.13974902
0.07368457
-0.0700976
-0.11414519
-0.029644998
-0.007659178
-0.037402693
0.08895805
-0.053304255
0.13093987
-0.079261005
-0.009651438
0.15353476
-0.071781516
0.14863147
0.040337462
0.06777856
-0.07356667
0.041041464
0.13728695
0.07864663
0.08602515
0.095693514
-0.010629687
0.06119621
-0.16773878
0.17274389
-0.17315221
-0.0013143073
-0.06620733
-0.1749556
0.0045881057
-0.017946782
-0.08797638
0.12767428
0.1341233
0.10288414
0.1467287
-0.07293522
0.06750184
0.044373866
-0.024234205
-0.07751267
-0.09208892
-0.0603365
0.09284451
-0.12187271
0.15162306
-0.108503796
0.05648358
-0.05821999
0.12189631
0.091935195
-0.051757067
-0.09910064
0.089175016
-0.015826058
-0.0021799824
-0.061237577
-0.13141297
-0.038426902
-0.030863272
-0.15752397
0.123883665
0.0347113
-0.10462626
0.15281606
0.09629461
-0.026891816
0.081114076
-0.07178289
-0.10860975
-0.17370218
-0.038667645
-0.0037705202
-0.084522404
-0.051409736
-0.06386613
-0.005041943
-0.11156538
0.062039062
-0.007110321
-0.0885181
0.07191504
-0.14639322
0.121274985
-0.021833964
0.16299364
-0.046850838
-0.01515097
-0.011993075
-0.050794076
0.15247564
-0.12965886
-0.022270774
-0.13695386
0.14016438
0.08567881
-0.064783305
-0.044492003
-0.018172689
0.06659164
-0.0038567737
0.14580674
0.13567998
-0.10897042
0.023688614
0.0399259
-0.042217337
0.084762156
0.14753495
0.09781807
-0.017588701
-0.16946895
0.04430013
0.15375747
0.14539893
-0.047831025
-0.08395616
-0.05002498
-0.11270347
-0.102400064
0.04623088
-0.03338869
0.11868649
0.10830753
-0.1075668
-0.03398941
0.025715688
0.16970253
-0.041171085
-0.1225482
0.07323586
0.103761934
0.013060676
0.06742874
0.14791636
0.041854452
0.16947266
-0.06747974
0.007952162
-0.0075341915
0.059370387
-0.027314698
0.15921846
-0.049634255
0.006282557
0.029419005
0.06154601
-0.06737216
-0.01462561
0.16883036
-0.005102993
-0.16905187
0.16886908
-0.058402613
0.05423865
0.11956637
-0.09176964
-0.08015865
-0.0035051005
0.12321389
-0.006224942
0.13610697
-0.14415878
0.10664885
-0.006865869
0.047163248
0.14043361
0.17128776
0.07957188
-0.14972894
-0.019551734
-0.13826014
0.12615076
-0.1330332
0.01575643
0.041779645
-0.06465691
0.030895958
-0.0003512097
-0.12636478
0.0011867288
0.017816758
0.062170267
0.06022123
0.12048125
-0.034713008
-0.0151173575
-0.15757781
0.14810358
0.05293178
-0.07578488
-0.10382899
0.082584195
-0.12434254
-0.16046838
-0.03966952
-0.000598422
-0.09612307
-0.03991749
-0.1006347
0.13743341
0.1684814
-0.17014864
-0.10488068
0.14225161
-0.17541796
-0.043282177
-0.14627911
-0.09335754
0.09723533
-0.056092292
0.07092977
0.17259291
-0.009607121
0.16089728
-0.10788569
0.04706471
-0.054911718
-0.101264015
-0.14418137
-0.115861915
0.044935957
-0.01568788
0.009296962
0.06947499
-0.16839714
0.0049130158
-0.15910934
0.007436664
0.022068596
0.06412099
0.122249
0.082557224
-0.119605675
-0.09965076
0.08768835
0.009500763
0.0056844507
0.053799145
0.17419308
-0.01338548
0.0891514
-0.14062732
0.1549684
-0.15393709
0.083202936
0.17606977
0.03148905
-0.031964213
-0.17674851
0.12428498
0.11752642
0.038915113
-0.015029081
-0.013978571
-0.07383902
0.0037621963
0.06947872
-0.17005886
0.07792272
-0.018955356
0.13701352
-0.047444094
-0.0110213375
0.15686114
0.15510911
0.104243994
-0.0008456133
0.17056355
-0.10210611
-0.03073835
0.07556481
-0.10697376
0.12202551
-0.10431543
-0.063937046
0.04615579
0.060504876
0.026405085
-0.11070544
-0.08257609
-0.06737155
0.0061469283
0.16266349
0.113167
0.039383195
0.15157375
-0.101182275
-0.011772099
0.088493
-0.086732246
0.1548316
-0.0024948616
0.06730748
-0.1637474
-0.0050721625
0.021884287
-0.11740141
0.052247908
-0.16459353
-0.0769975
-0.08788842
0.105148986
0.17017283
-0.15278287
0.0020823914
0.15122785
-0.14203088
0.060515497
-0.14873981
0.14889306
0.070126556
0.15227337
0.09160531
0.09912918
-0.16970293
0.17656964
-0.085107006
0.035109695
-0.07140841
-0.065845534
0.04341749
0.037771415
-0.002238377
-0.027965762
0.022942172
0.09542746
0.0014850231
0.025760153
-0.053840637
-0.10322296
-0.14800727
0.020535482
0.010719334
0.061132655
0.079976805
0.15159182
0.032942038
0.16843809
-0.043307614
-0.13538748
-0.07580812
0.0016930389
-0.04268639
0.092954114
0.16460711
0.12527145
0.13824394
-0.17102396
0.15105993
0.046777334
-0.090630494
0.14646822
-0.0031774086
-0.015250331
-0.011930171
0.11395433
0.15833761
-0.059036292
-0.13159683
-0.08599826
-0.17439684
-0.09919233
-0.16156302
0.083830416
-0.054655463
-0.042636234
-0.11184484
-0.08926997
0.02502802
-0.042523365
-0.11770007
-0.16219586
0.15190797
-0.10478642
0.02088134
0.11551931
0.009051689
-0.022809453
-0.14889394
0.124271415
-0.13786449
-0.056113724
-0.11350245
-0.16222186
-0.13606319
-0.055592895
0.14479847
0.089006916
-0.17437857
-0.1227964
0.031600293
0.16446237
0.1513279
-0.17662437
-0.17598206
0.13103056
-0.16186965
0.14034462
-0.115960136
0.032752167
-0.16230457
-0.0015414788
-0.14025716
-0.07386696
-0.089979135
0.00078433176
-0.023349248
-0.09366658
-0.037599646
0.004798777
-0.0074496027
-0.027638808
0.005965317
0.1578026
-0.071499474
0.068829894
0.025666019
0.1347639
-0.051765896
-0.11555519
-0.019634783
0.12945272
0.15442182
-0.1558604
-0.019410605
0.07155544
-0.04550747
-0.10881467
0.051497925
-0.103359245
-0.089622065
0.009740263
0.13603424
-0.11188481
0.12240403
-0.16231291
-0.17578228
-0.08127255
-0.11550224
-0.15637954
-0.056056384
-0.14069982
0.05556613
-0.048264336
-0.12219338
0.08625652
0.012568358
-0.16598533
0.018906422
0.09625394
-0.098134615
-0.15474005
0.14585339
-0.117803134
-0.0558255
-0.17376189
0.1470305
-0.10616253
0.08919864
-0.11195455
-0.1653432
-0.004828849
-0.123477116
0.0029835121
0.018812371
0.17264847
0.10104443
-0.09704819
-0.1644739
0.059689146
0.026344646
-0.072729215
-0.045089625
-0.059169937
0.17439245
0.029372076
-0.069567524
-0.053424228
0.029907908
0.15383238
-0.13312326
0.03577631
0.15546086
-0.13362905
0.108136505
-0.04939992
0.07241931
-0.1464928
-0.14196154
-0.13602628
-0.03163285
-0.1417447
-0.03843685
0.061960164
0.033892218
0.035732202
0.1504117
0.09616101
-0.019128978
0.17264201
0.11724907
0.17648333
-0.08288205
0.0100131845
-0.005236472
-0.137187
0.12795338
0.054503143
-0.0010871568
-0.008938862
-0.020720508
-0.00176511
-0.13396743
-0.08977289
-0.0049034697
-0.120033376
0.10872049
0.11986163
-0.026877467
-0.01686858
-0.0048205666
-0.10369619
0.12846652
0.0025628444
-0.051569704
0.002914054
0.017724583
0.0046235514
-0.12736104
0.047139354
0.072269455
0.15005209
-0.10613727
-0.12829135
0.04937265
0.011184362
0.06754435
-0.16822416
-0.12461097
-0.094229646
0.1471237
-0.13609119
-0.13799447
-0.11630616
0.043924518
0.023191156
-0.108356155
-0.0047853743
-0.023459041
0.05732827
0.023607735
0.14721727
-0.12797707
-0.015757188
0.11744198
0.035100274
-0.00567501
0.051430933
-0.05934843
-0.02007212
0.0052411715
0.0754268
-0.054475434
0.08108744
-0.085944064
-0.08700458
0.07633056
0.042761266
0.15754074
0.15998876
-0.0020978383
0.06983067
0.004095957
0.05556301
0.059902407
-0.10176554
0.064861305
0.14722206
0.08188271
-0.1579722
-0.088857315
0.04764853
0.10897053
-0.14597973
-0.012994589
-0.07625488
-0.09114595
-0.06480912
-0.090543985
0.051957663
-0.06381307
0.09763994
-0.012938555
0.0883074
-0.058217168
-0.009184072
0.007690346
0.0028097196
0.0945594
0.013764697
-0.112261586
0.0017669855
0.0154260835
-0.088699855
-0.009999867
-0.034748178
-0.16505547
0.15598011
-0.13635789
0.1124016
-0.072105795
-0.12135936
-0.11176069
0.052225128
-0.059441786
-0.152014
0.13955991
0.11867555
-0.13137063
-0.050845664
0.023493728
-0.128056
-0.015256906
0.06713251
0.023763426
-0.07222754
-0.009494842
-0.044088025
-0.092730165
-0.1696509
-0.061075438
0.06677504
0.026593713
-0.065624304
-0.1669032
0.038256377
-0.14673248
0.032177053
-0.16644938
-0.01781834
0.10081248
0.14903358
-0.11877498
0.0896439
0.14469904
0.11970531
-0.12356071
0.15991808
-0.061276566
0.031594098
0.1427954
-0.109561846
-0.1637008
-0.13237832
0.072196074
0.011429234
-0.17009991
-0.03990101
-0.1286275
0.088512935
-0.061991017
0.0410367
-0.13444065
0.05504787
0.088960215
-0.15454423
0.14403501
0.10784521
-0.07665182
0.064788096
-0.14864807
-0.01194174
-0.13627884
0.035597816
-0.117444254
0.17068738
-0.014050031
-0.11845976
-0.065764785
0.099547334
0.17423266
-0.1141847
-0.08703276
0.14975464
-0.119293705
-0.0060379994
-0.15872398
0.15411435
-0.04409241
0.100380115
-0.17235367
-0.1353128
0.16304405
-0.035522774
0.13348727
0.10013505
-0.07798551
0.118980594
-0.111689635
0.17628248
0.0566331
0.12841691
-0.10158556
0.17187904
-0.17349169
0.14877594
0.11894976
-0.13711308
0.01670427
-0.09662085
-0.14559424
-0.17514423
0.08867783
-0.109231055
-0.03595263
-0.14707135
0.1628893
-0.07192037
-0.079164885
0.11618261
-0.1497431
-0.10552618
0.037661266
-0.12310306
-0.1754752
0.027585281
-0.051321056
0.1599324
0.01590129
-0.17214337
-0.06907291
0.012891604
-0.12807374
-0.16888335
-0.12773287
0.03518113
-0.009740327
0.16745105
0.1596299
-0.102647424
0.07928507
0.14531657
-0.0852891
0.17635415
0.09564249
0.12567607
-0.07542806
-0.17357306
0.08762989
-0.103949785
-0.037239246
0.14059386
-0.08178691
0.14850001
0.07887951
0.0088297855
-0.019378236
-0.15750273
0.047880672
0.07702094
0.13545519
-0.01984575
0.03949221
0.17637469
-0.038030114
-0.13503106
0.069292076
-0.015880974
0.033051286
0.073369384
0.11694317
0.099635504
-0.1644668
-0.055431325
-0.16518542
-0.077025026
-0.109224334
0.0009858779
0.12052732
0.17262255
-0.032751534
-0.09698259
-0.012832788
-0.06736746
0.14242655
0.1695192
-0.037513014
-0.1293864
-0.055357482
-0.12995656
0.13619584
0.088675976
0.07837832
0.014695467
-0.060458474
0.011849966
-0.0483602
0.0682619
0.15694119
-0.049719226
0.071583875
0.05814103
0.14700228
0.14128958
0.04661296
0.043011893
0.12960547
0.15365167
0.0019132772
-0.13337801
0.16384317
-0.11706533
-0.14878424
0.09719817
-0.01750506
-0.058198623
-0.013053996
0.08780343
0.1622332
0.02466853
-0.1256928
-0.014969633
0.011380787
-0.027574891
-0.023667626
0.00015189724
0.077204175
0.05329549
-0.0036992289
-0.021272441
-0.016643707
-0.16225953
0.010211592
-0.12352556
0.060850482
-0.074035935
0.16001944
0.1438281
-0.06524981
0.007286094
0.12429571
-0.03065648
0.085859515
-0.048742555
0.0732147
-0.12159513
-0.17245789
-0.068612605
0.028481808
-0.1520989
0.052047268
0.12883
-0.0020816117
0.058949217
-0.16739379
-0.10002964
-0.0970259
-0.057463773
0.100658916
0.056466218
0.030896548
-0.11707604
-0.091133684
-0.15372194
0.026542146
0.11226308
0.06402034
0.12373191
-0.12496275
0.048064202
0.03175706
0.11221596
0.16585468
-0.02011943
0.063691474
-0.0688532
-0.12384796
-0.08973017
-0.039482683
0.13724628
0.16723067
-0.121650025
0.120858006
0.04792634
-0.05562895
0.10857559
-0.12292436
-0.04337505
0.17182861
-0.095527746
-0.11579488
0.11516519
0.10245026
-0.042248864
0.13038844
-0.035338406
0.1609928
-0.12898965
-0.060619306
-0.10710452
0.01849549
-0.035341207
0.116267435
-0.060511578
0.12649071
-0.13878259
-0.058053173
0.14180517
0.0028892928
0.06579903
0.03196453
0.045294184
-0.0015995782
-0.06817154
0.07852975
0.1528511
0.076966256
0.08577229
0.15985988
0.07189559
0.050499488
0.08749275
-0.08146309
0.006923821
0.11691904
0.06759368
-0.1365062
0.09249326
-0.1759345
-0.04177113
-0.087924436
0.13463652
-0.13565113
-0.04926758
-0.1006971
0.07735736
-0.06767574
0.1701862
-0.08887904
0.094382495
-0.15696521
0.11746462
0.012126091
0.13663335
0.056716148
-6.484293e-05
0.0032791302
-0.03505469
0.097427875
-0.08841709
0.09005966
0.09756277
-0.11555631
-0.07230768
0.16045843
0.06913145
0.103483364
0.09596696
-0.030552946
-0.16878864
0.0861797
-0.05665377
-0.17106014
0.027494919
0.15842964
-0.046320986
-0.11360253
0.0955598
-0.13161068
0.063350186
-0.043780837
0.08691348
0.0941816
0.022513414
0.0063406983
0.015004404
-0.039163843
-0.14373161
0.01805394
0.13670592
0.111618154
0.13565503
0.0954529
-0.119877055
-0.051794577
0.14901912
0.0797517
-0.05008691
0.050398506
-0.07287144
0.111535124
0.016262129
-0.07239541
0.16783418
-0.15953405
-0.06354503
-0.074922405
-0.083641075
-0.091827884
-0.122194014
0.14161956
-0.1022982
-0.12553447
0.038136236
0.14836477
0.1624597
0.112331085
-0.026460592
0.041839596
-0.14845203
-0.028019773
0.12016081
-0.1421502
0.01847545
0.02916739
0.07648507
-0.10487851
0.09036309
-0.0702149
-0.09942399
-0.12292173
-0.14704302
0.04243646
0.13936673
-0.047251612
0.028501173
0.09153252
0.14434941
0.15090951
-0.13043998
-0.02102523
0.06686271
-0.012173485
-0.07824341
0.092377
0.07653423
-0.011392167
-0.076499924
-0.13485366
-0.14294977
-0.081399426
-0.1578739
0.13317405
-0.0026232197
-0.03930185
-0.105325244
0.010876415
0.15052348
-0.071564145
0.1187502
-0.12427824
-0.053693123
-0.044698775
-0.024100242
-0.024405511
0.14386511
-0.07300344
-0.070694365
-0.021766065
-0.017434845
-0.16476639
-0.07095645
0.005848992
-0.059600953
0.06986571
-0.04752744
-0.15968281
-0.02024547
-0.123699166
0.04689985
0.04839086
0.008368615
0.044254128
0.050463412
-0.11829021
0.10133251
0.12653953
-0.042441286
-0.06692544
0.006012859
-0.082011886
0.036043268
0.10224319
0.06491129
0.14868869
0.057149924
0.16129753
-0.01274095
-0.11317545
-0.08386232
-0.12654619
-0.08313398
-0.034560878
-0.03684012
0.021812638
-0.023322232
-0.11782223
-0.14306784
-0.044571534
0.0017070527
0.030269677
-0.1128328
0.028960237
-0.11434895
-0.14858583
-0.044191938
0.035499614
0.1601481
-0.10181787
0.101754084
0.09917714
-0.13557035
0.093378596
-0.15871005
-0.022062104
0.11986321
-0.027136143
0.00654844
0.103647925
-0.11059245
0.10489533
-0.012784783
0.11184614
0.14910914
0.051994037
-0.083098724
0.04073021
0.06916258
-0.15786962
0.13663167
0.065712646
-0.1387983
-0.019220943
-0.047567796
0.00844939
-0.15587588
-0.17247763
-0.079711996
-0.14645606
0.15087433
7.3040486e-05
0.010198126
0.07649564
0.1304494
-0.011022813
0.062053435
0.031301644
0.01527996
-0.119156644
0.10849755
-0.01746675
0.13045894
-0.08538581
-0.002031773
-0.043564226
0.17362738
-0.12857112
-0.1476251
-0.06565261
0.037343584
0.16648997
-0.08256429
-0.16562605
-0.09656665
-0.0868357
0.04251675
0.07992064
0.052842643
0.059816513
-0.084159166
0.039973672
-0.0078581115
0.14909196
-0.057744194
0.14389339
-0.044289656
-0.0018752818
0.0076701995
-0.08501811
0.13319056
0.16924506
0.044209745
-0.051169813
0.110999435
-0.046456404
0.050714437
-0.027247747
0.0031351354
0.06614912
-0.019145522
0.039734803
-0.057708263
-0.15672469
-0.023894692
0.07776186
0.056433722
-0.07526597
0.0053414386
-0.12298075
-0.079422615
-0.009537663
-0.13868332
-0.13895595
0.17180945
-0.07327347
-0.0050954064
0.03511302
0.13457713
0.17250681
-0.117009975
-0.024937637
-0.072323844
0.051811647
-0.055711515
-0.063752815
0.056241553
0.043743603
0.032422706
0.118344195
-0.0063011646
0.16568598
-0.15504737
0.009644189
0.15894221
-0.17480637
-0.01514351
-0.11784739
-0.16857502
-0.15022124
-0.10958562
-0.013142335
0.14761803
0.16469997
0.10014331
-0.0035093783
-0.11159234
0.09712817
0.022623649
-0.03204737
0.10566982
0.04079897
0.088947296
0.14153044
-0.023004023
0.13449691
0.06988605
-0.07839958
-0.16474777
-0.10757553
-0.1588023
-0.020399053
0.06392378
0.058370266
-0.1671369
0.03471556
0.13349603
-0.120637916
0.113046736
0.15004419
0.056350082
-0.14812925
-0.0004826657
-0.17211236
-0.15973951
-0.050326835
0.028576026
0.08759148
0.14336893
0.13301298
-0.09789158
-0.069662414
0.008134974
-0.07082976
0.028523259
-0.069505066
0.09031033
-0.043164715
-0.11257781
0.087647006
-0.119811684
-0.016360058
-0.07263221
0.075146735
-0.06969044
0.05800384
0.06647679
-0.045628745
0.09745268
0.10080902
-0.17514364
-0.0437322
0.13926102
0.122694276
0.1739934
0.06606666
0.09579412
-0.06617333
-0.16406377
-0.06594525
-0.04838117
-0.096994124
-0.083836906
-0.08002953
-0.057995748
0.022497924
0.07451521
-0.13844533
0.09805753
-0.07021218
0.044483468
0.064751126
0.13179687
0.12981282
-0.0468513
0.030412259
0.09664146
-0.096785896
-0.08334402
0.07934342
0.0856699
-0.09041989
-0.1083394
-0.106833935
0.13789827
-0.12275364
-0.1521748
-0.020456478
-0.042040784
0.05580249
-0.13872652
-0.14845443
0.039839413
-0.07806578
0.07929514
0.05165387
0.0038062606
0.1329473
0.11482544
0.023886958
0.04315089
0.05830064
-0.12485142
0.17130907
-0.17594446
0.0006926624
0.047370527
-0.02531167
-0.02117487
0.06437655
-0.1583374
-0.010169255
-0.031802643
0.12750241
-0.050874513
-0.15125024
-0.15296449
-0.08225769
-0.1699828
0.13001104
-0.093478486
-0.018845879
0.055967536
-0.05107007
0.12577671
-0.05639004
0.07067531
0.15133448
-0.16214523
-0.12130781
-0.14877251
0.11458215
-0.07054927
-0.14227474
0.10607004
-0.006378525
0.15706477
0.16040188
-0.08380581
-0.07891432
0.022384528
0.13262284
0.03819225
-0.13125484
0.17670861
-0.028564036
0.013140523
0.011594492
0.09489493
-0.09564641
-0.085647516
-0.104361914
0.16505456
-0.12041453
0.16276817
0.05287952
-0.13097087
0.14893712
-0.07415348
0.146838
0.034593944
-0.16292547
0.042702302
-0.027970124
0.15590104
-0.04846051
0.16149326
-0.11220924
0.082117505
0.0008943772
-0.100953035
0.15899755
-0.04951416
0.078113616
-0.07551769
-0.09641808
0.1679943
0.15473345
0.016859328
-0.0359536
0.016089495
0.09955707
0.06004758
-0.022173477
-0.019454837
-0.1133747
0.14567252
-0.07689174
-0.046640817
-0.05527873
0.13953182
-0.069931924
0.05925558
-0.09029583
0.07393457
-0.102038026
0.031668067
-0.0019360576
0.17205654
0.047282293
-0.15798567
-0.0051531475
-0.073026076
-0.14505929
-0.058800627
-0.014870946
0.15458003
-0.1631047
-0.034268845
0.06639751
-0.08763879
-0.027866779
0.047998454
-0.15507685
0.07038439
-0.14566417
-0.020060824
0.047609627
-0.01098783
-0.15500756
-0.005047696
-0.12717956
0.16354723
-0.08165001
-0.113176405
0.013016169
-0.09349024
-0.11275957
-0.094217315
0.1025594
0.16172934
-0.10842247
-0.1641233
0.14996849
0.039330404
0.10856366
0.16166934
0.16100165
0.011947409
0.17539716
0.03614206
0.15202543
-0.09037854
0.08484696
0.0640897
-0.14311108
-0.056347173
0.008476005
0.117418654
-0.0882269
-0.021467919
0.09862544
0.122741945
-0.13596077
-0.053162284
0.13627625
-0.08596667
0.16829818
0.025783354
0.04407058
-0.11688436
-0.023717886
-0.11984418
0.113059424
0.13441388
0.12114505
0.120368175
0.14136006
-0.0013159299
-0.05690722
-0.09920399
0.029433062
0.15457264
-0.11480449
-0.083462514
-0.11781949
0.024626635
0.15641515
0.17647442
-0.060263228
0.07814506
0.1549895
-0.08439335
0.071011074
-0.028322598
0.01649339
-0.051687293
-0.011633752
0.0064232848
-0.12863317
0.15528989
-0.16755326
-0.17588094
0.029926075
-0.045569636
0.17293058
-0.13866057
0.13481773
-0.05866133
0.16437678
0.08809764
0.046331417
0.14073113
-0.05235831
-0.11066028
0.13981685
0.12050761
-0.062428627
0.11689074
-0.043553732
-0.016544493
-0.1461714
-0.13732016
0.068182476
-0.0793567
0.09922171
0.0088477405
0.06436092
-0.12448944
-0.02281215
0.049261868
-0.015813792
-0.15260288
-0.16103615
0.026978156
-0.041883368
-0.1694277
-0.1355154
-0.06275868
-0.08052343
0.023355318
0.14254199
-0.071642496
0.049007554
0.15215208
0.008671904
0.03465769
-0.15020056
0.038827173
-0.055137347
-0.14675231
0.013799004
0.107774734
-0.14379719
0.0018310909
-0.14319955
-0.022155967
0.15996899
-0.08758309
0.027573923
0.13090469
0.109145015
0.13425103
0.0145350145
0.033777557
0.08343734
0.1509521
-0.06056009
-0.052706257
-0.07284284
0.0009610956
-0.0374319
0.10330306
0.13030334
-0.08058718
0.0052449014
0.028583234
-0.06743744
0.15940674
-0.0646065
-0.03925296
-0.039884027
-0.15515736
-0.10931143
-0.11812013
-0.03219958
0.044789728
-0.17209515
0.15898421
0.06972623
-0.07033858
-0.17508651
0.120833494
-0.03896261
0.11939397
0.11960051
-0.16027218
0.091787465
0.05363435
-0.098123506
-0.07697968
0.17573956
-0.17633969
-0.14907277
-0.0011459517
-0.1428524
-0.03494549
0.000282995
-0.15760982
0.07529435
0.13695842
0.12275311
0.16246624
-0.06333643
-0.11827834
0.1616671
0.17265251
0.08895693
0.07705826
-0.029193942
0.06322034
-0.10904782
-0.10460542
0.040150058
-0.17220798
0.08020583
0.12239443
0.16591573
0.06438761
-0.16667801
0.09572552
0.029347694
-0.101270996
-0.17577678
-0.15049377
-0.17608371
0.13934007
-0.16087829
-0.13849047
0.17576478
-0.14154743
-0.15174766
0.0938201
-0.11487696
0.07174719
0.07424623
0.073780715
-0.069845505
0.04418621
0.07070635
-0.000642613
0.0323676
-0.12437535
0.03279874
-0.08630054
0.14118353
0.090264596
0.019315563
-0.10311873
-0.022066846
-0.15537494
-0.035629828
0.091410026
0.0824746
-0.067082465
0.15875863
0.020933181
0.03088443
0.04275899
-0.13080388
0.15124816
0.02479459
-0.018858122
-0.04577097
-0.17129453
0.08810603
0.07445595
-0.014046533
-0.053223208
0.103671804
-0.064209774
0.023041723
-0.02912442
0.04404864
0.13126123
0.12188639
0.06590874
-0.024712782
0.018709155
-0.16714188
0.052574147
-0.15001187
-0.17391838
-0.13699287
-0.07575133
0.031356916
0.13315266
-0.13296136
-0.05929693
0.0012077179
0.09326343
-0.051782798
0.16608766
-0.14981733
0.095506676
-0.025407974
0.08946524
-0.08658155
-0.074923486
0.11115805
-0.1410006
0.06020028
0.13766539
-0.0964216
0.10904782
-0.16281955
0.13881707
0.06593685
0.019397791
0.087819025
0.049624585
0.0068264618
-0.10597423
-0.120505996
-0.1399425
-0.1655861
-0.10929308
0.15522055
0.06420832
0.07015952
0.033087656
-0.04399695
-0.08786621
0.01896901
0.022179525
0.091008805
0.15501133
0.06997369
-0.040527694
-0.13364455
0.07229118
0.038601685
-0.13705845
-0.16374466
-0.13332261
-0.11439816
-0.15295091
-0.16113636
-0.04431916
0.1137727
-0.10100167
-0.07653046
0.009186854
0.17506309
-0.07463429
0.103071615
-0.15502244
0.06847677
-0.0513239
0.089642845
0.084932916
-0.16934238
0.054037444
-0.012586629
-0.12672278
-0.1169343
0.069907755
0.14474115
-0.024434973
0.13228971
0.05914322
0.051742926
-0.08399243
-0.08054969
0.0938699
0.11113776
-0.10184879
0.11535413
0.00025094234
-0.12659305
-0.019109339
0.14881133
-0.1644389
0.16910335
0.08865887
-0.123316996
0.01709866
-0.16702087
-0.13706312
0.07107752
0.11013363
0.06773508
-0.118935704
-0.17609298
-0.15014613
-0.14668405
-0.015961453
0.17387037
0.0100924205
0.11396122
-0.15676145
0.11461606
-0.08738466
0.014858997
-0.06988398
-0.15403844
0.035086133
-0.0833479
-0.17552911
-0.17256097
0.052462563
0.10815979
0.1283623
0.014458582
-0.08508661
0.008588663
-0.011139897
-0.06640371
0.1503962
0.13345715
0.084653884
0.12204528
0.040412042
0.14292121
0.111428805
0.13023144
0.12315678
-0.07688679
-0.094884336
-0.10371876
-0.13570909
-0.04811931
-0.15457869
0.045671545
-0.005639691
0.02959069
0.0056829755
0.011634827
-0.1053969
-0.049029745
0.12739386
-0.1049886
-0.12455152
0.06731716
-0.082622275
0.11934464
0.08423777
-0.13525054
0.1334099
0.031139271
0.14375737
0.07700086
-0.1427114
-0.08280374
0.03715997
0.14973241
0.14679323
0.023881268
-0.029779803
0.007976628
-0.13546605
-0.037011508
-0.040366016
-0.17095935
-0.114800766
-0.022252418
-0.062038306
-0.086249605
-0.1341992
-0.13476005
-0.054538548
0.1246803
-0.14330754
0.1666862
0.163698
-0.011112775
-0.038336203
0.16743493
0.04193268
0.13343854
0.031264532
-0.05403504
-0.09396916
0.094955795
-0.1283188
-0.07482576
-0.1731035
-0.121778026
0.026353708
-0.041772626
0.0025979949
0.078197554
-0.1259257
-0.0730913
0.04124284
0.1516664
0.0038169238
0.072185434
0.09326174
-0.07330203
-0.16232789
-0.0204891
-0.1551173
0.15380003
-0.14853716
-0.030919643
-0.15277126
-0.11643609
-0.11911363
0.06657162
-0.09105873
0.028294507
0.12499428
-0.14155173
-0.13421766
0.11984091
0.0030392725
-0.13419569
-0.07251405
-0.094138585
-0.08574911
0.01748426
0.047954682
-0.046802938
-0.119553246
-0.06916993
-0.1193608
0.023172505
-0.010814397
0.05947544
0.06566327
-0.14739768
-0.0650666
-0.1621398
-0.14912711
0.017677274
0.14325361
0.04707177
0.14557846
0.020273076
0.11986302
-0.15066223
0.073020615
0.076678775
0.045281835
-0.104013234
0.043883637
-0.026503855
0.11966871
-0.08074261
-0.05120844
-0.08465201
-0.007118497
-0.12156554
0.05075452
-0.043567132
0.121354006
-0.16631043
-0.14749095
0.053020712
0.030974919
0.14753993
0.17027538
0.09517291
-0.12760626
-0.00022453733
0.1684891
0.17275736
0.0419429
-0.02513246
-0.0054975506
-0.08069935
-0.076554246
-0.092493095
0.12649956
0.08631597
-0.027600875
-0.034640957
-0.08263676
0.07264093
-0.061297365
0.019377982
-0.022310961
0.17388709
-0.036380675
0.118526354
-0.029090576
0.025791911
-0.16543683
0.12623847
-0.0012421098
0.12780613
-0.02011039
-0.14491935
0.1451423
-0.17078245
0.16918994
0.087824486
0.07759757
0.08859327
-0.13399549
-0.039373353
0.16746818
0.11101804
0.1299845
0.015339156
0.16593109
-0.073558286
-0.00014966345
0.09606189
0.077031076
0.09824245
0.07791427
-0.1075491
0.03923983
-0.012475341
0.12241008
0.14439906
-0.08246745
-0.09734792
-0.05453899
-0.11273068
0.111427605
-0.022034645
0.09085387
-0.08915228
0.08382262
0.088698275
-0.14261937
-0.05104487
-0.09801935
-0.16186355
-0.13288297
0.08332151
-0.1250333
0.082885236
-0.09234345
0.14240815
-0.035178076
0.007451331
0.044292122
0.06983269
-0.05186083
-0.01787256
-0.11177881
-0.00024687516
-0.019367909
0.11648552
0.034708012
-0.0147686135
-0.11587389
0.048958685
-0.026729025
-0.07891704
0.14895296
0.04376554
0.011679714
0.07085157
-0.008714894
-0.17543888
0.14003529
0.0759922
0.029389082
-0.002179245
-0.041494455
-0.16284645
0.027786383
-0.016135605
-0.08096955
-0.04623625
-0.07661989
0.0742179
-0.00721632
-0.104941204
0.09386969
-0.07373247
0.13268511
-0.07011195
0.0884056
0.013758375
-0.14601901
0.07317373
-0.15344615
0.05060711
0.11924802
0.06762038
0.057486657
0.09427042
-0.02553707
0.13399257
-0.10561779
0.043634757
0.03352373
-0.15959418
-0.0502657
-0.12886262
0.14363196
-0.103751
0.09159856
-0.076362774
-0.0020740253
-0.041071977
-0.16510889
0.025310678
-0.14433388
-0.04355135
0.027966099
-0.12684628
0.024069455
0.048073158
0.12149067
0.16264237
0.13228408
-0.10408653
-0.08092075
0.041926883
-0.14920098
0.049346246
0.022555476
-0.14618061
0.05064538
-0.027250845
0.099062055
-0.100364186
0.13423958
-0.16049019
0.1743719
0.10463739
-0.0008525464
-0.03174237
0.15960465
0.04592666
-0.13699944
-0.165118
-0.14161651
-0.12279842
0.057086557
-0.0505633
-0.15385126
-0.14044537
0.02409099
-0.06975295
-0.09623965
0.09886966
0.07379892
0.017699907
-0.17050178
-0.08982745
0.0030752658
0.16961725
-0.15354943
0.14826484
0.1430708
-0.060336225
-0.066126846
-0.015893955
0.0032790669
-0.16600798
0.10602562
-0.03819423
-0.14833377
0.06552389
0.1635076
0.1344169
0.09012254
-0.14244819
0.13349195
-0.07920223
0.09636959
0.050969448
-0.0693801
-0.15281634
-0.056570847
-0.06518849
0.07760895
-0.011232789
0.10781322
-0.040966336
0.075751014
-0.011707636
-0.10018422
-0.024298396
0.029340908
-0.015823444
0.11816126
0.10628872
-0.08498552
0.055870388
-0.09104294
-0.020031532
-0.09492359
0.08263132
0.03536812
-0.123005785
0.064030774
0.1354165
-0.13877626
-0.16606309
0.11991012
-0.055772524
-0.023199607
-0.10711809
0.11022229
-0.14068288
0.014429416
-0.1480702
0.0029138646
-0.069112465
0.014231326
-0.064958826
-0.15933047
-0.17049137
0.023393756
0.09066596
-0.102883175
-0.17610635
0.10369646
0.020194704
0.065845005
-0.036842015
0.16230439
0.0039028823
-0.07288526
-0.15086299
0.08512047
-0.1166148
-0.007056099
-0.10228678
0.036684323
-0.005038656
0.17599443
0.09607713
0.034921467
-0.07979694
0.023140369
-0.12423751
-0.12960774
-0.024167255
-0.08666359
0.07001358
-0.02849346
0.03294128
0.067980565
0.06937217
-0.03585681
0.08494215
-0.13827564
0.002436425
0.005631809
0.061395902
-0.1063805
0.14539485
-0.06443349
-0.16993426
0.10165173
0.14964664
-0.04506107
0.13851479
-0.14912617
0.05589757
0.01877604
0.12409545
0.106986046
0.02722246
0.16773474
-0.025822299
0.0028341648
0.018564949
0.086212516
-0.14452706
0.025051411
0.1529068
-0.17029595
0.06789033
-0.06843664
0.08543048
0.048120722
-0.015612709
-0.14686339
-0.16474044
0.11971397
0.07930865
-0.13971652
0.015303542
0.121607035
-0.029193014
-0.036828928
-0.01640526
0.036278024
-0.070704944
0.13219692
0.014390873
-0.13272317
0.14211574
0.13004671
0.09988215
0.13974199
0.17293513
0.1549595
0.13986105
-0.026448285
0.08550657
-0.0856622
-0.044702865
-0.13368101
0.12046745
0.14307462
-0.018565033
0.09304053
0.05231815
0.0945857
0.026093977
0.0056876326
-0.039576944
-0.15419656
0.083556734
-0.1318904
-0.10663709
-0.035139177
-0.12259585
-0.04969341
-0.036680464
0.1091632
-0.15444647
-0.16581634
0.060920805
0.13559408
0.012141221
0.060788274
-0.16657504
0.029766843
0.14534248
0.10437557
-0.04274826
0.09720123
-0.1359278
-0.08545745
0.17615962
0.1214017
0.1341041
-0.15379998
-0.03064706
0.090673044
0.13750567
-0.08037964
-0.06687933
0.11164101
-0.112443194
0.14647913
-0.039950956
-0.11936189
0.17454974
-0.16652763
-0.023380922
-0.0025364605
0.14269538
-0.0012655013
0.14265606
-0.04444556
-0.13288149
0.07189814
-0.10053051
-0.0043360465
-0.14637537
0.044801615
0.06674866
-0.08708413
-0.13536048
0.018705467
-0.13705595
-0.10470545
0.010588953
0.0969454
0.06243027
-0.09265422
-0.030055001
-0.11894981
-0.06450177
0.1589253
0.14473769
0.09937582
-0.17176695
-0.019906694
-0.09527385
-0.11570842
0.08884933
-0.06670198
0.01641782
0.16624242
-0.1310713
-0.09165283
0.10595737
0.047002103
-0.029958548
-0.08129802
0.16452865
-0.1765504
-0.14131533
-0.114771724
-0.01289506
0.11180956
-0.12957853
0.05904333
-0.1693848
0.0053047286
-0.11726315
0.079395555
-0.09539389
0.0778164
-0.06546137
0.14148937
-0.12226032
-0.07158971
-0.14981405
-0.15379214
-0.06400393
0.03443313
-0.012271898
0.09797018
-0.08879228
0.08336653
-0.08122079
-0.105916165
-0.102468446
0.0348208
-0.072074145
-0.15912972
-0.09511895
0.06897151
0.15311007
0.16529502
-0.0035658763
0.11497766
0.14925551
-0.15122347
0.108041525
-0.11713218
-0.032754023
-0.15353234
0.06481972
0.051450152
-0.011325996
0.11235218
-0.03533878
-0.027579928
-0.0045033274
0.06324027
0.008392744
0.11273565
-0.16869469
0.038104545
-0.08068734
0.0639774
-0.04693768
0.108396806
0.041992676
-0.14382555
0.03033785
-0.041094545
0.0838253
0.060273975
-0.01709946
-0.047868177
0.0936335
0.045999955
0.024935529
-0.03134623
0.12712032
-0.108421646
-0.17161927
-0.09780123
-0.15858209
0.052666534
0.058074415
-0.10945865
0.15119143
-0.07925945
-0.100874856
0.1130853
-0.1527096
-0.01768741
-0.031212734
0.08614411
-0.042495105
0.068247065
-0.14076918
0.072026774
0.15459017
0.14283925
0.08828464
0.11010436
0.07874515
0.10647078
0.053851366
-0.022845678
-0.119910434
0.1600671
-0.122521475
0.0648048
-0.08625443
0.09557274
-0.042510323
0.1427459
-0.093103506
-0.14289244
0.06710109
0.085411176
0.12654342
-0.10044257
-0.03586151
0.061980817
0.05582179
-0.06340487
0.14992791
-0.12158061
0.06590566
-0.024291273
0.04063603
-0.03443155
-0.15938038
-0.06471307
-0.0010982415
0.11667855
-0.09865658
-0.16314179
0.105778284
-0.1330296
-0.10228656
-0.0332895
0.064467944
-0.16362476
0.041888256
-0.04255468
-0.07866376
0.06367687
-0.0378092
-0.08113941
0.046614897
-0.100804366
-0.15798986
-0.09619215
0.10307922
0.1607606
0.15091588
-0.075124435
0.17597032
0.12246359
0.08536094
0.12891237
-0.047320396
-0.00678775
-0.046465002
0.0601072
0.062426984
-0.10437338
0.06258672
0.04098726
-0.023434049
-0.121091895
0.12302699
0.14766194
0.023027541
0.14812867
-0.13428454
0.14095046
-0.1764317
0.032804746
0.12059962
0.046905078
0.14181975
-0.03554252
-0.15631574
0.16821083
-0.16134983
-0.14227337
0.16500248
0.17240666
0.14277057
0.081488885
-0.07990143
-0.15929034
-0.03782924
0.0017707788
0.0037629127
-0.15033738
-0.034969386
0.036510486
0.10647771
0.11854929
-0.081481844
-0.10373463
0.14125417
-0.07026666
-0.15351585
-0.077332236
0.07486416
0.049263448
-0.113863714
0.13920541
0.1035771
0.071235634
0.11122532
-0.16605406
-0.114483
0.05448757
-0.04091281
-0.02854391
0.15042482
-0.028694795
-0.10790851
-0.13212322
0.1145835
0.1219667
-0.101399
-0.10979406
-0.17607512
0.0685171
-0.05249213
0.1501403
0.030798893
0.14410815
-0.16337773
-0.107971966
0.042377498
-0.1639905
-0.09131993
0.08939741
0.083648786
-0.17048907
-0.0371771
-0.14346254
0.023364758
0.14090559
0.11772666
0.09636725
0.1364941
-0.02770344
0.11887047
-0.17342906
0.072342895
0.033398572
0.10225548
0.16740145
-0.043071993
0.13725616
0.0256888
0.1403202
0.15980038
-0.072751865
-0.06678065
-0.16458601
0.15725954
0.10840414
0.08984536
-0.014999684
0.050816685
-0.078130186
-0.019753637
-0.17173246
-0.13685812
-0.10718858
-0.097645186
-0.16453777
-0.052512717
-0.12624466
0.04867396
0.11301814
0.06656932
-0.09430267
0.09448059
-0.0038228878
-0.026111932
-0.17291422
0.0008345708
0.06805247
0.03083082
-0.00039651754
0.0010580756
-0.051020656
-0.14774938
-0.13822772
-0.071336195
-0.17299896
0.17531167
0.16399147
-0.08897166
0.08157308
0.17340754
-0.08713448
-0.06243735
0.082484245
-0.08925908
0.070408076
0.12434184
0.108125545
-0.16749804
-0.10030337
-0.14248009
-0.17368893
-0.10188461
0.038464647
0.046924025
-0.11349318
0.12620416
0.110810466
0.1448431
0.09272833
0.15274428
-0.17646883
-0.055156715
0.08197907
0.03537482
0.0007160539
-0.14884788
-0.12325755
0.018304419
0.099756464
0.12583826
0.06777495
-0.09550103
0.1362511
0.030423913
0.055681277
0.13233458
0.061119165
-0.00952483
0.17117146
0.17441957
0.08880159
-0.0037726487
0.05654417
-0.17081915
-0.16709006
0.009241666
0.03408871
0.047602043
-0.10733232
0.10328879
-0.035441767
0.14033964
-0.03187499
-0.04210822
-0.13603732
-0.13417974
0.06531476
-0.08480656
-0.11037271
0.07470916
0.15652622
0.055758595
0.06739505
-0.1578268
-0.11128763
0.07998669
0.12654941
-0.16957285
0.11027013
-0.14567839
-0.012693661
0.14617996
0.028786086
-0.09230423
-0.11079945
0.15718745
0.1501013
-0.16731542
-0.1509852
-0.05223634
-0.092364185
-0.0536259
-0.07595741
-0.070321806
-0.054439586
-0.08273795
-0.039981637
0.06359207
-0.11310271
0.041434143
0.10718546
0.046463717
0.11307445
0.023547275
-0.059383836
0.100670315
0.112262726
0.070856266
0.022428108
0.08786895
-0.031719506
0.07212301
-0.0985812
0.1632877
-0.1581467
-0.11127973
-0.16840518
0.041080322
-0.0153033305
0.165603
0.1426029
0.14987986
0.09576078
-0.14073431
0.09948793
-0.15476434
0.07849532
-0.033151258
-0.09456996
-0.16994306
-0.047416784
0.08726572
0.044584032
0.008183443
0.15945095
-0.13582888
-0.1269809
0.086017884
0.03085436
0.13142456
-0.11665876
0.17111479
-0.15137689
0.17509525
-0.025502698
-0.073638655
-0.10965223
-0.12219153
0.17055139
0.018788433
0.024425805
0.08395178
0.0806286
-0.17520635
-0.056258075
-0.09233559
0.16546533
-0.17098226
-0.089339435
0.08288201
-0.16108468
-0.07161042
-0.053580675
-7.270331e-05
0.006039264
-0.11995543
-0.1546669
0.10145281
-0.099486604
0.0662536
-0.15949431
0.021492384
-0.03474283
-0.05502821
0.16483544
0.08068146
0.0113171665
0.043563806
-0.060632497
0.09705635
-0.0670671
-0.070582084
0.14883597
-0.13319811
0.042230174
-0.16112335
0.050347928
0.14992024
0.08052033
-0.13705526
0.08681359
-0.1510028
-0.11971934
0.10601081
0.1406798
0.15572166
0.09914226
-0.07764486
0.116387844
-0.014372876
-0.06475315
0.111914404
-0.044753715
0.07109258
0.06609877
-0.104776725
-0.13832943
0.09578542
0.17487435
-0.051675282
0.14665829
0.0017433411
0.050717197
-0.04526597
0.0073042596
0.14693451
0.08248541
0.059158877
0.039170627
-0.11728646
-0.0807082
-0.16523467
0.14229855
0.06155286
0.016096534
-0.12385201
-0.12254493
0.006661014
0.17489521
0.1243701
-0.15993182
-0.09656597
0.103390455
-0.11044122
0.1289286
0.124847226
-0.12735066
-0.15115122
-0.071162045
-0.15419367
-0.16174687
0.083379425
0.008768947
0.044282828
-0.030582786
0.015355319
-0.16787681
-0.059362106
-0.13817163
0.00087391486
-0.10030474
-0.0128920255
0.117083035
-0.11455924
-0.099022985
0.03496745
-0.031085724
0.09880966
0.016028678
-0.009792567
-0.13606307
0.050859295
-0.112775885
-0.10386016
0.056757074
0.030932836
-0.09075318
0.111063436
0.1692067
0.0351766
0.13118616
0.089188926
-0.100480676
-0.15862851
-0.15799773
0.012932107
0.08602425
0.006431314
-0.022010896
0.17144096
-0.17483933
-0.026611878
0.12388332
0.03703119
-0.16133592
0.01753231
-0.14925323
0.09568736
0.14336114
0.1448992
-0.08743753
-0.029447708
-0.056818586
0.072413824
0.018635966
-0.1560167
-0.14513908
0.054207463
-0.047589082
-0.17097987
0.084543
0.040265348
0.089971006
-0.059234783
0.037780687
-0.033363298
0.056888655
0.14467777
-0.08920888
0.035250697
-0.17616943
0.029395066
0.04985574
0.15396884
-0.055174354
-0.12053134
0.0866999
0.13188337
0.024042606
-0.13966589
0.1041842
0.006007928
-0.060751267
0.02826374
0.04723241
0.13292262
-0.052054286
-0.121648066
0.07252712
0.076852374
-0.068907544
-0.10471412
-0.17496212
-0.044252485
-0.03737241
0.14035682
0.06385829
-0.10495128
-0.059262726
0.07309698
-0.06197127
0.07778211
-0.12501968
-0.07071472
-0.100129
-0.050861023
-0.040537704
-0.013152725
0.09261559
-0.13317241
-0.17100146
-0.15811485
-0.12357266
-0.038079023
-0.028469859
0.11205694
0.03576902
-0.07572895
0.06710183
0.058813777
0.015241354
-0.10258235
-0.15537445
0.07684133
-0.15487057
0.10868315
0.14282298
-0.16482714
-0.12664688
0.113811135
0.17145222
0.010815935
0.0018736381
0.12006577
-0.15599562
0.00898948
0.060863126
-0.019175192
-0.029512467
0.08794511
-0.04129639
0.038692325
0.13785343
0.15752515
-0.061337214
0.012009702
0.021417974
0.13104597
0.057194453
0.070238456
-0.0005569074
0.051039517
0.12347092
0.11537053
0.03786321
0.031750526
-0.15310425
-0.028622093
-0.17482087
0.17298064
0.141432
-0.070479855
-0.0013881908
-0.07002612
-0.105737045
0.04525075
0.11046577
-0.14401521
0.12165565
0.0016478575
0.08625498
0.09043454
0.060491454
-0.17124166
-0.06966554
0.038724627
-0.045928746
-0.018132038
-0.16456899
0.07292509
0.011176585
0.020387504
-0.06026622
-0.017683111
0.068299495
0.069025055
0.027877422
0.035477426
0.04482882
0.008993463
0.06407155
-0.11411952
0.16481249
0.097334206
-0.03464511
-0.094711386
0.03516183
0.06570628
-0.15797229
0.12300387
0.113152735
-0.048126433
-0.084530875
0.07742983
0.16418709
-0.033756886
0.06785611
0.121095754
-0.087198034
-0.0992663
0.15608107
0.12754829
-0.0032941555
0.02257244
-0.016291568
0.005965865
0.102596365
0.042177953
0.1527352
0.053405493
-0.11467449
-0.08611029
-0.07167811
0.120955005
0.005005086
-0.06537888
0.052070532
0.013855376
0.13812563
0.15749574
-0.05908459
0.051775083
0.0850465
0.10929419
-0.085659504
0.14630704
-0.081775546
0.07661547
-0.025477706
0.04026257
0.15047954
0.1533679
-0.031265713
-0.035780545
-0.011778042
0.08149719
-0.13803506
0.00794173
0.13798456
0.078134984
-0.01598474
-0.015037363
-0.068109624
-0.16734259
-0.17207612
-0.1742596
-0.07976158
0.120245166
-0.033577405
0.15439391
0.030586537
-0.073817424
0.17401731
0.034628905
-0.06658625
-0.103114136
-0.14822406
-0.05770409
-0.022472214
0.109384894
0.17172822
-0.10562146
0.09880943
0.1409219
-0.062455412
0.098211594
-0.122791044
0.13360624
0.02919194
0.04056023
0.021310352
-0.07392233
-0.081957705
-0.048350442
-0.11900955
0.09156788
-0.0102780145
0.048180547
0.08222256
0.10775946
0.05475295
0.010124179
-0.12901717
0.03125768
-0.08761952
-0.021435445
-0.13630883
-0.05837098
0.017246721
0.056174878
-0.008010008
-0.0058130827
-0.11128915
-0.022136852
0.0644451
-0.022617748
0.11841562
-0.13846673
-0.13996448
0.059321795
-0.08441019
0.05943464
-0.10631907
0.09730921
0.016863964
0.1686619
-0.07653964
-0.122240126
-0.006029317
-0.12306753
0.10479611
-0.05246775
0.047602315
-0.039081126
-0.1282388
0.06835376
-0.15867992
0.03492174
0.009173556
-0.072891645
-0.002060749
-0.08202621
-0.03496928
0.16931123
0.07277549
0.00824641
0.10276215
-0.03708149
0.090632394
0.16109543
-0.12360366
-0.14105494
0.15640754
-0.04347633
0.10322608
-0.1542946
