2 128
1 128
0.12962466468022102
0.02293905791917388
0.09157506636769822
0.160982467982503
0.07196801493350208
0.14563651583706394
-0.08863955451930504
0.16058251450212208
-0.08800622370686612
-0.061576146781097144
-0.14381495030129554
0.09971212805433934
0.1531293878244906
0.11109374305636732
-0.08471448127709037
0.029230079153469358
-0.01936817042849982
0.011998571277432592
0.04820256000285154
0.0007951075204812617
-0.018473519810414032
0.08626376463495414
-0.08681012614620566
-0.10074514397983941
-0.0166898611554973
0.04935394072096814
0.14303390344424052
0.07156733348227431
0.01882907438342124
0.1477053395517199
-0.03663004970737952
0.056485155837614646
0.07903406585117119
-0.10697058790578269
-0.024355079112735687
-0.06916999615963655
-0.1162847876767551
-0.05078317052054599
0.09172618786490666
0.05733269552691427
-0.06354521652783403
-0.025690826679241212
0.09874628526146752
0.049844057696454044
-0.07905567240802135
0.14264317482875508
-0.004313479583483953
0.016196468411837348
0.06724064901043487
0.1426620754278774
-0.06461270671961995
0.06328323226783285
0.14896086473643702
0.03196878664791808
0.07494286929315892
0.06356808279765533
0.11908738484960903
0.17574244151627208
0.12404819355693639
-0.1309621290257869
-0.15747678566843387
0.06181553471908891
-0.13722316561026038
0.07231611152850953
-0.17016831413802383
-0.09749796932985857
-0.14556969038604892
-0.043351188763298056
0.0838841142068774
0.04520408077286108
-0.09595631576828433
0.16617013598681113
-0.07228204956765917
-0.16087655126917716
0.06455064563581558
-0.06997028877110317
-0.1477019409601447
-0.04149470195150113
0.041053212258618424
-0.06245997170594226
-0.05221436186137753
-0.04410381694221202
0.17125223608438037
-0.11094131879750183
-0.15419813560283716
-0.09550298282812367
0.11169302116760199
0.03985676176668812
0.10094685462400008
-0.05603231773479019
-0.12204284826445881
0.15439990476352908
0.03512846246680524
-0.054635089966509044
-0.02804596980664195
0.0885976397490954
0.1652002128185393
0.019919837672375998
0.08513283447831245
0.02651025754479636
-0.04807045310066317
0.053264657991885796
0.02726831053353712
-0.12547971809197384
-0.16516205356108857
-0.057086991947194896
-0.028250300034977523
-0.1322945380593319
0.17106389414103693
-0.09533616641820425
-0.06302646455909007
0.05546930345474389
0.09885716833895704
0.11211061248755295
0.13349198165184784
-0.12984697301833684
0.12866493621897176
0.07571986906284112
-0.04518254594549806
-0.08776837588144308
0.07939230745159585
0.12856450505264438
0.059332991681587434
-0.06314654174562395
-0.08876732351239751
-0.10456988181483912
-0.13628091999168204
-0.09932063343575993
