2 256
1 256
51.09735118772451
-6.97445473616613
15.578121935251426
-36.057552533889236
-37.01084454789533
23.64302321082983
22.572121346353413
48.52082452677962
31.81229441444419
21.030331170178577
-26.572976340944425
-17.4620256133697
-23.55540807498641
7.241948055352131
-19.95324100933689
2.9181644823566506
23.72790740811679
71.2434188016486
-34.6289664308446
27.773117983060047
-27.45310925065173
-63.44401054187546
-13.73820791303919
46.723396329678366
38.25675589924812
49.794461986186846
-2.129631881059102
-18.243266453566925
-25.39724690285339
-11.858706810255326
16.502271970645694
4.126790899152869
-26.53678862445522
16.77226789996625
-2.92131980921721
7.242730623269068
-1.7344369637579942
31.662454321011147
-7.684884332309154
11.809634651157413
16.117674146450224
-2.652865969746467
-25.979098053496806
-37.66922440469349
23.514795684992436
-22.63685248795492
38.9557861736921
48.54267659897594
3.79383000545039
-10.234089780714642
-16.01741946031818
27.475228137541986
-12.56027973264649
23.681162262621786
-45.18247013752009
-41.35606443413921
-15.966597494274168
7.408416598670971
-18.097049951648152
-36.36737636176111
-1.726317518075493
10.18999717316392
-4.459104971084876
16.91744468819264
33.097791114096076
19.11023901033311
-2.0751738816202505
30.17859573489467
-2.664220136038684
5.128396368000769
-38.69486505382069
2.625193096432488
31.804433311836302
3.919867858816648
24.356755799229752
12.359408470596913
-45.870585470656565
96.26339925037716
54.18939502951538
0.16602126969491315
-21.34771901497497
21.44805054160218
-31.062577704667177
17.803579366589013
-3.0213480763618676
-4.559326191202626
-12.548203889482469
16.017812640415023
-14.168779363094263
33.12326522769689
9.391557270085473
-19.211412198776053
-23.72218816703709
-5.3031215220969585
-37.57348394292342
15.126326940201334
-16.64645030716858
-23.823852751468515
2.0763397186915493
6.278699572921598
-15.714513282368669
-26.383812855983393
-33.304468303863274
17.46628615301821
-2.9570783026265355
-23.899667458461224
-0.6449586505132425
-16.72058218979034
40.72137649083542
-35.19818279402079
10.999893071835524
13.085411735818093
-25.44839050171828
25.21638652009961
5.127646541737002
2.76660978934584
-62.35081840718825
-57.37656292480115
12.058027624238987
-32.432057344757304
-26.383631966122977
-23.289595274776893
7.553947806511532
-10.352043669723166
1.4579596346567965
19.00556781519763
10.539006522757056
-27.616289629818333
-21.62898771164868
1.3153798522387121
17.561902290964817
7.588932486066918
20.01797000056231
-3.6003847652580596
-18.338948266358535
-29.800019681392907
-47.32294436341285
5.0620540166015235
17.16044100892225
-11.317329162871118
-37.74457237178796
17.68142176549457
-24.360466250624285
-1.0628179662316481
59.40356230051728
-47.45693781035996
-16.022880120497703
6.232405878724814
13.534939676789978
0.958250601835257
33.77795733190019
-25.95845061301211
-15.558526195630723
2.0391164981304613
-13.814985613745646
-5.454880277122962
-35.7101931014152
-17.915343351781132
-17.246637598908578
-9.795347206648726
-9.62449706412477
11.000034543952632
21.405504086908728
6.859440258692153
11.497571513909987
10.429804329870489
-25.766800436818684
5.071509422526743
19.674152276228472
-26.24793277267403
-7.326303780316923
26.742311523263048
-12.263580758359048
47.86295366707761
3.354051107204486
4.147117421418511
-16.66908268054006
33.7251026295807
1.3974527804908965
23.622999621476165
-25.166414591554798
13.964415395293187
-29.218203820985025
5.273572085145624
-18.666626170778006
-6.09690159928138
-9.07994318521796
-56.478294131282766
13.647556550863962
17.909905803317397
-29.884279968409572
6.036306225123307
-2.6847396886014288
-10.400892461296984
24.39058756596674
12.709177950886481
33.95280922523874
-7.67460791980564
-11.0641198743981
6.365509173497155
19.899974628754084
4.249864271552122
8.071884069576353
21.662966486445626
-26.965773593635152
6.727495995391882
6.492278386646873
-2.0908112072114586
16.81582431247873
33.28941562989896
-54.499238692793014
-36.05386238224161
-33.27827543625709
12.890700811436881
-4.845909916915145
-20.635837461039102
20.10503077589713
4.352880456750429
-31.70325807539838
-8.021213174570784
-22.152423993074077
35.91249017264492
-14.036359680673371
18.42019263443918
29.683969930610733
-30.475844554727253
8.331420331586509
26.282578738773626
-38.80063018566173
12.641255087924034
-51.67124171814685
-27.570158755663364
14.618639201236821
27.23153306344032
-12.548834774998095
54.389738005502025
18.56060403792608
-5.928307100719824
-5.036498019155754
2.5846341239785593
-8.40307055802726
-7.193308112990687
-40.120958753193264
12.048532620187828
39.67976616526035
-1.2157646030963005
17.626881062361242
12.197317861882691
-25.01152374352447
-24.528876563409163
11.010526652239708
-27.801503299364224
15.010601604492356
-41.479301696871374
32.89106092341384
-8.321211689237147
