2 128
1 128
-1.1036304797454302
-2.563408555886777
16.17797149666085
11.481234942302912
-5.631528038394734
-6.806952783468556
-4.70246918527972
-16.956702000202373
-29.367123879806748
14.540681685049424
15.758877026348802
22.037830937930973
-15.60263184162993
-27.209336054170056
11.267769252673286
-36.689555464253985
-14.39891449549862
-3.64522779033717
-4.223569711620507
-47.247027127916056
-3.581206892235194
4.516677830158152
-31.002338964575788
31.67848307007722
-17.686433002994132
-8.05768674910097
10.000258809549667
20.112266311177017
-6.712021597150887
21.95543386308243
-15.885935722481648
-0.4502346129414918
-13.643777475059032
-0.09382345693185512
5.203635597558442
-16.029963834859256
38.52791554717048
-37.67793595269539
-5.757764499406316
-6.845167021469434
44.906049954010356
25.454621620858344
-3.5409010969210266
-12.349071013394633
10.59643070130568
4.068903195832431
-31.952781093574764
-21.55879463983358
-3.118565977892413
-36.10157526097978
-4.193114137316437
-25.49939340030408
28.219483599677773
0.6618563082241866
22.861320038734902
43.68325240848649
-9.653359217439773
-25.33429495563467
-2.417908677140879
2.0093266392535183
-16.46352620322075
46.619865640944
18.82789604601546
19.638188985593544
-30.006916938167954
22.255344378768882
-9.34783364721993
24.742191071943026
-11.60763790884387
-29.949748047360963
-11.567738185131994
11.246112078573987
1.4775840155001736
-3.8848523878303673
-1.9525790580560427
-16.39172758443848
17.89576932665727
10.539341972240372
6.02654119711107
-0.1628522598572577
-16.176568184912693
-17.25505847951965
-2.872897211550346
-2.8831126500260584
-11.770970188597614
-3.0483815015275137
32.516679130590205
-8.332020786193832
-31.81962964717026
7.982995642773842
-8.2572857040049
-19.734554809683146
4.166467685277116
-17.998811820573223
-48.22793895117089
19.676627345191267
-5.966247312013186
-10.87496513947965
-30.50432515955172
-11.27863273251172
-13.994753696468106
1.323321478270128
-19.092298171132832
-8.82101325452249
37.61791794024652
-7.690943803695834
-13.269032677450722
-14.216720639180526
11.023793430204407
12.946938151002373
5.132199295499261
22.313084263040043
31.862077153155774
26.71580344066186
-30.359300744067312
-13.579910010448543
-22.036837915892797
6.000287869883554
20.48347530085744
21.156256386729645
-28.28797098270813
12.599959294918785
22.479287041540193
0.7924946232758401
13.829647056144754
-42.05570968497327
36.912125267239226
-0.8602223261976434
