2 256
1 256
51.09735118772452
-6.974454736166131
15.578121935251424
-36.057552533889236
-37.01084454789532
23.64302321082983
22.572121346353413
48.52082452677962
31.81229441444419
21.030331170178577
-26.57297634094443
-17.462025613369704
-23.55540807498641
7.241948055352132
-19.953241009336892
2.91816448235665
23.727907408116785
71.24341880164859
-34.6289664308446
27.773117983060047
-27.453109250651725
-63.44401054187547
-13.73820791303919
46.723396329678366
38.25675589924812
49.794461986186846
-2.129631881059106
-18.243266453566925
-25.397246902853386
-11.85870681025533
16.502271970645694
4.126790899152864
-26.53678862445522
16.77226789996625
-2.921319809217209
7.242730623269067
-1.7344369637579953
31.662454321011143
-7.6848843323091565
11.809634651157413
16.117674146450227
-2.6528659697464656
-25.979098053496806
-37.66922440469349
23.51479568499243
-22.636852487954922
38.9557861736921
48.542676598975945
3.793830005450391
-10.23408978071464
-16.017419460318177
27.47522813754199
-12.560279732646496
23.68116226262179
-45.18247013752009
-41.35606443413922
-15.966597494274168
7.408416598670973
-18.097049951648152
-36.3673763617611
-1.726317518075495
10.18999717316392
-4.459104971084873
16.91744468819264
33.09779111409607
19.110239010333117
-2.0751738816202514
30.17859573489467
-2.6642201360386806
5.128396368000768
-38.69486505382069
2.6251930964324908
31.8044333118363
3.919867858816645
24.356755799229752
12.359408470596911
-45.87058547065657
96.26339925037715
54.18939502951537
0.16602126969491515
-21.347719014974977
21.448050541602186
-31.062577704667177
17.803579366589005
-3.021348076361866
-4.559326191202629
-12.548203889482469
16.017812640415027
-14.16877936309426
33.12326522769689
9.391557270085471
-19.211412198776053
-23.722188167037086
-5.303121522096961
-37.57348394292342
15.126326940201334
-16.646450307168582
-23.823852751468515
2.076339718691549
6.278699572921599
-15.714513282368673
-26.3838128559834
-33.304468303863274
17.46628615301821
-2.9570783026265355
-23.899667458461227
-0.6449586505132399
-16.72058218979034
40.72137649083542
-35.198182794020795
10.999893071835523
13.085411735818093
-25.448390501718276
25.216386520099608
5.127646541737002
2.766609789345838
-62.35081840718826
-57.376562924801156
12.05802762423899
-32.43205734475731
-26.383631966122977
-23.28959527477689
7.553947806511532
-10.352043669723164
1.4579596346567962
19.00556781519763
10.539006522757054
-27.616289629818336
-21.62898771164868
1.3153798522387108
17.561902290964813
7.5889324860669145
20.017970000562308
-3.60038476525806
-18.33894826635854
-29.800019681392907
-47.322944363412844
5.062054016601524
17.16044100892225
-11.317329162871122
-37.74457237178796
17.681421765494566
-24.360466250624285
-1.0628179662316484
59.4035623005173
-47.456937810359975
-16.022880120497696
6.232405878724813
13.534939676789982
0.9582506018352558
33.77795733190019
-25.958450613012108
-15.55852619563072
2.039116498130463
-13.814985613745652
-5.454880277122963
-35.7101931014152
-17.915343351781136
-17.24663759890858
-9.795347206648726
-9.624497064124771
11.00003454395263
21.40550408690873
6.859440258692153
11.497571513909984
10.429804329870487
-25.766800436818688
5.071509422526741
19.674152276228472
-26.247932772674027
-7.326303780316925
26.742311523263048
-12.26358075835904
47.86295366707761
3.3540511072044836
4.14711742141851
-16.669082680540058
33.7251026295807
1.3974527804908952
23.622999621476165
-25.16641459155479
13.964415395293187
-29.21820382098503
5.273572085145622
-18.666626170778
-6.096901599281378
-9.079943185217958
-56.478294131282766
13.647556550863964
17.909905803317393
-29.884279968409576
6.036306225123312
-2.684739688601428
-10.400892461296985
24.39058756596674
12.709177950886485
33.952809225238724
-7.6746079198056405
-11.064119874398099
6.365509173497156
19.899974628754087
4.249864271552125
8.071884069576354
21.66296648644563
-26.965773593635145
6.727495995391882
6.492278386646877
-2.0908112072114626
16.815824312478725
33.28941562989896
-54.49923869279302
-36.05386238224161
-33.27827543625709
12.890700811436883
-4.845909916915148
-20.635837461039102
20.10503077589713
4.3528804567504285
-31.703258075398388
-8.021213174570784
-22.15242399307408
35.91249017264493
-14.036359680673373
18.42019263443918
29.68396993061073
-30.475844554727246
8.331420331586507
26.282578738773637
-38.800630185661724
12.641255087924032
-51.67124171814686
-27.570158755663357
14.618639201236823
27.23153306344032
-12.548834774998099
54.38973800550204
18.560604037926076
-5.928307100719823
-5.036498019155757
2.5846341239785557
-8.403070558027258
-7.193308112990684
-40.120958753193264
12.048532620187824
39.67976616526035
-1.2157646030962996
17.626881062361246
12.197317861882695
-25.01152374352446
-24.528876563409163
11.01052665223971
-27.801503299364224
15.010601604492358
-41.47930169687137
32.89106092341384
-8.321211689237145
