2 256
1 256
-0.08057601309240531
0.03342948151782218
-0.0505121485714922
-0.02793434835391199
0.053243577986016685
-0.0449364440303022
-0.04517620546225197
-0.08671355605415505
-0.06450045968922458
0.060150013273393844
-0.05673745649025973
-0.0838869643121033
-0.06208960916979564
-0.06290433049266518
0.0010290682311036945
-0.03873909469973056
-0.06130938130390686
-0.08373857138007434
-0.06440519083062402
-0.07829073206407114
-0.060414599681757754
-0.02397256894575315
0.050625833181539195
-0.023981677922394112
-0.037615166388826476
0.02584412799928619
0.05010223409183513
0.0477348925978695
-0.018763341698069792
0.02068699143354121
0.029925327577959307
0.017160193710216456
0.08157010206021416
-0.07223498239064098
-0.08015169590100646
-0.0017239424366400356
0.01113661816776485
0.03376294757263049
0.03492753341379894
0.003236794475446388
-0.03727213140503348
0.06625732168919372
0.037031092111369346
-0.011716358630263672
-0.03302968484322284
0.05540489901533772
0.02987379345265546
0.012170261409956725
-0.07590651312304184
0.003944228094587377
0.03179519910589839
-0.011221067767780844
-0.05818384083334773
-0.06203534241615717
-0.03550888457006706
0.02901722936077718
0.07233403668233473
0.03690690842946039
0.00565079729013872
-0.008914743624358267
0.08047337771954924
0.03707725514582146
0.012391114852250933
-0.07438612111734884
-0.03764969922700455
0.015157267228310291
0.0006976699236955585
0.012388658100564042
0.01942709699611884
-0.00046106448572326555
-0.07289573220220769
0.08293070491680869
-0.025947240174241635
-0.004812347103029662
0.07889970598567476
-0.003940115731981479
0.028189639320864997
-0.0596800480986607
-0.03350318278451279
-0.03193187086683606
-0.007024988203249197
-0.03305462129037171
-0.07521484029828926
-0.009341532069612125
-0.04652600663884769
0.02020025128685349
-0.05797625528428856
0.042772323075729764
-0.06441717460961252
0.02580386454130897
-0.03649253322760312
-0.011968964842995474
0.050300952987049695
-0.00138568492948177
-0.06475675846030783
0.016430355167713104
0.06398358321024863
-0.014397683196904371
-0.05666720080636952
-0.0119687007007401
0.044063945398008654
0.0297094292658187
0.03319584707070479
-0.08359560749715912
0.08489303560648485
0.0424020797320572
0.053466046738097475
0.010363951247120065
-0.07165478299384184
0.0673143387676536
-0.049200685319891094
-0.06673061375921394
-0.009512270726072402
0.04425545240431316
0.06449782932381082
0.07135964975971434
-0.07165693613573955
0.05257713262725536
0.06334002311175947
-0.02188289793247254
-0.08129629705111276
-0.03230573910286703
0.054434756230729325
0.04901780089892227
-0.03392792998277858
0.08121510089033197
-0.008701026998672383
-0.07005603169016246
-0.04416977951428361
0.05967485739266072
0.011421464603811923
0.0030021507094894354
-0.07472453967640853
-0.060228917765462985
0.015821403521962023
0.06210494183892451
0.05302228545361985
-0.08680244536725622
-0.06151224216705048
0.060405352888563774
-0.004029680200327013
-0.054818966745507944
-0.009590215949579534
0.0862672884266662
-0.055851296474006946
-0.022591174020271974
-0.06525912845729231
0.08837407888479161
0.06951915974714411
0.06349044031684926
-0.044451885436232436
-0.05495801030587137
-0.08330591084619594
0.025734720979521498
0.0629790396843578
0.03678036910283382
0.004584813312555573
0.03191105598296697
-0.06142129793878026
-0.05182278321133506
-0.018178950236022357
-0.0049329721673386
-0.08018790879364782
0.08098323818675164
-0.08495373754812714
-0.004935521312954428
0.052710613981578176
0.01836786180230209
-0.04108304444098205
-0.029559974120202333
0.050991939419878236
0.022925831993412676
0.0040284136252647
-0.050689597597978815
0.058361824876532666
-0.0031524855263761406
-0.03227217483571162
0.005334112570533497
0.04368865451410412
0.01726256718157494
-0.013928006916767722
-0.07666108709237274
-0.041701829487786155
0.08063797037595637
0.028421195694605782
-0.05798808538757335
-0.02804489923934815
0.018640730982667882
0.03355353071368228
-0.005061163746825636
0.02162684347007372
0.02744278723131975
-0.01888169200389852
0.03318855156101591
0.06582580949383476
-0.017169682326739807
0.005636587146151581
-0.016536739683599918
0.06253266729447594
0.08209756058722124
0.0037931237404655377
-0.01279160019565563
-0.04371392836411791
0.07056162387176215
0.0710504205499396
-0.01224064533305559
0.018678813363060875
0.07745533992631691
0.06976920824613692
-0.0697939828466736
0.03864166182387802
-0.07105295282927664
-0.051527126397762905
0.06405030883850557
0.010441299914100676
-0.06425996199821522
0.025167459531242893
0.006098358671131558
0.033947660923924726
0.06507736708037781
0.0847601464951834
0.06838233645935404
0.010355378536160692
-0.0011039123567219613
-0.04957634317362533
-0.03465467853192058
-0.07892444924986326
-0.08328468917980719
0.006445161408650455
0.018861009349565437
0.06022633888986713
0.0453490257599992
0.08038044915321156
0.007860766786304034
-0.0067484508916018406
-0.015989706404659985
0.020752035187830198
-0.01522297520048145
0.05005118962845273
0.050418184917077495
0.07597499424753876
0.037177555899606196
0.06936558895956074
-0.08303244868852948
-0.04378018308038237
-0.08487929907012685
0.05220051989599014
-0.005168904377611725
0.0751240664390765
0.058473308617220665
0.02213850663231129
-0.05758017890359514
-0.06433041844039822
0.054407059731499965
0.0714064010255441
-0.08080956301981353
