2 512
1 512
-0.05657038319118669
0.03598198648510356
-0.019107657440065803
-0.03258080090224333
-0.006172563390477989
-0.04019173391133432
-0.023707822377636564
0.03299954174580452
0.05459155994585142
0.0130051245281846
0.008034007646968391
-0.01817574124555972
0.05565225833228561
-0.05611129236873835
0.04911053912268394
-0.0007053600550597783
-0.0003567617227024644
0.026207162240625193
-0.010597074673353885
0.0045540643715046986
0.017107382286204342
-0.036780660434771684
-0.03326892169023024
-0.03595236476722902
0.04663493112575781
-0.016737157776423095
0.016008512165430755
0.016908415203416863
-0.05139851893291664
0.03843028481192445
0.0026881654397194893
-0.03526368975899054
-0.05590604777186166
0.006042034957492989
-0.03646721724773036
0.050382501322067424
-0.020802632944885255
0.05725109738041727
0.004458673949417527
-0.04701038674269124
0.0019799631127066647
-0.011060937514355787
-0.024544762363535644
0.04110408215637641
0.011546929476891218
-0.05503485053885415
0.025062930785934454
-0.04487378573200951
-0.025720087848198916
-0.039743886728120695
0.005080894940224068
-0.04389663301258244
0.03693873613017923
-0.01698131211482909
-0.020074603323325377
-0.008881017140443107
0.04619116788270017
0.05013060788577696
0.023566569624577982
-0.023761170229145645
-0.030531058059152502
0.05462908698786928
0.050728460318819474
0.02799684495399561
-0.04888390963719412
0.002566699391300692
0.00740023003457152
-0.022619496232617664
-0.0019137592135391318
-0.053533469854763
0.04169208780159851
-0.055533517611935826
-0.033495880486995575
-0.042954166007601616
0.03191826940021096
-0.022909701239018324
0.04527231118636818
0.02030747404684448
0.020540723694443833
-0.042983417491036374
0.05375218735664536
-0.03401724654440001
0.041368758177384723
0.03695534689128596
0.05573554564911955
0.05505978479954303
-0.021691500269126945
0.023652144418431525
-0.021692669504807305
-0.056474491884181674
-0.056807412198953355
-0.0042891533786455355
-0.05059129924193345
0.03616536258793533
-0.01043074409544359
0.02496595533636846
0.046480496561037504
-0.03716202964538699
-0.028651478946818132
-0.008496152955118505
0.05131299276682451
-0.044980156214948344
0.03961131309037014
-0.05398372415617725
0.01890987641912982
0.018596346020386567
-0.032858961349530105
0.05346725567598297
0.025547304566676282
-0.05826611583642613
-0.010893684313044744
-0.04233932686295254
0.008638411791280567
0.01193587547016385
-0.012482910834411456
-0.011614759843793065
0.03959604021409725
-0.055407825565983476
0.0037025122575841674
-0.02006559500797883
0.0034162810658598802
0.048547727999925835
0.05783094253977247
0.02349580724028902
-0.028770325077584383
-0.03128539507288701
-0.02387022442168503
-0.04914744959911806
-0.02806142878285911
-0.052218320427128206
0.011968396059221814
0.03693455795345399
0.03524190818319571
-0.019984429112391677
-0.020156129641957163
0.019189847079205055
-0.01715459991205158
0.05058946923128427
-0.031078818173763484
-0.03793310284006378
-0.05011468664840309
0.049504282430394925
0.021550565561285845
0.061664560716614164
-0.033017507332846266
0.00551260527138929
-0.053833730313463904
0.055658380925579884
0.016406267222018073
-0.029726337681666604
-0.004761243378014576
0.04191081754643659
-0.013024623836249902
-0.0017325145179129808
0.0027927149189390654
0.04712527336820646
-0.022755349872273137
0.0011522951495933492
0.04436317849098512
-0.010161502349659457
0.031346894719428864
-0.0356257349605497
0.03200291830931987
0.030043368189248174
-0.030422776577122404
0.017069582482297452
0.025436176938233912
-0.04372596263385807
-0.007642133052272973
-0.05802502394766125
-0.02431449381409638
-0.02858372846520059
-0.024521559383192115
-0.024512281026776647
0.05071419143159178
-0.036135293468701354
-0.05622608785097173
-0.003582926033444886
-0.046372458944039435
0.0038598293476378442
0.01709260746056214
0.04736609569625046
0.05290024394339002
0.023264473212913514
0.005569219493290492
0.035950586551403055
0.01431060493505576
-0.047816391843635286
-0.019391408119475387
-0.036631441645048585
0.061575536096949504
0.053273596414815216
0.045231388074970263
0.028947620768665083
0.03842524426238356
0.013289390579123428
0.011354628323869478
0.04306513220190261
0.05488915574122606
-0.009094547323092783
-0.03483003625283429
0.029552913429864977
0.05286872066639289
-0.015881160143490003
0.06199821505519364
-0.026958699732334945
0.02666364118740358
-0.007677022119794721
-0.008790514809314823
0.026719104834291768
-0.048125068462378615
-0.05857052121543306
-0.027822151244345755
-0.012285035182241485
-0.011602801886047981
-0.008876387661530191
0.056327576516976605
0.05314112609113726
0.038945469256576784
0.0011406336486237678
0.022512746791142096
0.050350286955667345
0.028049202697117886
-0.05807066285640443
0.04393838760721748
0.0032484014478498247
0.037905664127525523
-0.058135450825724785
-0.05407378004746703
-0.007816025832673115
-0.014307608258898402
-0.04219841793174431
0.0488626394548535
0.0022603109985628034
-0.010832787976356562
0.05682861599626142
-0.01255759009073247
-0.013802222593144953
-0.03880307961706368
-0.01914822307168372
0.04046267519532423
-0.05606561194350598
0.029614069748720023
0.0034203804116034187
0.020899354596253555
0.05386030727928498
0.022096225961588417
-0.025931141768929078
-0.026924264519120403
-0.023064216716306485
0.036923834399294114
-0.05925372555493076
-0.0517806577301069
0.006396814459589714
0.058917047886539634
0.021850685112693613
-0.05877003866754381
0.029172948127730955
-0.017343997035340647
0.02715943663661176
0.043318827512713695
-0.017449575949892077
0.039555456518313215
-0.021824459582802033
0.05093897780074953
-0.017608474932433005
0.009243617082206237
0.010096172576792281
-0.025931664364600926
-0.0066286717666077105
0.02147678034698254
0.04898692021642034
0.018375771678226266
0.0005353400503316785
0.05278303618675509
-0.021725931042743896
-0.015794515355480918
0.03452396087833415
0.005918836678573833
0.02401578341073357
-0.03998972298399178
0.043860182532872646
-0.060060329219487035
0.05558471130338327
-0.018571122505569387
0.02700734802869806
-0.004981586504302443
0.01065571313380935
0.022912299010595327
-0.053773552542219244
-0.009157288561045696
0.02115283116252223
-0.015626732923407632
-0.05955698046663856
0.04543812493751971
0.04125511578663871
0.034342257527979286
-0.022152136326277647
0.029049107230524618
-0.045842510404289855
-0.01758570573029329
-0.005705479415719056
0.058592080005577765
-0.055376927563462006
0.056465693677977574
-0.03140553678044551
-0.05208175283955939
-0.06160210908660725
-0.03382980848611937
-0.019423889596424035
-0.046073078454750685
0.038795896921363524
-0.014641705922894918
0.036564348233444594
-0.047049949356791285
-0.05647677844658175
0.06241705964559144
0.03272226692696961
-0.0057011127464497435
0.050158574127624506
-0.009432141518148113
0.02144278333189803
-0.0580972969876908
-0.06241307101441024
0.003322057682239629
-0.015479010773450472
0.010967293923425603
0.0020714535550088176
-0.016319953938034107
-0.02824639373885919
-0.017147077570452793
0.03164844779000553
0.03937116095649919
0.01138261839179426
-0.05168163008995444
0.007035822048648943
-0.025368905633625358
-0.044403616776903285
0.038585885159319946
0.04036954944365315
0.006875034541083652
0.01767062834052477
-0.008473123938590912
-0.0012607837965148555
-0.005935803869507289
-0.00418556904029542
0.017220465197641407
-0.050253942693363376
0.037957811439482236
-0.00891623817775146
0.010158412782376072
0.05879461560419039
0.04363512658957021
-0.0509402708288339
-0.04888970316752689
-0.057027753205259865
-0.011751512168596434
0.016091368224965777
0.010869134641783601
0.036292169938967195
-0.044105763743846116
-0.024475529510681368
-0.06041168904631081
-0.0351909618061777
0.06158892508607136
-0.03555965337844996
-0.031855729922686954
-0.01173043151589366
-0.04218633212468789
-0.0566560896546074
0.05774801066236601
0.06016827926276315
-0.009041450209061025
-0.026074666821288797
0.019109295491584466
-0.05645583718643084
0.02804911431622284
-0.04837317825618223
-0.0523522928267427
-0.02435283595565063
-0.03831871200619176
-0.05871872300832731
0.04343528018431764
0.007270001661285566
-0.03228493423862497
0.05129090852684033
-0.005291090736536858
-0.009981194262244225
0.008594650117432753
0.0008065661964757609
-0.04800982363247633
-0.008706701547442824
-0.008757058235526485
0.02381907891623207
0.030054198889300235
0.037748794340640726
-0.02986326764517111
0.006110959694475587
-0.03391150766694895
0.04974993144950217
-0.0498702574368594
-0.007027075137959943
0.042856475390969984
-0.04596950121568408
-0.059933888416044315
0.03920501728758348
-0.02562965029656318
-0.030243883131228208
0.04681831521634268
0.02834233794698049
-0.03249049546924174
-0.04701581581788884
0.0440663402012495
0.05057586700281509
-0.0378299330994956
-0.05675453655283838
0.05877785120119926
-0.012693324436884104
-0.05344261444483672
-0.0370057118126014
0.051795918502282184
0.008961989617279023
0.05716847393477102
-0.05494490650959398
0.026597571329095945
-0.004376519702520204
0.007340998420130987
0.017102961860537322
-0.019012852114117018
0.06123779141116363
-0.052714094362669495
-0.02136355495901132
0.05441256923485743
-0.03423802807466371
-0.0037188649536134405
0.04600393752919944
-0.028847913279135287
-0.027209371512557756
0.04247110742697836
0.012869621101376127
-0.023100228645709736
-0.043518382117191945
0.004638543809844131
-0.014405905306383582
-0.04362131915286399
0.041178127759872576
-0.01106268804182721
0.029368795462547392
0.03490719469460722
-0.011510466182692386
0.04723418379846521
-0.04069489886271378
0.048947644140975716
0.06129132501971701
-0.047631724414378435
0.0247642641224841
-0.012721926993603486
-0.02461432142878818
0.05318356079508599
0.028908552924719333
0.05301864822400812
0.05016594262239861
-0.03211623466115618
0.04868345490372765
-0.005813373856237286
-0.05482178353897765
-0.02664737565331589
0.00717626859186174
0.006486844807554043
0.011838483556531318
0.01384838781295264
-0.028306818314793772
0.01435057791975436
0.05392188407931302
-0.03606779855884709
-0.043818494872215466
-0.032166212708561834
-0.038033942466927304
-0.041409675821891506
-0.049155557383840434
-0.06180907524949725
-0.0255123902231483
-0.048518343440989195
-0.024305475332608864
0.02708727946484228
-0.04785927308388045
-0.033102610213257874
0.05279524241786672
-0.014685096437025744
-0.027685536296870622
-0.00031731560720850427
0.03849041553850728
-0.02784624435334107
-0.04260722496727623
0.001910062990141917
0.04189977519551742
0.05650292274455408
-0.008252717086980041
-0.01713396589920467
-0.007744520712334266
-0.014869748258136209
0.002504503834058064
0.05033403615280638
0.058003514243876855
-0.03761889861155407
0.016636834510245307
0.014587360059657953
-0.01615834522110396
0.046702339171190405
-0.0204704242708173
0.0030436407117921394
-0.03696724758382952
