2 131072
256 512
-0.01176955037074527
0.046828137792811565
-0.03751132820485676
0.06210072394530084
0.026978662017110643
0.03934932530291852
0.01283770124443402
-0.023044715834942966
0.0009769159405292186
0.04274150905220773
-0.04442641805467363
0.049384966525062864
-0.0023293254699719708
0.0604914927349531
0.03514748788765431
-0.05022884203335267
-0.033290323112236016
0.032485177324803986
0.03525388684406731
-0.03724198223907004
0.042002397482643485
0.03822655569161334
0.05536433208204839
0.02599818301250847
-0.024251995314347043
-0.0325297040577708
-0.021198068039391654
0.046219660882754234
-0.026573647753255516
-0.034850480791621584
-0.030412937773017023
0.020366855687261567
-0.030268437696797042
-0.011508998723917153
0.03606094756319073
0.022952506017553633
0.009321201558919119
0.05016599688891437
-0.0235421471084464
0.05031965788935167
0.030272331988401843
-0.05850197036782217
0.021097763086282455
0.028269691757552073
0.04657555245430497
-0.00876412914684732
0.018023675886656054
0.062102457220136
-0.01619083836554674
-0.02587744299134306
0.033181065417414106
-0.03624130995700688
-0.06135085837015746
0.04141071667551043
0.02498894299703001
-0.02729977006534617
0.05559217582551811
0.017078602264701825
-0.015416300121791056
-0.028287341626183873
0.03062256740788739
-0.031331805302778466
0.03586315867505747
-0.016358425782166033
-0.04385597327942627
0.007126928718214117
-0.057328016843420294
0.019313209013289503
0.00179471988093835
-0.01863785056526075
-0.007261083624300293
-0.015347589898105805
0.052082687201556115
-0.05300139597804388
0.0033541980329298833
0.02084405305878775
0.05015653598132786
0.04232151653600883
-0.03571859620347497
0.022950087572614724
0.011067772839389532
0.05687766611976169
-0.05943636506404188
-0.05257570521983682
0.04387327067200112
-0.018917486305862995
-0.03139626424376284
-0.011910019402490769
-0.04872453479221637
0.03234114043184618
-0.04628490145443807
0.039212521127001666
0.060222608191837855
0.0010948014155243988
0.005957645664281668
-0.0549983758112404
0.0545859236859098
0.028668853477307046
-0.05236625880603513
-0.06039674724621682
0.06116516765501646
-0.049842913488414416
-0.042460999047848884
-0.04855118399456921
0.024429787719274603
-0.0021077264000676217
0.0436851319859581
0.0405624845694015
0.0505905980276232
0.04102493663296015
-0.04847671941977657
-0.06236848039335822
-0.01865267611440048
0.05939518018177296
0.0032587320106120666
0.03364180134012903
0.05298965019230776
0.01459742085127219
0.009445074347188982
0.05303802160067917
-0.0002705151755073714
-0.004158291223378545
-0.014672904550191613
0.05591247097321347
-0.05868874026463713
0.05507376071301768
-0.00624912084744017
0.0029098870888917268
0.042531397832578095
0.015279362111550494
0.010205218390701138
-0.02939195904474091
0.0564526802950931
0.05586539272249943
-0.04845113709173977
0.03554980746305394
-0.05819191480331067
-0.010296377270450003
-0.02908071344716116
0.028334625924807785
0.04352165371527663
-0.006266114651236928
0.02681450332012752
-0.039010141150461745
-0.0599994586617894
0.01589784199163295
-0.01670617548779722
-0.04756860634079043
-0.048651291494434624
0.05436740328951816
0.015505745766980909
-0.013077615349869854
-0.053390439169530964
-0.03847043275988966
0.004205971373577865
0.027798151275369064
0.039413410972763845
0.05387633294246753
-0.0119296030014345
0.02988016632679084
-0.04239797682909901
0.03449789649679274
0.05344777496974971
-0.06065663514688575
0.02822968975729116
0.021043230294692
0.038179709341256494
0.028268600091868473
0.025265224583527462
-0.022748732467669324
-0.0597034007347285
-0.015255000950801274
-0.04247617879396463
0.04481937836127816
-0.04510539917793873
0.015523675506554922
0.006244709629288732
0.021165254122627288
-0.05615653555652542
-0.0010933072556949806
-0.037777279404353874
0.04939086250883994
-0.010681194515832977
-0.0015264684240686858
0.0011577658265110589
-0.034548467817929036
0.026900134585844348
0.04315872291627632
0.045837380113902086
-0.027314771365648593
-0.0442762222143264
0.006610565804093151
0.03963597716887635
0.01021392461130234
-0.02213736719419007
-0.03086684179530062
0.048496282421103286
0.053740021338898776
-0.03838183469388728
0.022316483035373588
-0.0459354516193072
0.04518150894706711
0.018550362597755745
-0.02486368365737465
0.05112688568986081
-0.0018344037271475348
0.04361055487967983
-0.008529640665472417
-0.048717779843582824
0.028830514025076814
-0.012408457928498552
0.03654444679681277
0.004591041624098124
0.003595789238146379
0.04917243568137946
-0.028928288235319188
0.01854899807312965
-0.04042851880303527
0.010764337285488422
-0.043570560227611806
-0.01940664539628664
0.025661594883092675
0.03984941288175873
-0.0146775569406897
0.0617943797319312
0.05722836520654941
0.053928595442773904
0.05812829812949633
0.014627836948255783
0.03766724883992962
0.041162796393431504
-0.03644694022334529
0.05862473785275676
0.02954280989201549
-0.052682501903274316
-0.035437058363881925
-0.04496236733372514
-0.039789218505313105
0.05280880174061708
-0.04432428008145669
-0.0022999042751423444
-0.008808736150851813
-0.0077995227466471214
-0.022226709784712983
-0.03721905812271093
-0.04769518228479739
-0.005806757753063315
-0.06047159792450086
0.06019366051846154
-0.023298623654029387
0.042736861479318024
0.05155579330814616
0.05626535859413594
0.01498029013428885
-0.04650974939139877
-0.00981975386300389
-0.0013018189904724362
0.047565256250586906
0.04881770040411355
-0.045994324880812475
-0.025474879644779385
0.05801848442030586
-0.05419944479304994
-0.014105470989741754
-0.05396488680520709
0.04180274006678896
-0.0022776396135073674
-0.010450501933847956
-0.035381749755444926
0.051191178608149084
0.005109602711501945
0.05648422145134977
-0.015303717540166085
0.00283900831042147
-0.037392974290530824
0.034489548453972944
-0.03987477192218695
0.05232943780479534
0.048799620753661684
0.016956837650069567
0.009537247610979361
-0.026249365553125997
0.006363255704225189
-0.05170912323548701
-0.03298119696921994
0.05625299583329497
0.03675650772031836
0.04535548009189346
0.059767545572187435
-0.015979687864973193
-0.03785996679618416
-0.05726875514372671
0.048362940912034115
0.05793494982669511
-0.02677116112789547
0.028892645407113515
0.0027012077567972743
-0.04440189243937224
0.020527763496360315
-0.06201717272957941
0.031963085075945176
0.030151622896054674
-0.03122676438993231
-0.026161389569550633
-0.03156643181997305
0.027556449768693116
0.033002884467339365
0.051903410487902334
-0.06113402086271217
0.03966836801424809
0.04207784821406118
-0.04299651694988254
0.058404433724299314
0.013053901923152767
0.001099781646733619
-0.0038825102559161963
-0.030796591057494185
-0.015463001923000456
0.057116103685052426
-0.02586996967419086
0.02348623926117156
-0.02034882862689785
0.041857088710516195
-0.007414819027881491
0.0037100789104501926
0.00395330440387255
-0.02718628261698895
-0.0030062008983593592
-0.027004625745606785
0.037910835971047156
-0.0609326006985172
0.03999349861000829
0.019883909105140107
-0.014292539101103492
0.052178412248499596
0.008324673982630674
0.04912809986975595
0.027198922484821305
0.046961799142524775
-0.05797117092776869
0.030025704468256666
0.021123618573197982
0.052136075837101746
0.020865183552064567
0.04231032294923807
0.033503454476988055
-0.0034816397479077855
-0.010181243911445951
-0.006400431839230294
0.028574483542461098
-0.026662122980105393
0.03601740831338437
-0.017776508937554097
0.06024291659181904
-0.06029820178017225
0.06039709968331836
0.02909305035637413
0.021271828596739744
-0.020868973844892624
-0.012061629357900545
0.04290106297671547
-0.0544635159542746
0.017931049342754298
-0.0237972951295199
0.042049536123541946
-0.023999631234722398
-0.04182324049145191
0.06062191522608663
0.006123302949643915
-0.010227069298982787
-0.010573666320497206
0.01300833941746629
-0.05043605737593538
-0.04129778264019076
0.04490836931712377
0.004994003346927261
-0.019816704947770127
0.016811363517936172
0.03157630175540762
0.032167198293556624
-0.020197774011592947
0.024868341759020817
-0.011411337782448417
0.023195935846611778
-0.003057726946901137
0.030480737711062713
0.02273562795007791
0.019131757112298513
-0.021590874848572122
0.05381117724306388
0.034019251662335305
-0.04883608163077186
0.05758894446943171
0.027056809770277673
0.017868635719599315
-0.022722831276085664
-0.041421434742382655
0.01573128877990423
-0.05187498952755693
0.02221825272750985
0.03519004971092871
0.05755312367307199
0.009881442070318961
-0.05418183187037671
0.003076510420453648
-0.0388732869624794
-0.043193750331768276
-0.028701221241953314
-0.05158567431243532
0.04892231676056318
0.062491250335367225
-0.04224966725732914
0.01412398216956756
-0.03481480892284205
0.03435625126394625
-0.017574437064074865
0.004227819637981286
-0.01076174855646114
0.014815335889033372
-0.004811119948941899
0.034855273106174804
-0.008513758428871502
0.03843824675832378
-0.01986260030477543
0.009539221218346798
-0.05098909528777607
-0.0378284036595963
-0.032235441178677375
1.2202589663765083e-05
-0.020677327745366954
-0.012691185374917173
-0.05020105215670905
0.004107286268850082
0.048747429373773
-0.012433620283703413
-0.0602732306632981
-0.00231712573014034
-0.016802517554246773
-0.060841757612830734
-0.0472857369370843
-0.044394765948443125
-0.05881212633466531
-0.047052717562809536
-0.04381527362732814
-0.006937915404852681
-0.02088323486701404
0.006933343174051031
0.03807338973629688
0.050677750973435805
-0.02673480640746625
-0.059837610762001066
0.019113439397758638
0.023417620482734446
0.037612862765527645
-0.05990070547767872
-0.03376299606114918
0.044738310271324445
0.0333488266489494
-0.0517051664401068
0.016644025916187518
0.0004107696330883231
0.032878222219979346
0.005727634872651418
-0.001007569483760448
-0.061398665755455654
0.05918984849519713
-0.05569914582656935
-0.027924974027515172
-0.018599564437662152
0.015696621778212388
0.03484216272601293
0.007788947698832967
-0.011249402843641355
-0.029692361592260904
0.05174672946104238
-0.0151605140634906
0.02385035151151826
-0.011041216106642672
-0.03830823545271655
-0.0010859115106853915
0.008793375603512147
0.04141718761089285
-0.004918643477411915
0.041053041643237996
0.06218993541598127
0.01447590644961706
0.043794648827173537
-0.0011097463984527098
0.015496558661648492
0.048435983400234285
-0.029000171701769464
-0.03187594691330541
-0.025480955661542595
-0.012301065729771006
-0.006645833965549241
0.036731518009353474
-0.05215362756630832
0.018551614793649373
0.031273230143534704
0.015700454031036603
0.03496785370376138
0.02370671888009977
0.023958734894667582
0.04179393685533309
-0.017054324717961904
0.04696026678495333
0.05547701019519314
-0.021047498597330388
-0.029112590435524426
-0.01885732207055228
0.048345409088923784
-0.009231698097802705
-0.008413783888159746
-0.005164537939576385
-0.060091112135471365
0.018732884639108337
-0.02644405060849619
-0.011822369875889539
0.05038819730775767
0.0014586364525875776
-0.02205378494312361
-0.0376861205197852
0.01169722194288275
0.05485501954894784
-0.057301593900650254
-0.04989519022429533
0.043142548355179396
-0.015287293912072812
0.00540722693828724
0.031122553192546292
-0.04790154278617494
-0.045305799177651714
-0.022746351849549967
0.0035252400411881764
-0.02739203327505171
0.021043685504459408
0.03653103745869699
0.010899149861500713
0.020082556470482165
0.029102667122296057
0.01234111017152349
-0.030329108260850956
-0.007089999389274556
-0.004176215380890954
-0.058277097729815326
-0.023423595557004264
0.0484955488313737
0.06103237958981784
-0.04476900447394815
0.03567628554575348
0.06005390563449952
0.006075726953047172
0.05241576180317135
0.0471244466607123
0.005191731702317347
-0.06076082026485181
-0.061006625507807936
0.006816196490059794
0.01869503963967403
0.043843292845811184
-0.061301545979676235
-0.004625320687207251
-0.01425232123170393
-0.025640038397943415
0.006964078779663248
0.018700311226649998
0.03406453574771761
-0.008175741482391764
-0.00842613594151227
0.03731303440289515
-0.014869082462669143
-0.025630844792124446
0.020000319468993926
-0.045797876181989765
-0.04432306658677467
0.020937648032696914
0.0037301594995031713
-0.048744426832013986
-0.0013619656873110062
-0.004840963750124507
0.01647169207337237
-0.04816741522427973
0.011023473004501945
0.050314237612591996
0.06130424212889541
-0.03126893220210066
-0.055112100652014016
-0.017887068999034566
0.049102229812583296
0.029585985792705546
-0.021092501386421974
-0.004426742426267879
0.0512462008393613
0.056543969130601564
0.01778209378518934
0.0120896487332401
0.050549496740698786
-0.0403125304310186
-0.047445420046613
0.0165627501288864
0.031740584057688835
0.049033894417763145
0.006279788075410574
0.04119915216607376
-0.03928876805029898
-0.008703649411774676
-0.05416567983576651
0.05996328671734879
-0.058237926349377446
-0.009881415581232676
0.020200775307217114
0.0043141351773208205
-0.00915841038450904
0.022839294897534012
0.03521069196886808
0.0188575258570698
0.010512099537797163
0.02025626108506527
-0.05993180956358334
-0.043968185227090985
0.012209170395978906
0.03504664748815816
0.04114215860706954
0.007693294797689903
-0.05009582752670356
0.001211451800590013
-0.035702046079612894
-0.0177109153328855
0.00773791673366371
-0.04447366323131786
0.02022386630763621
-0.008725958443872679
0.044913519108964774
-0.008193022512399699
0.0459540755031563
0.028884470675178586
-0.052960969996729716
-0.04919805708334447
8.075770063775688e-05
-0.009413514099415305
0.01498481483688227
-0.05258685926667194
-0.0056010435484785395
0.0579869221320674
-0.020810589677713456
0.034111167229889765
0.0511701450631129
0.047489834803195276
0.00227408264927284
0.0179557175981755
-0.012095206743273577
-0.05762093962786389
-0.0033400843090650163
0.00656488576686362
0.05322981171961134
-0.0019631815202637982
0.04891199166808614
-0.0021681862361113686
-0.05066301771148394
-0.018926347049151134
0.029808132197235503
-0.052856439587880825
0.04099770901017794
-0.02307144460341355
0.015829209350425016
-0.030919066985189838
-0.017067422592028866
-0.02524781410904604
-0.021433559419364253
0.03260913645836482
-0.03869790458553204
-0.03603549077406327
-0.009575749407722154
-0.0304686298971238
-0.015625192672420653
0.0031314274403687332
0.05382765455047891
-0.04872789937861211
0.01694658732122657
0.015566427728725475
-0.03272080801361312
0.05629788497876075
0.056420640469856446
-0.05615694092712018
-0.056276014276158116
-0.02778238024260762
-0.054130734901039805
0.007766287869508558
0.02617720918056018
0.036558468134071244
-0.02748249442537448
-0.0005634919433495227
0.05260801747500094
0.05554223972764006
-0.007182518704972495
-0.06062044308776706
0.0211762725444551
0.05010974493602451
-0.023417552249864425
0.04798079118423646
-0.029316367301188608
0.03764236836722989
-0.0047981335839928215
0.0226749352565041
0.040698417706431754
-0.04155894842605539
-0.03442975109349563
0.027268037734348227
0.014042475187265006
0.052638383209842564
-0.03437397348480676
-0.022138045809784093
0.012433198212827205
-0.04955961759559637
-0.05156489488088873
0.023497972006245326
-0.0619557723693061
0.02013286998433444
-0.03240500784964447
-0.060970106673755485
0.06155254195813558
-0.015471190291232227
0.008557078955732584
0.01269372226614998
-0.03090312346162478
-0.026620874943045447
-0.0012126709638653475
0.02449083924041814
0.02072734785004526
0.05706849064050099
0.05275187116282474
-0.021660873630955823
-0.03698076120127399
0.04086772104877948
0.0007659957749868439
0.010259482104457788
-0.02440391875964545
-0.03613468902121777
-0.021009498661674755
-0.05203129765829522
0.026144503094679358
-0.0010004610892450359
-0.05447843489604339
0.061172694021096964
-0.03502267186059089
-0.04926586663356931
-0.04406338739847567
-0.0033757452726996535
-0.01954375486331401
0.059667202437286536
0.055598115191888224
-0.03886536658710795
0.0206317217828756
-0.05726885786270391
-0.035727211773208235
0.02434075367796566
-0.04490315254913225
0.037243592656337025
-0.026709504343873976
0.04317669395750325
0.031581730732838494
0.03953396972332753
0.010393590775473359
-0.04135894027025686
0.018124131687338934
0.0027447008273704244
0.031197802420560344
0.012089267825572582
0.03471422401725326
0.05750922368566056
-0.030004700395600267
0.018985613615238827
-0.03797962525535555
-0.011614347166999299
0.05371275452632176
-0.002389405087618659
-0.007654832700540195
0.0005372185864975231
0.019563972201432755
0.05595610582417903
-0.062039317915004326
-0.02384664977276346
-0.02126887710071333
-0.03894070159001404
-0.04748085759295762
-0.021207067022379743
-0.05051123632527991
0.01501642959017324
-0.04903683438472387
-0.039767289455046574
0.027503477364977266
-0.0364234889716448
0.01929574739084974
0.03716141797889729
0.03813431251711657
-0.03805157948640004
-0.012808516495515619
-0.05485906070982156
-0.011882725466387146
0.025473245182687215
-0.06170922481439601
0.0515527364633681
-0.060849614721072094
-0.020206475851965774
0.0030170221991090563
0.005978867271599005
-0.008929055495506667
0.01764615840938674
0.05775940343240477
0.040226955167003635
-0.0014327114943669809
-0.00852564207242283
0.04185797527202221
0.06128410102281947
-0.03755309384992444
-0.0033308496377005554
0.017306199814190733
-0.014130769991785556
-0.018298686520762327
-0.05369283557431149
0.023355690593312824
-0.06055015246628121
0.01848069158283355
0.002735780462910203
0.0451237511257065
-0.038630696376469605
-0.053212752138618265
0.020821084188196264
-0.04012088510159945
-0.04382333082230671
0.028525695453460186
0.043321390070958234
0.04867147714762043
-0.02372567758416517
-0.011235670643418098
0.02121168306131561
0.050925084684899
0.05693392000739179
0.016290740786922258
0.004722002282651293
0.02643738350432123
-0.025709660934930847
0.003852656930171713
0.011906313066149905
-0.037528142852333864
-0.030003255905669695
-0.04062060027806553
0.019874051784383586
0.0383163505633669
-0.054753747609811436
-0.010035368760556466
0.04979640076751734
-0.011462248829201783
-0.012820058328367549
-0.02034268575077366
-0.035202559603600726
0.05708641304987116
0.04410954402561324
0.020164251319568473
0.032364399039132415
-0.0007086589836230033
0.026990113609948862
-0.06192842648294503
-0.010677806836800986
0.01131504807952696
0.005468686840335287
-0.058674017993454876
-0.010738157767861618
-0.020711979256644513
0.01458024636047679
-0.057408146697526315
-0.04068304175699342
-0.05478863356318835
0.06111971534532181
-0.03310944789305479
0.013526761506603492
0.007436990925110117
0.0014411272308610388
-0.017233196445986265
-0.03771758573392824
0.056303858689189724
-0.041803308729279516
0.010108943024181817
-0.04932911692486267
0.027702000597446704
-0.03904760761618906
-0.04586532769644459
0.0345270633237351
-0.005713288753172007
-0.042481975850795724
-0.01116268078444707
-0.015460834611822695
0.05732718840232582
0.004087826399711238
-0.013268180634428956
0.05256896799986407
0.05926117996706778
0.06204320308543224
-0.06141871874268088
0.03998611895612816
0.05572312909657368
-0.03238382429753844
0.04882009175567819
-0.016983413568060917
-0.006613587625689906
0.007754573321119173
0.053864174229107546
-0.007409793294024399
-0.015174955946286357
-0.031384773045978066
0.014675963163860549
-0.029700394420618875
-0.039363392948465185
0.016060198061094762
-0.03900235269051635
-0.0018126820657041601
-0.023513868647539776
0.0205216354068239
0.051495371980019015
-0.01675934050851081
0.0488090722460798
-0.0033403713526896635
-0.0361888174537239
0.020887137291367746
0.02218930524394588
-0.01780074731825859
-0.048126005666602766
0.04231310122243296
0.06195299976913849
0.02808295336541784
0.05496525673394325
-0.00614428069159488
0.05870670350921831
-0.030680217663796732
0.012249426072595005
0.05858430064889698
-0.04582376349622943
0.019764196335926628
-0.04772543447135135
-0.008892203442801698
-0.007770265252602645
0.0011805939531532165
-0.04151038173717352
0.028757343283707725
0.036782537715896686
-0.023511240874468955
-0.006462102023580495
0.04865125878115956
-0.042121662202085165
-0.03393251946237078
-0.008669940070377897
0.028359391370708153
0.01305749397714939
0.030628129426921332
-0.007298150561199409
0.015790314537648686
0.009721274236247341
-0.0006411398325870537
0.029830397310553685
-0.045117312601910604
-0.05958502326016354
0.03303049006651388
0.04045066312538107
0.011337813914574555
-0.00696299062674939
-0.049517354585191166
-0.056773344050181786
0.002094676251883531
0.059481316087937296
0.040392293521673624
-0.009885469212119023
0.01681817294538551
-0.023958236751808203
0.03619225028857639
0.007746338944670721
0.05479316208247743
-0.05224488694569774
0.021662584961996478
-0.002837862329121615
-0.026410705325596206
-0.032840616452443246
-0.030025674484377162
-0.04404098582023965
0.028381508965294632
-0.04909568920088509
-0.04790116693279955
-0.03315892100819091
-0.042746928506752706
0.03387794280230983
0.011636138238277414
0.04669408526416561
0.04866762853239213
0.007425156535654689
0.026390708626163616
0.023741089852038762
-0.021667284307643902
-0.020383919313641013
-0.03580134426782899
-0.017285800485758878
-0.01119284608276394
-0.006230789218883744
-0.00683979427668363
-0.042396967880821416
-0.048077185574047825
-0.02638194897609415
-0.0009641143329418427
0.05714427663787628
0.05068618512649705
0.02102649289782332
0.05661758886901088
-0.0502347826266794
-0.055573762077917345
0.042140592991234106
-0.03224491252355436
-0.05270336666712525
0.05369520058766054
0.056262546842316664
0.021134241588273133
0.0349607743835176
-0.004430784717132512
0.04484363010444146
0.045010807335883994
-0.011993918447167766
-0.041935425217316614
0.03452880527607385
-0.04541220609042449
-0.024499030086566755
-0.0070103642454340245
-0.012279555354873501
0.01972270859756557
0.0484898744065304
0.025681778930698642
0.032664079901031005
0.055952541489064166
-0.04905160183708592
0.0034702860875956555
0.060658465735010055
0.0230788674149409
-0.00995416950294743
-0.02989724416506578
-0.022059361110066036
-0.007316140566815204
0.05736348767276767
0.06006709548734251
0.04808003014478587
0.004590495567018279
0.04089454097107827
0.012452597680941408
0.016692190566927344
-0.0063525792224057845
-0.028579925349339338
0.003363768233854855
0.03034085080898449
-0.013493915162018767
0.05792552784183099
0.000849275746271083
-0.020577505644931503
0.02402138730526455
0.05020490703155767
0.03737072911970502
0.05816690568346825
-0.012103505175884195
-0.05791057028195063
-0.04964150733395307
0.054364566357753684
-0.05580339045444913
0.03094022668085508
0.0419477520030384
-0.023434831135753755
0.030263359159345093
-0.05601380236662044
-0.03881396098580834
0.0394966230945435
0.06244757663061846
0.003850957683547595
-0.046214710543886824
-0.04837533639197359
0.03192403886111931
-0.023701446841130607
0.03133910824433752
0.009534232953174208
0.03262382817067213
-0.0036444166610541113
0.02898870350368082
0.04986985914163274
0.04256800761884457
0.00044329443124260787
-0.010758279384665169
-0.03412839630673594
-0.04338263999734127
0.04938366985723367
-0.024049122331360247
0.061661290332982795
0.021068826407000373
-0.014892855676348902
-0.055143400842426464
0.0023274674233188515
-0.05891178183477191
-0.03513105416952434
-0.0059537713677034745
-0.02565126277866039
0.03295862478288492
-0.050865513075549006
0.053381763096615846
0.04563580145313164
-0.02802276329070574
-0.05120691167324989
-0.00954887120931147
0.023615250265040365
-0.002227456291083826
-0.014175335238852003
-0.06168138550818005
0.0018508908834875407
0.030771998291965235
0.025712577556889212
0.013638073625501413
-0.060269756121792646
-0.05515940193667936
-0.022379153152691827
0.05778632772767651
0.004655578913679791
-0.051761302530579985
-0.06062956554621846
0.04683974627528086
0.023927424905425956
0.029815469113791983
0.03991061083535568
0.03200866181173267
-0.03362908532403797
-0.039238543181992304
-0.004859081268117265
0.0007325523992684351
-0.014768136990638695
0.025730418088690792
0.01987934783657549
0.00982909353917434
0.03555243478602128
0.03420252864591267
-0.03052818928948808
-0.0018989963460678964
-0.03187140570275803
-0.045645164783265156
-0.033567946923072724
-0.04791607255420364
-0.014992546744289166
-0.03809066069310663
0.04830951856569101
0.006252688236413047
-0.018353308365703962
0.03249702670806876
-0.04383070920641383
0.06057563393231064
-0.05268112701633706
-0.027100688625996124
-0.01917909276330867
-0.059025629753744584
-0.03395787806507657
-0.030368650750454012
0.00026766183081450284
-0.04334185050204848
0.025347116069496394
-0.02650700243698328
0.02954763969066791
-0.007563164567348859
0.05493288374881635
0.06191134107975214
-0.017212063290941406
-0.04853013463458771
-0.044730295529088256
0.02562204428689317
0.034528126099101365
-0.005316965009137169
-0.032312826065428187
-0.022998781941612517
-0.05136181421501939
0.03978902332788394
-0.050156649744925126
0.05476501903281882
0.025563770309040165
-0.05168271215209382
-0.021371167663455284
-0.03219153670499172
-0.05238933614664947
-0.022196364652411826
-0.012678572625141117
-0.013568223930303198
0.058823241379304635
-0.0007141033478649665
0.017236794402542163
0.0521818195891555
-0.05140112793228136
0.006610566810414594
0.04825340477020764
0.0463998964726887
0.044137644831001306
-0.03494512104450571
0.018215998045760125
-0.05020322997966254
-0.034324449667259345
-0.021083129555024557
-0.02445261046137542
0.0072298264625197525
0.008596600546494635
-0.016919323135503633
-0.020130247986242782
-0.05051479079242802
-0.0037012478739719685
0.025693316894073514
0.038324992272984366
-0.03261312064869564
-0.014166897179892791
-0.03553272028588834
-0.05947444079672869
0.019939835175137834
0.0136957424624545
0.038356793901072224
-0.00555827423627056
0.011291080308488797
0.019402650940731844
-0.03403881044244678
-0.03656787909610019
-0.0077235394845771846
0.019776346109866307
0.000124464868289445
0.004596609824574895
0.00472295539831817
-0.05318461341134292
0.020734422660880308
-0.019686203305163418
0.0070624869853242725
0.03156669050729038
-0.01455737354042169
0.056635995104642185
0.05431797313279254
0.016176979013064693
0.022010186006710643
0.062135051700969314
-0.005825821406479414
0.05200776076436236
-0.05291313176021308
-0.004586961268971761
0.01223499218215998
0.0608084617496299
0.029349073654809207
0.04113096187681108
0.04287603659680928
-0.05265470310948434
0.03292710391086517
0.02179353369073919
0.03437038058289308
0.01618533179182915
-0.04137501958361874
-0.05928468950382599
-0.0403371850792674
-0.030612849225243193
-0.057222135729247635
0.001934419755557609
0.04967993681103878
0.014130630052272925
0.01821269659292941
0.06065820781598482
0.003559609691243456
-0.027635735826993715
-0.02530647357239708
0.05435316184598165
-0.0012022406785502091
-0.054475585736718145
-0.02406539852947839
0.054608120847854845
0.022261207516783812
0.006474657065741781
-0.04663986767474974
-0.061819551475754596
0.0438349939282146
0.05527559083430516
-0.009605683051840395
-0.04985382331492239
-0.04910577510090557
0.059061034494898766
0.03666253230917093
0.04846456376843664
0.0023721012540824505
-0.052213504038396565
-0.05466056149323576
-0.049441874622191566
0.04483859014081285
-0.04672124051598755
-0.005851352990051738
-0.05159643038355533
-0.0055129566737083515
0.015440539077982913
-0.024865722082848967
0.017765051492621
0.00490959111081593
0.054374506640357166
-0.00577010895727123
0.0394071203555881
0.050158566701666
0.04758772057415341
-0.0055312128088463855
0.06038275110404872
0.004672893620870477
-0.0036958122267265743
-0.017227150575396723
0.042576939036297355
0.05651192928385681
0.0050208235588419655
-0.052873432060992674
-0.041944223495062584
-0.016984634141810322
-0.028481843622102734
-0.04678239166531976
0.001214175593184069
-0.051433329095301746
-0.027895846199012916
-0.05771872558132827
-0.04078557401250455
0.0557846205659828
0.06145442482822203
-0.031311071177154155
0.003610175923494704
-0.017661667317565657
-0.04850763140549213
0.05806387074336684
0.006250703692016162
-0.005209528146280103
0.024918225880927316
-0.06052514434466206
0.027585546733325788
0.012593917387895599
0.032593265693379135
-0.026915990845060283
0.028996719645867818
0.03474904447764352
0.0073383347572457255
0.05034262529892417
-0.03361338422041495
-0.048436500140383455
-0.02722957029635349
-0.05212134776965439
0.04481453142475079
0.02799413796517054
0.049475453613550165
0.0008261569632050657
-0.057719496012437095
0.030912807427145608
0.026917466234594605
0.012856440857270902
0.05328343610457475
0.021826066241774963
0.05182100926641158
-0.052840625833187736
0.04794136389989185
0.055991011715659476
0.013578378966099992
-0.004063190489444076
-0.017952486722695154
-0.017238252755309918
0.010631195345637915
0.019893738083848155
0.016108126218141835
-0.016097880329097546
-0.02149635169230443
0.003480072540546247
0.02196170260831305
-0.05783079740809615
-0.03357970272910082
-0.02762216537861539
0.007272880293682906
0.04607368705320793
-0.029444527718118795
-0.032028494119670035
-0.04445487581070997
-0.011095607546651396
0.010207480287983154
0.04731999911371972
-0.004817848962448772
-0.010904283269615815
-0.008664018300455085
0.01570594767689538
-0.003017303054475173
0.05455642032061537
0.05559471664298806
-0.05219967864208896
-0.06150356347390729
0.02411601130090615
-0.021958732322910717
0.018478783863921374
0.010416099890174528
0.06233287970051122
-0.05330023582500574
-0.04230342559634339
-0.05350774902029059
0.03685429018021725
0.021110440866215992
-0.05566317281295615
0.02268704396832027
-0.018865669418089353
-0.05564194401333956
-0.021338722177943758
0.022644774237122186
-0.02902647026503027
0.04996903946493183
0.02195600833090147
-0.025953971557413993
0.05390217624982923
0.04922691552177939
-0.006158746469789824
0.05998056068879954
-0.029524493977916216
0.00822937630860812
-0.022369868662956382
0.022962720511606038
-0.014412442546893485
0.014112256210901132
-0.030761727893778495
0.004538350719833494
0.03236936343608165
-0.04212858314898051
-0.010250893023337147
-0.020164431581897343
0.008944761610276642
-0.022226364843999074
0.0576161347310501
0.016397990621510938
0.05670517565234073
-0.0040702051727485025
-0.02423090706219377
0.060139121287990115
-0.04859014860096695
-0.03822815559329202
-0.006269104287695586
-0.004475499756769973
-0.01358429862086506
0.002513519679630732
0.005577245003197589
-0.021144952132761737
0.02391698893753059
0.005944765363485398
0.04221915801702588
-0.05698475433195118
-0.037790072238891324
0.028754698663911876
0.03325411777846001
-0.044460217748710444
0.009485361503781915
-0.011365142824470776
0.0449747506928533
0.024657414717254005
-0.05315963362079359
-0.028446367039544753
-0.05440431238150494
0.0003652298899041034
-0.0212952529688659
0.030952326927940223
0.044267256666913356
0.0014227688513369222
0.04543752550762555
-0.04767778977410236
0.034569494355435916
0.014505435081505742
0.0009429689085068553
0.06110551574635519
-0.023940786506040698
0.03162928371152341
-0.02515558595814168
0.048703941258444704
0.012584665845249627
0.0017232055974714248
-0.0024424767407972693
-0.001063759105264239
0.020146560122311318
0.03634058763990273
0.05139404692064136
-0.03999486409370511
-0.05601512468115457
-0.018126577831461748
-0.056966837086316925
0.059785066516429335
-0.019236579582443066
-0.02836977452864607
0.035726087801039356
0.021341148463456704
-0.020596630046769367
0.06214450312432541
0.017431654901770798
0.02799207492650675
-0.02553928696780172
-0.00540238285737396
0.004561093155915102
0.0174808737843108
0.062176606346908476
0.01571811679376998
0.05999727668348682
0.048835873812586354
-0.026203765421319244
0.01779585346795771
-0.05515730654518696
-0.04808110523129388
0.048783247479567214
0.05165643181818743
0.048932872894790945
-0.04744606897482525
-0.020958117048633717
-0.017613916463541542
-0.055701491526185705
0.017518645893599482
0.01141580216966005
-0.036713905574099585
-0.019279440811096556
-0.05692114559381207
-0.05179518201579519
0.012962779788699417
-0.05413494043192434
-0.053438355126024496
0.0456092337824387
-0.056853075169302984
0.047701879931091436
0.02033717554407539
0.012629159370912689
-0.0054813904811012995
-0.027356679209959375
-0.01095071957098953
0.029799805320331853
0.000705697357118784
0.050083808395901826
0.03200308483070247
-0.022239168298532088
0.008726529404308679
0.014854378493606919
0.045504115860851825
0.020645566505092108
-0.016992896292365358
0.01135223783039607
-0.020179218835487008
0.051177530833278286
0.04024934933569387
0.018161786720427824
-0.03243685934602377
0.03190151810431096
0.05793521358017848
-0.004917567954847601
-0.05052113056753326
-0.03573955063636481
-0.018062828977212644
-0.04179224987019244
0.059388341919617525
0.019310434824204786
0.002794568407421607
-0.016004590562350634
-0.04874946951979479
-0.011829946905586542
0.061035820888742286
-0.015328260233904321
0.028797080588246076
-0.058516054800620394
0.023083451522929354
-0.0009509834508671654
-0.023429426290758056
-0.017473268271623956
-0.03220589429293525
-0.017412956795702688
-0.019761385733143757
0.014508698343737676
-0.013375387302260023
-0.04185194649159934
-0.008268426134830973
0.03281562940783315
0.009639520372375294
-0.04644265655747699
0.013893792072108514
-0.0027871667612485575
-0.041913097805082615
0.003046227179853741
0.058333245906938606
-0.024106184007057618
-0.057017568891466246
0.0034727742854800537
0.007742972690921958
-0.04082492514635489
0.05929237427072203
-0.025329142390666953
-0.04215687471265093
0.001113993087850637
-0.0014079744644838463
-0.021492146845001222
0.06220383000948745
0.011437499403786964
0.046921870965628866
-0.04917462317828516
0.04354658549385485
-0.04758755853195266
-0.04886063729706968
-0.059407496643310485
-0.027500106431076195
0.0496403384460404
0.03120124801657288
0.013767350832359774
0.0028213099076954263
-0.062110096387660484
0.04785477279348172
-0.06162885876962556
-0.04524926301142126
0.016463527894822427
0.05144961266807493
0.04460868350094973
0.02860102872960926
0.011215496573015236
0.029299278097699926
-0.039513450222739076
0.041422837847586276
-0.057574781223303596
0.027372127879679627
-0.03920720876649308
-0.03475468488908382
-0.043667224482403615
-0.051992669384239666
-0.016843444913437016
0.030560135209524063
0.007750603037421921
0.05612632247639942
-0.009294994512995437
0.05506545678724686
-0.05921068518740628
-0.016942308777799005
0.022716322159585186
-0.019994219746440594
0.04331166057541779
-0.03648563356101523
0.006290894005272245
-0.007355836247250016
0.05560544946518093
0.05028633672321612
0.029326119294816
0.028263339494611347
0.037066531121211825
0.030567443466618004
0.016461298138964655
0.04764283572550599
-0.029648844361474382
0.04339705410198736
-0.025947626110581986
-0.05794182029076269
-0.045586252279401974
-0.038507568972296645
-0.0029353872506123753
0.03515412499777416
0.05279073607973662
0.02521359527928368
0.03832758338627467
0.028135551768826605
-0.043003440834418656
-0.0030887451381238352
-0.03855076110532487
0.030257256638673884
0.0010960810244314138
0.04396363956301925
-0.004240542592016837
-0.009981780740199812
0.019935672518759964
-0.041097148274243704
-0.03401165064955255
0.05223709164121799
0.05348259882076075
0.0617926603782994
0.003803100936049755
0.01980627594502737
-0.01846223451136569
0.0032927325117322183
0.043013560817340306
0.04667263145887585
0.0611318951173113
-0.058504095858690354
-0.0004597374995791436
0.05104109451118901
-0.05857766949848781
-0.022474780152390277
-0.013445739800478805
0.007606745406688777
-0.010114926657414326
-0.018736136819030868
-0.014665856997910438
-0.057706107925442056
-0.005678043657908651
-0.030902574679811026
0.05552130802340601
0.008061692841833916
-0.030312980610879708
0.019345861406514255
0.029513804527652687
0.025662578566462323
-0.05433688396661771
-0.008240846677350628
0.017337553262699156
0.0027190897755478972
-0.02107593762089915
0.018882320052251277
-0.029028423105922668
-0.0031522947934688873
0.021425735620931374
0.035648398556844076
-0.042053240889575565
0.045159657954915354
0.0283528971581726
-0.007025674774449735
-0.016916120346843682
-0.058916157978069185
-0.03154579317978922
-0.04674295460079619
0.05842005447160765
0.0003406947865181586
-0.034442098212976786
0.005625061834966568
-0.048670907348641664
0.03935564949395343
0.02792276848384317
-0.04591916365528378
-0.012170729629032302
0.02280060658730072
0.006602274310636146
0.04743653584910345
-0.04846173794475323
0.019765730627067
-0.038802775102053745
0.05383957020710176
0.051922367068336105
-0.022561339723176043
-0.010280314972299363
0.009747783410016418
-0.04877149717128266
-0.05886348590711268
-0.014577269584089987
-0.03988575348773745
0.03813249215657553
0.049445104214103204
-0.05341880982764776
-0.020685603165908072
0.03727448276024704
-0.05733570002826114
-0.01734016988699649
-0.006472473358532598
0.0006110972674238101
0.009027772968885557
-0.04108795769552589
0.0153709936135617
0.0010651079793325272
0.04889762696259312
-0.0015876956608890656
-0.03535284180003289
-0.04619411871208955
-0.0023356150900979557
-0.027069397291569302
-0.011108331545277723
-0.01941045616074356
0.021680753682218206
-0.042754692429675674
-0.05521741505915675
0.047215638705300426
0.004644140285906497
0.036553121412243754
0.004898739582194347
-0.04577224204025173
0.03715153183544357
-0.021233740818481266
0.01632099113356859
0.04715805639551859
-0.046552446660186854
-0.03494191325372901
0.0108334229477154
-0.05585160890336315
0.044416325048732504
0.03531375458773751
-0.015095136350715672
-0.03581721784210686
-0.03788957960510279
0.05043077197476684
0.022271757003993194
0.05733527893031821
-0.03284339586502768
-0.04272547486541916
0.047611115346851536
-0.027569835934125344
-0.007749225632853947
0.015208582579505815
0.020411952433249638
0.0040024324338239345
0.04651081417171297
-0.04859737725219981
0.058968575707944844
0.061816077897472406
-0.02895753199986711
-0.05998677354233608
0.017482988364215076
0.02763394953514278
-0.06117597614007075
0.02947568261218343
-0.03455035989022764
0.005664156015041693
0.025199781354006117
-0.018049361550681913
-0.003195595821402136
0.04604577270829618
0.044879268876203866
-0.0031541099052888317
0.030008441777785454
0.0011377049968650103
0.04012901696409613
-0.039979805369654724
-0.009401734607248467
-0.017826985508997206
-0.03415665952978476
0.018703333140859698
-0.0420847968670482
0.04542815173922827
-0.05039628397163561
-0.03841101496926987
-0.028660041212409334
0.009868133534016025
-0.01369730925385333
-0.0209196171963249
0.01763355933473981
0.010844180279731523
0.03279389429231073
0.04085388528904458
-0.03734933442887683
-0.024135160447218137
-0.015933060195248105
-0.03441040514729656
0.044169567818345905
0.006734121312225199
-0.04396635177503264
-0.025127420843318062
0.005680492715021772
-0.05960395309053417
-0.011468927807936067
-0.043943426054550115
0.005172739499345504
-0.05616997377654547
0.010443194024078143
-0.0524112572458651
0.019427371610348725
-0.03243688771893103
0.04306033230277525
0.024714438247028233
-0.009830090848348958
-0.038790205273778904
-0.0548264339281631
0.05145944195188499
-0.02885402669342858
-0.028753195549126958
0.0003160133659727004
0.035063885439845406
-0.05055547278619426
-0.05671325697701093
-0.010778418559304155
0.027381011077807407
0.05526614936150848
-0.033984723142817676
0.000687566017459909
0.0265726708338755
0.048329032203388626
-0.05286619643391988
-0.018183007348867474
0.04374641046744449
0.03709276114367819
0.009849402570747219
0.048869469670605466
0.030422243696879774
-0.05003504445146186
0.008034037090692723
-0.007402142800172317
-0.023264552197433282
-0.00862577673028504
-0.033357479165782376
-0.026679412016120212
-0.004779072482294643
-0.04586214145761041
-0.008242489538460516
0.030493402819817852
0.012970652713276616
0.023698721673119757
-0.042911319048701095
-0.047452151744081426
-0.025932856436377463
0.050633892351418845
-0.014706408079828452
0.03746443322591891
-0.04899659618146799
0.00906877656627676
-0.03668898940901991
-0.04090405603833263
-0.0014817945352064569
-0.004647715061485909
-0.0515615738008784
0.015846507681070026
0.013910396898374434
-0.04823729472931263
-0.012375684620715364
-0.00350746540144102
0.048227806032587216
-0.059560780222807384
-0.0350563222963406
0.041924386329201126
0.04923548267662927
0.023583172488629883
-0.05158858087985394
-0.024755409194546076
0.03466694314219878
-0.05502808705539989
0.027213516091778227
0.0034160743879297346
-0.03214753300975096
0.06059665085471758
-0.032942361462227655
0.020406411681697583
-0.020139348788503274
-0.052664557447567116
-0.01666665122394124
-0.04205719419815073
-0.004812893045621893
0.01640184116116415
-0.0044049716696433336
-0.002395223993563913
-0.03837621627462862
0.048557554091733034
-0.037741041985386435
0.020471431660056546
0.006834477954890796
-0.03311373833691549
-0.059913143510790044
0.04849148266672965
-0.012874594471183136
-0.018838992983840768
0.04632112259043906
-0.011265403426740787
0.008278543299346975
-0.05759322205800448
0.02594608799307307
-0.038515844894495936
-0.05415228578602815
0.04449140795959624
0.033389577065610486
-0.04215503196069042
-0.009454522218758392
0.04540008541773093
-0.04022556088855859
-0.06064164985917991
0.05327164049659263
-0.046913055462050816
0.048233423955324116
-0.017777523944434766
-0.055934896712186356
-0.05171972749229021
0.004322218393002674
-0.04151336404517266
-0.03520639221822266
0.012134276608874587
0.00850097632152416
-0.057222887444469024
0.030296962795660822
-0.06207769522054798
0.037515611227881475
-0.03575345549237154
-0.010357881767126887
0.03745237816105356
0.04847095143631363
0.013725264602770028
-0.0002255162756711476
-0.03533960156851133
0.012838903592758645
0.03881165409944177
0.052076961172920246
0.01319954766476157
-0.008580971721597384
0.04511878798221821
0.05377659951603301
0.022698922433412923
0.002642071296120665
-0.06221589553875754
0.02751344804156008
-0.018018943545291804
-0.005962475584478876
-0.03517601538757325
0.03662477648301895
0.04369743825183076
0.01888521774340855
-0.00928862272885994
0.03425687287989875
0.05969390427879221
-0.05703202040526081
-0.00043809722562036796
-0.034462029265834894
0.05757625177537282
-0.03743330084365833
0.021633433223467818
-0.01100239001009337
0.022777154127803758
-0.049234355661356165
-0.011858861805008404
-0.004627513565311893
0.035084464717372275
-0.06002827244337814
0.023444020254478126
-0.01119692517657919
-0.0513140924387139
-0.041228576588601566
-0.05780582166712795
-0.006447547318021356
0.04054268514984518
0.03363363341936242
-0.04732842506369831
-0.030173434177443444
0.037880790588970446
-0.0008082872488083674
-0.0006741909272377915
-0.012239550601418485
-0.00775852641370861
0.060094271659498134
0.03933510341961507
0.004949342260066005
-0.005745148780045297
0.024531169238993785
-0.016041774504418595
0.038200401971501534
0.0059841439705196195
-0.02231410244741996
-0.04716287044264187
-0.04282971872674437
0.05938066606181861
0.03016473799519939
-0.04138938870004626
0.01547041451006821
-0.054165915490844006
0.02904606676900213
-0.0016443922432945316
0.05553414030656841
-0.0283309727364851
0.01168690348907239
0.013334511732335337
-0.032489560458987994
-0.05723133678169461
-0.027058372265380447
-0.016848665584074784
0.05187654298958721
0.022897627105459697
-0.01674473563194478
0.057295461968780596
0.025537575647490467
0.04216861748569036
-0.007883429729407641
-0.04773143887324719
-0.01124071584141771
-0.0533281495744524
0.01749959698536389
0.049074036967423136
0.035733717560529434
-0.044689304891262986
-0.03348194767798177
0.03218494627296937
-0.022226446241207436
0.03153251181271725
-0.028525964926480112
0.004987439059180087
-0.0018393430275551734
0.0400082751308397
0.04652998996277324
-0.04468643810292398
0.04230346963066512
-0.03513632865568705
-0.03442156273484263
-0.024576563402505937
0.03062826797508462
-0.023839050299301983
-0.03401118309291681
0.03306051022634749
-0.01892697613068139
-0.032491088493486635
-0.002406789518477281
-0.033539487772141795
-0.013847515533730327
0.0004537386717283209
-0.008272492080087705
-0.020394581399168107
-0.017555039996711787
0.03645310133075826
-0.047858598335163684
-0.02536075222354726
-0.05569140512613569
-0.025170064829158744
0.008307423836170598
0.00969592732879297
0.04052050814536117
0.043685040321467215
-0.03917212941800494
0.025897595135209363
0.05322646810534772
-0.012654195054137672
0.007591328466860474
0.05207384528435224
-0.0316353561518428
0.00966524935239607
0.008794005016260166
-0.022351044917463894
0.039951447039500355
-0.01430347523891577
0.05332160166001227
0.05611548579520668
0.03606618892438181
-0.004903675740359686
-0.052859908102227356
0.008490513106220827
0.01580130966470308
-0.019114802917753092
-0.0025323125375136253
0.019438629071870075
0.034684301528526036
0.04187994760402825
0.05614214100916081
-0.040961554941927804
-0.033907323168964366
0.009745456605831466
-0.015585437054769431
-0.021946156865572674
-0.02296732015227981
0.007607287929294298
0.03652179090381064
0.061988940559489884
-0.007633261914093455
-0.03422130222591565
-0.019337721586019953
-0.045511913423173324
-0.05074125555245498
-0.011827659172435124
0.053555853794615936
-0.017657706390871466
-0.04906473709855554
0.005886997239479621
0.0016169637544332092
0.0003390276760550092
-0.05341633324973833
-0.048245255199531566
-0.05294317946921493
-0.04286714399936136
0.03227015738568089
-0.005115283449748
0.037377236139659646
0.03149055965864623
-0.02322074072525061
-0.04566937889615338
0.060843586672394305
0.03587071172853377
0.0008949907310938087
0.017775136889158685
0.03146676847001759
-0.03523516333545954
-0.051116712013412065
0.02580945063990314
-0.032554615371251296
0.032644959497400934
0.03544698573545244
0.021620708553755582
0.049649164291695226
-0.019054704566705324
-0.027653867937175166
-0.008342560808290043
0.03248183077900555
-0.009678501964700893
-0.035198476560469004
-0.033587272038270145
-0.014472177920880817
-0.03499728545542994
0.006363228015028754
0.04791729924252169
-0.028913623574475338
0.022451923635095513
-0.03668879421168229
0.031695006331655125
-0.007610294963575389
0.0009707805814592878
-0.018929202622134902
-0.01896487555360533
0.04985575890759623
0.0009553007150565617
0.061487476881987184
-0.04645270930608398
-0.048257202196599784
0.001090059059567369
-0.025128655782845063
0.006563119168808486
-0.03222374316739494
-0.05853649499571847
0.02882779481250695
0.01949393466731462
-0.04296218395162212
-0.021441221083958194
-0.015308853145328758
-0.025637203997577237
0.036997374317634536
-0.04100534531160433
-0.03766851228082129
-0.006734747361762466
-0.011839997545743204
0.017510503899952522
0.050294270122500824
-0.034465195365984753
-0.062132491048962395
0.0091551110357614
0.06060508704012137
-0.0439874976274189
-0.013239568691235241
0.05985469800849933
0.04096120404803847
-0.06038588698260263
-0.02844898243289037
0.013758729638250143
0.05979337753576577
0.008858503479039185
0.016703877623238658
0.013990737743125493
0.04850745865735905
0.004075895090787983
0.02775935897998084
-1.5749959399360965e-05
-0.039425332914854526
-0.036552808586477074
-0.025931053869275866
0.06169215863045049
-0.03042413497675182
-0.0578980861470327
0.02549047036054451
0.005396155843757105
-0.004876667512501944
-0.031088033470813594
-0.053603705814400625
-0.01851067165735888
-0.02042661165339257
0.04654003268064886
0.004591605523734012
-0.008310754183882716
0.02194999774829019
0.052682506016286705
-0.027627029150465537
-0.00810297165570474
0.041734235223375236
0.05287732323020649
0.007347048934022825
0.04607469537251426
0.006803480695268315
0.025719403744489455
0.03982204518452621
-0.060046996437179014
-0.017884529733416876
0.015905356823242397
-0.017222709866327953
0.03542952350124116
-0.011440009171297267
-0.05773331543662955
-0.03353399974925838
0.039560769353590396
0.0008812376024919937
0.03567021763370345
0.045422108508124885
-0.044036354051293365
-0.02891466737387403
-0.039815413114957184
-0.03285365239901827
0.01313501015414392
0.02722562669678485
-0.048120531706149654
-0.009233713913558676
-0.010012379693793023
0.05779762397645972
0.029739134412586046
0.03361018132903062
-0.022709512728639924
0.03983381517952863
-0.00211334611120853
0.06015091160912676
0.04360621824134069
0.05438494947212403
-0.026997889985435907
0.014958688315646796
-0.015442911217511067
0.022311469624541762
-0.052664473188590195
0.03085831729911259
0.034279009144624874
-0.05182866427309921
-0.030575101146217833
-0.025783026263893113
0.06113621334102124
-0.023220303944018885
0.00970025002380173
0.059532210541493
-0.0020646814820446803
-0.009503347281692774
-0.0006558139692577624
0.014938825618302063
0.031066665385278965
0.039625783720447914
-0.0037115724709657345
-0.03568176161447035
0.034617431646276293
-0.018524954992067643
-0.009038177300476886
0.03889292554309138
-0.014038470818070315
-0.028528357391893005
-0.04852591311799962
-0.05854450095610523
0.0029581319648282335
-0.031787571895390145
0.041786682987284364
0.01200605322314449
-0.04213730027714633
0.05246909583063331
-0.011026134619296827
0.053298747295976966
-0.060088326243440036
0.0023341429861994524
0.03921278069265042
-0.004864776105616405
-0.01581612988714338
0.0271732913349815
-0.016430738129244376
-0.005057825169887119
-0.05176911681456891
-0.013098535476786173
-0.048485467730462396
-0.03652587815744291
0.03082938693548495
-0.010311847485200613
0.002990747637571497
0.007928179906449158
-0.027599124995486373
-0.02387040720239469
-0.060618802530408904
0.04564156153461061
-0.05483952370101155
-0.047599501649344976
-0.060072330940718933
-0.05586385469612267
0.0327298762956685
0.03321738197642516
-0.06155811861313539
0.031121334703668537
0.00414830601146511
0.004797413026919633
-0.037397221878576185
-0.048146932537888286
0.015581851153395871
0.051780996654027626
-0.005864327563859225
-0.056456700779109754
-0.03567213398231491
-0.012110164165797783
-0.051395339936329144
0.046916447144277916
0.05508713009366808
-0.02910946224963126
-0.033880644354410454
0.03145080370571216
-0.0377428064330338
0.017316162647867114
0.015759834512230255
0.05314950761770557
-0.032741001189074435
0.007958855408589509
-0.00478102018799896
-0.04884127606911951
-0.028967524689075565
-0.030048025645133185
0.029370241298223087
-0.0039296002454136105
0.0022895262559049913
0.03397074961647944
-0.0211985808498933
-0.05339323625105743
-0.03966860799796513
0.0036613099231991293
-0.061399546079592575
0.043019503022413384
-0.039719854012953505
0.028390479858320296
-0.06231727553605559
-0.018066393999674076
-0.0083563917117241
-0.031275745324227354
-0.03280922278647045
-0.03779737871482237
-0.05735155658958908
0.017422639095792707
0.020630212433842176
-0.005503706968443627
-0.010909373893296477
0.05656930196117652
-0.05656376230418964
-0.015873449106814038
0.039716877514902944
0.05956026626083135
0.002081732706235031
0.01533686799404292
0.02939906460285188
0.044051389596392244
0.04858389766235376
-0.01094037532931559
-0.045285860887283626
-0.010235587433610095
0.06205156444692706
-0.0012842877094449837
-0.0016005312090576066
0.05555684896345261
-0.009512650371940682
0.014856360489400587
-0.009483331337364105
0.05260419227966175
0.023591091856504067
-0.05269092300142667
0.003358223727730036
0.016215942430658558
0.06199854238643012
0.014526981916169355
-0.03667983682553797
0.000379973043838952
-0.05515805248926669
-0.06056945977085448
-0.04961122595720548
0.002300093056338395
0.03849782569166214
-0.05159616808800858
-0.04269587378011106
-0.01092523151804056
0.03275074781600442
-0.006496405360946213
0.010977403154508692
0.005844822090784615
0.0031664224568758305
-0.003484283428931714
-0.010480738374515254
0.053176871312357134
0.04338489360861016
0.009677682386255172
-0.050344107853459004
0.027931677861684722
0.04702037493931926
-0.02945949897586111
0.004114158147411242
-0.061097120421771504
0.02921024265378223
0.016241386800597942
0.023628638827088207
-0.046655420939799415
0.062240107268195156
-0.06061919574052895
-0.01576421100714828
0.023915633889428977
-0.05093826321027765
-0.04328666533714579
0.024406719870138007
-0.0023383418330933377
0.06126656473187606
0.04235202961546781
-0.0486464231666305
-0.004726886852156497
-0.052579678689194574
0.03692402078816397
0.027561821194945626
-0.012113158970309219
-0.05636228452169214
0.003237190761187558
-0.01254756040707723
-0.020368563603438136
-0.05400752994085219
0.029854790557662294
0.01796480617246411
0.019544248734111532
0.003312536874338953
-0.030950866759645684
0.01517748425502853
0.047250538508045066
-0.01392777196000637
0.03799517576083177
-0.048918403119809294
-0.05901277765155647
0.04357496514045827
0.038012540581968686
-0.034624476614771575
-0.03775908283399337
0.05127807278819362
-0.026649189876428763
0.051190168488070766
-0.06217832322152924
-0.04246102862153651
0.005947691137447766
0.043935730879641054
-0.05107011929399848
5.830759619801506e-05
0.0564044529537752
-0.039491996660543004
0.015093156786196714
-0.03118540996526711
-0.05454698873914931
-0.04652262980534377
0.00619821526117982
0.020703745902767603
-0.03838914309858645
0.023918513531399104
-0.05758572338197566
0.06139282345686934
0.005576376233789231
-0.015307812512365333
-0.05158869920564189
-0.025350323383200434
-0.018777141464672405
0.0063280502563486515
-0.0376779696932534
0.03327878336276833
-0.01907006212994305
-0.012923962869263448
0.03648177195101867
0.019404231504313457
-0.05625336691337988
0.040719020375928484
0.003442341295606693
0.020929751511970445
-0.0505622716999558
0.03908461067333625
-0.005899789159224094
0.0618447702209692
-0.021467287169152537
-0.06015657282476788
0.00018758452261463662
0.03118102225089314
-0.02504905384142375
-0.010764929212239564
-0.020203864166752513
0.03170989697037387
0.051829306444747945
-0.04220457384877966
0.0009437441329780831
0.011516803517540279
-0.032773721071251614
0.034094646384706155
0.04385452181841191
-0.03751458850065483
0.004482606554698217
-0.019086865815934894
0.03040778063796713
0.03216665490027632
0.006398136296036735
-0.0598432217140673
-0.029790492955190328
0.0314651943711125
0.05762034638704707
-0.050427542493227194
-0.0444214451380314
-0.0549116667538835
-0.014116610028821848
-0.03591487977339982
0.017764058164944304
0.009902701356047356
0.02389526733253777
0.015082040599451075
0.0493740130418474
-0.039567679264294116
-0.02861892155345627
-0.06114492517101109
0.0033966180595194346
0.060580469796332546
0.018340641013138825
-0.03426021344309777
0.05736754137943336
-0.002772135609708098
0.004641907317441448
0.037568794731589146
-0.001339632855992298
-0.04155498365052967
-0.05655339804720056
-0.016796415430911493
0.012378538318761385
0.019006748883710217
-0.003719380347788403
0.019981282799375926
-0.04603296471433247
-0.014320595249736166
-0.026131879987621575
-0.0142325869145882
0.0051141505784961785
-0.06017663120984055
-0.005168667801946649
-0.007935905403291683
-0.029527450072377056
-0.03377662246226774
-0.022129997686270355
-0.019514730941701013
-0.05527621898234724
0.025707493100718955
0.005376099445104656
0.03535459548544844
-0.059343859454893046
0.03809416574923246
-0.043595185007900515
-0.05089909079220669
-0.010842835395336049
-0.056891788743656434
-0.038441263380657904
-0.05505930412502379
0.016914812549796678
-0.05136077814660677
0.008399063530064489
-0.041965053341739354
0.036027483067207496
0.05710362691947917
0.017476748539817937
-0.02005081655646623
0.05654247715961217
-0.031924293324798424
0.03549124811679664
-0.05025997609069403
0.024809058489176136
-0.017795677134969125
-0.0582322834208504
-0.019195250642022123
-0.04915178057976446
0.010582830757180276
-0.03522030327763128
-0.018392439225473966
0.03487093015431569
-0.04352605603842375
-0.02641238469740213
-0.03849484851711361
0.03480563501788488
-0.044478559881216566
-0.028754082991678764
0.059347476092811886
-0.05054773646756764
0.06038593452053689
-0.057254693047909526
0.011299591686484837
0.030795266130002216
0.019059381792214652
0.0037987080421367637
-0.016737590544686664
0.04102775000054303
0.041497273001354536
0.01913386941085189
0.04336713523893496
0.055945482322941685
0.05085651907334702
0.051637424310844636
0.030691892163940217
0.023594334005079886
0.015600095928479938
0.019365490086900996
-0.0540515071325765
0.02584526730073097
-0.04057229688734377
0.05162864567582059
0.009894672447146534
0.055879033474294175
0.05623840390153587
0.037278562483525464
0.0033401412238128337
0.051167234111606126
-0.007361014365985879
0.0404035094136013
-0.01703096100670724
0.05073580885239625
0.048458841351092095
0.034826293540732946
-0.05713501635156685
-0.02521978019750294
-0.046858328803869025
-0.006748460950406514
0.0404294269141418
-0.0365785364660026
0.04936358648771887
0.05919158600334249
-0.05591055312203918
0.023120178466568674
0.007882967790148616
-0.013421324385808812
-0.06040179742931182
0.05558976554560594
-0.030076652144057994
0.011966085235640854
0.00611874724386692
0.049615520789120814
0.061140253440068106
-0.018565705876511848
-0.040879080418948326
-0.004149246829157348
0.049469132347117604
0.013514739488785716
-0.031876522593925975
-0.011150827356814967
0.021351591553560586
-0.05522108065587638
0.029021733329377058
0.0616093461356012
0.007663771596930601
0.013342709701932019
0.016706373907428917
0.03534221836820816
0.027421817990444543
-0.04672123451384736
-0.004962884729760932
0.018766912060430612
-0.05469738852080986
-0.029214581843503475
-0.04448430244792318
-0.010765292693717147
-0.04368459775052285
0.05051694494621884
-0.05108588798861002
0.032570400658003616
0.0497107806332562
-0.01084851959905024
-0.04577123448290827
0.014640147834939441
-0.022259581032615754
-0.006933549828522761
0.02748938937673059
0.003914435585535141
0.018430244387231422
0.01690729514736505
0.022612059113699217
0.011566721028778799
-0.0343075688915298
0.04620045940613412
0.0018358092362674159
0.01755672804910521
0.007796792540768037
0.05378580952878626
0.04783975810207553
0.012727333859271285
-0.034956735639677765
0.032643906358090787
0.05962150355256501
0.038615989581666836
-0.04035132939719762
-0.058495593415485984
0.0011899685660504698
0.05305452154440637
0.017513169577515638
-0.02849675793342146
0.0035606472327376205
-0.015776998460528737
-0.018234405576850573
0.037386344364075515
0.004354163669776297
0.04551475540425216
-0.0048510594318338365
0.04084807771584426
-0.0040272986318016365
-0.012303621803920887
-0.013542924622071335
-0.013352299281074785
0.021282443943574907
0.0223275507263089
-0.043238371054227155
0.03251063082463356
0.044915521052418854
0.035596050650827334
-8.767537690894388e-05
-0.04392529099846285
-0.011643738611668992
0.04470784910534278
0.05668826168530657
0.01372282017216321
0.0014770205578484295
0.005175626072855043
-0.013137217196176025
0.01971395935321497
0.010723181855869566
0.010007824455012719
0.06151365436343937
-0.00821145508896788
0.05161839738955575
-0.017619978095222432
-0.024191702714841053
0.04120237600100136
0.023823369474603045
0.04572916636801739
0.03648685258401498
-0.0335890069021109
-0.05537279503752888
0.024456087706106796
0.03936506808999413
0.058323990202416125
0.016958085085229193
-0.02437646016263077
-0.044242619470739396
0.019507760574196006
0.03053200669743086
-0.05878432977509113
0.05125279401831124
-0.024251696793718493
-0.005756249900012208
-0.051685721213578555
0.009986518059645675
0.015883904482896807
0.031242772838788107
-0.036901641391455776
0.007332099178916278
0.022421935437035325
-0.059134575524252005
0.0008832295165575875
-0.017456674990617687
0.014903014240846292
0.015980210085761625
-0.04614826721539584
0.030943725368152954
0.05961045180136653
-0.011530269309071235
-0.023563468010706325
0.04678616056959136
0.05996627373292455
0.037953071150659164
-0.05057089704470153
0.02320796422132655
0.007971845905094794
-0.04722732490649021
0.045268889769254396
-0.013419376306581144
0.03930258782388223
0.02439643336739075
0.015466514929432266
-0.027164175007855267
-0.03709968107199497
0.03741617598335551
0.04949990781566418
0.01679838490767861
0.04806135226566991
-0.03638970452580321
0.02297318996723113
0.05850633756584701
-0.05924378421870565
-0.029554727663824453
-0.028171504579955344
-0.062451995184347
0.06244546676639407
0.05376491211209495
0.01302409820748236
-0.02338403152675447
0.019836102608897423
-0.05699515705148805
-0.00704653380119799
-0.0501114085994968
-0.05002204015950457
0.05304993349914138
-0.00444850234323249
-0.021393720579697528
0.05329328041058123
0.01848882811277226
0.022960173065513564
0.062202510471688184
0.04001054110725132
-0.045457450974406434
0.025486939665898056
-0.004370782393816982
0.04498322122121199
0.04675718958596448
-0.042357607691223716
-0.027098601231502147
-0.05280980285576107
0.02736910882731731
0.044259313108445116
-0.033264496237344586
-0.015229175186442205
0.037857366510269476
0.06190773253598695
0.03562689015215336
0.002917376430297019
-0.019649854834331484
-0.008615513214363017
0.015065638860992782
0.0567916056174456
0.012461463791626796
0.03434677750204986
0.016896574147707687
-0.01030939897886944
-0.010468169054571886
0.014075763984262564
0.03872916330552222
0.05134334092610492
-0.053758344106166624
-0.030374609796854784
-0.00497760244362963
0.02472204267745069
-0.007766144403544713
-0.03585957892191415
-0.013711521080963377
-0.05338261899955011
-0.06112376862393191
0.054337822880241755
0.05123833686817169
-0.045134003362595605
-0.02289281901138065
0.05763965784422318
-0.0573938043682188
0.02650667496329911
-0.04876973731450681
-0.04191009721365332
0.03603534301288907
-0.026903503257062016
0.0494222008462071
0.04541771756082965
-0.018786533925541065
-0.06039449193996902
-0.02803549024014122
0.008231564198765291
0.029707598728979722
-0.04130277195389232
0.012528943113169986
0.04801540566263874
-0.029906447012680786
0.02045735848371782
-0.043282818462345045
-0.022213569337730065
-0.038489002167030405
-0.06199897403632323
-0.023367166582605663
0.04840969692841638
-0.033258568862101844
0.03923482482884517
0.02417224138638378
0.03906889996364473
-0.03597857235151746
0.016258191981111513
0.06089245150201945
-0.04573576756902848
0.02298760863058377
0.013342424969818077
0.04768349147512994
-0.06183466523481288
0.002220755504894103
-0.03840622190844769
-0.00874091372862555
0.02678693441201335
0.007563396423976256
0.05773077569460749
0.024314197566818945
0.0139020606625454
-0.009116773656344597
0.024224429648848533
-0.023817174221649775
0.0429759474129913
-0.009066963924466346
-0.007855721848654016
-0.008586916880706367
0.021964613863892115
-0.020499266492158424
-0.022132700085109463
0.03018338459522783
-0.052654615646082086
0.007430297978648636
-0.02120292751989594
-0.017973441076331417
-0.05986569674861355
0.0035470954054296617
-0.01575154578133386
-0.0411959100918994
-0.03894754559591657
0.004699759356049645
0.05152294420155549
0.032891456086440556
0.0043514920705383505
-0.04804984650717332
0.025248942855746758
0.005900122366887763
0.0019600295326060164
-0.020651898391311607
0.01283700045054141
0.009138137565723526
0.030722066072713005
0.04822222125543265
-0.0025474668608330554
0.060474018621451915
-0.0162848744231399
-0.025197753903570316
-0.030996058909196916
-0.03810986049959832
-0.02687039416910064
0.021010231313224294
0.059864073818590414
0.03661124109900606
-0.030046598172223462
0.0038112428852976605
0.023321911726055657
0.014036609168396842
-0.01687826693682946
-0.05927753124353057
0.030731062516761314
0.0045117510557628185
-0.037527355408884265
-0.03773611164851937
-0.02726025357777055
-0.0346426550824302
-0.05935810855507279
0.0209670040534612
-0.02252862759748801
-0.021321911636302492
0.004035092243631965
-0.049632856501865046
-0.038503884918442026
-0.050087529794505585
-0.042227435818956625
0.01168562816471566
0.0013785095600399864
0.03762574238373815
0.037843919688897144
0.040862912643493905
0.05411831698596369
0.051323363515292715
0.0594637005648501
-0.060651344657703256
-0.03529735245405901
-0.007250921016342503
-0.04637868077945264
-0.04683034259504248
0.017655956424135557
0.013524219091899546
0.019995368926347467
-0.004519568191137815
0.03325267313458189
-0.016213497051329417
-0.05987908058366213
-0.020358795912544008
-0.0055744112438094314
0.014335593241437057
0.0013374639307804634
0.025974941855241667
0.013417318625809789
-0.017209233762401282
0.05824792008412085
-0.037920772695423495
0.005722624900256975
-0.028939409611994673
0.01255061357205303
-0.04027311087266896
0.06232117926271279
0.021927444744972293
0.037950581307452165
0.03707432330462689
-0.027684895501690284
0.026188337758900376
-0.016130058672336075
-0.00198981228394153
-0.01862190073244163
0.06245746751424356
-0.03388294037963347
0.06075141536244592
-0.01861657672387015
0.006448721617915528
-0.05705611163102591
0.0029750017094136295
0.011869479794671288
-0.05406678075826112
-0.0026435463399292337
0.015987214611801356
-0.03540024832058577
0.02183833029078133
-0.05656237338143374
-0.05798477367482876
0.04393500307474416
0.02113635111440183
-0.033179789577400386
-0.02927596358272216
-0.015848258497509243
-0.020291617114680107
-0.01936448562487662
0.002486187280097182
-0.02734852058355849
0.01728778843537981
0.0479038120801411
0.05925670725521911
0.05598976440885183
0.0025204087165495294
0.024589092788589947
-0.053031630264658215
-0.00744762883124704
0.034136660371561774
-0.0574529587844825
-0.030328217675108068
-0.0054905755753015114
-0.03977809164859319
-0.03312621274385171
0.010852060883352567
0.020968990020643143
0.002057803333955568
0.03638564685516631
0.03561861366987946
0.008792416955032105
0.000610180226977619
0.028373691084634205
0.009173111477737498
-0.05498300639138167
0.011191032475654185
-0.01425811872290937
0.051448447131670356
-0.03355160033555767
0.051567354394755426
-0.004551676246926927
-0.053406033938167265
0.0037716343152893873
-0.03213223371943528
0.043831441270726156
-0.035924638400875446
0.042768391351969436
-0.024800399860578286
0.043478870306261484
0.027188794618195383
0.011206917479824356
-0.03765510759592939
0.012312833027432383
-0.031576148074898884
-0.005337057628810828
-0.05107716741506268
-0.007683290453941684
-0.009677067609141677
0.01591533527111635
0.01549066374821048
0.04863574585799683
-0.045228570396829974
-0.042681913197305764
-0.017007337746727132
-0.035869831534696146
-0.02136016370718016
-0.05746253257775525
-0.01580783752429876
-0.0247309703753719
-0.050073378224608965
0.053889850923545556
0.05634203593620105
0.02126016535927255
-0.02388013916127375
0.006431719625889925
0.0518935334358225
0.013588547780938707
0.0130567856031486
-0.0475490238379467
0.04362236659380927
0.02792606434064236
-0.05890536571472469
0.05191339694977851
0.015741773006137893
-0.052438192192494106
0.049149112325227666
-0.021205412783283136
0.007594464780503059
0.0005646352047110474
-0.03366538256408338
-0.0011667585285460161
-0.0015792137378368013
-0.03505096575339262
0.0014518247978995422
0.062311374064628715
-0.02858850723527717
0.0014841722780200293
0.05958231399027684
0.030909794857367553
0.06040079731831995
-0.010650586555125198
-0.009041859141401777
-0.04353185557006691
-0.04458093998906567
-0.046661008162371044
-0.005738047637163262
0.05102084489290081
-0.019900572085143727
-0.005007541768223169
0.012598198454710078
0.023247405466304865
0.016472800181662788
0.011158212165979368
0.054431723349843746
-0.014916136417015306
0.02203308649448318
0.02090975991167333
-0.0516319082109107
-0.032804079047219804
-0.032686686311502657
0.01714675484334525
-0.048777813311624764
0.01066484759606942
-0.02241969358177123
0.03662042550871552
0.06236344047234647
-0.04796525143663093
0.025608042672681613
-0.005812338807712216
-0.0051982636358196685
-0.03714424391813876
0.027671953591420325
-0.03863629023255719
0.04230209662158683
0.04780864108607739
-0.03257319488208097
-0.046471805023793104
0.052405786609295214
-0.019584342359869607
-0.05470287170904899
-0.0462573398580589
-0.05117273864365513
0.060948057506260984
-0.016742086565187688
0.03445720581514069
-0.0408121904126258
0.05249726439453666
-0.05279524858471676
0.00675276025045042
-0.0272055744325598
-0.01411463408290138
0.03154666034035846
0.04165234744201451
-0.025088999538613387
0.04302655459439334
0.00721942021081022
0.02074006524156614
0.014353157597732659
-0.03882944626409734
0.03168466638557373
0.0195423006815021
-0.03633810496460462
-0.03554984014390302
-0.019324329746838894
0.01976538066989837
0.054125458875557815
0.01454069725633801
0.02086211657593359
-0.005647354124707223
0.059265378246077034
0.05858694319309147
-0.03719755355125811
0.043749043094390726
0.012251197610436275
0.024858373622290552
0.04427077269546328
-0.0062716842539999864
-0.00013555757753445916
-0.050659897909197775
-0.057884200502237255
0.02850374444500751
0.0016371623653311654
0.05371821205017282
-0.0542717742461488
-0.0067506161687563146
0.008112745703862915
0.0152195070640925
0.042681182185712783
-0.015683856504606266
-0.057958594151334884
-0.05647495587049963
-0.007060369869443513
0.04729944863752341
-0.013483115152919929
-0.008464406942792975
-0.048586103774346766
0.0023471306755597355
-0.053854317981080306
0.05582024488982872
-0.06205809542486266
-0.016354684105404315
0.020868980945112813
-0.004932465653402717
0.0018540116392977422
0.05373528172238192
0.002741506946893568
-0.014458505977509762
-0.011300315175203869
0.03384596830219518
0.03457410816412743
0.006324236854321207
0.021555943108928676
0.003914556604674101
0.036183929988929865
0.058871436259777955
0.055185868605144316
0.020187868575358866
0.006532240199246544
-0.03427879946860617
0.015033062593068731
0.03019691947059756
-0.060912447561826226
-0.016724464938003943
0.05782711005647254
0.04929753134318401
0.03930838564691389
0.029046550276246235
-0.0061569062167622915
-0.018144171416227994
0.061258702963055765
0.05627785555824292
0.05007883083708171
0.02433623885112143
-0.022110673613617886
0.03636328644257698
-0.031393411337845935
0.012927790744739041
0.046797483723313334
-0.04255141213480355
0.017329680260605548
0.04344801427519803
-0.009943312402312483
-0.03783427915523451
0.011347052533486736
-0.01941136661485623
-0.013404921340430751
-0.028971164009794322
0.05469650334766577
-0.057702259048544376
0.033312584200096744
0.05783546103142052
0.03568409690244053
0.0588755169628608
-0.06154588739337893
0.005174617358694704
0.057318974907212224
0.02497971699648593
0.040373130750436116
0.05048438499885929
0.06015158344765926
0.014308607157453605
0.03702052631095162
0.010500350099908308
0.047216124060741056
0.03074771618415385
-0.010100030778736292
0.002326476640419933
0.033852193622861744
0.05096086212040032
-0.026805641962725623
-0.024922069912504254
0.02101913453634757
-0.02707067445160256
-0.04178838112251166
0.006047551471438136
-0.04811615289923491
0.02046671420895998
0.033222126155343944
-0.06092725912343521
-0.051690557951725814
-0.04288195980384272
-0.007671445917523916
0.05825783330085727
-0.05830217624771491
0.053354939508254644
-0.003306312797955318
0.013124326549851682
0.020681300061860693
-0.03467436895727204
-0.028894856042743274
0.058403332083526806
-0.04929712930207047
-0.02029078872481668
-0.035604857932112786
-0.04887120180808894
-0.0489626159420602
-0.04540908685216926
0.06128415904467815
-0.01218058347275548
0.03365739398460917
-0.031762578817498964
-0.0298518453108324
-0.06061371968545475
-0.03252290819715422
0.006299220463940518
6.288241159976836e-05
0.0006797444159784282
-0.036233818090308574
0.009092750531253841
-0.010151944511956763
-0.004964183363081769
-0.039435445324221795
0.05017338810689224
-0.03289224882856367
-0.0007442330133789753
0.04587002656306655
0.05394581154175846
-0.022892271456548787
-0.05218274145224611
0.021910569009600183
0.02212632547782228
0.0564783350533127
0.032539447806283685
-0.03754109341740532
-0.037162805447159185
-0.056765401423746
0.036375962021495616
-0.02195503954243796
0.024634486377114972
-0.049079681635679696
-0.0075420392320186816
-0.04380346296059189
0.026878345045368162
0.011174812094041238
0.007285759960786036
0.05460693346168544
-0.04652303065682214
0.012083797520440987
0.05282055712204357
-0.02377577447388025
0.0013999823253036945
-0.05509142480828253
-0.05846972997776525
-0.02815270934643178
0.001316782183425874
0.03930414273825605
-0.029234746359258195
-0.05980530725589397
-0.030821269075242613
-0.062111954925208816
0.0069174861827042125
-0.06081728079413116
0.054737935946273304
-0.006884110581898319
0.03293090783282893
0.019547770977652906
-0.03057349867914792
0.027098854451015727
0.006726229831484034
0.011606470726581926
-0.01999489501147265
-0.006606474535547565
0.03499969404978081
0.03018864709790182
0.01139702746604254
0.0549263121227317
-0.04466319640818726
0.05233034741153996
-0.036053357297256096
-0.05454245401496958
0.048692615248172304
-0.0038811314359600275
-0.0560437798564141
-0.062357614323780765
-0.03725556198419316
0.012407090302692101
0.006047552774165173
0.0026373753066526585
0.03680486025373491
0.0015408619466835275
-0.01839796037644249
0.03568815218363545
0.00160799394052942
0.026277490511596748
0.058440510162510166
-0.056165860408837344
0.017635711641980478
0.01086998902020765
0.02105277516893078
0.017045723001624876
0.035407302587996244
-0.015403843878150842
0.00029540004355085853
0.052190371874735346
-0.026537016561664222
0.014850347062486486
-0.01150704124339273
0.050345783981825896
-0.01820870546922534
0.04361812107234376
0.012787556976305027
-0.059237095029777746
0.005051986479780986
-0.008950631648914712
0.006615260537460656
-0.027561501535815155
-0.051197214400041914
-0.002814467042828755
0.055728281150554164
0.04659644912190906
-0.02178603610180432
0.030273706117301177
-0.0002306683172795809
-0.035993918137490734
0.011730066572247384
0.04091669148577715
0.0523031304545098
-0.026222181666608706
-0.025077422386775346
-0.010442333671642169
-0.04714644000139038
-0.05864577568269435
0.00029909986367883385
0.0565753806489498
0.02244928928940036
0.04045228269493042
0.011841923981895068
-0.04656769874604368
-0.03543135418727538
0.015047657074453031
0.014085654345753497
0.011834170280702492
0.028489389941182604
-0.059718845994106214
0.03314747401690984
0.027013970717844626
-0.008035571762881303
0.06231611448413268
-0.03753559778975992
0.0074856660272675365
0.012171967704939791
-0.009664082839265979
0.0028057935521015594
-0.030632569007182264
-0.034331917383630124
-0.011375062114315255
0.013733783523663319
0.041602602755577915
-0.036919679742908364
0.011487688740051806
0.04366017464443505
0.022224892889694255
0.01960739569716403
0.035100402929588014
0.022678437991867997
0.05608284237484879
0.03329991840150447
0.04689322907252049
0.04449765999978055
0.027919005830938964
-0.008258368788445268
-0.018942987710090006
-0.020688822794538497
-0.05384382531490189
-0.0007745914147471721
-0.005736131859336426
-0.015932875138087926
0.007000377367344656
0.06225330171150132
-0.019502781564590104
0.017044639091476615
-0.034936085813559455
-0.056637403956097766
-0.008952100885385323
-0.0008790115699442435
0.02097617520586843
0.012794428323787866
-0.0031173770202004842
-0.05764319512902225
-0.03775437864863614
-0.008881084021586659
0.0007346087198557421
-0.03235495350537886
0.02464932041665825
-0.059285447580461816
-0.043475301082987076
0.04968753985928697
-0.04794142879001794
0.029204229478109616
-0.015032641996925637
-0.037029750797482545
-0.04917059878843285
0.0100909857911408
0.050003991750766176
0.049482766686163394
0.007545824048311527
-0.04049809614212923
0.014695688851739537
0.01449091971108808
0.04275635431336331
0.02298438955146234
-0.01369420346410495
-0.060665509098902524
0.022082349307683904
-0.035060763598351606
-0.007107588244331705
0.04323456620150843
0.010118085205697206
-0.02807515835515875
0.019085472825255755
-0.05558270040000451
-0.03556141530970478
0.024241858147649172
0.027911004971509345
-0.04370563969675461
0.041077213255455235
0.05285019799446795
-0.04021511069365096
0.03768749193212154
0.010020113600657006
0.02883306222991058
-0.003619629099452015
0.04067508531999251
0.055595199957840284
-0.05152334242640048
0.007098219869632396
0.035617879526320916
-0.02395476386302744
-0.030000138384197694
-0.02426360115930613
0.049429229829965594
0.020703354008500898
0.03234314405849872
-0.05738071755925347
-0.009123947943433559
0.05267200664042656
0.03256186706371666
-0.0547731765216691
-0.02570457300172475
0.059165355921217806
0.04228241660661645
-0.039626500682759074
0.06133137007807692
-0.011509112115761942
-0.04640113317599449
0.013564739780984587
0.005600772170347225
0.04704027640547676
0.03938975065700492
0.007009609224753465
0.002765452836475196
0.04101693911235584
0.04204968106083511
0.061771179684476325
-0.014097304160200884
0.014191163475271369
0.04766254973004969
0.05815991391086523
0.04887957446030477
-0.03349933481801127
-0.02062947330580175
0.005063242599182795
-0.05503397927947456
-0.022672926326101916
-0.06186368122719373
0.0408886928265508
0.001979493858229014
-0.02701307404291475
-0.04529434697770469
0.01853707878340199
-0.061472937315454466
0.033682902671879435
0.054092141593264274
-0.03429829634317257
-0.015098457981104553
0.022206359976219555
0.03849131461280037
0.020020072002612615
0.015417803350183291
0.01849543899811133
0.01107137669670438
-0.027993902492223232
0.02716605032955117
0.006435774148717279
0.060786550354850026
0.04059099523462693
0.062017548974594085
-0.04076425376603191
-0.014496790221330253
0.013122075722138414
0.007186844629959207
0.037473169874470115
0.022194706375872366
0.032716921399928774
-0.0024566485307854348
0.04918894511697083
-0.04756278793642791
-0.017509402468513787
-0.02207487090067307
-0.0232353877112839
-0.05236487649812795
-0.041632948491769954
-0.025039629928489914
0.019905396493092014
-0.00771784982389069
-0.05482806473859179
0.011597401302157069
-0.028949297149456665
0.038552747299058256
-0.0058727438735233775
-0.03752582822551307
-0.004360345092662059
0.05317131498282152
0.045592669350900845
0.03294209343374049
-0.028394923552380862
-0.010326309550080055
-0.05012998286256121
-0.06184907690821733
-0.019815685164784238
-0.012256511833750384
0.005467055136922013
-0.04184037481818779
0.0417211927288608
0.02272774890094113
-0.014213856987442609
0.038706949046928014
0.05884833066186277
0.002270852414270288
0.052663529922598894
-0.03288262968672439
0.007852546797277786
0.03604559224501815
0.021725899372909138
-0.024574590534392825
-0.052935056737084145
0.04372480106499065
0.06078118286963099
-0.04628224513412744
0.04529042972051909
-0.02304533102776408
0.028513440452664903
0.011079748825665424
-0.04016426433752084
0.03671580896478591
0.05778910285526879
0.01077601425574788
0.013287450544603131
-0.032797813207506375
0.05401704595613444
0.014483392749447361
0.017912195729746987
0.010782046513567177
-0.02148605973843885
0.004035490175038583
0.02845679924656277
-0.012985683443655428
0.026583525276554356
-0.055065863950618486
0.050974295950392025
0.05305507177673078
0.04613957476181608
0.027129681079817846
0.00046840676738700565
-0.05281943376651906
-0.00939980551267655
0.01220193539580258
0.0002826608262791324
0.04951537502707489
-0.016601260892378813
0.00874492348833515
-0.0009298190012212436
-0.0019755400800034596
0.023602748076595705
-0.05180798348870345
0.023453708514518622
-0.0406202217665547
0.03722091326133845
0.018690024908617705
0.0506118322919781
0.010457244931957
0.01053109108161429
-0.054223428183800014
0.05294433867598009
0.0565092327550162
0.00845866101292468
0.0031291272576118158
0.061541956882043024
-0.038611810486994906
-0.014668002496650954
-0.020407242163836114
0.03437646679968177
0.0019100943493381565
0.006695680739421713
-0.049679941754922956
-0.03616356431992646
-0.04976900471638931
0.033443100201952965
0.046912090188022955
-0.016281181449071046
0.03823992535003364
-0.007380890113606347
-0.05766683144257267
-0.03248834569949211
-0.022381872510586414
0.048806308783896336
0.05516468746672457
-0.02451500629919116
-0.04728087906174467
-0.02476050005314989
-0.03290728996496505
-0.01302815260980819
0.05795166613783743
-0.046693851144373195
0.026629407199460078
-0.022528760154515683
0.062102237711554674
0.05378389817488915
-0.057739257655583805
-0.05489594235416415
-0.013231239888813693
0.004379700335769273
-0.051992848447174216
-0.04181611876430342
0.04887424254135247
-0.04998030878063015
-0.05455827284333877
-0.02265583824064425
0.0475940341402084
0.06106358156775505
-0.056972429485709415
-0.049713641549256844
-0.03800476175009299
-0.008280091022529424
0.0460510060327786
-0.01769465385517367
0.014946499284558224
-0.060851452533232674
0.011182066883785284
0.029015494874166627
0.008730538881493789
-0.055300968121452444
0.035330782726461805
0.0012607813549141836
0.033739559309319496
0.049856539660057674
-0.04464937289987412
0.009672482688036303
0.04435584405537114
-0.011546575994350187
-0.027913504472906147
0.019936213323317766
0.03958567122768999
-0.028873666055080096
0.058002719078542146
0.015795858261823763
-0.0014518655366648617
0.038434513313364525
-0.007615075928505937
-0.04005240316278454
-0.0352200303652024
0.04836479823587258
-0.05288319695880359
-0.025636760999773186
-0.006900714457527365
0.01787684790313623
-0.024868321063650858
-0.026273870815675154
-0.05340279670121285
0.034791500976913185
0.05363367616642597
-0.04271555555276813
0.027163599758312267
0.05682848784793897
0.05874561008966977
-0.03329949528827645
0.026221722220179346
0.013864716089761099
0.036978035782967454
0.019760548954719095
0.051901977753425484
0.04176946072898211
0.03247168685533856
-0.06005319630437494
-0.002672245619201957
0.03653062043575759
0.04873429799306366
-0.018099897063057948
0.05757411020667758
0.04965101242951513
0.050658754689622075
-0.035386147356754306
0.05453238638922677
0.013605561674614712
0.033294017040069186
0.04556184233731734
-0.0009851162684639395
-0.021020613039199092
-0.03535454076144715
-0.04246655639907732
-0.023214887737414768
0.03483370315031035
-0.05002609046849115
0.03598651293430962
-0.008481078737550064
-0.0423009580244643
0.04620686914915289
-0.013505211998268552
0.016714032351184568
0.005924834539638018
0.008745568785865533
0.03859962427876317
0.017743500976694134
0.007406614467223584
0.058158085275899614
-0.06102675400184023
-0.05795198353211633
-0.0286321569720587
0.013509567089230482
0.031427158585645036
-0.06141574055135179
0.022739390327981484
-0.048440832332637414
-0.047717346703097845
-0.014484878046706671
-0.025457531407956892
-0.020897436687734635
0.003699864894465068
0.02682828555028213
0.0021997942205700667
-0.061662921938966435
-0.006903573905810353
0.0195505625847025
0.03733742765817164
-0.04657709496467675
-0.06195935771643108
-0.025729727705995475
-0.024470151979659373
0.02460647142847785
0.0018703214776215197
-0.03306597556339875
-0.02596718984811677
-0.0037067031208252855
0.052018954412495565
-0.04192922478077294
0.006512529981772582
0.009575163114373007
0.0027745100765050874
-0.038439570522075826
0.02787230590031117
0.057687404781231306
0.002404896188417507
0.047104898125916596
-0.017688104696870998
0.031699033067372366
0.057989956122362636
0.05393924853815061
0.008372508768304974
-0.02115555941848672
0.0387477030234458
0.01828656755540421
-0.05515066833238582
-0.015984345323556633
-0.04156576605133098
-0.05986566951984173
0.004536793795862345
0.04563296444256592
0.0047173227426799405
0.0019364681191192527
-0.018496309549296788
-0.04553509375511008
-0.04117414966753178
-0.03576650341877002
-0.004383654765449287
-0.0005167020113841235
0.04150715551185733
0.01745773253260922
-0.03271559868831237
-0.006325014970478492
-0.014704677716447399
0.03323342233387717
0.03940178022129897
-0.05495539045141825
-0.053824349271811976
0.046347016197851705
0.027522188583727732
0.03413280225936482
-0.011161198285176059
0.008366997010031308
0.05234888136718018
0.004406895244105507
0.04937618898969998
0.04404932197455603
0.018497507153335573
-0.01325680568582943
0.007915566786313165
-0.04203362117577634
0.013552366037707137
0.005355788549499723
0.015372648265368076
-0.01246122540494622
-0.016598122271104004
0.012732984039165158
0.05492762699510694
0.04301294177112352
0.050786503677861715
-0.048050908008682496
0.05566294452413963
0.04521353507417134
0.015037255917379892
-0.04172729204050956
0.049229001688282696
-0.006803896886612578
0.0052800057256851265
0.010656926825407474
0.052245632066897287
-0.0052965608554614565
-0.05942106019178905
0.04000004097681579
-0.04257249789377989
0.05733999200277388
-0.030894955448140218
-0.04528811797242039
-0.03846652109088359
-0.05035469258864502
0.06108161431904607
-0.04652502968028561
0.03167205789409295
0.060359867925174705
0.00427876914004302
-0.06233439450616291
0.05544488594957402
-0.04635647670372505
-0.036601490687394996
0.029612036775695235
0.021982053880390897
-0.05009070167107315
-0.04753466447848773
0.013786033753129074
0.007814292229254489
0.00859767672398745
-0.04805076120791515
-0.0019563888530539637
-0.05246183417499536
-0.03491369515600345
0.017083599502263246
-0.055333219892805464
-0.019095810333877413
0.035141640346301704
0.024930698115844165
0.05530516278286244
-0.05121759315227962
0.044858426431917335
0.04304561737214962
-0.011933857587154177
0.039412537881978134
0.011535605658075333
-0.012699000866483052
-0.009350879510814534
0.03437582598312224
-0.01021219750922128
-0.00015228429429975374
-0.019076980471282947
0.04382327353518637
0.03296646654701712
0.04891143634285545
0.0317389914666062
-0.047697049079864585
-0.01737531488510242
-0.02316951541606242
-0.044631449355742335
0.05262307713960911
0.021062567716971663
0.004218612621158176
0.02852478084041157
-0.010175819775685766
-0.013340433551021031
0.0017653650185182471
-0.04987877211921322
0.0002559517744838146
-0.015074120134142192
-0.02260342750611267
-0.0036486116558013255
0.005527643891563599
0.011275779172214615
0.013464318471209684
-0.041406955307605374
-0.040085274131546174
-0.05381296244776695
0.060827362500936906
-0.0302525152223341
0.02996278319641762
0.033930955605900544
0.06183121200584813
-0.04260641137242537
-0.012437354631819579
0.0026963486615092093
0.0073721816191098235
0.023785094667205266
-0.03969920738097118
0.02297734943440177
0.03908549550455919
0.005763095153286323
-0.014829804651381296
0.031538423569468
0.057065551368227906
-0.03798775761231892
0.006130090802966003
-0.041618504573499755
-0.009724442512215615
0.05008099108136536
0.030432153210204173
0.0021712752786821883
0.006363851281272591
-0.0020778252597932474
-0.01528631739673071
0.058783877906740147
0.009937893158752485
-0.02501873161519563
0.04275960802681592
-0.03994326831004406
0.04587161242451466
-0.048623964862488676
0.055465177782099064
0.026193797581380306
-0.02881915583474148
0.008786389745666796
0.039562628004930316
-0.006060018020694321
-0.010089263892508608
0.04050461109957199
-0.005591586298292316
-0.0547379483921444
0.02910436019303333
0.03337956149985811
0.0032878203586950284
-0.002582658347236102
0.029487414596815305
-0.04735974810061926
-0.025747584066340656
0.060833992835194244
0.056587683907096044
0.008433622639889391
-0.034599799617751746
0.026195892742535195
0.0048806227540039845
0.04810880065485144
0.06162087315133911
0.032549616769312485
-0.0068649596635973606
0.03118547783784582
0.05911280436430983
-0.03750492159835383
0.022050296900156887
0.061907271634290544
0.05943080366322628
0.04388078027244597
-0.030930348002497037
0.039169986466241084
-0.04272672201554844
-0.030862316108567666
-0.049140214166206446
-0.014988239815347857
-0.02237987992148854
0.021550893298555193
-0.05841401535042683
-0.0419566021584196
-0.04934885433822369
0.05378662266964571
0.04878206351340291
-0.014830319005278978
0.00615621406778502
-0.05281373366404488
-0.026196987637450177
-0.026209152656499892
0.011757355526556905
-0.031753788199806586
0.031862967156437126
-0.03273357830937814
0.035469167893923424
-0.031771296031737124
-0.05238263907316645
-0.03437887802211969
0.021575290905393295
-0.03093975552710591
-0.016527358346986595
0.05347558334108759
0.0344073307289652
-0.023496917820600965
-0.061966015825513025
0.03296658637328496
0.005689747720517071
-0.04050812177471779
-0.005987590193986938
-0.05095342062996069
0.0013562331095168382
0.007941983912282678
0.03921698203200825
0.037214035383191936
-0.0405087541505429
0.058110885136765246
-0.011300013963350201
0.06214481813111677
-0.05326260450211675
0.03576044561410747
-0.04313766986013604
-0.007856157190166175
-0.03649903612820197
0.026213715757639946
0.03067133110159406
-0.026697699560687193
-0.034775806026815244
0.04434706754570467
-0.04638542873235626
-0.01353427454370523
-0.016604277899171845
0.011074305433241267
0.03719978982193272
-0.045873266820627374
-0.04674139360207213
0.005327738122709882
0.055055864640843936
0.016593148132507573
0.033842627648818215
-0.03565851128081341
-0.04737852124967303
0.03922300718179054
-0.0032462277574047678
0.009603384141820102
0.05219999517218261
0.0035684017291226634
-0.031075620765384986
0.024214996791186907
0.022027152767350035
0.019941957984730415
0.047273780692414634
-0.034013521866910375
0.059836741635621644
0.050580341483947765
0.03429589814397448
0.03897572020342482
-0.009415771937701765
0.03993641815188657
0.009281809577788997
0.016271560200264417
-0.04489235943663434
-0.007715259483810326
0.020694642486768552
0.019170354238963443
0.016445854753319177
0.04305257215977947
-0.027116243682031218
0.05742795372469028
0.052285730630413536
-0.05610307453748673
0.058740794298269706
-0.01393419864231425
-0.005857068753558957
0.04364896122350411
-0.03846655529817813
-0.05661805814207375
0.015598257584689952
0.04139033615265022
-0.005631759014874587
0.03240886715746571
-0.005848177709400783
-0.03192794333446803
0.042729981559047635
0.013567962587620217
0.042494665691534546
-0.04707157534818628
0.009608540524854282
-0.04102814838205674
0.029462277724977098
-0.01804973327367648
-0.036952647432294074
-0.030863864048310704
0.0506102234895004
0.020369862778194855
0.020043997777371852
0.03393686716096308
0.056970600102117665
0.021802495565028345
-0.001834401516615097
0.05829055451119874
-0.06172397166155379
0.05792038506926903
-0.0008910894381260747
-0.023678785911576957
-0.04852991837195537
-0.058945844009803024
-0.00850911198524523
-0.06190996291119676
-0.014167004118854921
0.0071467210242694415
-0.003612252769762902
0.044841374154925874
0.014935340696396735
0.0552072645006356
0.010416627280065592
0.0373783780619135
-0.03347503057136767
0.01581577254420936
0.061956278329707924
0.02184812322428679
-0.05441729521000566
0.0246408114924288
-0.0246408333155967
-0.005325238594139635
-0.05667241804387802
-0.027057952841031876
-0.037495963517285354
0.002815283603924176
0.03052649697912357
0.028440110039489385
0.04993211008598732
-0.04388900095400023
0.056377326882340754
0.02467570823574713
0.03303183027575931
0.0011717777714539271
-0.05718493193438345
-0.007773819442664364
-0.02366015142441875
0.010538487816364654
0.026790959585053464
-0.054416540451498845
-0.059110085744551934
-0.05824319997806982
0.018645372918155
-0.049861030480134426
0.03676899472755226
-0.05038170336709078
0.027483717141894955
-0.0524817915572545
-0.007734984196244007
-0.036587968273039485
0.016563118799751708
0.009479643343183712
-0.00557393646195868
0.0620520499656789
-0.01806823513192712
0.015789432086650537
0.012650293093946606
0.02998978461568864
0.04990880564328679
-0.04044213723994677
-0.03637851628265192
0.0376520426975012
-0.018073734576841898
0.039724097066304705
-0.04381247238512808
0.056081009892397705
-0.017077952608034696
-0.0507610958105621
0.01361493459553789
0.05407275397807166
0.0006493566455901266
0.04731227951449043
0.04783495847407759
0.05706952608450542
-0.02848678626817631
0.009314768668811075
-0.0066991672374321345
-0.05707358351148006
-0.04082688613464356
0.05202869189354268
0.005086499432055413
0.05846528866661154
-0.05742140881202771
-0.02399805249604658
0.053440769960645194
-0.05055372643733571
-0.03741756959752191
0.050298928527636906
0.0025669735972341508
-0.022824689650421347
0.0606977331972964
0.02139547932221823
-0.032822449898621896
0.025527028182294183
0.05388005619878428
-0.020868985308607226
0.013267161659166053
0.005365786348137099
-0.03628024926042992
-0.014227677792411795
0.060986200833793476
0.051244129478448676
-0.01572276410493603
0.023980314204976438
-0.06111650818106606
-0.03652556014542906
-0.043536274106819255
0.05433230332747329
0.05930058652170824
-0.0281655949437682
-0.0011681003292541706
-0.02313726707375059
0.031063665951328614
0.019810903335497797
0.044989854930630395
0.02234299622991757
0.012046842955081417
-0.025170344885486456
-0.033791699314339056
0.013276605842825402
0.024242291563862258
-0.051873250061792976
-0.04976808282675305
-0.027296144953089876
-0.019227050401169187
-0.005928861873277304
0.015836914222906975
-0.04071604568280517
-0.04805396573379799
0.020431445443292614
0.06189891300938686
0.016280723110845507
0.03514693938185711
-0.04145292174680442
-0.0020822264508095485
0.04214077768293462
0.061478128624179014
0.05879422621213951
-0.015704754203051906
0.03038005162813982
0.007308682131218726
0.04519804158849957
0.0482580522864712
-0.005954680744613971
0.0606810744793024
-0.05858276050289828
-0.043343938587243454
0.01892550629418632
0.05254330856866032
-0.012634678089378402
0.02343717288856764
0.030666440800789545
0.01727394203499481
-0.05650971143313325
-0.04270431430490488
-0.002050948188832474
-0.05258266626032978
-0.06037079049366436
0.007652762948950536
-0.030681947432516978
-0.03820753106014536
0.019536600850559385
-0.02689819262744225
-0.04100761592868315
-0.03241466584517005
0.026598046242981187
-0.02676755772415512
0.020051651093304614
0.05702666343776167
-0.05319030625932442
-0.05108806379511976
0.010830241407802475
-0.03366060046944228
-0.04131402741787079
0.007611856279395034
-0.014790770749946168
0.0452855284626242
-0.049136977655260795
-0.013481342818169385
0.00808744825667036
-0.02407500620499171
-0.03699022800534094
-0.050960686813397306
0.013359505297882225
0.037346429371633065
0.020254172194268488
0.05328192321395737
-0.05497143130370475
-0.017572820248473033
-0.06109473514568294
-0.05038514589261187
0.03263074938816662
0.0576164282528042
0.019615187671213934
0.012576831264675693
-0.029576181320311378
0.03968847968273207
-0.007987386398114178
0.01078523053448152
-0.04644699959198564
0.02408933835093374
0.04690840441734719
0.04690824964059565
0.0210944425624521
-0.04483101765843498
0.04579392095333434
0.04140314807273698
0.03908248654749622
-0.04158233538954154
-0.008024587390866865
0.03674647344442487
-0.010349938655351719
0.05552170457549111
0.056442975407927164
0.051738151671977865
0.05362658353266846
-0.008223073266862292
0.03273776434980195
0.05474918552286858
0.055553929457583286
0.030485912089846853
0.030212715115545404
-0.017113864115520152
-0.041096849435741885
0.01182424610022245
0.06217858948075334
-0.008533327791580612
-0.004265632181389741
0.03327468956734198
-0.05365150856452149
-0.04109693429825247
-0.035377396944740645
-0.05332988533896082
0.03367501576083947
0.01901896042500535
0.006277868783817183
-0.028307111854127303
0.013804686150348978
0.05891935251909341
0.012662085507285576
0.006439330620166882
0.04302387620182297
-0.016143415690415244
-0.015501441611485004
0.053492259386382836
-0.025053508851720068
-0.04786611368149584
-0.01600159671692852
-0.0031040185619744666
-0.05494150372719709
-0.03146891563535633
-0.047662842024240766
0.02238164646456153
0.016373955395945047
0.01589421903362095
-0.002304128791614165
0.009702109156263876
-0.024268715998614018
-0.026591036834613013
0.05422423786124609
0.051203637201042755
-0.02842791965077934
0.04886242738772562
-0.032575305542282836
-0.040266088118273265
0.012533752896817364
-0.031089104432752767
-0.05416449474617389
0.030904358592238928
0.008966625872989116
0.03581886534540613
0.035040640972487526
-0.04779830939281362
-0.02343709801921978
-0.000965580271087521
-0.004650535571210187
0.029407227069261185
-0.010389503315949093
-0.037805705319697465
-0.027759375871682614
-0.025557788098977196
0.00595017428567282
0.023455652266294823
-0.025601112116227755
0.02627788590508202
-0.05195410051313252
0.04868961787406365
-0.06141033591495094
0.01580209567174484
-0.020038102074897948
0.016494824640120125
-0.050094975113469074
-0.01029590365252228
-0.02965345858141181
0.02942476808912597
-0.013753600625896393
-0.0013462695185629257
0.06038550768794721
-0.017109558590924664
0.022671462864294303
0.05513299733795287
-0.02410286452997863
0.05199992480378291
-0.05708941822348724
-0.0586956961023417
-0.054620535691687046
0.05654410857397856
0.014259498674998828
0.05164964439188514
-0.04542277827592279
0.013888503325264657
-0.05138123826262996
0.05642981237516597
0.006686112773817351
0.011379705158195459
0.028459217163902425
0.039659351755439366
-0.020569188556771697
-0.014370414589705336
0.03869002886303267
0.054089371042030744
-0.0286646111935514
0.05154273091898603
0.01660808149587772
-0.05484307472149524
-0.05871074913909465
0.013590422616773718
0.021250255750826782
-0.06185996227259057
-0.05465944687816061
0.050950463953518495
0.017101544653641176
-0.0036816009937919027
-0.025619192625930567
0.021136241729987206
0.051962173821358364
0.06106874434057032
-0.009790875674718034
-0.009699767740605976
0.005425057683466294
-0.06189575488613428
-0.00779905263701254
0.041370185059917526
-0.033484635921793994
0.025359991519699806
-0.03006013966488667
-0.020296847422724664
-6.830332973661867e-07
-0.058959785414261646
0.0451427787663393
-0.017425948566837723
0.05075610397468935
0.050603358506458314
-0.013953990857492769
0.012115380784221167
-0.034527707273299395
0.05966836335515014
-0.004631764829505543
-0.008968553634958158
-0.00024425568753388966
0.004579994830022387
-0.06029449945583804
-0.005289678509759684
-0.05336736824050097
-0.005040881920359868
0.0054107186836152
0.024267248329170373
0.05511787462640642
0.014380838127503693
-0.028908260353478914
-0.0005230343480341347
-0.011386037361262423
-0.015751479584031818
-0.04472611365287408
0.018405353103703597
0.06016413025190782
-0.009414634155779101
0.03486132438897859
0.0057655443199199205
0.04678212877531935
-0.017325143022883568
0.022748962341106998
-0.00726698839949727
0.03653479489544529
0.0076679270806578595
0.011188907254316273
-0.031362458922432924
-0.0030021525345877566
0.056462664528910265
0.02276946454886816
-0.01447939647221906
-0.04853474265812829
0.035468575920273145
-0.049875117427573924
0.01198653083515054
0.04403153589152795
-0.01728374272214536
0.005033657330325846
0.036282170793057365
0.05917256965241701
0.061364247308778826
0.0029954540184841806
0.01942394463846826
-0.007266794850051258
-0.05421778250433545
-0.061114025811223376
-0.020781454789948205
0.026499289774864137
0.00658965039449881
0.014167699423211095
-0.023232714617223742
0.03592354204249646
0.002776372892005732
0.01940557014664122
0.05249364768356337
0.05156700678511606
-0.019533026133450673
-0.014846233616440897
0.0018461794705314503
-0.010870019224748976
-0.014630067279575788
-0.036465629907220264
0.008349011519649644
-0.05921927651101074
0.04084475057011328
-0.013404961316012902
0.00977881149149666
-0.004459918892144309
-0.021610105427299405
0.0021642650947274323
0.012142416220795786
-0.023961158757224956
0.007961393262026868
-0.017424040417778074
-0.04439901862077005
0.014311745591167572
-0.03308601326729028
-0.03590644898615381
6.785750089155494e-05
-0.05414142137307607
-0.0045715346114757185
0.04514118661991023
0.05721200314906607
0.01918853566788622
0.04850405184145066
-0.05752403562491528
-0.02587529403364083
0.024570240149851482
-0.021539872872096685
-0.03201664223921904
0.03078205159214188
-0.0020367758898576778
0.043616161078899575
-0.007249323217587449
0.05008511552739094
0.021266888283610643
-0.04351060953160334
0.021694028174805643
-0.012396912404706665
0.012718493738949536
0.04360056331244667
0.006431516162753142
-0.016669830319827144
-0.00920001429211975
-0.028795007221578846
-0.017354600131748037
-0.02258851590167407
0.05832329473278767
-0.055862962688754896
0.04749339094753855
-0.03396959828549296
0.004724695803375908
0.0499386507244784
-0.037962787967609414
0.05029020844081065
-0.05438592806946236
-0.059091286569867764
-0.0480870305762836
-0.02451647577302161
0.008577549678611419
0.010835237795520673
0.003361254416582179
0.013024362125323872
0.05504581007812132
-0.006912008529258314
-0.0395573443331693
0.016037067059880988
-0.04114508312696224
-0.025489638507028022
-0.0383599381360837
-0.028702275682549
-0.047557860263484915
-0.007863742044150896
0.043940996671170095
-0.025774785282802994
-0.01663908064856585
-0.04021301709504022
0.043489514904297484
0.01646847694621739
0.015949610951033862
-0.028264278475251602
-0.027105967606039918
