2 32768
128 256
-0.08296609402911867
0.04595708443385376
-0.003782245636299478
-0.016783116252984745
-0.012739482996169615
0.021225965798131807
-0.06085136322322813
0.041959949131395786
0.054370279454547386
-0.07803600651315847
0.012331593416260184
-0.06064728680759545
0.027191029137659865
-0.05371206795318915
0.054505426642996596
-0.015294547510919302
0.07411904511891504
0.017981140297538258
-0.07818115993398286
-0.07593596636051844
-0.05966284207685189
0.011668216370681559
-0.015194463303256314
0.06964983169788341
0.011518441244333027
-0.05869595329727915
-0.05188797834149496
0.048627398490717365
-0.03358969092682934
0.0456504576019127
-0.040347033772568944
0.013094775487720244
0.06725030725769937
-0.05347632438505515
0.06522028572369078
0.04819917386020208
0.01974874413384852
-0.07378129138283974
0.05146638088028326
-0.05406061237446757
0.0019523542508577921
-0.051586166413263274
-0.0030348214760661106
-0.04355144910701441
0.03410116947191767
0.061604550216947225
-0.03300252082979248
-0.08169386400647079
-0.04053874247624406
-0.08548807430489386
-0.05692222329881127
-0.003767672862276953
-0.016493644112902942
-0.01643771074289099
-0.018377972596750128
0.07532484258950382
-0.04869505380029597
0.00912185315739547
-0.062391211814341686
-0.04948114876116546
0.032573926846529884
-0.07915363428717523
0.03533069488539469
0.01951309336999137
-0.05960243118575359
0.012128611937353677
-0.07025102106958546
0.030074382394416524
0.03308264336347476
0.04796383485477973
0.03559491155066574
-0.025960626006021975
0.08254020642216815
-0.03920326113565927
-0.0866543569483888
0.036004615056817804
-0.0680814126369292
0.017232456737635335
-0.035930664501558164
0.02592953944275847
0.0006665564646234734
-0.029526217088761457
-0.000686213730526134
-0.013031686304455496
-0.0866898613233052
0.012370341963266477
0.07030551259455446
-0.05682313364494395
0.07880801468879806
0.03485421864635858
0.0816189666323904
0.08518025593176838
-0.07768253446225633
-0.053026268710062725
0.08275909565598578
-0.028395895147388835
-0.02478914505171399
0.08694404662589961
0.0028027635352029737
-0.028301399315675643
-0.07367956883867201
-0.03672162981715123
0.039401469647085
0.05007584760213721
0.036383471983097534
-0.07447231581570349
0.002309058163865562
0.004462563099734234
0.02031180295490543
-0.079965995591264
0.00901435639551361
-0.010996363229358099
0.0272082425072932
-0.06580112094192625
-0.021819496067197512
0.01629831942974697
0.06784504702644631
-0.04184592608916105
0.06219869237051701
-0.08548952605161131
0.07406671603971017
0.06218476345732933
0.01694879185140041
0.08657021354171279
-0.022084142227068546
0.01802919881027866
-0.0812100121390809
0.07525809042977584
0.020349425410985156
0.0024369236302654506
-0.06997536419129254
-0.07981048018440046
-0.0417002295754296
0.00818668287945088
0.08231897969918073
-0.009221657641369108
0.015157455130093912
0.018061579888497145
-0.0674732463106977
-0.06643620920081955
0.018211104956154404
0.07903879492321891
-0.007356445707915596
0.046192466983391973
0.013212801799957284
-0.030633854703994327
0.04800070506585093
0.07844307756042529
-0.0735554895223411
-0.021248090219349446
-0.04849309627193877
-0.0526387359121835
-0.032267106573007666
-0.037081236097621845
-0.004405251260409104
-0.006042211033685312
0.041974373454413835
-0.005166067859177111
-0.008844067318367706
0.015813056313358546
0.03783841222492735
0.0307976877110418
0.04328060311243121
0.05529364772014616
-0.0650794043165711
0.05885781075467503
0.014084531929929181
0.008984095616963306
-0.05531299692045213
-0.0016578682266551582
0.02748145237887465
-0.010748639879075865
0.0589705869012589
0.06521910792810019
0.022865504185696852
-0.040088038223057024
-0.030770999796239373
0.03816034247226581
0.03394179029498803
0.044698189052515366
-0.008734145852812675
0.0721720428210347
0.06832609696521136
0.02998067419033852
0.03268636149896157
0.07784124145074442
0.012727922760256161
-0.0497457257417067
-0.004770674617634948
-0.07213148882953065
0.04870130953740194
0.01163535288123506
0.04760701712411954
0.017901555093073725
0.07820336961761758
0.014674980243925202
0.008172525099433413
-0.014106759060466849
-0.03031674034741604
-0.0029802547781731296
-0.035726669685509534
-0.018796163088427575
0.04575258463597881
-0.03208858547883656
0.06687694618938517
-0.08545672281930194
-0.013007397832454349
-0.007093494815170723
0.03128075783842165
0.08433890830764201
0.06365055312688843
0.05316917504430896
-0.07175637923279408
0.08047686112857629
0.07834464907521912
-0.023274390519207648
-0.07604215854859143
0.07791509730241358
-0.051785791913406536
-0.024273217382819366
-0.0012730226843696076
0.04854833837292026
-0.06532795289791486
-0.07197125153563397
-0.008791928355435068
-0.06985970536052978
-0.018550185614705186
0.06074516370414588
0.08131148620423348
-0.03221495968637039
-0.08662441292288887
-0.02876487023788438
0.07092303336609145
0.049141097920120315
-0.035794019265976085
0.06708773609405749
-0.0010995945571092842
0.05614807160337738
-0.08385919638387869
0.07964681807253891
0.07244355560050979
-0.055397831347216084
-0.05638884331842752
0.07925465412510932
0.011979353245478653
-0.059267776164864
-0.06941945999104726
0.0421473992739852
-0.01542791844705957
-0.07876451799042009
-0.038227857619501725
0.040148651329824286
-0.05668786122870469
0.05785173961493842
-0.047145121446994176
-0.051627000330422265
0.0784097443895819
0.023247630351828107
0.061253941896511045
-0.06582726621965083
-0.06397457085598715
0.0028882459704701324
-0.08180819452079731
0.034549155391400015
0.057006496432927094
-0.08146607690580754
0.05445345176916299
-0.035078838609848104
-0.056819635267932746
0.06734592398928449
-0.024376704948445148
0.07385573829077577
0.014166090241618934
0.04098365413712871
-0.03965348070143198
-0.011296838477710586
0.013712193818355157
0.07957493978846535
-0.056392664444062005
-0.015025167735746768
0.08654007535462321
-0.07159332308355972
0.03463785388065669
0.08604647681209236
0.0700685217244643
0.0079418662098337
0.04853426016712719
-0.04268350848608349
0.054966138741236216
0.03705341618386493
0.03829071637739095
0.01045169751447104
0.05365736667229077
0.061406395680802715
-0.07693435295148761
-0.012734664960151574
-0.012264328710454778
-0.05982575785901381
0.009740309921736736
0.019424487780423518
0.04670873536149241
0.047014437519731826
-0.006049203102261899
-0.03967768013242017
-0.07985508810159254
0.07792340703875328
-0.014837688042984541
0.07355361059181631
0.0875989624603137
0.012884226679820527
-0.02071508204094806
-0.05328207741443521
-0.07566782925897342
0.0431655541869452
-0.08063761717664807
0.01891605079935371
0.08811285060547608
0.05279948193639551
0.05244751597793703
-0.06655462769350938
-0.08789671414631123
0.05854007228809597
0.06663800237100928
0.03703367493176607
0.04645762252051869
0.07744108739309871
-0.025072849052420257
-0.07058693610735008
0.047040766204444556
-0.06433058750434807
-0.040754011171711096
0.03721487895782656
0.06541124801503995
-0.04956371974432904
0.055254327836045204
0.03336903809775582
0.06851583189852142
0.06053874469708846
0.04048793818785287
0.037761369644624045
-0.07199938198719602
-0.08699643818766217
-0.013753957607505304
0.010339170918883022
0.0030390161887550297
-0.06730133828191087
-0.01354859529651436
0.05087121585021441
0.008452037517224101
-0.07687230343344467
0.02734887066381647
0.06926643144757087
-0.009899047014791234
-0.014353809848085302
0.0313897052926258
-0.07239199349865384
0.08072600203366274
-0.06989996253207487
0.0461487212841217
0.028318814935765657
0.022850934198870194
0.08631407280640112
-0.06933109232887436
-0.04152306821484816
-0.07332830789115351
0.03595245683209742
0.0412901146274524
0.0776989430819093
0.015498934202998457
0.07413267822946262
-0.06759592060964703
0.07067821861211819
-0.0775233655525633
-0.07892095357494938
-0.06081284499571411
-0.04285416104245076
-0.009965187186011233
0.020021602691935505
-0.0045720071787424
-0.08312696350948691
0.022998268523449102
-0.05691537485160157
-0.006386865744504271
-0.06342325988097676
-0.010929187525416023
0.019330533957789404
0.023175475811681178
-0.07118507347752459
0.021897343719878296
-0.01900901078560382
0.03642302433743367
-0.0024210713478428915
-0.01003298608113138
0.00023244840566555064
-0.04139789770536027
0.05016544163009812
-0.059199116120957046
-0.05556295540983333
0.023756371213815675
-0.0017700606298135671
-0.0207184984823365
0.03140609307542359
-0.0746325965520598
0.027596090099802174
0.00838060723206126
-0.02712878234880931
0.04718111547101237
0.019039786855947177
-0.009724347375173437
-0.08460087781308731
-0.003387230868140079
0.04302101744262761
-0.01549148992882819
-0.03254468887340124
0.07662599100871909
-0.05795128574455479
-0.008807147891557576
0.022403916827665356
0.06830521309947209
0.059186499568748045
0.051337170738643426
-0.0013393030425355261
0.054550594006674155
-0.0019399997713382695
0.009870223792094748
-0.07274381174213838
-0.04168611358780104
-0.04480732048625105
0.08288497830873283
0.04245743573860396
0.05712359262331999
0.04653044612296242
-0.0657182039399983
-0.016811992879359004
0.08669874065050734
0.005659914812128374
0.04675421145367522
0.08226582299164688
0.016061192042325166
-0.07701565650842274
0.08440292637289354
-0.032381431977654876
-0.07335577106081476
0.03800769442166951
-0.07864434197273736
0.029091132960388805
-0.04102229447324145
0.03091760539644825
-0.02928784814129609
-0.06801135602457052
-0.07644121698479608
-0.06925751030444144
-0.08461832161941593
0.07885318974151584
0.06888855954096351
-0.005730740949570726
0.04368596266814807
-0.04849324315219328
0.054439839491344635
0.06469753525203004
0.07571109090187168
0.05698791741097051
0.08202037849156636
-0.018953352478363487
0.0785533040961517
0.0720671886491087
0.04835327612581651
-0.08623511518045758
0.07509567375556069
-0.030610496195373156
0.06440468911744986
-0.03520656468877541
-0.014118218476426522
-0.06942574986720833
0.02559328681918817
0.02949834911355727
0.021847278860303892
0.08260434646956276
0.050326049853253604
0.0413936409097106
-0.029274363663677902
-0.014679948206073415
-0.05777640908412392
-0.07195061315208229
0.06857719381811085
-0.03397414934605735
0.06034119366623817
-0.008790677538211252
0.02936731861654467
-0.010592362259756162
0.02035973599475945
-0.05320956676581133
0.011427152314356906
0.06019189675636683
-0.07067665026129206
-0.07550874379569088
-0.010778017999767112
0.0326465126025107
0.059585606508737995
-0.07192263116933319
-0.03968947081414942
0.07223062650498667
0.024536582259252482
-0.02151397471372835
-0.03640703597896238
-0.0017373330373556444
0.05801661377990187
0.0504506154790566
0.04588411818704616
-0.025291356583255764
0.034500850361086806
0.0018994332902575527
0.07394716037738257
0.015828438091657716
-0.07873155538101326
-0.07106679397135776
-0.08052380444635505
-0.058064281890366574
-0.07156993706713131
-0.010919898079009999
-0.05153526973734742
-0.07160901433077534
0.019535680339328766
0.0026825217962759998
-0.03682419802218009
0.08483218119272767
-0.030092209461137113
0.04844874527169326
-0.018891776315898615
-0.035217032214945154
-0.021287812329273962
-0.010548808772164972
-0.07269224030411643
0.03964394157282645
-0.040917387461457615
-0.07845394849639455
0.03793247324326997
0.05270503059664905
-0.02140684014616697
-0.05167284362147278
-0.08619542407405957
-0.0020589914575423677
-0.051932237019331466
0.0873808827655426
-0.009167866007717095
0.0226863585054215
0.07867447605062292
0.02868049929602666
0.020296135590536144
-0.04484730165167242
0.035486092194132006
0.05646666338991425
0.05369774396309808
-0.046695753531260265
-0.0034070136594555847
0.007909572105501788
0.029690120154893557
0.05806091295491488
-0.04798573160337111
-0.08045152179999375
-0.05093053246861294
0.04726859370911346
-0.03222577606870329
0.018216396097833078
-0.012804899899874649
-0.0626397958764536
-0.0010590416017862163
0.0016141571665746516
-0.056229475256733795
0.03941854008377601
0.07072873372342912
-0.021208421210717084
0.05259506236878571
0.0793904631769794
0.02328593812655927
0.02549869993630059
0.06691580095400276
-0.05513578409470547
0.03968748070493417
-0.021918921515739154
-0.08624288709686126
-0.003011628850227212
0.027913236494424093
-0.08596576793393917
0.07971950938206102
0.07644670035377707
0.056921791004488846
0.058808953140485926
-0.08462619673641131
0.017593396514978293
0.08012094124979764
-0.020841376382802257
0.036470946412650335
-0.0229091743496897
-0.04367266216587612
0.0678249370744439
0.05032524430497824
0.03652221452785686
-0.07058231126717916
-0.00026336292035042164
-0.06860364166040607
0.006996861135518078
0.050674901925130245
-0.002543155863479663
-0.06988133371590148
0.0021082399932688192
0.06652375540565264
0.0715733681893251
-0.06388928508556081
0.0535206121001664
0.07249544875770646
0.08394321766343597
0.0002590891744046291
0.05650616051068596
-0.06262006462706596
0.024727093452983923
0.08537788285922197
-0.015075630584834085
0.02377822959075408
0.0438070484982837
0.026314568853933355
0.07130704986016977
0.08445650006309198
-0.02084250843145425
-0.028121656912741107
0.044556569795834916
-0.01919423991538552
0.02521895889872842
-0.07506360270654173
0.0641783732245211
-0.07556514844660091
0.03450309268030061
0.06502569248915865
-0.046120530016596425
-0.02290244140257116
0.028921376717928656
-0.05739348970340918
0.03470803636408935
-0.030111925032402325
-0.02877488862756245
0.004034644152775204
0.040903366620950725
-0.02024031149398022
-0.07794082896400542
-0.009166182954690712
0.012670993161234914
-0.08619662877081337
0.01808021207250299
-0.08063158335338853
-0.08003941930668829
-0.03997956194720158
0.00884596923010727
0.017043097601124164
0.08024471037484918
-0.012195131983802834
-0.08556034500081956
0.03086275208252203
0.05147869981605035
0.08407440394376312
0.01483281625660083
0.02185974754394805
-0.0024058353004852884
-0.055755557481822884
-0.03709616106906275
-0.05603636210363596
0.04734184780103357
0.08484595522180823
-0.07668101051291527
-0.018857060942181827
0.07451727275019418
0.08623026715766571
0.0238348618699429
-0.0742856594585241
-0.07724254051659663
0.011567356964940252
-0.06931248201565456
-0.04061917737517686
0.08090189546830902
0.019064109694000016
0.0348720821559056
0.07512750646125754
0.055709002930727426
-0.05821545003757385
-0.0625388073908765
-0.04859774408969806
0.0796784095053979
0.031177205785952282
-0.081879787216273
-0.021956955081802124
0.0517474775496656
0.06649626053320509
0.06459891754758985
0.025579630557334723
0.07051320750382566
0.03856029292318189
0.08623286126967628
-0.013329058369505924
-0.05039183379315482
-0.041755244756236064
0.014494658842117663
0.03938556240503119
-0.027476675313271127
0.06379005833189036
0.03150221656038616
-0.029936963886981405
0.08533254586009445
0.03712740515461061
-0.07109343170077627
0.0296075559686878
-0.013752315531229511
-0.03620932448998501
0.004134046112167918
0.017714447854516317
-0.04901930235352098
-0.07310447742511955
0.08676241229730933
-0.007831651369847639
0.02071880448377458
-0.06486120391654039
-0.06192194342882756
0.010824263840554791
-0.06097848130301497
-0.05690321588742849
0.006992486713973001
0.02404153534759426
-0.07958509678605649
0.06822569796056678
0.032632239012458285
0.02840770989694794
-0.07980583254635515
0.04067224019304156
-0.03479372098692293
0.051087183122869126
-0.04375749147608361
0.010669371701246884
-0.0399411276740888
0.08414773021649952
-0.08754892704663514
-0.029640710751612044
0.06479978108646858
0.025754882847026008
-0.04368031139504828
-0.018869032642820978
-0.02748726501026355
0.02536790139140462
-0.07066059768336355
0.04142094309170739
0.001280425347407381
0.0668734282988693
0.08206878785641072
0.008556119677414872
0.04535181217335872
-0.07681101986546247
0.0444302682458753
0.03265334735255159
-0.07831897251618933
-0.04523613585148988
0.05825596507228616
0.01241077261287477
-0.07852150407549352
0.07942866207507247
0.06214946642418315
0.03135607785970892
0.07041715796800364
-0.001216614693206317
-0.07287042911956255
0.002993047091612834
-0.06789260487393638
-0.04039037554761415
0.07719125679372843
0.024656921744534054
-0.04882057355873504
0.07178519770389336
0.03147793843303637
0.05002315737463882
-0.07595921693793227
-0.020965437474866417
0.014143037901664214
0.017665574248657
0.03323160720151751
-0.07721118217308148
0.06256379153041973
-0.013790738956995827
-0.06147852429561888
-0.04819466222644119
0.07939225697114426
0.07647275031667056
0.08836315076226493
-0.012283441659498313
0.06905534208296238
-0.06789064252620745
-0.020506515764818198
-0.016841739848872873
-0.040006819760288456
-0.06543390406955546
0.048853561742177046
0.06980695230317183
-0.029548792169511427
-0.059622949835646984
-0.07200366394789473
0.0827452112858026
0.07117562313003856
-0.026064765368289815
-0.06261717775356047
0.07206655468361702
-0.022443983096710488
-0.04582708840682906
0.03378321531576896
0.06721958318374496
-0.017181398111988044
-0.0030117254579078196
0.06342179004102172
-0.05453080381127921
-0.014135505184823247
0.0881926264782282
-0.06054380539092577
-0.07979875274571623
0.0015932124979632612
-0.02086686467970537
-0.02695131602551427
-0.05786745749101981
0.07077331167035923
-0.04190380574793258
0.04704955467877447
-0.0728794368576746
0.02696191741304672
-0.06779770220385045
0.0005981919266761659
0.028550575540317577
-0.03780410504965059
-0.07074997915728466
0.018264817681514223
-0.014073298987446258
0.05279010481118076
-0.02005331289201615
0.0179981326336184
-0.07177452860747026
0.05866446500315336
0.024816538288057396
0.07623248477325065
0.04987044907320733
0.0768687383285396
0.05207767890391093
0.07443223968100289
-0.08045919048125932
-0.06243400562372432
0.0017445088164608012
0.074361745702112
0.0440227090372731
0.017384711818869046
-0.06465920416697002
0.07155381698812043
0.05305228915008999
0.08044262234228206
0.08210707792559961
-0.07758448078694828
-0.07681741826250525
-0.010753031432782681
0.06246886511350565
-0.035925628684479405
-0.03152958672727823
0.02268510564856089
0.032210703982381954
0.07480418455637917
-0.0681359444052082
0.06113579185227342
0.034640615514589884
-0.01183468502333327
-0.029258909503906878
0.0006459019281350441
-0.015921777384608177
0.027236730007291952
0.003604889270521119
0.0452482441406476
0.03623821448760294
0.07967374363853351
0.08761045471098879
-0.005183339909931961
0.056122527376842965
0.06996419123270166
0.07200321205074602
0.036058524772469
-0.08176649066453259
0.07065251218702512
0.05466448508640372
0.08613135921284591
0.015250315787715598
-0.020717135078082326
0.07206454066470942
0.07252308447542924
-0.043005241675432876
-0.06618978342474366
0.00028380945220077974
-0.05910588885284143
0.07026562955161557
0.02953272703499183
-0.016286426842928886
-0.007014249302822242
0.04384016513391936
-0.04615368050634151
-0.0574569336154704
-0.004209149042920077
-0.06377617496705965
-0.059918357950569746
0.01619557011743897
-0.06486427343815826
0.04229769519724813
-0.0011630277725949041
-0.0076409721301569184
-0.0754868506032509
0.030118900774878225
0.056651700748173765
0.03751138980174596
-0.0845574553587779
-0.08392517354612529
0.023352523419683517
-0.062373072120640465
-0.058352075249583524
-0.029500226538551024
-0.005532830693092621
-0.005958879895000242
0.04818793991465326
-0.08213056577043863
0.004023647696142364
0.0528406636507705
-0.048627272098910525
0.08423304681592905
0.03981752763521638
-0.05953916614747807
-0.06155089519914899
0.06091160725393456
-0.036492402914782826
-0.001557137899284113
-0.005974779034687209
-0.010172300698133399
-0.07674946983415
0.06101955954466613
-0.08619643236126591
-0.07979471134584448
0.07183218339232562
-0.024743264269837324
0.07157410219820048
-0.0003729308031211083
-0.06426727532741316
-0.036710993588970654
0.023732720790218525
0.07474799278088619
0.03161563943211873
-0.07399320897806481
-0.052464344568438404
0.04638496256922633
0.01333627082336048
-0.015363649740652975
-0.08751773983477511
0.05959051911748291
0.04916885815925973
-0.029453673311701255
0.07641897866685776
-0.059058045974707755
0.0819717225944927
-0.06596291778665507
-0.06958409435679858
0.028145065063180107
0.039808251099318306
0.02615567098009042
-0.08242654867802604
-0.08191506978500243
0.006633304652155286
0.05969403717414738
-0.002192449613182168
-0.04556370143189418
0.05717268582382749
0.05087069200380924
-0.03868756021172165
0.0114509217102094
0.08570941791085725
-0.08685467560144565
-0.03970754730299322
0.04804708606585375
-0.024689972006325327
0.0524747428816089
0.07965678388261135
0.007849106076866355
-0.07640074764847513
0.028499837894194257
0.0630078174982498
0.059514221279444696
-0.030988081492583433
0.01861573696967964
0.061115077752547244
0.036301321338831447
0.02920436094370059
-0.030851834378752316
0.0019238253857390948
0.04043689504754409
0.03602471516714971
-0.020456972244368474
0.012899825332876414
-0.002642772191090217
-0.029659940235831815
0.006690808607767882
-0.07474115877709851
0.07259577770352214
-0.006878597573316785
0.02085312824342687
-0.057744743933769924
-0.06615035652665757
-0.05130006855043025
-0.035809235851398516
0.032353768856076486
-0.08187054046548986
-0.055210416067657385
-0.0019222871504296474
0.021924585342228717
-0.03209328190908514
0.07888910721049523
0.008059808083452849
0.05502015759229641
0.0032397327024363018
-0.055942616983503696
0.0818880119463309
-0.01549611663922585
-0.03710197902062722
-0.038554151632875774
0.08407163380695733
0.07606265162478693
-0.006920714504739932
-0.041863938610429155
0.023306359375925234
0.04091102740448728
-0.05148859022019941
0.07524035071279066
-0.024237153722418036
0.0755669124283849
0.020574112015869048
0.07084088594645604
0.031062035396238894
-0.04871837926648553
0.02093981027972319
-0.03227051547009063
0.018854990478735203
-0.005506815366726963
0.0860381692627239
0.07311892676064441
0.02230766080573986
-0.04472882474824825
0.05446136560101779
-0.03614906747870307
-0.027700407359551267
-0.06963600724170155
0.08714895491531911
-0.07002699941036537
-0.044560371930479105
0.03403701977666397
0.0272087274681523
0.06392608596093985
-0.03127290227099884
0.043245888772105244
0.06487594876539471
-0.02660817920170875
0.08513735053415282
-0.0005855830069052414
-0.021084426701401746
0.05778397314413966
0.07943480488848646
0.08606118040399623
0.038894621984116313
-0.0028647222829171377
0.05030039797398532
-0.04780480009941572
-0.034468428084635266
0.030713999073922728
-0.029217368814713436
-0.0619699967216686
0.012064778348059739
0.00878579433629808
0.06015207438863922
-0.046532995437573506
0.03319099508937308
-0.030127189210335106
0.07553346439496428
0.07222821238941846
0.048481166987500435
-0.0681919423504412
-0.021223841772213693
-0.01824120844899653
-0.06339431590764925
0.04453047173324568
-0.06256728548584732
-0.025987865585568568
0.08426768495693528
0.04339658421421847
0.06999390424272044
-0.022701937705523065
-0.04894351548733435
0.02122995827881122
-0.06043337210214536
0.0434176929297704
-0.0699444171455564
-0.07797665119556518
0.043705614593071415
-0.0668759668728409
0.0036415874452442104
0.04218453117400265
0.037662215855748665
0.05896169385988371
-0.07518600557633645
-0.023570519981456567
-0.0004401087643181084
0.016414449776824398
0.02731839584430564
-0.08281613414417767
-0.0802041100628059
-0.03954175105405464
-0.07122302014863646
0.039567143639994654
0.0317889897884871
-0.04058422338964796
0.013320894749253138
0.0735871772494523
-0.021264862668458676
0.0076243539013481935
0.08467566242154365
-0.04070746580813216
0.036953513983446006
0.02745976429114422
0.061139497540688786
0.05311698693665671
-0.03297391849710655
-0.06351773465056454
0.0635113009672385
-0.014486039176331515
0.06126967885300211
-0.016614308882537298
-0.027088582074117244
-0.018201986786596718
0.06761375779163813
0.014624975555161965
0.02387808386252727
0.0537435778741396
0.006660309252697005
0.06883341217254144
0.033671112478249075
0.04266142267794043
0.07198178660712132
0.03961826582344332
0.03473457321404729
0.07707180479327574
-0.05327207756559017
0.0679438500380999
0.06671942994307498
0.04312523397447049
-0.010888797215515188
-0.06838772683030338
-0.058285990117213304
0.0644197285718218
0.08203889647134036
-0.019127984883218693
0.04533655508910443
-0.08445377334925083
-0.02521763868252056
0.045856300623769074
-0.08141454840348494
-0.028413647425636766
0.0032173451804683607
-0.006430124275217327
0.05914136860278394
0.050646034392447754
0.055421980549603095
-0.0492795354425459
0.07583620714812415
0.005375198754089157
-0.032782453587915046
0.08384942197408139
-0.0818313196651756
0.02373783134658065
0.03601624923575674
-0.06197431008183462
0.01789217269100343
-0.07594907986823723
-0.06696210842685058
0.07608828796386716
0.012230974791514597
-0.05582222537197293
0.013308793177780656
0.016050861150790036
0.020029238623352624
0.010099087356499984
0.011850726013252023
0.04575224934686311
0.06054507403746556
-0.04810533184517869
0.01980436617750385
0.019189098866985724
-0.08333224937108827
0.010317099320498638
-0.007953329753316134
-0.0736965370614022
-0.0062863839166213955
0.03035472254237024
-0.08065233217299177
0.060463876761645864
-0.06741934221861423
0.039871994247274466
0.0264188073747973
-0.07357814239339919
-0.013601177188283688
0.012395920560034227
0.03456601564875088
0.002209853362678566
0.048991409763347586
-0.04734840616033356
-0.04743307035111483
0.07252297932900979
0.0237695906184107
0.056761180449730116
-0.023345800035060052
0.06442647620584653
-0.07077362942418379
-0.027015779799438706
0.05443803881375798
-0.0566580575906202
0.06541021368970677
0.02642274493075124
-0.007524580013187248
0.04000811465938962
0.040305950756923975
0.006599235671651934
0.045839166146462704
-0.015452297580938234
0.044187893559137506
-0.04753624390729443
0.08740356675338469
0.07739309598474521
-0.012912721721087836
-0.03036517324163425
0.06188708607386003
0.015419697385589522
-0.008967516860218721
-0.03050443357786893
0.04666875295098513
-0.027602249446080557
0.03406962993704847
0.020570024712098584
-0.002889655761978613
0.05778252737043626
0.030311954694289732
0.05988993451936504
0.06360279529139021
0.07742561994243964
-0.015993090647905366
-0.06780918222312345
-0.06924164111512988
0.05175781586393241
-0.06324473857970381
-0.00444440260914708
0.07440113272388885
0.05245272415555427
0.08679824413165511
0.04433599078259304
0.02179584913337932
0.03637361703257829
0.06563616371014201
0.07285430982608551
-0.009878081633733483
-0.023216102741643953
0.0256655626842223
-0.007823579349240313
-0.08063361417438468
0.032439966074828956
-0.08756823214068807
0.009706480158799352
0.031889502183500805
0.019260837784132994
-0.06657822877318069
0.044754401273780706
0.056837325612041335
0.01639276030501633
-0.06453398058140726
0.003869406302537914
-0.03687514393836144
-0.03956472059117799
-0.034549336602205064
-0.08244502945345206
0.0783686143131594
-0.07137292371000244
-0.04398891114276597
0.04815352940723188
0.04563686192226575
-0.03979300816729274
0.06333452165639394
-0.0015288535243441644
-0.003272676861465776
-0.040544130657514346
-0.03290274278638881
0.055512632202733135
0.08368413239457592
0.01934832798013299
0.009133510555086287
0.03691819205670858
0.04028383806961212
0.0626354072947704
-0.017594986448621387
-0.016892670836920125
-0.06597487059930776
-0.08005748334970081
0.07563416692073945
0.0007746556264680562
-0.08452374343492787
0.033682939817758224
-0.06830640392111349
0.08167762060081647
0.022650765580620933
0.08002573879523713
-0.07980887655693449
-0.03327056718248707
-0.010310216471473723
0.03976368904312548
-0.08406086918303395
0.056211159811701106
-0.0755982985947304
0.022148360850285483
-0.05918301890658715
-0.06483304851854921
-0.05293278458270833
0.027663252797213295
-0.07503299842499635
-0.05126462040422209
-0.043691339203787975
0.05250060590596558
0.06745522002904904
0.03166701950144909
0.02610793911867636
0.0846140376212641
-0.025966439573084886
-0.01265735912497331
-0.08653699698525145
-0.044796655337109435
-0.0744117642468522
-0.04415809456554226
-0.07920526494217237
-0.012342317333604741
-0.05042723670698301
-0.040708736970719014
0.06657999031135697
0.08487392812737685
0.08155055303795665
-0.04969155859603414
-0.05340674275764213
-0.005232624784301651
0.06596121349472961
0.07872701143646176
-0.005550008773956855
0.03679827603256244
0.03635390095500073
0.02640438510145045
0.036903817502527
-0.010501121039131724
0.004012104996322526
0.043107631414860244
0.08613693271614993
0.013116801457314491
-0.06137350181500812
0.07347007243180317
-0.008527916396982659
0.08425958700959138
0.006445469198108825
0.04747453519270386
-0.043379724882252994
0.055298759662473336
-0.043405711470658095
0.03947877795027168
0.0576198391421727
-0.04551755447414608
-0.005078024066355401
-0.030392951615442896
0.023488537658948136
-0.08690402756146881
0.01965206117950482
-0.08126603653804529
0.04527086289686594
-0.08274003440487263
0.04464046095963652
-0.030037269589228463
-0.05171356867744124
-0.074902456256217
-0.08510722126688902
0.0442780280596963
0.017042347205592757
-0.06353008770614418
-0.055347879930825815
0.0722322343161554
-0.03531648410104138
-0.07201693881911174
-0.08132857869806487
-0.08172114333617744
-0.04647897994353802
-0.07432732484468667
-0.08235009793571423
-0.032347580776560365
-0.01138444994627339
0.05936647392817255
-0.08339018909228985
0.058220509477069374
0.028386121788613244
-0.045278040984531594
-0.02006447632296474
-0.01985859124331903
-0.024843732301115515
-0.04001466012944638
-0.06790414363431359
-0.05180820818859877
-0.0751432933243611
0.059249967940916755
-0.07465357101436042
-0.07287953411034355
-0.06804205349732183
-0.01726251807635791
-0.004666155691279129
-0.03044727161594195
-0.049034308331318624
0.035704316598949744
-0.04653143542309292
-0.056078079860793516
-0.0028437595180645127
0.041668390670256024
-0.025095388475556788
-0.03915720921570501
0.023174966001706994
-0.045418131693910534
0.015334170448951504
-0.08552116201018273
0.00974828582619442
-0.027247406545662996
-0.0714492356508635
-0.041321309200157655
-0.0488321933295824
-0.06464379219978626
0.03674081051805779
0.0262854299561773
-0.06783844423517497
0.06240892291795654
-0.06583521609557388
-0.06144060864624904
-0.03752846231374915
-0.06104533637186871
0.04505652217501236
-0.011519177707072505
-0.051505450727042476
-0.007637573572639773
0.05604158946291008
-0.07939151426286968
0.007388202250657525
0.005469326420158143
-0.07393817828219269
-0.07971986604884611
-0.08212126890030076
-0.01852083332051482
-0.02845286549528876
0.004190895798550825
-0.047580129077330766
0.08665264314250977
0.07125755701729768
0.019913555125616562
-0.022307164631686548
-0.05846326863551538
0.07947627161373477
-0.07159431709911193
-0.06327715786227028
0.027493632320505838
0.01840183545132242
0.027997508213644898
0.031827749985111425
-0.06071446276029307
-0.07731820271389427
-0.08036521974701392
0.026601832134853214
0.06335312184876121
0.054525107644122064
0.03387596146404341
-0.024356944951103153
-0.013427481183658848
0.058008824139460145
0.02054049571152837
0.08251266111566662
0.052248254380332766
0.01621886071961498
-0.07539166844585729
-0.029520019946657827
-0.0023639910102367474
-0.010522997164015752
-0.06908246579232108
-0.011360868708041292
-0.04218929106663416
0.02568245038493202
0.04865106577536937
-0.0469321561425238
-0.08141526151218592
-0.047135054769062365
0.043273193664050275
0.027643924001269967
0.05628152284997914
0.07408530372785249
0.04483919483798246
-0.010517553495644044
0.03252281328264074
0.06177990710405511
-0.07981810323794696
-0.05584252988638927
-0.08793425617973236
0.08635985994904782
-0.0857108362487915
-0.04746467093419348
-0.06671768274686682
0.06578888622307044
-0.01801485452684256
-0.014253694442642847
0.011816980463253935
-0.06581024525843708
-0.01832467385891676
-0.0704999485282657
0.04468418409525667
0.08559232224409023
-0.027026894098418488
0.049848770760927544
0.052931930230923865
-0.07327011630347581
-0.03636784456219536
-0.003750991842269093
0.06031865397247468
-0.01757240224867811
0.06869494585658699
0.03639185793076199
0.010640289895386993
-0.08710298915919354
0.07785620810100473
0.04145413258171196
0.07891817709182977
-0.08819925122189437
-0.08508537683989024
-0.03992037702472677
-0.0504900310850772
0.0020178064680390993
0.06307680147403104
-0.02382862964736297
0.07989485669596837
-0.08741626887596446
-0.022742841326564393
-0.05366661435340183
0.0630400206690039
0.001024167679295387
0.06408553832758497
-0.0753361540527455
0.03981335920173438
0.04248955971667409
0.07932776130313669
0.06734143968036428
0.013193755901983902
-0.07760318667630273
0.014955297921274329
-0.04907713747836679
0.05659012579180397
0.04917475860016972
-0.029100930774964905
0.05413184786803177
0.03787021905202515
-0.08463580798515265
0.05670255166119655
-0.08276943687963789
-0.0640392639073598
0.056857805832945287
0.06458176529816431
0.019352305567988067
0.0495186909732471
-0.052842537655508524
-0.06947958449594856
0.015340210937680907
-0.08589852217978916
0.02279875243925924
-0.022309242821026292
0.0022017988970270443
-0.030784700578574093
-0.03079399472613557
0.0713383193958347
0.06426380640033842
0.038694741811204185
-0.0684839970593093
-0.08035043621024472
0.02004009781198574
-0.06746495818131668
-0.043816011211680515
0.057666565618007835
-0.009327646541380347
0.06530398977286245
0.05397926004330847
0.08312455441082744
0.03362602289933581
-0.05032250367375825
0.022594113090707996
-0.08757712629003514
0.014807364825766117
0.016117875245341313
-0.034048832334703995
-0.05188057751689672
0.055112645399430935
-0.035900175749944675
-0.05140749746184714
0.07736201646747777
0.028765172995008716
-0.08706726034537215
-0.01677411412804887
-0.01283804584460935
0.023561041994716068
0.0060562714809040364
0.026873170332244484
0.0020946738245981016
-0.0721034414468448
0.009476743423008553
0.07070091169219576
0.014411769564553478
0.04263489282555662
0.08443701084456998
0.08043818320713873
-0.06974001600920039
-0.033599839187863134
0.017555113611757368
0.00016830116881985262
0.02009234040149211
-0.07621756432245808
0.010191393912301228
-0.004006487209436848
0.03149885686141951
0.07332874056487265
0.03844028181792874
-0.012012693211028174
0.06293067741532718
0.0013943318219697546
0.08625954761689351
0.045359793359743425
-0.015294127460403829
-0.0019558040981027566
0.08422366908565815
-0.07776406386641165
-0.03990899379087321
0.08416087461250016
0.0752120703643597
-0.038143561457106
-0.04569176583019376
-0.0015105567637116216
-0.05486180426425238
0.022636695073041786
-0.01993070960853135
0.05472357956080848
-0.04182220915235942
0.025226813835256698
0.07504544159324178
0.0020541469382411312
0.08801652554446371
-0.03527762221370373
-0.03460538491922244
0.048432764322288685
-0.009799393545904173
0.06582531344741316
0.005325082480942221
-0.0033364524262098467
-0.07751245956429577
0.0026470286130886546
0.06745519471596473
-0.008295521100041317
0.06441013716868871
-0.08719548959863917
-0.007780575281975283
0.06088863399040201
0.05259246346816448
-0.025358248789315686
-0.038650623636494616
-0.026248136781788035
0.08278786232649307
0.04686803051408563
0.04243637358189788
0.06479772713966116
-0.06299293764139985
0.08135428635799553
-0.007078584086836015
-0.0022345221767458754
-0.03589399080268109
-0.06864239062014146
0.040286709669859824
0.03548040701990264
0.01911542721253673
-0.015063677362447438
0.0853054027803385
0.032932099618251734
0.04324883903766635
-0.03848510683631331
0.035014290503214106
0.046534268768858085
0.0638943885229883
-0.06325999195284583
0.026336161868787906
-0.08177343810300922
-0.04635256084366032
-0.004048795188919355
0.04533892092115307
0.04753666722892138
0.06565433709976992
-0.003176779495705606
-0.03270694221815613
0.021237080950024276
-0.08109119544063859
0.003649436220492909
0.02741313607358083
0.019946313528965136
0.023451531890645246
-0.07121373765951705
-0.08018673046573027
-0.07818985861772437
-0.07949841832411413
-0.06726337416414656
0.052377651290058676
-0.00890016994703274
-0.05155394224450608
-0.033830043973529574
0.026640442418688626
-0.03920142061911828
0.08335971733067944
-0.04967119730583694
0.0629479542762418
-0.06339577052075264
0.08051517655347204
-0.027307175509495
-0.012427877931538196
-0.04812112471197284
-0.03890193629548495
-0.04541688936025761
0.057454259310926584
-0.012504408370767004
0.022735529182340158
-0.01636934302002842
0.037049773130210864
-0.06425518450819775
0.06466342656702731
-0.07728398752964354
-0.07237802679715634
-0.019321167606665017
0.04471444126089715
-0.07932416000555742
0.006804729232243992
0.05115667518507546
-0.07518166121554114
-0.08046668196380076
-0.028321261577629386
0.021689198922072744
-0.03682628655318261
0.031666828314970634
-0.05752898239789257
0.029777036966998367
-0.05217976063567415
-0.06971607569495787
0.0007831473407552952
0.06085193277194906
0.08711173713511254
0.037403847095201254
0.05296308571871324
0.015759159318264535
-0.07657885313825286
-0.05360495759898492
-0.07202963160793331
-0.008983261280717508
-0.022735524707407553
-0.04258471163796572
0.027432750797564274
-0.05745063456427092
-0.03985965401467561
0.010362670116189604
0.014900604432920633
-0.02959210914092335
-0.04069320634385877
-0.06896669184927383
-0.05889312342947862
-0.06239194983136787
0.04103374499408089
-0.07589945256946166
-0.0236154438603735
-0.03245114647141936
0.07306569861185598
0.018708506300529282
-0.04242023092561295
-0.004187419680320461
0.07256737860289622
-0.021066639622560175
0.033957992795083776
0.041187026297357446
-0.05924065478297715
0.08630514021592897
-0.015487355676678206
0.044478314290153864
0.07015394181141843
-0.053265915504812716
0.07907230215982419
-0.053478821228542146
-0.016423464439833852
0.018958577372948076
0.0754904298325043
-0.07676994565808741
-0.06406766073841168
-0.06963352714048363
-0.02284516434691827
-0.014349698281780371
-0.06082763406000858
-0.06400215161529559
0.02856057103008837
0.03545068863022512
0.04023613170337135
-0.0413458176917933
-0.05600683296869378
-0.041764116566413476
0.016701944481959868
0.03619650675094557
-0.04867407011099696
-0.017188052816085743
0.07855467832537968
-0.08753379829771955
-0.06482870849401963
-0.00024317515334950477
-0.007015683947248279
-0.0032085818577856228
0.05197662575890824
-0.02726836433959261
-0.07069128137527936
0.07263925802679526
-0.05942850318542203
-0.004581170533172935
-0.03178143959002968
0.0241305651614684
-0.04528138859974417
0.008512834889491935
0.009705741756007687
0.04987687453522802
-0.07068126355459722
0.08279634280983665
0.05652884538717679
0.010298923300055203
-0.08548620160441207
-0.07696289610819874
0.07429014204409247
0.040276134819781255
0.005706404008442031
-0.024644362502316264
-0.012673320740553955
-0.048827764066789646
0.06939735346292741
0.06865871386175157
-0.06017964475027176
-0.011113941233772398
-0.058546800379554155
-0.02050061976908166
-0.04972479421264558
0.0396819232550511
-0.05744462802051855
0.04776395963370031
0.04856594538314564
-0.02995780425254724
0.038153669725898426
0.082565567804191
-0.049140984479353694
-0.03370661053338116
-0.009801538798998671
-0.009768053414042424
-0.00207608180007345
-0.0066088260217251815
0.07594213526392726
0.08634129309870882
0.040229816173707016
-0.051167644356171174
-0.048639253513838285
-0.06751335072156789
-0.002935537666702741
0.03111076948187046
0.013323905183929183
-0.006172317378823957
-0.018460918827313367
0.07177595082336818
-0.07809918047623986
-0.0035350174552709894
-0.06888160163108738
-0.08427039866124963
-0.007726213210682189
-0.07895207428686271
0.04500226778478949
-0.04853006011909714
-0.04448457188747688
-0.07855927245743757
0.0637390248276639
0.046406429505969876
-0.010318703867403706
-0.012810221325119314
0.07872763375717001
0.008263326433194128
0.057134930124296206
0.03154392724412751
0.02316222685146521
-0.05132936804618932
-0.05443522933625637
0.08211879702636442
0.04733237861282716
-0.07251407014118194
0.018425780038650443
-0.013313501060489293
0.06533669380249063
0.06379819719689979
0.05859844153077513
0.0339867861349629
0.041094685801579836
0.012147561000608804
-0.04778948242090226
0.04182360824060056
-0.0006695743610009143
0.08552347522577139
-0.012797629236949604
-0.05914598084336194
-0.043224964945150914
0.07933861376277293
0.021685326070181324
-0.040941664166130674
0.04550048718678279
0.03817582370515107
-0.07451765183722346
-0.037947709746589016
0.04680087217546876
0.0754554388219267
0.010560993725254304
-0.001147502216612382
0.021624005108592057
0.06813884560958725
-0.0199610588101157
0.08328775253569348
0.05633493364076899
-0.08727321197843751
0.07981176094229764
0.06932009366621934
-0.055872730371679155
0.06922544755865194
0.05508418359112157
0.07421460759172079
-0.0638543488306522
0.036104039217697004
0.041971568012343516
-0.000980384855363329
0.03304315346416645
0.04628266548721861
-0.055831313659396364
-0.0075869066623640985
0.0449247561369614
0.06785855115149182
0.07329695840137791
0.042489232349995375
-0.058459450967689494
0.06384924837003952
-0.08800617376585151
-0.08561188092326122
0.040714986869874244
0.015783491019436213
0.019935958059317
0.05802613296888196
-0.05179111048431106
0.073004618995926
0.06969442169248556
0.004897645092732762
-0.06029678633906866
-0.023451361038506934
-0.04359014267185703
0.07115094869859177
0.05170317805187738
0.04024035841247567
0.059991053911400714
0.06622135448384184
0.022557278336084046
-0.03916114113188175
-0.019276405080952897
-0.02958186091995422
-0.07176851008868824
-0.05573942644221711
0.046228253643827676
-0.07190658619416455
-0.029915120742420205
-0.025578870722982698
-0.021285137654352106
-0.01225302401952134
-0.023549431652011343
-0.08750356829273716
-0.054224438306082104
-0.01002998537002217
0.021772767019351352
0.08205285072173368
0.06916867811897405
0.08158173244091539
0.0619568765554414
0.035115269651720266
-0.07951539548190303
0.08483646326203699
-0.00782607738389903
-0.028515560831993123
0.005674048265597366
-0.013751773669300815
0.029241134755728655
-0.04679236656303019
0.08761691549390858
-0.03990860989682466
0.05610514657031815
-0.05392269449972535
-0.05704906093517863
0.04535853397159947
0.043148167565770036
-0.0679343694152482
0.004940522889503969
0.040817856641860696
0.03264389161281958
0.009747351062233869
-0.07874979583524556
-0.07683015430829473
0.08701559646472042
0.06498423490468551
-0.05514672636342071
0.004910863902516847
-0.08151008662071667
0.03127009717517689
-0.0018521344833301026
-0.009619832274083195
0.08431110036653193
-0.05796693502404945
0.0620821090390825
0.0564848123311247
0.0770550853775602
-0.0031191907790539646
0.06303854170702376
0.08722776823806076
-0.017344162860551942
0.04834645458792035
-0.000881066489272001
0.07019849258361043
0.02696180532070341
-0.04073055815181447
0.0736821562061719
0.025475937317544526
0.055945825712659
0.07048636908574644
-0.03764392757999535
-0.010405151011402661
0.04592963195418416
-0.04939765083075328
0.07483471506763821
-0.029583018038887722
-0.026355958150894393
-0.05906394076547862
0.08183377397760595
0.07830820479251491
-0.07486524349379317
0.0029778754673074914
0.0021601767578692576
0.022827564376948835
0.017457279276930835
0.07857014396645144
-0.06590553528938206
-0.022042027457853264
-0.023474740428154842
0.056036651087989046
0.07912755293058568
0.024639105105279228
0.03447137241225609
0.01418392321973932
0.07285818733056275
-0.07541884433468843
-0.07497404857324566
0.06887643601803103
-0.06892899850884816
0.035482782194834785
-0.01220136142288352
-0.02225862528885713
0.015962015627207643
0.0626429049637581
-0.06177839628391906
-0.08723018012104734
0.03786153301922994
0.06998300488847733
-0.03680044665737755
0.07183687938450294
0.08790551494907371
-0.08353528136447327
-0.008112362010746218
0.03186364728448963
0.055210187850501184
-0.06238610360180053
0.0083576090859263
0.05481663686021526
0.08102183550075756
-0.08433590901338153
-0.013887280595854565
0.06304957052337096
-0.032401206657436454
0.02174344116223324
-0.0716161670878236
-0.03443678811666256
-0.06927093035237929
-0.056604126533878495
-0.005990625745829486
-0.08397915488732483
-0.04358504645015696
-0.08003877679112598
-0.010140381017006247
0.01838821623534315
-0.002632334319789824
-0.032955201007395775
-0.0281092569839633
0.05129775245727463
0.07896970812305609
-0.07415981065560819
-0.025595525035584044
-0.03356106826849727
0.05966682522231249
0.0802911970435097
-0.05916124272415695
-0.047184718179784244
0.022662467363222555
-0.015912661843523083
-0.04837748918590713
0.005051851173996449
-0.0739760504215851
-0.0044547187967909066
-0.04724887209975807
-0.06317918100515112
0.03482083637475193
-0.017124557758406243
0.028304857872025035
-0.06355410943676267
-0.08789049617195929
0.006973113829363036
-0.02456408251678068
-0.07673126663625633
0.07499367317347025
0.08708333707737569
-0.07050978548392424
0.06164628110628883
0.03926688752486804
-0.024996382512811523
0.03935287784825263
0.05656132371274378
0.0566195320528365
0.027790792949753534
0.016475423067401147
-0.0681314320685108
-0.034231253072727404
-0.025520754710668857
0.07167391955705564
0.028795218180746863
0.02296966875755338
0.05942647632200317
-0.06945457844407173
0.026942532099671852
0.06385862681711683
0.0413243153853038
-0.0847884524964948
-0.0019908395323132485
-0.004838104884446995
-0.028013673267115766
-0.02207569994199029
0.052065495080716166
0.02567892847196953
-0.017218799401058138
0.027013517071401632
0.05796720695002706
0.002575539236425683
-0.021403458572715712
0.03527225803389755
-0.05945265884395765
0.045776853359753775
0.0662253625670567
0.015591832091166161
-0.010367281531977069
0.03838203231584788
-0.05504424749857131
0.05739677792729992
0.01813420556476002
0.05851570414399124
0.08652925345947596
0.06992971087550481
-0.04794193164249763
-0.08092481657384408
0.04636915717184985
0.08639417395944879
0.04270468718225565
0.078226002358156
0.059917019606553254
0.061241206099135526
0.049830044509920984
-0.0704358870494707
-0.010162565725565237
-0.018079759559596214
0.05793584046431369
0.05830056781327518
0.02478627653541863
-0.08344952756672819
-0.04541141272193864
0.08368809044803299
-0.08786475467352345
0.036448574952756996
0.04397403869430316
-0.017496541942524733
-0.07900900755743916
0.0036371294300246364
0.047401361165542485
0.01102573318533548
-0.005828039137468218
-0.01791695110254989
-0.06136291815872686
-0.05289461226894667
0.009362074007738329
0.016903611227841443
0.04073447991391525
0.079285935240538
0.04862983733088758
0.05627318762676952
0.07642616036116383
0.07978868399793708
-0.018297121341061064
0.05571669132569806
0.07932907534709349
-0.004458156161992179
0.012593259852551391
0.03204314792147853
0.044731624482345876
0.06335309989711485
-0.059425231881851184
0.06265010579825789
0.056927959867486416
0.06673907430219846
0.08035584758339351
0.08817460311922676
0.03807460553962353
0.08366147839330362
0.0016334999802552863
-0.03917577666404479
-0.04980702634416834
-0.06844180572775196
0.005635703572237543
0.07713630787838223
-0.08792944651714504
0.011019877620675753
0.040623698472358284
-0.0040119354330316855
-0.017824909143336197
0.035162558370241376
0.0326928907191045
-0.02555835009406424
0.011066218463656612
0.0351095531688896
0.01670678973262656
0.021984332526542083
0.0692445093516121
-0.03811902024860325
-0.048135017625402045
0.060290560550096114
-0.0751153163826363
0.04018677521270063
-0.07524592964584911
-0.002898449792548695
-0.04853737497040339
0.007171596603482304
-0.007594743187863538
-0.07518927772159323
0.007375461681663924
-0.07682478341232594
-0.015310901553570807
0.04923185470309736
-0.013534567347172856
0.04047662191391638
0.04296283331812874
-0.07046350000708718
0.020062418266227282
0.06374091919084181
-0.07041388247891495
-0.05905502678829914
-0.06006700589710494
-0.002376001264895631
0.048255330272912775
0.07493558717792376
-0.07308431750081004
-0.06790758873707581
0.08426243291936207
0.05590004836465159
0.06973091689243627
-0.07604221090860351
-0.029151712038520797
-0.08136809220764882
0.05541022656807688
0.023090456937843243
0.07786716316706974
0.06599543791021173
0.051437505103846703
-0.08614254716994964
-0.08389438114458968
0.023589422708412463
0.07186340968633396
-0.08415430156392138
0.07535698371905088
0.02710460813679896
-0.06877931804382892
-0.03467264967396565
0.021518788389394854
-0.04130095828953512
0.0060667178851508035
-0.006528580643340802
0.06902056086853695
0.05579938019451811
0.06756011602510668
-0.026986890707367227
0.020112686472456016
-0.003826240433737627
0.04683961322491981
-0.018423924527167845
0.06405418422248771
-0.009938928381892451
-0.06171323972784376
-0.022504663423220772
-0.016592889424427017
-0.0002951478522748659
-0.0072096461378174355
-0.0626881953312048
-0.05057422537559411
0.01867365811163908
-0.022357201155142576
-0.02086372620504089
0.010851564968639342
-0.07062129418586859
-0.043508199937623206
0.08181425003077662
0.03168404204271776
-0.029776363574604173
0.008626798635233305
-0.02388101662168619
-0.08428491465891065
0.03980570847104093
0.012398311799452855
0.018587175818764297
-0.08186187242741078
-0.014520313750349288
-0.07515590724719783
-0.036232646478561815
-0.07076578170730041
0.05534609080881256
0.07966955695031246
-0.006358190383517963
-0.0627572088231822
-0.04534727001249949
0.05906565445320681
0.07529992447908666
0.06619885105793016
-0.047493721930563754
-0.04521931250943292
0.035839440549080996
-0.07240057235198048
0.008656884037615139
0.004601967160430411
0.05793472920379873
0.07936229967784678
0.06466115618283083
0.009391317721271922
0.05927262714277416
0.007959955909317513
0.009313616368723507
0.013457859562978174
0.048553618888733836
-0.021963005196410135
-0.056945943200435646
-0.08374804588734924
-0.04238777261320176
0.06325795769162684
0.05205689442003275
-0.016457150642505004
-0.006532823015626448
-0.0844840800390223
-0.02675100412720647
0.041905435442200115
-0.038022557362188424
-0.08545927754461517
-0.04460165305524648
0.05243444481820426
-0.03526668468949425
-0.006162307446246139
0.013868490562049043
0.07181659524290258
0.08316100250459188
0.04112386421315925
0.06378157793255392
0.017351040460624797
-0.004105265448990015
-0.08366290105290636
-0.031514782779439775
-0.07561310768001338
-0.061815312063634976
0.06436075441646465
-0.054001280158757034
0.02606716825738446
-0.020974160337901827
0.0026793133261691156
-0.040092655160004965
0.08196155541799505
0.04996988300292165
0.022457710282318553
0.02695291388912661
-0.05997822730672458
-0.02648736006330944
-0.0727186359643236
0.036335671968480324
-5.797919394486678e-05
0.021494672079498327
-0.07067641205686814
0.028789001399497437
0.02828418327578777
0.028630225942270052
0.0077139564639912735
-0.012170630718483575
0.020005914411929646
-0.014676614923920249
0.003139573520038957
-0.0725035410388805
-0.0681582219209334
-0.06427586721555148
-0.03469343875545036
-0.012432514273318892
-0.0771858901146976
-0.03827574485062477
-0.07049769259914002
-0.007780296293968475
0.04795105884900176
0.06532568219263155
-0.06692539618451811
-0.06215733774749483
-0.056636815786799945
-0.043870468676956244
0.04190475375052489
-0.07942047907766359
-0.04258192374562249
-0.06545283823772761
-0.06098733020859886
-0.08719797271321876
-0.052787174821842885
-0.003611512780102455
0.060379424862948214
0.007709328635206119
-0.030044159759371226
-0.04681100197413342
0.021676004424825628
-0.008042056116398246
-0.07453806470741488
-0.002025883502367975
-0.026098430854101237
0.04820683489083941
-0.00934412134271392
-0.009991109031933414
0.05310280366140764
-0.08451216464451858
0.05465247894797257
0.004799220404533612
0.033103409998711024
0.06280401983457415
0.08124576947307714
-0.06541862099153574
0.005942163526769412
0.02253699652328174
-0.046845882642464316
-0.07351460641769035
-0.02575856536452917
0.048357873154139294
0.020175009285632078
-0.07563826751961211
-0.0124948672755602
0.008978084760842683
-0.06323650238156224
-0.05349180118265337
-0.05554395202891177
0.0386929522206732
-0.06433851823604764
0.026472463477193876
0.0022156741149058235
0.024434225649713724
0.049264409279952126
-0.05448049407814617
-0.046022395171063504
0.06754699507014461
-0.05169277059848849
0.060805033287605295
-0.022074365469043136
0.020509961312568097
-0.07738524950634895
0.06861515082028223
-0.043244566333899025
-0.06211000507437686
0.06866405841441772
0.07397498984081774
-0.013995410664025022
-0.004477906214821884
0.031148600804713076
-0.07129389823754438
-0.07071050973466983
-0.0025162934622130974
0.08774077126754734
-0.076946354268415
-0.03217012885479357
-0.02795278413515539
0.027369868928242835
0.08697471755336682
-0.005707563579228288
0.032518441236814424
0.07141647670767234
-0.06180908001603557
0.043152641506524245
0.07965936970310314
0.04907455960382329
-0.0037928392808939397
-0.05578106052584696
0.04467429695048993
-0.04782448845423392
0.040582278278612056
0.015381427590602353
0.028622133037588145
0.030678560702200115
0.044595049180968294
0.0769849695045401
0.08388437090497439
-0.07328583081982863
0.03307704473796255
0.06794942686715677
0.02356930543427545
0.07406469056586755
0.05904156491725017
-0.07970149502005569
0.011990893672596212
-0.06339102061898645
0.05696624094513113
0.04585557410890742
-0.04549095060737184
-0.061186178441040975
0.040358080446266126
-0.03240287452339573
-0.010374509485252528
0.0848741196328339
0.05451604453652647
-0.008944674170685155
-0.033923604530975864
0.06790643715162552
-0.06840643309408365
0.0021406601419685415
0.04719127844125611
-0.0663650005101439
0.08140547115112709
-0.02468781993974784
-0.01592850265839038
-0.026731365352643227
0.03952002870793264
-0.015540810193062823
-0.01745768615373491
0.03989405699112977
-0.03457896883971748
0.06244888296161605
-0.028862516287347324
-0.0014215092776225411
-0.01760154287559901
0.023396362139930748
-0.04497654822692717
-0.08039457939129976
-0.027978249184054334
0.05921999784841511
-0.031664741881262386
-0.0682017996194798
-0.046142829365021586
0.0519436849452888
-0.039553252714304765
0.04196546353920463
0.07760207085213813
0.07705299840003188
-0.05935806645667267
-0.04787731415912349
0.02748569768443631
0.04941784522001804
0.06036877572198778
-0.08814510308513304
0.009929758279700756
0.005611171185416478
-0.002570073213972717
0.08412140680184736
0.06662848186913883
-0.022906566656457086
-0.020139301628107228
-0.037923502219807524
0.06107163030081833
0.0016597640215838343
0.07975344037710326
0.05292037439701083
0.060819916815471706
-0.022184963817415113
-0.05110588928437623
0.06771602236403769
0.06528917993075647
-0.021061670144547316
-0.03384065599616006
-0.03202974527218282
0.002440996576815488
0.050202950679806124
-0.07363649973972157
0.06576668670072804
0.054019154666889044
-0.008877578021449246
0.007193785515001894
0.009156391293958841
-0.034362390146229764
0.009813564147072292
-0.026417235975532527
-0.07737678704262507
-0.08258223275872374
0.06832930374335935
-0.07008685621003118
-0.013205203622722908
0.008895637584199407
-0.05017979266428044
-0.003287363175351149
0.04001374870899918
-0.024867202775497414
-0.017173948496664277
0.06063230230405133
-0.044384847243316275
0.034586281487825325
0.013908825834360962
0.02422332778276473
-0.0743863241261152
0.03839286833453638
0.06904204689557022
-0.08384232996914738
-0.020632285261232522
0.07081901552072296
-0.06424573510588914
-0.049784682422924005
-0.028991073803410178
0.04140516182808037
-0.046050963819494715
0.058416687020271287
-0.0791822343644199
-0.0491169861746614
0.019733827894318733
0.00392388455119503
0.009916165044621785
-0.033348375155919194
0.023848054478197274
-0.01250881380582481
-0.08214988282629938
0.018254523920048338
0.04934352975054222
0.019632530164696606
-0.061297255385259965
-0.07128597087634987
0.038008348935544646
-0.0779661907272331
-0.061592293355675516
0.08575529765244776
0.08252512060042433
-0.00042234339170410686
0.05703978856974397
-0.03676909597637529
0.02086224922727555
-0.04845438112642872
0.017677238469222145
0.022864489485771546
-0.002170663904454145
0.024317099579632198
-0.07968822899742097
0.06917896917249286
-0.08653324415470012
-0.07813669081460085
0.05585094467998601
0.04253794849261236
0.06538804306031863
-0.007580255313794128
0.020845017375761464
-0.059345940245814306
-0.03548052921619288
-0.004513249633873072
0.07711457526103364
-0.07870313013116306
0.029514329598211965
0.06575045421946346
0.017253156327222328
0.0536801442195956
0.028010719600367464
-0.01573942689322004
0.08015362419004692
-0.05028365778685121
-0.04647959544533742
-0.07468723070300813
-0.0385892034113468
0.06565379279748752
-0.013684505820389764
0.06705902467720438
0.011712051140279591
0.08656762848469422
-0.019014000947141483
0.05125632854841779
-0.08387820037303367
-0.010874792627665985
-0.04900622454654477
0.03695280465228849
0.02098118913411339
-0.05644485595462278
-0.006535976649742245
-0.048816034044391
0.04287580503322155
-0.0385732028795525
0.05732948311278065
-0.0459289942553379
0.01332471027226486
0.0006336425049431554
-0.056544159577920194
0.05209219235264055
-0.013403703233361628
0.027824196033048098
-0.0743399503780286
0.002452530695342704
-0.03250312115175552
0.032609614716702276
-0.012860664841506693
0.08353575305682821
-0.0130049773647589
0.03561752692451737
-0.046558190153655525
-0.0242054855952759
0.00988603729476748
0.06709197443955113
-0.06056692156847259
0.010971417921817226
0.05364345462903436
0.04662738809167582
-0.08246470547229291
0.0706235234050354
0.055367082939151206
-0.01679493593444859
0.08215290657389325
0.02243807154410134
-0.04709031256121467
0.0011282217096340878
-0.04422783098907983
-0.04993256545843885
0.02499810648979957
-0.08780577090562158
-0.00955755877328422
0.031948069344619266
-0.011063484781525275
0.05084414662593883
-0.08228937783211407
-0.0839333564802889
0.0051184155911368455
0.08718772241410824
-0.08078673806630825
0.011405006759020888
0.012839493761724198
-0.017436812073938344
0.06719726173099796
0.08526146401769528
0.01485197484980745
0.00731540286132858
-0.016570008612590618
-0.05669520207356953
0.04283719034057461
0.0214695855619406
-0.0462096838851003
-0.0602090896051252
0.0071519393866427946
0.025801598607914356
-0.01652833676999584
-0.0814334642255932
0.023542492307898483
0.07176137072720794
-0.031868126410750416
-0.04802864316747983
0.043277040604730206
0.02213141539679673
-0.06317375065781179
0.004307601657220379
-0.05941946368985657
0.06428918284019013
-0.040818439711566935
-0.05666170434863093
0.05093649972450624
0.0787429147289987
-0.0001727929266923641
0.083089178493272
-0.006216629282437223
0.05603952093657433
0.050031343692625165
-0.07755610726200282
-0.009225894941125783
0.058771146810478514
-0.027081232625544596
0.04189351127545821
-0.028364961229588873
0.08343917208933041
0.006274839885718701
-0.08267164050156528
-0.005973206454263548
-0.07806507881849861
-0.07945900805401436
-0.07030630719754609
0.029313836709351327
-0.04854645095922279
-0.042872079115616094
0.08788099355215379
0.054852138933667714
0.03429158970762963
0.04278014490304712
-0.05854830373200881
-0.039633290369877
-0.08756280004138807
0.0759131831876089
0.024818641617337135
0.08421499655429823
-0.05304948113740169
0.03346496520733428
0.07102752680635813
0.06467921945831441
0.014181039795699506
-0.07247040398289616
-0.06601515984390935
-0.07379897410741619
0.0038243060390284788
0.030755198731834858
0.07142217948452112
-0.08572647626765739
-0.01087098477373135
0.034684114219562454
-0.0613352750060464
0.04085039913075872
-0.02762992692454612
0.07105014630817848
-0.03924784194914901
0.08084787740649457
0.01908022997744092
0.01521709013740366
-0.06456065952274244
-0.003930759939302438
-0.04770799624511207
0.06750970208174686
-0.034821957617610456
0.03831264148911908
0.07221147233548113
-0.008254908786576556
-0.0011875663242598526
0.04241515771333582
-0.08427330111308225
-0.03832419745369696
0.038173556263562405
0.04931076697866372
-0.0861064493790568
0.03950917476238109
-0.03268753127847107
0.08775713169223728
0.012341393445005908
-0.07373842347932998
-0.05748815012225312
-0.007967054072201128
-0.02872530996853537
0.012227576369367036
0.08559287994707421
-0.0339906571127928
0.04444612888885326
0.07593478093214076
-0.06877021663977766
-0.08566759910251036
0.0837125442280782
-0.05332765456814292
0.03624731499087074
0.011418062687249157
0.00047029746377310905
-0.0760650719774209
0.01397234125285017
-0.08830944257504439
-0.02428918141972471
-0.04972717134538746
0.028229664236485128
0.022528917689018026
-0.041371217270356066
-0.051675163251353746
0.006799581906746023
0.02825481257462863
0.004390092988297815
0.013179547802810306
0.04068368029287798
-0.022464087284226362
-0.038626470640634854
0.01436179919335204
0.009945241608227575
0.025596606708495995
-0.0016984335578734621
-0.05446903945144955
0.07985396213088436
0.011447175187052124
-0.016998639782013384
-0.05423031319198133
0.07736623766474018
0.007764533245379966
0.059116097425712805
-0.06595314173590566
0.006615288558904645
0.0043075512871604
0.08791554693891537
0.02183219726350912
0.04317509572918465
-0.08027968167589306
0.07374616454226067
-0.06993328804588116
0.08011099771403132
0.021295047832209535
-0.0663644441952469
-0.08226162871187566
-0.0015834695279762722
0.055823681116434994
-0.0783922318138
-0.06869925225145913
-0.05405396522956204
-0.04385995652269589
-0.04674690403401952
0.024316797905132536
-0.07422828605598991
0.017578846126470964
0.03762981277571506
0.036301095534983174
-0.010379514929476807
-0.04062975018459146
-0.004908368273007345
0.07910496347600365
0.029113797036034037
0.05772104982772997
-0.01692161130213532
-0.039914310025701415
0.037814182370984835
0.0033973818503568298
0.020029822408686955
0.05661602590364826
-0.06001162975427422
0.05769325641143432
0.06751513616048677
-0.006701157406646913
0.03254085677683312
-0.05917603962936971
-6.914527607268644e-05
-0.049318822853146385
0.05605291911446166
-0.050773774247984516
-0.08816585158230811
0.026062459727999622
-0.005388747772134064
-0.01960181515023776
0.029946046617437955
-0.009361573761721602
-0.04852151105064945
0.009502982521367912
0.04869495606601119
-0.0034413427214972365
0.029981874980226756
0.055661959159304594
0.06158582441118532
0.01336956704325512
-0.05732311682103044
0.004584685052964623
0.02220574923445558
-0.0384123827429772
-0.06801302927905742
-0.07579217769365557
-0.054935754170390046
-0.030881396706937563
-0.06064117872619097
-0.009927393151489697
-0.05418614266725388
-0.03602254514144918
0.03523636281435913
0.04468811305859694
0.03452546436621692
0.08146938782641348
-0.052949774726369025
0.014324557559553058
0.02878736381544721
-0.08559695100609581
-0.07287210824995274
-0.0828772284415759
-0.016520503176686283
0.015116015404975862
0.011095513645113334
-0.003497528356071597
0.055692216049037555
0.02640648264870945
-0.06661435360648163
-0.08824581396903719
-0.05230670885866083
0.006459349799116623
0.018039104963425787
0.054086719025959386
0.0645748676580862
-0.07137629801879883
0.05812371987005473
-0.06674720857674492
0.022798801032769787
0.06641496789498087
-0.08640576982522757
0.021997643569824647
0.003577345631654011
0.030883764771526177
-0.03473545469122707
0.0843559629285563
-0.05623081985333757
-0.08706031004779205
0.021963315024661728
-0.008216877680815337
-0.06043403051419424
0.015400396439849412
0.05301179811763521
-0.08837386299421884
0.014314106400161286
-0.08545921653832539
0.04402518017427483
0.04650920858354592
0.0726399519306223
0.048700051724267834
0.059817968015712895
-0.053816798742280424
0.08167401544588757
0.030716186849092476
-0.08416592907977798
-0.05710485132101598
0.013019459433665347
0.0218616897343013
-0.05611818191157557
-0.030056019139725835
0.041881696052892034
0.07760001837524283
-0.030729413115735457
-0.02760887676611404
-0.04962991483760673
0.003812942960758276
0.03309276736979538
-0.06097843989101691
-0.04142523924149476
-0.007468411781942174
0.046519636817199
0.004306541690334119
0.05330816092316315
0.005969997872450866
0.07834604882669588
0.07503268777764395
0.05306552129595447
-0.04198402103173487
0.03524862609531957
-0.061624896563907676
-0.031167594215445925
-0.004520516143825725
0.043372348364499255
0.0741321395272081
0.05274187645717945
0.04281833400137605
-0.044329003301470125
0.08521427457601724
0.030122823976571705
0.08549206977526137
0.03778021230980017
0.054850516620836794
0.018894267126205084
-0.048274875065577885
0.037279012920104534
-0.01782215738895083
-0.020160439989065165
-0.022730915392051347
-0.02988877456818612
0.0066292596501995584
-0.06429259588810665
0.07051313083734308
-0.01086917021101686
0.06557333739854365
0.053312811437497394
0.02782609400260778
-0.013391832032082574
-0.011830553688838313
0.026488105776029218
-0.06097175547824979
0.05974320088332641
0.056394929121476596
0.0050799598412640595
0.03023436955911135
-3.429513632403978e-05
-0.06906471465690761
0.0733417005270046
-0.048964120300326076
2.3398753923423584e-05
0.063280860062981
-0.021758625034970003
-0.06250471424294517
-0.028637444635596497
0.06623476555675516
-0.06213814284940492
-0.005287464941552996
-0.08635864275349388
-0.007465488952459422
-0.01038226240063042
0.036346188068226704
0.05965455054909846
-0.04997339651808969
0.004823797750045052
-0.07301535110252498
0.0584581530914354
-0.012775632162240315
-0.0033492318054057484
-0.060837075852998794
-0.023700044535575032
-0.031395537157973524
-0.01842597992571271
0.06450844205240093
0.04887079193618766
0.07061898688723707
0.04135036173873468
0.0776060301262922
-0.04636093686744378
0.06482257605263037
-0.06775503722758877
0.011035631280260715
-0.059578060037599585
-0.055270952330812646
-0.019265977531078657
-0.018124239706897236
-0.07728949469119444
-0.028830255673921102
0.05312488048750063
0.07298552869685081
0.045066430469577194
0.020058090829057806
-0.005998342677792885
0.009911719637672426
-0.024756809403108107
-0.013544129856411981
0.07518051092697055
0.06344456210031836
0.08430047114484877
0.0547737105069552
-0.0702378008606447
-0.07550767450701759
0.03078766597305982
0.03306155758271805
0.07299992458141549
-0.07584350146642185
0.06422718199390968
-0.06856116269967334
0.01116213196090859
0.074638027154266
-0.06790947353492635
-0.02371891993321409
-0.024189735383430454
0.057632068774404376
0.03620741564970926
-0.07275681400276157
-0.002934540626031793
-0.009776056088478889
0.05819386583336732
0.021721385635549383
0.07526230144212201
-0.014524270437915952
-0.0026590912417685506
-0.04518516202935909
-0.07694697649681473
0.0018915059530966222
0.06407913027469472
0.042551298346173
-0.07947829362653389
-0.053393450186499714
0.05768196022632582
0.06362066342499108
0.003182424771631373
-0.03208896458527644
-0.01144658544535389
-0.06695142538450753
0.03308794955710762
0.03198422324823033
-0.08693015850090056
-0.05705172069840623
-0.030995111584101495
0.019230975527808312
0.08745246430244247
0.06759991069383581
-0.011336568832626187
-0.027116670383223223
-0.06274675748914636
-0.02218258215368424
-0.008732468209612928
0.03411071999173972
-0.026483388886452828
-0.05073704131228517
0.01745277036767622
-0.07220039320874892
-0.07515109784173488
-0.07679075731131961
-0.028903479024198212
0.035186821081964706
-0.07710226701547136
0.025640168157762898
0.03587072051591843
0.02443905284742514
-0.01809600911619558
-0.08377044785680855
0.08404795742497473
0.024502210300822808
-0.00040532723785250514
-0.059200433951324787
-0.08074356200307009
-0.06843369088619236
0.06239595202833698
-0.0739969706943002
0.03614013661969435
0.0663807482416668
0.032371239448422205
-0.04637001431723566
-0.02861108959069282
-0.01573167165815521
-0.01863463163143568
-0.03571683251446563
-0.04275911217521166
0.05449552302818162
0.05894656475501382
0.0564817230822242
0.045320073757658334
0.019665744155324152
0.054497613789461
-0.08775278021012627
-0.014602232287767566
-0.0022482591457186328
-0.027079940979876767
-0.06845547922920718
-0.0011554451052336542
-0.02288011769943519
-0.044615508457304415
0.04116894871018328
-0.0390953940921573
0.016489865528000098
-0.06463853130442802
-0.05851917404513713
0.029660369376613743
0.05053474495039397
0.055239139622453505
0.004212692377511744
-0.07907846284581718
-0.028800138215815844
-0.04708437478818153
0.021526466795824192
-0.07098352762274647
-0.0489867033175641
-0.07573975508143245
-0.00172905853988315
-0.021549502141537277
-0.05443438558661187
0.031056670436562593
0.016320733136075835
-0.04244267725094883
-0.007671080322223243
0.08447194380197066
0.015127600454107317
-0.0029004372091312107
-0.015883226803902688
-0.03719037991945667
0.05416093287910457
-0.07335185330434062
-0.02890811433545316
0.06832837693527806
-0.0024226981191846236
0.034183765816905895
-0.0029110647937994447
0.047114773259764195
-0.019181563022753072
0.03558401774283471
-0.05980654999726204
-0.010681478563957151
-0.08538698657508102
0.01779549122708377
0.006070495377561884
-0.05901717812710985
0.07321154877304874
-0.07360740788185977
0.03756165638789383
0.0391012349396082
0.06039981242282744
0.0527471877627497
0.0713920973965754
0.036269729168854584
0.07792422306384202
0.06030826464743625
0.007625421093005029
-0.02094593144713223
-0.0731313456951286
-0.03575403867650604
0.02413329521692709
0.08405079906025165
0.009908871217886714
0.030039266582745548
0.08716547379389912
-0.04962205091294993
0.03866000680584205
0.0881110924200216
-0.034164115205445676
0.06107245422110185
-0.06847955722626628
0.06079197410718089
0.06480311888299387
-0.021767308074632435
0.006445762685375158
0.0591700714750381
-0.061187535013928276
0.033978315357072665
0.05609610234594661
0.04472362356797678
0.0494375481972934
-0.029005535466241426
-0.05514543474389368
-0.053698934259299884
-0.010237983393292665
0.05434672952786695
0.07597437339016681
0.0441535478686008
-0.02080417920454963
-0.0752572349357739
-0.024982922495880366
0.0842725050450138
0.07756320880132503
0.03952737512119513
-0.004387492126154542
0.04564304858706841
0.044608639039194146
0.07763114110363047
0.08153074193945777
-0.0810976216843994
-0.07382243965204463
0.027075036610884305
0.08562347617473033
-0.07274139616798621
0.04612993776912238
-0.0639083808711922
0.04742096900593065
-0.027378098026622263
-0.049838328970699695
0.016784431217395656
-0.016925466530611295
0.058688851201555724
0.04433998389922164
0.031026591729486467
0.03807268379691888
0.009366344282569716
-0.046195315049255295
0.06137217482277915
-0.05498277137256296
-0.01959694498405326
0.0477478881031193
0.03366123309328416
0.071534984088109
0.03252803274747252
0.03079098369410154
0.08078389612745591
-0.06377469064636004
0.050805634853946915
0.020453116791664182
-0.026355321676782912
0.07711379561713111
0.07779273433054147
-0.018912321324159903
-0.04177830650078398
-0.046279128672104194
-0.0763100466542441
0.07781509767424519
-0.08612261762083648
-0.01346287045423231
-0.062460672036387256
0.023658246601942583
-0.0476531781064196
-0.040487893508455726
0.045721861960109245
0.03305350925951024
-0.05544247334782334
0.04627291217630773
-0.04434136951601312
-0.027173351182585417
0.006467375506856383
-0.0705002354440869
0.047726676960912054
0.04633354608502494
0.05676237512313023
-0.043135226859733526
0.029633254455669923
-0.06109577303461598
-0.07904206674000576
-0.07102609412980204
-0.049365224538028316
0.006129821168369828
-0.05728912057452664
-0.06881840914240725
0.005659259947967299
0.025839035443449374
-0.07394398310904866
-0.034990110258578754
0.08506076644243042
0.0010191787268495397
0.08424563783921668
-0.02184125409435031
-0.05273683763199236
0.0665046434402422
0.00864864786343945
0.02920045086487281
-0.004622779951377561
-0.04860105512016418
0.042543492161601686
-0.07771522039193912
-0.010068265079959495
-0.037109128737852756
-0.08181101294982783
0.03936899463584052
0.012686894507032673
-0.009819599765034864
-0.023685407513439793
-0.03829610544613759
-0.03669095197737944
-0.04178984773864056
-0.05936701065968169
0.053287015008442226
0.0029019502483151787
0.007092301196877686
-0.03250779211190018
-0.015517163165784248
0.07610090860277216
-0.04113677680314916
0.03781860337362393
-0.08022904717967405
-0.007582787703031771
0.027042306269629324
0.04796374978007619
0.005893630379340096
0.07400544609379021
0.00534897591523342
0.021201814484666816
-0.06505883539933269
-0.08675266792989489
-0.05365597809780746
-0.07616050614430363
0.08147734272914431
0.011140644936284387
0.03349724767995627
-0.07844060085469319
-0.007645565572732043
0.025071065853970693
0.03126271927665613
-0.01327837654941504
0.08389226189726073
-0.029596156063392467
0.08142909245477856
-0.034316631301825634
0.06257909522835563
0.012967716456540122
0.02185651831673386
-0.02558177877645952
0.04160032851833497
-0.03712058484156218
-0.08792574923573701
0.024051987461879566
-0.0813629705680762
-0.05122010109968702
-0.03816147144921685
0.08703329144337063
-0.057513167605487484
-0.07066911647533027
0.058676034483298216
-0.035213080810673175
-0.0664497717521282
0.029310168331588525
-0.08620934315393151
0.05754919385077839
-0.038269431437572644
0.042861506812627945
0.08635777907464799
-0.07819887799199324
-0.052100523060218
-0.06432094311074973
0.034718243299190064
-0.07911540505049958
0.04108648157331696
-0.014300920073619175
0.026492256985253176
-0.08448769574800541
0.05717592556253577
0.03478374986816
-0.019380829747487612
-0.08250521109909442
0.06517000048453865
-0.06153989364584075
0.060903759499217426
-0.06945797334841941
-0.06068745418714813
0.0025307040857841146
-0.002321400044884868
0.04205778216465308
0.07643280809824503
-0.035620270572414355
-0.055277821432102775
-0.04254298875990504
0.04768792873611833
0.008169417623886779
0.08473409644556305
0.05144178639922086
-0.022620095927023798
-0.0021857404849099085
-0.04105721853105848
0.07810216367118611
0.03870850358833043
0.04739402920098682
-0.011717088025170458
-0.07396411820832838
0.05452977811386033
-0.031661980260138944
0.020574143276905224
0.07261628257669075
0.0016184366964483575
-0.036299563133586635
0.07274338641270632
0.04467088958097292
-0.019415165992603973
0.059593207556167094
-0.07517737406063399
-0.06266227280799788
-0.024517173490705747
0.07011469270288047
0.03208894852096125
-0.06462821026952031
-0.044234242354973634
0.042734114507065
-0.01783806977980235
-0.010551684949957738
0.06942259032316034
-0.06006210556514637
0.009727888937664079
-0.08476814728860058
0.08229117478965879
0.032488656434769767
0.005007495861751299
-0.07598947231892184
-0.010087502098294563
-0.013804880564568274
0.005136085798050278
0.043670317027629385
-0.004464314030284967
-0.059149092694216615
0.049146553602100414
-0.02590232315783326
0.08095055475008037
0.05601850275793463
-0.03745547145910118
0.0011829840848288995
-0.026823623857160958
0.02469122872422242
0.059931088571048105
-0.0252991243286529
-0.02661563272715454
0.07222267179144103
0.08236150382420446
0.06083763408099067
0.07593040820163513
-0.051075481234041514
0.07895182124664134
-0.07072816435185003
0.006822361623588285
-0.08432625573859333
-0.01738253315846471
-0.05473786136442745
0.053295091646739776
0.015671832206277637
0.08717302768164326
-0.042619664698296734
-0.03111547647411802
-0.06880879519995178
-0.0016149813747169753
-0.0009956104862892505
-0.05033094079378844
-0.02658370837873469
0.06120002246083779
-0.04558707569907514
0.020286103188418555
0.06842025591953062
0.05848468196483768
-0.061415183220038
0.03166514022928183
0.01192514432223811
-0.06515210406009116
-0.06163677591415938
-0.06200189850748535
0.05493374039243108
-0.031497697226302676
-0.03228185021173234
0.07232506134100983
-0.006576891782951399
-0.011858057230706017
-0.03360523204059144
0.07108817897358527
-0.03796088816248277
0.029992320585501553
-0.005590689006158755
0.026790358539246488
-0.050492820520399335
0.003819235392197619
-0.05802869704578965
0.06216718708687185
0.020235608936249913
0.07317078762510518
-0.05273744883051594
0.08216909129226622
0.06942185531551363
-0.08308171734596544
0.06844492027076808
-0.0732246072739487
-0.009871278621353393
-0.08231574519942307
0.023261688627683852
0.0013491220299568433
-0.06165488888445963
-0.0006100592178241236
0.038298122219994186
-0.040564222423717704
0.0110055474320412
-0.08705259322149375
0.0813181425009672
0.049205342215242
0.012175558048952508
0.08489034302383718
0.08669542991035346
0.07891367423060446
0.04125836293038799
0.05013844925729812
0.08296368918076373
0.03702876121924052
-0.08619123669459679
-0.018849270899632457
-0.020191613776148077
0.05553613276936828
-0.07514207028294353
0.06974380440585087
-0.050606179418841345
0.035654428021486766
0.002079899159785042
0.01649634282032618
-0.01414162075633747
0.02458097317210411
0.02662372828858978
-0.07070639840451587
-0.059435239335042404
0.0831161288618311
0.04091852152027979
0.027669639753211718
0.01730164015736321
0.0041937302166268516
0.061020398681669474
-0.03119070826172524
0.07382581278661492
0.08228580698002423
-0.03460130228827945
0.027503750931334548
0.07950147659884815
0.007659720479867967
0.017571956310844853
-0.026793222826926172
-0.02293204292805982
0.039030864194964855
0.03746644879817924
0.07508171034131575
-0.03688767630850207
-0.06974101207381665
-0.0758202939137237
-0.08569431060845079
0.04924800468759094
0.08155363885538397
-0.06650158393163183
0.031973098801052854
0.04635915212760006
0.015779183188859687
-0.015051112909491345
0.030670237702968447
0.06379402686546456
-0.04680250440155399
-0.07110878238812485
-0.016605085538423697
-0.04514352730706215
-0.08404849520959631
0.02234150835388281
-0.050112793344489114
0.055839285363222343
-0.02442599981755819
-0.06798536873973851
0.03361597001568652
0.0004338248701530798
-0.018496430098442162
-0.06093128057197059
0.08637964471495137
-0.05143376111875537
-0.038875108061379
0.013184561580233423
-0.08436996076629606
-0.07942189037038826
0.004246402779191446
-0.0326309746642166
-0.024373528691650433
0.0864019065716465
0.08170570255840622
0.06916625247608985
0.016010911863631114
0.07340994635920492
0.003755360902964017
-0.0445909884497281
0.016115865021793185
-0.03464138205492733
0.08016972678831895
0.008981616854936108
0.005608240524685636
0.007906935045793598
-0.06911404981335115
-0.030081687912902888
0.0650919606931389
-0.019474813884985235
0.03224475521104591
0.0031692553395744083
0.06639940981014623
-0.025665394638149267
0.01668337752864995
-0.04932944678568599
-0.07122146867204934
0.07941998672093349
0.0037149289228143724
0.06528807706828268
0.0019977893647697333
-0.027260489719794487
-0.07047310094993343
-0.057799963273286764
-0.019877382281055896
0.023288159904921252
0.08342966488269006
0.0470364953974749
0.032002866413372945
0.06648433410860917
-0.06320098319154896
0.08553559562326278
0.07162268171549932
0.060152975811048934
0.061701979961888774
0.03239229233349824
-0.07870912177664036
-0.07007636264272707
-0.026709818277448893
-0.00026633264139301274
-0.03809266283921355
-0.011952156096284533
-0.04657262416649723
-0.040632308833710086
-0.05906077221888121
0.03385046682691524
0.026571851820104662
0.034430803433562376
-0.03664357766936943
0.07433874111250105
0.06483823945159745
-0.0541785662358457
0.07349301060300828
-0.04281317551587381
-0.06671500628683871
-0.0361197898768643
0.009906528757331286
0.05445089857569431
0.04585883208433224
0.06382113768603434
0.08583665475428875
-0.04076330041569683
0.015788435493556862
-0.06880364468778062
0.07467766055642533
-0.03882900353716195
0.036368613820207625
0.06688609521751739
0.07376864637214656
0.06493564276002688
0.08722201590224057
-0.041432255184520816
0.01240464490424393
0.03943495895807801
-0.06013030838060257
-0.048500042072629625
0.0376813179371894
0.04002292577862067
0.07353455781871598
0.07969789930488856
0.055667734463171734
0.022189267721012033
-0.04905664320838598
0.01922834784006151
-0.009704211602042274
0.004443826268230549
0.004270195448752805
-0.04378478142535658
0.017615981491542112
0.02602584490435106
-0.011327903636508988
0.07372932708601906
0.002126563570153829
-0.028113665927351764
0.07316104169535712
0.08776400200334036
-0.049831956746775374
-0.02465992603635697
-0.04701192701765658
-0.061270481332761584
-0.04280968366388079
0.01774864805470067
0.06323852329302963
-0.057258363182307925
0.016685939450447253
0.05736324521663865
-0.024388769061342942
0.059873131571709814
-0.06783009436359208
0.02166135397138856
-0.07753739678061886
-0.026675451040724104
-0.008366737169152493
-0.023487463141464056
-0.05554336096843225
0.002366403887494349
-0.03593833257452112
0.008147092963387245
-0.035613529395690985
-0.04020531271192848
-0.014493111125820976
0.08766893215141026
0.020227498493908362
-0.014531149774742756
-0.04223935212135048
0.020171077519179795
-0.042641567564081995
0.07141778585507598
-0.032474106483491735
-0.01793926238199856
0.08830022811149033
-0.06644338567106871
0.023612101734272382
-0.052623549697951195
0.05201015551518105
0.08783626541198827
0.007601378209390749
-0.06101184863166055
-0.0299433748253903
-0.07048535655287513
0.04136250227432963
0.06802021842311862
-0.08164541590184282
0.009410543519675232
0.048721871902096245
0.07392332287826373
0.04027872918992093
-0.029181894430007585
-0.027432217743270548
-0.002639186451690364
0.046183583403441766
-0.05266268200973693
-0.006890720602063917
0.027703188688814603
-0.07976497010975979
-0.08326083639066494
0.06785810707762377
-0.013349717222734434
0.007674845975734496
-0.03927915832843035
0.05888563951943668
0.0771592975992105
-0.07966113117248821
-0.04729484883456129
-0.024884520416362407
-0.05272294362557864
-0.0751044531411692
0.05461690042905429
0.04957937677422576
-0.04333644941848947
0.020627496383862607
0.032653294191085244
-0.037541275653291954
-0.0790525472067754
0.03976261603102693
-0.009067112499022032
0.0853681282602923
0.03257604507154279
-0.04303298340654672
-0.00736035065685955
0.044904007530263114
-0.01464641842207952
0.05135704521808085
-0.0860765665077765
0.013396766568181676
-0.08567650790091963
-0.006056778983587001
-0.08395133804279654
0.05876672524299513
-0.06454080072190249
0.012077303526984667
0.048898203344446736
-0.05296637167604452
-0.029150917791126683
-0.05845207989949792
-0.04400843225188732
0.035149494691704655
-0.04955842371778282
-0.05511306130779604
0.01210886616074913
0.06016363964621859
0.08526315927830284
-0.06746369957040815
-0.05548534042145974
0.011930717307093825
0.06397864153246857
-0.014078680287838057
0.06641447430404879
0.025726142069534597
0.051258012149327736
0.040608772639395704
-0.0875778003222233
0.049847561859082325
0.03965474789481649
-0.0013950273192811296
-0.07264485050419041
0.006230281231327621
-0.008768300183591952
-0.04629792065106284
0.0228656326766097
-0.028391901821701773
-0.01918210715448299
-0.03934444593346945
0.07116216979900525
0.038829604733566885
-0.04351346446228722
0.023909589980556735
-0.06919320827735223
-0.011115339005394607
-0.007687221932056301
0.0722955956167715
-0.04768581181541848
0.0415755870375567
-0.0018444526332578731
0.042189211237173174
-0.009605155449167254
-0.05092543931604742
-0.036699444851731905
0.07198245548078765
-0.03398797135070074
0.08767133152168803
0.07841222975731779
-0.07219398713934161
0.02916115176557225
-0.06958848754055466
-0.034624558535318956
-0.05625959020701362
0.064896174159845
-0.07865624327657643
0.03152091588736664
-0.04470939791801285
-0.07094023762975536
0.048569430079990344
0.06868059892494845
0.020495497569729324
0.04667365026896379
-0.011040477392152167
0.08462950930707468
0.017534706177598305
-0.03998097009293899
0.011587476617991373
0.054831320888218134
-0.058239294081676496
-0.07997143925802755
-0.04347889324678238
0.006440956203566228
0.08261593655693812
0.00861483283940551
-0.05604470130009649
-0.07912430974494078
0.04640445841142162
-0.06591835790448551
0.06372621777615646
0.017842510692049226
-0.013128352829216488
0.029576807400267358
0.05947966659963442
-0.018024601691975076
0.02811712128922378
0.011588923098393449
-0.08281556821037121
0.015701059024358553
-0.019826483940101385
0.0006271062675325762
-0.06002255399566716
-0.046268885056530575
0.009437254135775073
-0.025822364571086536
-0.08507505831893832
-0.022348262597540046
0.07650952561404369
0.060119761561270794
-0.07376085815190653
0.03583628166782509
-0.01752889997028405
-0.05963071137010831
0.059820231855736886
-0.01162681118074603
0.06797883315896018
-0.021698458575102022
0.06654323475060064
0.010236093153750618
-0.011294931502768536
-0.027569964253159156
0.06180610764786842
0.03237986447998461
0.059327266589994786
0.045857819917566475
0.0007417607919273215
0.06472623049078466
-0.038589313593816316
0.07293488650510851
0.07962711015092097
-0.0805293347706815
-0.06578454089820608
0.0853135825520332
0.03178045361014119
-0.04110932366213181
0.032598117311489386
-0.0541041015806258
-0.009886668968092448
0.08115777004917375
0.044426926541538916
-0.021251364203785005
0.05783620124585111
-0.03080411684407039
0.0750825817944305
0.058368527535540456
-0.007747718537975609
0.02479049421870029
0.06714197900793996
0.03868839954368781
-0.027826812080758486
-0.07442682180248612
0.08238107664999081
-0.053018483713632485
0.047659010597556783
-0.056119670427489776
-0.014017202258895745
0.029411729794301168
-0.08231466894453586
-0.08400234187926672
-0.005123650878674739
-0.08682609594884659
-0.014826913393283547
-0.007964051438033411
-0.03533752304725356
0.01691445040564413
0.03127648502860221
0.08393085155586094
0.057197884980276045
0.023140153989672563
-0.016985003902728363
0.06671214411741748
0.08580499162536673
-0.01774976629759136
0.056984155641732516
-0.0854412655406214
0.0858389007913059
0.048806564589857084
0.03430717988894261
-0.03704009036401162
0.04971546153297508
-0.03415097303759505
-0.08257964661578124
0.026230212061371695
-0.04588729331484077
-0.04668244753215671
0.02345172124969099
-0.01931945299576478
0.07476538399412073
-0.026172834261106462
-0.022194176381863027
0.06898420543958016
-0.04041477512112508
0.023812739856392824
-0.04426730902337381
0.04155293629614025
0.06799030630922197
0.04010576326419046
-0.06993812915165286
0.0405514416111211
-0.019605044199207125
-0.08688053007869231
0.035148854901511
-0.02377421234128653
-0.08645139283900959
0.05244046895529258
-0.04649755287560037
0.040798187035037646
-0.05475952545691195
0.03730146109003572
-0.08559443844677571
0.07569304359010379
-0.026261892977080255
-0.019451006811828573
0.02354822756194795
-0.02512102087519618
-0.04352874932970323
-0.03221511873441261
0.08671662818764524
-0.03544627017164238
-0.06780111461424672
-0.01741953134453584
0.07555548814399457
-0.008978914202016502
-0.027402777489770196
-0.026911753589870014
-0.04566934778451066
0.06570854225090167
-0.08728171153033605
-0.07631490701918668
0.048962396462552
-0.03838511942345755
-0.002378054031803933
0.0853675630225301
0.0384922348532115
0.016916148352798633
-0.08139663665263046
-0.07138134461185192
-0.0332853248157506
-0.008337962978481408
-0.03899872169723841
-0.022752574965515453
-0.0019021487335591403
-0.018720107065956785
-0.014913411308453726
-0.00663465768465941
-0.0001055898825271155
0.0752958196035516
0.022989463664283605
0.088230359863281
0.06841280703669485
-0.08470083373982391
-0.07596217912282581
-0.08391261365162177
-0.016016649025810924
0.04331297545628864
-0.002563646146572251
-0.04214789427342204
0.06798045216222522
0.015200538668752235
-0.033071717186360344
0.010926411076346823
-0.07373417172403306
-0.03803506663970254
0.03913369300173333
0.054981486185577286
-0.05527210183551999
0.011532232327160028
0.011785234771351589
-0.017219465468174697
-0.035493841058798686
0.022087105331315197
0.07827209263855679
0.07607668613272683
-0.05351562210278489
0.030919444075435582
-0.06969162972662521
0.04941640472535385
0.013760651836650699
0.0865807665077891
-0.060314468325080944
-0.017386141298869503
-0.04970817028033074
-0.056598404047674626
-0.0072772865507112405
0.06990808606375136
0.02288684949127585
0.026281910616273833
-0.05101172515755213
-0.05971971872413446
-0.07537730854975755
0.008614232815316172
0.001044535932732037
-0.048663232693370646
0.02350610365216214
0.02039512184699944
-0.03464653327433956
-0.024871951356862765
0.08619188014271992
0.05540204272400517
0.027593265733508725
-0.0021322860623899133
0.049208061588174756
0.08541665248617891
0.030778113820460938
-0.02882639081858101
0.04147287688874163
0.07842513731948857
-0.04666849454726759
0.07037160747010304
0.020849433446450502
-0.03297985435173522
-0.019562132756571097
-0.04286375714393874
-0.014455057471547846
0.0026642572635829217
0.07432986114050291
-0.08192360825626213
-0.014356326228692954
-0.056381702315998886
-0.0028642825536141347
-0.05942274130858546
0.021035613836784654
0.05595579857995726
0.01868288691017691
0.05366269756931192
0.015469548736792382
-0.07858076995091888
0.03436656596079567
-0.07187588812686418
0.05920743963283315
-0.06042534447959982
-0.07893861553746384
0.036232425745699036
0.016896026455861024
0.06634049902824217
0.060772729842672644
0.0878545477281239
-0.04846187649322191
0.03809101190906634
-0.04479479411411398
0.03288603060964176
-0.01864995101312841
-0.06816607458976352
-0.055252602280285244
0.001956127252839808
-0.01761678689019685
-0.07593183269836018
-0.056191982600602985
-0.01353436427425492
0.07377681718167389
-0.07811013039613171
0.06621412237645374
-0.07384691310844484
-0.039703012533875474
-0.08753605997301757
-0.030313105863566253
0.002338726274024761
0.00043181981440605047
0.01597551124335418
-0.033334616750238744
-0.06604208175945814
-0.02574956150410659
0.05617721628213089
0.03425123671203748
-0.06370271475185882
-0.046782033217806454
0.023271279828138137
-0.07223868454069828
0.03896151270276361
0.07601116793818716
-0.046935649152720686
-0.05013185846763424
0.0057234454855158
0.0704720028008815
-0.06685544931527308
-0.04248735660363031
0.07460884140335536
0.05931192359972735
0.06424986614538555
-0.042663044931342486
0.06401049111843353
0.04757759250539384
-0.06241097562802318
0.08399347731284584
0.08473474773935402
-0.03311915154644108
0.08444456463359985
-0.010674451456879352
-0.06563454606979437
0.05849525891857285
-0.03561473760210442
-0.03839581630886113
-0.05420263538497575
2.6872118070542692e-05
0.07484556277325904
-0.006570602951326683
0.08471399898658813
-0.0744712483936081
0.0459257095823878
-0.07498890599210241
-0.030784429421783898
0.0463098797067175
0.03409512631693931
0.08005787396889928
-0.03797838363108509
0.0748345032544972
-0.016445063131912165
0.034128688178233904
0.04012465247965775
0.06171864377225321
0.03720169049691468
0.08018347760192968
0.027071068669945877
0.008935938524989088
-0.06164928433697916
-0.014342467509832852
-0.06269093620938851
0.0614349640231886
-0.002613266780404547
-0.006268393340730615
0.0374459967545437
0.061916558671840094
-0.02836489512967565
0.046315992943970985
-0.03377675140331358
-0.0421810112243307
-0.005509049523019768
-0.04790208383392716
0.058204000425720596
0.03841756791611463
0.08417762963567774
0.04427427468942369
0.017900667217816878
-0.05779417369249447
0.029901704580027166
0.02147097762164827
0.0370967886400042
-0.003301395279069238
-0.07914419193133877
-0.08153783418392127
-0.06798552438681967
0.0806541486039286
0.01612658011445598
-0.0752349253723526
-0.0341497954552589
0.04315268590507432
0.04118068178343284
-0.05557300128171203
0.05043309818685309
-0.03906108064422474
0.00520762584885641
0.022084790671049764
-0.06938569953352015
-0.017737540057005865
-0.013350767453311162
0.06698774890793655
0.07302670557564893
-0.06359094310465162
0.02653479771836868
0.025986936889513233
-0.0234653432605174
-0.07511192456635789
0.05033064660289876
0.042828754401213545
0.07146663724655296
0.038232098541392305
0.0432783339223745
-0.06193879842219471
0.020014478548701125
0.021885919301962577
0.07737134513208915
-0.05546654564544943
-0.0075604649743550596
0.035363105819997874
-0.0601445944470705
-0.061572340197824385
-0.05472319054408982
-0.006420184536237196
-0.0053280119307703815
0.03412711151009739
0.0028722599767216908
0.040092021601955005
0.0012735180129718011
-0.05302792254570796
0.08435289649260928
0.08040483331083713
-0.01867474191254841
0.07760881246003822
0.03414417238244929
0.029782797241018302
-0.007730215007924245
-0.06013488072445978
0.07522385381336921
0.013990734352740472
-0.07864029110593679
0.056234274619421626
-0.014819259830774818
-0.07493715140132867
0.0735199676836117
-0.06527473792205789
-0.03637357071859439
-0.0010070315543001342
0.06596042343308349
0.053351977006560275
0.0638459899781651
0.0853320771173301
-0.06793584466484072
-0.08184316134442726
-0.07941369391684087
-0.05457612574738607
0.011157355637367012
0.05622541253730699
0.013171676462194814
0.01647156002133769
-0.05751964546754764
0.05775837875896803
0.07118331166676226
-0.041458630721496796
0.04200409142199158
-0.006699666147896792
-0.047281824138621434
0.0442203242846398
-0.014812563459300989
-0.0608409677376216
0.04697997239860419
0.07450205633911398
0.006226813624325974
0.022937577014958865
-0.051035655990168544
-0.0045021044101469935
0.08078826272957763
0.0703247078696473
0.02903116681937879
-0.015964275926812384
-0.07222909321983526
-0.04044210183826967
0.050418597085206386
-0.011709880250013968
0.06074086628912555
0.005938414159348256
0.020993563632168512
-0.004752695254417487
0.028005439257978097
0.03686108048068946
0.03562488940984666
-0.036505451221062885
0.04893833938237634
0.038047711170860574
-0.01533616486611437
0.004702505630378766
0.0864013676467739
-0.05678540719132453
-0.014541016144928674
-0.07502020707242707
-0.021109395281664053
-0.07766978923698846
0.03700270260732182
0.03073149059162497
-0.0754932634347238
0.022368955963634782
-0.053985058567632124
-0.08255603795610594
-0.052416892354453556
0.04859540414147017
-0.030143933386132485
-0.07539687295631997
-0.07750356270111844
-0.0581672950143899
0.04014124401060072
-0.05432417697970733
-0.049028725241151386
0.04929971284138706
0.069844943804116
-0.01570162392205987
-0.04346404146147095
0.0052735341439096054
-0.017879714178330963
-0.04097911702446583
0.02142337662032437
-0.003766526655106957
-0.05417375460486666
0.014733679887974112
0.004578020036085503
-0.05306989863348746
0.06654881144591616
0.057733030274023205
-0.05326758825130111
0.07791120162976903
-0.023839412882614933
0.0804064802396074
-0.06640762826086428
0.07370157772034835
0.03476349635044421
-0.03877351254024786
-0.035838855271123946
-0.06281986842917345
-0.05099672294273581
0.05849245625251997
-0.018906206092320955
0.009005285910524661
-0.001830501800076002
0.033981911807171264
-0.07030444301257527
-0.041670132725506924
-0.06536308298594398
0.08601928377091286
-0.03791263617828172
0.05430866221784164
-0.034033486516978455
0.013804890136623938
-0.06584972130235446
-0.008766981765658424
0.03395589847899926
-0.06591839244123958
0.0652641904218419
0.07295240283977804
-0.030107578369825295
-0.015143844335469678
-0.00018466602146055056
-0.003255478130890858
-0.07231836781170832
0.07181720062796673
0.05249245373730661
0.07170264393057335
0.009657639704175807
0.056650853608997784
0.050817220123130814
-0.07874156625445376
-0.03953347892007659
0.020922060372856748
-0.08397155068428028
0.06672550671463533
0.07846492479106455
-0.04612176905230674
-0.011830318399236435
0.017677205715373852
-0.03541006390872111
-0.016402004093450617
-0.03408161802841792
-0.017490585854877314
-0.05085688259402673
-0.07871537684875123
0.060595436581103446
0.07710167723802511
0.04587234925443945
-0.009457034945824385
0.053921251382643844
-0.07434243090446331
0.011423686970585505
-0.041758242458450195
-0.052291042983701276
-0.004013957922372731
0.050877221497308424
0.040652142806954825
-0.039071803521854624
-0.036490522051138195
-0.08190867441193997
-0.06358081718918798
0.07037825115587217
0.018775438337340276
0.008151571660282741
0.07038773224981262
0.07354164989373684
0.036670793939460905
0.051372895418084756
-0.07969524204064954
0.060151955663020985
0.03960809669164986
-0.040288275344737945
0.00656245294651558
-0.08302479369469624
0.08356200009805954
-0.03832467799720957
-0.012765664836848928
0.0421105807888764
-0.02745240964157234
0.06933798707231591
0.00556386122159138
-0.06447700446611415
0.061107492966707595
0.04033115490988368
-0.047850978038447636
0.040551376694320115
0.03925132219459958
-0.07601470400397384
-0.04788554681240727
-0.06891454926700277
-0.014155699814602074
-0.041759782993535964
0.025685950470635426
-0.03964853431582033
-0.06402704456558317
0.03288485917954174
-0.04665559051893506
0.07532967157203733
0.048622720891125557
-0.050088447929999405
0.004293166171903805
0.013760732891840748
0.06472644141187667
-0.054041237060477525
0.05607716262666778
-0.06870342990149367
-0.010268892598198782
0.07267334225938425
0.07248977859552312
-0.01659497556694315
-0.04384119296657018
0.017911333616411142
-0.05937329031979454
0.07362739764239547
-0.04728793807438898
-0.0645265064846572
-0.01680684648273427
0.04465060890255064
0.04922883637544274
0.00761970925742807
0.07323746923289114
0.04349204832471072
-0.03192136002553479
-0.009991458147863296
0.06422287556263671
0.038717498116951916
-0.03847633950996328
-0.07204411813532625
-0.026570164129794363
0.035252402151194316
-0.007807107916833227
0.011511948619551616
0.006460475909934493
-0.047184624215549295
0.08048105998216888
0.0752607916887654
0.06435516658576812
-0.041336011063859306
0.07298358507788294
-0.06242981549344225
0.003106245355723747
-0.028117623271006566
-0.04966126056304753
-0.005075791578215159
-0.07356365007087791
-0.00969778823538512
0.024041651896646938
-0.06396036797292118
-0.08716506741105547
0.07036532959061598
0.027178852344553396
0.07722104030004215
-0.08216888614776409
0.03878332757392912
0.03338103174656973
0.00755276714134169
0.02094831443324058
-0.01992651702248855
-0.02478697657216984
-0.010021361182336024
-0.004104795970827037
0.0869975836007791
-0.018062068099501623
0.035098859264726216
-0.04170175218078919
0.05320286684517647
0.06055287561113943
-0.006334301360771675
-0.011826000709506717
0.055516616233428136
0.05691075312279087
-0.017765935430452063
-0.006597035135131017
0.0717430692073825
0.002736434959770354
0.07352792804252284
0.06303534567322569
0.08616530094503431
0.010481972254228866
0.007210541805007397
0.0038194318150676664
0.0217434149925893
-0.018393600256754752
-0.03740895663003982
-0.08259895872825793
-0.005730376486615352
-0.02022726288740954
-0.08154339092012254
-0.042978021884450025
0.026572706861699567
-0.005685914043536079
-0.059184118568430165
0.07869896819020716
0.01222929120838779
-0.03484543230871862
0.011346226495309975
0.05984350730964027
0.07868479671542088
-0.009483084354148656
-0.03312940920339399
-0.017305364738229082
0.057706366737582164
0.054321608502949724
-0.022788917536751507
0.027567367142061264
0.04984571556216732
-0.03212312335769336
-0.04209685019610074
-0.015173372717295935
0.06483621678287536
0.06635191397023159
0.08110336988145232
0.06354006315395647
0.07884163032898532
-0.07542133429806377
0.06404458504383799
0.019852977629719576
0.00029371415132453216
0.07273233831185391
-0.08578590776872982
0.026826795729094285
-0.055413198549540625
-0.08551707877003151
0.0665246162663608
-0.001857603750585621
0.08570720394972507
0.043855869653893716
-0.08165775642479722
0.054020651511879736
-0.0054715224560146205
-0.013907301457596579
0.021370793874233372
-0.05430145695016286
0.07031905729567069
0.05447163304505596
0.06169346438615568
-0.02277576705843253
-0.058082312704464026
0.041263838535484966
0.07309088826999904
-0.03910375563370141
0.010579046449754893
-0.06956419682350676
0.08199331471044177
-0.008372681664865912
0.024639505061480965
0.07316440274803235
0.059402940113205224
-0.06609444361600818
-0.003587130161683469
-0.032271034130347605
0.052670571081265646
-0.04452252260426399
-0.053693140716175626
0.08806872221416977
-0.051364392920610326
-0.07545176853135767
-0.03692499886998566
0.01996993337822783
-0.07565748032152152
-0.06090957763801146
0.04570112973552978
0.020354322462722552
-0.021801978236548773
0.029328403180400867
-0.08729085944202838
-0.01764790330719891
-0.002315735172678753
-0.04298985983992511
-0.03719434971465626
0.08046423057399206
0.015869929245828723
-0.026285090363600695
0.05371173389912886
-0.07496445485690134
0.0028674680037334426
0.014835316078005333
-0.05628014609143543
-0.006854325044939857
-0.045533329240592536
0.025933803833782968
-0.049349848041524494
-0.04165603503143558
0.032601299432817636
0.03944648441685665
-0.0628417061242025
-0.05591052011766037
-0.012699229889856957
-0.03822022503149772
-0.00893552161029858
-0.07128732034774139
0.04164525080550391
0.0014429395836630433
-0.03070047277088304
-0.08520946822852611
0.0386642230430516
-0.0433940818498386
0.08394455754062397
0.012201965116447994
-0.028861384024250078
-0.021104098980368954
