2 4096
32 128
0.16618883254725303
-0.10751977720411716
0.035591150604430494
-0.11367198028387632
-0.16425852697506635
-0.05864525372206528
-0.06248165451465025
-0.11228431602313146
0.13795013027838096
0.05569200336778471
0.046508753338888265
-0.012658459262168985
0.1524031993776006
-0.03495906153878723
-0.01624597528511589
-0.1268163922883277
0.07768850813734207
0.0896625168072798
0.048696060806016704
0.07852302345565475
-0.1725390737077433
0.018639470998894434
-0.0283113853789091
0.17425734171620547
0.060095010627646876
0.14328310180627557
0.07599462083900003
-0.0933562005689298
-0.11210337913277645
-0.06031943310103147
0.09641717360256943
-0.12228758907070257
0.14481133365459847
-0.11715341505920455
-0.0331145678665164
0.06595947817759147
-0.10253305848928039
0.011823008552141995
0.1026489674697732
-0.1163969127059172
-0.04523499409924682
-0.012665368986114598
-0.0031997015588015754
0.037018422283240614
-0.031837704249844764
0.13247603719821816
-0.1753743588373184
0.12699252000911052
0.0828606000430309
-0.12335292371808049
-0.013358129955964838
0.027901756144851148
-0.16367062952857847
-0.03580136676675031
0.06463149236154489
0.11250466816496625
0.13421021239784725
0.029933207430891548
-0.16152754270950936
0.09973513960148164
-0.021120981004387335
-0.022443771363018727
0.1743716148596331
0.1328796864182095
0.14488337255711164
-0.06004203906314229
0.09346982781128287
0.10261500556199302
0.16974030566630854
-0.15334246807381818
-0.1512291907125806
0.06831757765380925
0.02938894669544503
0.10796387160003255
0.11021611136256039
0.15105031929750246
0.006132356008446161
-0.04863853140893494
-0.038688780925773346
0.05442273387180335
-0.17065411084525725
-0.08732959295672717
-0.14025091625804192
-0.13134594046326464
-0.06217721999596886
-0.08390803077463811
0.0635056831500919
-0.04299678715509111
-0.16934157133243302
-0.014684896676815745
-0.12404817531607855
-0.1159057585014779
-0.027233511980920198
0.03198530670303167
0.15894421026515224
-0.012408004545756524
-0.012291973096234435
-0.075056219121168
0.04030364238013924
-0.0742867587837289
-0.1169695709330019
0.00818264581506539
-0.08742175498271729
-0.1435086659755983
0.10772242504123647
-0.14539987420820127
-0.09684096865180246
-0.12700734503029867
0.09391747971146655
0.0038154364213896495
-0.0015118629766228016
-0.11984158168768605
-0.04643501149760297
0.10750623640811663
-0.08013343408625555
0.044211504365206225
0.07805552321251555
0.14453185762713316
-0.011729989631522756
-0.14948153294103936
0.12817710403436192
-0.04154501444931478
0.022368396702611336
0.008559597435782012
-0.10316541207593806
-0.0597763638458928
-0.11837513741279475
0.0022118920731641688
0.07347541769117939
-0.1227798160623404
-0.12404784154273746
-0.11304388904552091
-0.14886530169188497
0.12565617920760885
-0.15038323121183328
-0.06458845115866903
-0.17430317336117687
0.04939632047299776
-0.0789251002530577
0.005131995813654741
-0.06649575852150093
0.05309853699594022
-0.05861734849945181
0.05026680503266217
0.06846916205880527
0.01880620488876722
-0.12305284963217578
0.005545164463460369
0.029733353438962093
-0.018949454837777005
0.11624826165635652
0.15197223844801375
0.09522973966145233
-0.13574776203466019
0.008043060894170496
0.045276772204975196
0.03563023145413905
-0.12364482065155696
0.06610493537410819
-0.1572130224854056
-0.031429297614795876
-0.02341289084332579
-0.05874829693471062
0.001407311691761907
-0.0650212357858006
0.031629667017236233
0.13436969925952658
-0.12228991420250557
0.05581528507406907
0.14444623111730232
0.1353902849230436
-0.16923047395885615
-0.13278514282688908
0.06913647168556793
-0.07646398631367188
-0.015655357006493027
-1.4509510955828413e-05
-0.11639277265085976
-0.17289241140792677
0.08921325313728594
0.13460772488083156
0.12401273651709276
-0.09854200072954203
0.12211884081326638
0.1380950704555521
0.004186073741715409
0.08595413314998934
0.13028186154319174
-0.12663716065907155
0.07373605118396616
0.13418454717087835
-0.054358444000453185
-0.06312725943884501
0.16930133952664353
0.11212758505097707
0.027777240987891014
0.06401827367699704
0.14091940729760136
0.05891985220318773
-0.1680057291456974
-0.0536521637708453
-0.10047030490154843
-0.034953310454629086
0.07114438822633007
0.12472434607965674
0.06415647019449738
-0.024804709529477276
0.039674618405729174
-0.11948196652911261
-0.09444715434268507
0.06679349467777689
0.11734702066100237
-0.17022518227608474
0.1664705404469448
0.01370849154627414
0.1601932951609679
-0.09410004930727368
0.01639908644312798
0.07519875925465846
-0.13455128617378373
-0.1117474828812488
-0.08555445965135838
0.08977617218360118
-0.06196691626440331
0.1407146576217101
-0.052452576952619484
-0.1315960996150203
0.16901206507168678
0.11554840809977804
0.06855233923595673
-0.020633631307281748
-0.040071882652754874
-0.10838544384527604
-0.1598422577781896
-0.06918697496274086
-0.049221561115211594
0.11760527472336979
0.149385898917127
0.022099343613292164
-0.15662767571119052
0.141386004142358
0.14058363969905313
-0.042825435862206176
-0.14288280187920013
-0.07490758191859168
-0.009152681379049073
-0.1515676764562931
-0.09914486860471446
0.06560690655754686
-0.0827351660281459
-0.003032231815127709
0.09187442071630626
-0.021873311042502574
-0.09566160516023654
-0.06728509635032562
0.010125015786746435
-0.014360298173209572
-0.006538438844498867
-0.03742825365100064
0.0598135210524916
0.06915315805071888
0.09541676463451321
0.03536650832974
0.16828536693004909
-0.160614523743229
0.12772727372782305
-0.03302146971805321
-0.1444198610974291
-0.10861410015640552
0.0041833245004788315
-0.05401150313232957
-0.16884593166050477
0.050663368574171266
-0.03676462166530455
-0.10049355675908656
0.1600674241407385
-0.15664855880058579
-0.07460179082561376
0.10652803839743649
-0.03717716262557419
0.11008642715419496
-0.10452592191152621
0.12380603466817748
0.06969710602880434
-0.13277803033694338
0.05320022105510364
-0.05517991989349695
-0.15016243890404454
-0.042440717195519326
0.04008561159771868
-0.01681713425074038
0.1715115837440312
0.14971739560634736
0.06132994406216906
0.04762493673071087
0.05354806810343076
0.08576629055394784
-0.08513524806466362
0.16287488963593078
-0.07959534890432171
0.17284556835851367
-0.1470806428921854
-0.04364147813335764
-0.012081512791429681
-0.13279064773748034
-0.09972390851355571
-0.1107185063346596
0.03691821096030972
-0.1195111571343015
0.048887898872820336
0.046282532783846454
-0.16354375993839126
0.050807176605373504
0.06263378717230723
0.017292433030131074
0.054520002069654634
-0.10798224261537503
0.10631022324324434
-0.10416635480453926
0.013168152524642412
-0.05726756957933061
-0.14632112863605087
0.10515289320213975
-0.04312032707056144
-0.1704749883875893
-0.09734715146917192
-0.025950244201382776
0.09976492568060377
0.15678815538100682
0.10915608113198423
0.021328499779627638
0.08059197771938788
0.15857410734688138
0.13332729279399497
-0.05747528965706046
0.0290276257160223
0.10335103405772282
0.0559031234790374
-0.10066574929655094
0.08925105214040033
0.04060458447096045
0.05683567061448776
-0.14443596677505416
-0.15539207734570223
0.04075700837225646
-0.04095444364762707
0.1150216829616808
-0.10530189732603158
0.15683980293690503
0.08860972229729706
0.13799100469194597
0.16431320655702092
-0.159771463942649
-0.08685461909627895
-0.1469035130149008
-0.09165392643619422
0.1232482029067649
-0.14598606233260816
-0.06688639002154674
0.17642606792244006
0.046466712479515386
0.10568968131545889
-0.10030179218330766
-0.08567098284607683
-0.12105186129450166
0.06684890880782414
-0.048057728378414384
-0.08182213104560357
-0.03757160822621664
-0.10406606371171329
0.045437032894225925
-0.14725427970676905
-0.11713613368936326
-0.024220467599779822
0.10314665861365285
-0.02405694147955281
-0.16894183971444063
0.10245384096854042
0.07437137712211862
-0.14659048496368204
0.14363300887718689
-0.02660627609142411
0.08493554599870219
0.01753993771771506
0.14875677030558676
0.1476105955982113
0.12848258105333762
0.041135011660079726
-0.1349530493115527
-0.05267810422397315
-0.014274131083995275
-0.049594906608215576
-0.06429614914486731
-0.04533914721136413
0.06151913963266517
-0.002876160038497414
-0.006780400476624723
0.05217750252684218
0.04915388709108524
-0.17250238174561416
-0.11944452391673652
-0.030450645376458814
-0.060383186169103875
-0.12244478291295972
0.10389615933195585
-0.10375784134503856
-0.009158760742790503
-0.04838504855870427
0.01189848335585082
0.15155512850233946
0.09884296737867644
-0.11833533550144922
-0.04076023597290915
0.14451435156455483
0.16626238069792945
-0.16220802713829396
0.03320248349678156
0.13751085222675458
-0.06081015193015003
-0.05315169392962305
-0.1753390176293309
-0.08977113061128025
0.047638237428851135
-0.09109814117204303
0.01585321078791772
0.06457017792252313
-0.14840180862846117
0.09107835675657427
0.050168287872487886
0.04042948550140613
-0.13063851424741135
-0.022754776682698794
0.1009137530842398
-0.014908290114930922
-0.038357681504716565
-0.043932940743486006
-0.15218061611430492
0.14661262774930464
0.11905227939223098
0.1364411878786205
-0.03401742714420221
0.1757387193305035
0.06629121947272702
0.0021049828527796807
0.1555235186539802
0.0808321820388815
-0.017631616976440428
-0.0013893318935730367
0.15422433757809248
0.028352075193668443
-0.004121081632359104
-0.0551654498382112
-0.059746831007445336
0.16571528588843715
-0.08719576680898354
-0.077674117933874
0.1384838833652228
-0.13211531735511042
-0.018506136688763813
-0.1335698560006403
-0.04271638096521308
-0.1429008159141971
-0.12981005692187253
-0.16010430458855046
-0.11655120824112143
0.16764899115207127
-0.10133012481529471
-0.06281690188439003
-0.03102178053535947
-0.16708694060244264
0.12435581685186098
-0.07264131914682409
0.15496686825403033
0.10212450993886502
-0.03217958471452099
0.046111952819540815
-0.13679322509757572
2.0359709652595103e-05
0.05511280429075146
0.10575925453907453
-0.14723195235614459
-0.15296658329196192
0.1397717859007561
-0.13419719579907524
0.11391161676148598
-0.12676832491263548
-0.153830139424606
0.10541166924549192
-0.15731063036748297
0.12692113918465772
0.11074429498767215
-0.10060405513951645
0.11805782167767527
0.0743025342114181
0.052838880230945774
0.06405260800112339
0.006348170738607535
0.11946940534943361
0.14146537806825646
-0.0718054802081685
-0.013054262723987782
-0.10638672963171539
0.11452877125795032
-0.13681244806020842
0.07429743598044934
-0.14414598656657693
-0.12450789098541357
0.023851665795111117
-0.10423412200881362
-0.10233408433319904
-0.01557490293093435
0.15471251035413622
0.0512737693872097
0.025469883797898413
-0.13747245385358392
-0.11728328801993475
-0.01736212402150593
0.13012772323107516
0.08667746891742668
-0.10077054729763692
-0.09993680713703551
0.06969289879823262
0.11241836633288137
0.005940267735426415
0.17112136939435366
-0.07893693805727547
0.11039645889871082
0.13454426817058726
0.06494823912084582
-0.1466790156673265
-0.12303404405676835
0.0251339515762678
0.15077735163658013
0.017452390255041996
-0.04993150248092952
0.12707166684505455
-0.06912997354058603
0.028093503832464655
0.04936004224973365
-0.16108363018765146
0.03446410134119578
-0.13027848350139498
-0.12760124701194814
0.021452584167887055
-0.024846894199697607
0.08259993812689162
-0.16352790730247713
0.1568178149295915
-0.07254214619636783
-0.0017022742939029163
-0.11234672124614795
-0.08564981586851896
-0.0426915331708739
0.015174005093335566
-0.027614109261285085
-0.046206089172289265
-0.046292367571508675
-0.01924976235106885
-0.09085003502570847
0.1751204060490506
0.10410094811984184
0.0035658545532444167
0.12539470031285727
-0.04694932907533809
-0.12046364024941064
0.02930457206633853
0.05809982263777878
-0.012492726831493689
-0.041268698845556485
-0.02470218196661947
0.11006786333399791
0.1543371884379699
-0.16323230788610557
-0.1402505338457394
0.1182882553585741
-0.1307548401249779
0.07695321613491346
-0.038197261820661535
-0.06575380955952528
-0.11661493116121568
-0.08591045790911433
-0.1279898261275428
0.09023577771220426
-0.008299096234513961
-0.11834062040230686
0.15191803370493356
0.13802662505654012
0.022014460109734468
0.08304325916282239
0.026625086380323876
0.003678513832882895
-0.12299505693809511
-0.04011414575940137
-0.15787994233433617
0.11283359647341629
0.17083354829043365
0.04890894342030833
-0.12992004422068903
0.05210047901105122
-0.1203246370912193
0.11407191499306271
-0.1764727268900992
0.08635565620319749
0.15229495121042175
-0.00863881832851696
-0.08329395240940905
0.07556582593463244
0.03591215914884794
-0.13071595861190133
-0.035712659678946775
-0.09897068139806596
0.15207028279541973
0.09281925584497087
-0.10060586139906219
-0.1645207105958804
-0.15085525967495308
-0.05882046476923554
0.14047791605001525
0.10905239164312648
0.1115574972298569
-0.13270428401017803
0.14384456879139348
0.17351779040984538
-0.12997527155705338
-0.03210057248215199
0.058852711860343736
0.03111777873047237
0.17478902228671422
-0.09595232200861233
-0.0902116581086193
-0.14767604374152682
0.1699778222666211
-0.13510385483070747
0.1763789656498466
-0.045587250927535405
0.03422362818764031
0.0922080229105773
0.17223233838617205
0.05677099162952199
-0.1394508424731719
0.10293632444443124
-0.006777822432958296
0.10943395025402872
0.16840459536227306
0.1351307355065191
0.06549455561223894
0.14922666350397515
0.10347942804581421
-0.03464874494595046
0.1090810006064771
-0.11459533820008432
0.1436992291420571
0.17442995022374447
-0.0966712072074333
0.13994093798539856
-0.09430490537813471
0.10526590798537636
0.16265582007744148
0.16570039150373195
-0.0763835167280107
0.07500971820022813
0.04182810305946115
0.05431403161771755
-0.1562738134628289
-0.15346413599619765
-0.1397881932975297
-0.15321517109706884
-0.03701997760625388
-0.14244733472097648
-0.08730170333876898
-0.10835618165911703
0.13004637358906565
0.14870745901097424
-0.04656574573124631
0.008752568595751397
0.13849376250312456
-0.0717037780111748
-0.0596985961768215
0.05071918043980844
0.10402562918564931
-0.11888256950797449
0.016199864923364494
0.07308432368370898
0.11836949655997427
-0.16570644265778545
0.16531351231927968
0.04247331459908324
0.028315426355011282
-0.0858258792764834
0.06975914952070814
-0.05966028262419617
-0.026340608036205308
-0.14914174546567968
0.06959903826519012
-0.07970889093360807
0.01185713211714085
-0.11466875998525168
-0.10276381921742622
0.1761292111763801
0.10330414377807906
-0.15429882571558665
-0.06665902692373021
-0.162640787835789
0.17428466379149427
0.12187974863090957
-0.1226117893910276
-0.06841088680492842
0.08647207833043213
-0.039859570917701315
0.004165552054140268
0.10434255999834435
-0.1353147145524242
-0.09723885608077751
0.14483324980871515
-0.0538885738004767
-0.06862498750209269
-0.09305537115704748
-0.04788290519578547
-0.020636202441923567
0.13414916363437657
0.04247946384368286
-0.11576540531253796
0.06635167469765006
-0.15242654937659952
-0.09517151493111002
0.16028653273076893
-0.028175511885779773
0.1411175090907659
0.03523536222457117
0.13298884816844922
-0.021769162859420172
-0.07733983405555332
0.1336556965564957
-0.1454356653912726
0.016816645049818533
0.09627423806510778
0.04029977764146446
-0.08981313577939741
0.12278640046283583
0.007419888306579445
-0.16480472750328787
-0.16384817819463549
0.17271467225680767
0.013326783290863781
0.06023724899928019
0.12237653823843558
-0.048152033299147086
0.1422957139954147
-0.17440121740513517
-0.13508813583293533
0.10418333500853105
-0.1456381719090083
-0.1754034355138596
0.1224237531216426
-0.08886809894465195
0.16095545750079024
0.060415943278327056
0.039041980367491
-0.023131877838963404
0.09650974326845227
-0.06010447237889698
-0.15734551599899063
0.06849579549359953
0.12781882872365757
-0.1147262539092476
-0.05955029115299745
0.16601392697194503
-0.14975931297222272
-0.11362987647351507
0.10467252479310564
0.1021716952754874
0.06270410679926959
-0.07490416242272654
0.17339647841313893
0.12152505239597353
-0.15114764959476049
0.05228528230194947
-0.1126859854736002
-0.049436661498521474
-0.1061383838202956
-0.022584820906794253
0.08583750406254113
0.01801084736734314
0.17356088405505016
0.15718844984212843
0.04972905299201853
0.05662507078009388
-0.08679930069420583
0.08687952234520892
-0.08587001725694866
-0.1688896619507036
0.14354367073881252
0.10802283153223143
-0.008609512821609213
0.11871684137595853
-0.15120765905009398
-0.1557689755133492
-0.1744755183930578
-0.059212867599621535
-0.08197686992899615
0.01576515558122074
0.13257637248541645
-0.06520179540235661
-0.10712012271349519
0.16731843762465884
-0.008223410751034662
0.17041277799157423
-0.05263921638055465
-0.10629790292693912
0.06474119242801096
0.17209751891833894
0.020571612287252964
0.05701971748150947
-0.04382240123080361
-0.17556148753127918
-0.10396605420757205
0.006597215753843017
-0.060639276139817906
-0.10432093683322757
-0.061957370387640404
-0.08681189524470286
-0.11848781995994728
-0.06847508936639199
0.1403897495226027
-0.08887742852685519
-0.0185706709352096
0.0206457319277444
0.14675658887011714
-0.05873623406845866
0.08364642163340975
0.07062002388365453
-0.0786003128037736
-0.16837194645174405
0.1406100076447104
0.04420683153398562
0.08055381755632288
-0.14206819235989965
-0.1739611306501601
0.10016785303723622
0.12861109985830327
-0.005827398774703308
0.1256024491319158
0.004245027516439118
0.03132762491922385
-0.15391845595344864
0.07181890102014359
0.09183540963997161
0.15687315308628016
0.03103971659712967
-0.07157870630810707
-0.006793288217385499
-0.17550818349276412
-0.11929884187977828
-0.010916321763027962
0.16996460495533228
0.013019026944985497
-0.17101549639227925
0.11691617382614297
0.07237391424505311
-0.17186221232699878
0.16029941417222604
0.0608911228005184
-0.02465307946562163
-0.04043658432977948
-0.03674009398009395
0.1296123065942455
-0.1322456613763178
0.16072882832998409
0.1471277581952894
-0.07487277690417811
0.022358073570773025
0.01129922600199528
-0.06929433788864232
0.05655430617212254
0.0707711168084738
0.0878364474142897
0.04330267003187219
0.022584300468718038
-0.03138325845636329
-0.07702978379587548
0.17073617113448888
0.06460760717391394
-0.16402910700378634
0.04168499279907414
0.06384984996594673
-0.17239634724739716
0.16449757993848052
0.1225487770903219
-0.11970621497373406
0.1285997367420815
-0.11970498820138266
-0.08439407516792459
0.0038127201585855842
0.09968796343786496
0.1396636271256047
-0.013102938751204178
-0.052641404229013845
-0.04667958191864746
0.1052367205504901
0.02196987647648226
-0.1387984142489939
-0.09366851424983325
0.06549797070315731
0.12831337571986284
0.0622407815647072
-0.034907877651848655
0.04982075325646935
0.07740305141712288
-0.028973016943199245
0.08155058312959987
-0.1609786474031954
0.08849153534500763
0.061092745824446855
-0.12250292690598726
0.05123275843706103
-0.08264143058909422
-0.15963626342469056
0.004571715154922331
-0.09561705290115827
0.08194385495020468
-0.08166921564927133
0.09383871069536226
-0.02555430316086156
0.15579105599728382
0.04128158644502632
-0.03324893204704327
0.06611813367991631
0.10078523587857602
-0.0160252310627857
-0.08651592331781453
-0.0352247300301595
0.037297984316640144
-0.03732152994680023
0.053522565002815964
0.15011061699477043
0.01481306549656219
-0.15513119111225027
-0.10982768539284485
-0.12662268504320098
-0.07322331623911574
-0.1627534486848856
-0.12867369967235714
0.11156948520119231
-0.011039677276770235
-0.07313066471898946
0.07484923802941187
-0.14056849671903446
-0.1347416284715369
-0.11794414517873973
-0.009801123213882181
0.09289427147495041
-0.16312011537617824
-0.018778906891967793
-0.03090809374765877
-0.1767587994923732
0.043747932333164305
-0.06985072174788717
0.15287412945813478
-0.032243489093139864
0.07502228230507908
-0.1234142719186782
0.10231280081411633
-0.0027505532946368724
0.12654261036820175
-0.019905277179977882
0.17539600404738637
-0.025700577488969194
-0.14044784637957905
0.16277495695695351
-0.009951576964867882
0.07864401574818955
0.0708969792669664
-0.03147292294874866
-0.06995110279418
-0.15067470744263875
-0.0021615058181087147
-0.023037417778421547
-0.11258750752253006
-0.1254172958787474
0.11681612919640297
-0.13173504298185093
0.09425075126049973
-0.06785219469998002
0.01863633254871468
0.16673982494469786
0.12202761666969496
-0.13853841376211304
-0.019260582464520008
0.0046057865793749835
0.12918194761633717
0.07617871659100765
-0.052321897537633014
0.0473933836699135
-0.09105333201902295
-0.004024253169762382
-0.0169761494297095
0.02722089846136586
-0.12817931170138058
-0.15288068432683238
0.09857180095255852
-0.05229916449025234
0.042200450672086505
0.14015694582493668
-0.010750507346540164
-0.09894910496240207
0.05720311317810774
0.07932192655722269
-0.1183037289135011
0.1286933616786886
0.05657703613834981
0.11321529941738857
-0.1258274820295528
0.14643523446788986
0.14693202223909496
0.07734427845974079
0.10960668640448366
-0.06796358942341628
0.17258583309198963
0.002663731530048219
0.16654805035681788
-0.16067946501417796
0.03282692992084979
0.07403219355381421
0.04529132256433839
0.028758357991943546
-0.08054522154785175
-0.03298158544092012
-0.018939654726374783
-0.0996582406839705
-0.16946847391182315
0.020490597573107006
-0.07952933773474778
0.17291551006318429
-0.040479113542220314
0.05183159302146878
-0.09048538442553769
0.10075098393396296
-0.11169676752011802
0.05140944206060945
-0.1614008473564479
-0.016739017358362987
-0.07460987001393649
-0.05072745611082103
-0.02719334530262529
0.0014842449228582538
-0.10426198351043332
-0.163712203178284
-0.12334862404926776
0.15451037935073797
-0.11753042290011739
-0.07507323827498541
0.14328083934776803
-0.14036515707325387
0.06636424766370291
0.06579161492393984
-0.09942308037922269
-0.1744622189001548
0.17049156037688545
0.1555197981003384
-0.11075174052005557
-0.13642194794792772
0.15502922531947527
0.017168431979069917
-0.13425054053553662
0.02003852531424811
-0.15954953155829324
0.12762483079634002
0.14193869542492513
0.10403123474219197
-0.14632659614106974
0.03472016500226814
0.16843057960348054
-0.11492780395916075
-0.17011883532205407
-0.15136573299251638
0.007377727436895919
-0.029262251004935978
-0.07764443989963425
0.12333399236901527
0.01372103408046021
-0.12242553049355105
0.13605573909766516
-0.08258977537982588
0.12233035315511574
0.03507253314581564
-0.05972488891184948
0.047256873730177014
-0.03406397715838822
0.06494915945441135
-0.011217200738865396
0.07842679621884903
0.15939516060509654
0.10982851489874877
-0.16830600300276435
0.0839952070203794
0.07660349141063028
-0.07251764984343369
0.0668151384365773
-0.07668762292141322
-0.03810308838727708
0.043306389354204965
0.13396182775365936
-0.14208810242807488
-0.03922810175890576
0.16843875768512598
0.14187357954013347
0.10546563596262737
-0.05602336948676782
-0.047140202835611746
0.163897313167578
-0.020441553482695093
0.14879528848556864
0.033605161415613455
0.009817177001608394
-0.0810255710814875
-0.17408290156067355
0.03780613328675802
0.11642298969221926
0.019067587170144725
-0.15947173353657307
0.08032960849967273
-0.09576193201948949
-0.03197301471333552
-0.1593644037033336
-0.10403134980721616
-0.008416746936040668
0.14195000050831116
0.1683831403560751
-0.06131394210646356
-0.17486022783523109
0.0908148730989095
0.08941296885616745
0.12783222815524437
0.019274254611368592
0.1095353216678099
0.06757761370733317
-0.09670019800381045
-0.013451203523546394
0.02565847816788213
-0.031524067133720406
-0.08816287587420821
0.0009806898033935638
-0.07947527001127115
-0.1633809722518926
-0.13601779657299895
0.16774659102295247
0.10782377788564466
-0.167518336168219
0.16642674436974525
0.1711117086645653
-0.021332068186285812
-0.11589678048043767
-0.07486991834122382
-0.1621256242800786
0.07906200048218992
0.16624932225276223
0.09025173888202707
-0.0008556923929603187
-0.1373699016790554
0.02023650780808278
0.17435864366200993
0.09483050511126966
-0.1448166006709054
-0.049803990349336594
0.11683186355374083
-0.12539030675518018
0.004882445480120363
-0.16961055438171865
0.1657731404493002
0.12815244651811808
0.061039574339776484
0.17445110009720366
-0.11158781231790567
-0.0013986492492532767
0.08017761847842422
0.05124259130632148
0.04442078993764367
0.1388756146071398
-0.1045233709069447
-0.10599463565802117
-0.11203193035103862
-0.13623496854432207
0.0166139340844575
0.03904861112733712
-0.11798466525846847
0.02826065228474371
0.010066008629936823
-0.042809774363038955
-0.02022018340371097
0.10048483035594442
0.13384073312611963
0.06341848699084604
-0.02168548584820605
-0.16212795525342702
-0.0004709693849196214
-0.17033451612248446
0.16335411769268632
-0.1634285265038678
0.0934438548885346
-0.029820075245041423
0.10868011439439278
-0.1690878033571228
-0.05745883626749435
-0.11436723703641317
0.05188934329826751
0.0378171585770228
-0.1372468978609382
-0.0038219143519111548
-0.06107745001119023
-0.1720120916632223
0.03443687934397531
-0.03237843026072764
0.08278460977622548
0.07126844081923138
-0.04474055496293328
-0.10125521863453102
-0.12089781888872997
0.14323313386209927
-0.04584930231746448
-0.026722287108937804
-0.14987198199349738
-0.0757516638653227
-0.0561511264678434
0.06946463548110327
-0.0688692927745249
0.1375967029184841
0.07785079425476399
0.1419988625271576
-0.14636869957696116
-0.1476641283507915
0.171472484719346
0.002818035944294832
0.022766248918735667
0.14284708393977255
-0.004584736531351219
-0.16997281714352147
0.024038733232786852
-0.11999238463516756
-0.11878235821515017
-0.11303858374459397
0.16781792193594186
-0.026721657550463573
-0.13434935323056324
0.16958124172422656
-0.10896545955025858
0.10399308606809884
-0.01708917666737713
0.0054477810703233995
0.011161300854977452
-0.02949174750353034
-0.1767382302527219
0.06602109180109135
-0.045979896898944876
-0.05775193893009909
0.12585790859763032
0.0625548792911759
-0.12682286448775637
-0.17429322755570809
0.011827665402740169
-0.10016512822584889
-0.035896955999330064
0.17453170388526656
0.027572719639341697
-0.11316353558575985
-0.0916698444644485
-0.06549218732533564
-0.04613956776602346
-0.06690149214764404
-0.002793385914085784
0.023130744698848543
-0.12776593511050494
-0.14255535876207465
0.08613441539022676
0.06671964450589887
0.09474776048465945
-0.03449430491264117
-0.051405855639594995
0.022438877753636195
0.015038558151990546
0.09204538013088928
-0.01666337828064603
0.08792458046472029
-0.17259960206474956
0.0006596649462754845
0.0026537882857287495
-0.14744476642479082
0.04799946402445577
0.1409692644748855
0.17085602461817903
0.01382961903573837
0.17577688933121594
0.07587007484490836
-0.10328181204633145
-0.0667441930066091
-0.002742729125644342
0.119738884476195
0.14913335877048778
-0.09803039906896667
-0.1298987055535402
0.02893196337438787
-0.018702981108780242
-0.057184243622548446
-0.1416093088959507
-0.1329240834437332
0.06909327349844085
-0.17476904395254148
0.02390209627122682
-0.0780743050641499
-0.1746123809650698
-0.03998738484244816
0.1409320370610963
-0.002814241028366255
-0.06760212041015115
0.03626802144818259
0.04908508257567962
-0.09603720897560165
-0.0166546482496708
-0.16874710578170596
-0.028741715178762936
0.10391242548656093
-0.16679591794391532
-0.1106294108872005
0.14301497931313242
-0.15036266822825156
0.08765754541635805
-0.03426714508363675
0.14690110708920417
0.14651967449917455
0.007547113331035819
0.1013708892341436
0.124808911848869
0.1517642174142875
0.0008074977844883291
0.13165931054880503
-0.13131286403311257
0.04070840289756069
0.13526754745035585
-0.11252862850493237
-0.13064807313537985
0.1435721975413004
-0.17015750216709194
-0.08737778260805579
0.09574583101173109
0.1205030821946444
-0.09748853193805786
0.10647483967689221
0.15800096157980248
0.14549364352923988
0.04246753400629824
0.09427129794858925
0.02089819245814654
0.024129945522802645
-0.16057858410160594
0.10192981621685522
-0.07746839043077007
-0.11437406876756016
-0.11423432440954073
-0.031620415501283014
0.1629469315710891
0.14078423658423375
0.02939094723117686
-0.1226928690468631
-0.06524898108431075
0.08034009946790929
-0.11918368569051775
-0.03732457973110737
-0.15816897712930156
-0.15409793421203788
0.0436694467131254
-0.059144502007386385
0.10790953123840231
-0.06032375398209406
0.1262466326419485
0.025482136538242103
0.15284099734778017
-0.010345941038350886
-0.05944603364296564
0.07141306903595575
-0.0957770623193837
-0.06138836293644672
-0.017164055182221024
-0.025519376540650725
0.16776262300793643
0.04092945489968559
-0.032708763894078605
-0.0894035862291273
-0.12278629201301594
0.09434924949322493
-0.011532737833880716
0.11873459603521284
0.046344369781288856
0.08653588195040132
0.037230090588775196
0.012987629701226962
0.14984375220501756
0.10091644503246303
-0.1550330715930433
-0.05781428639318095
0.16853796756521566
0.09454865717264961
-0.06411590104061272
-0.021963233785814197
-0.1620317442936723
0.007142657012691775
-0.07544303040976577
0.050904439901465835
-0.1463247913734152
0.045291649850914585
-0.11426862335202939
-0.0559477548518997
-0.08605772104616685
0.16683992483096027
0.01589361387555721
-0.07629838271065405
0.11608279608849387
0.09045063179560316
0.16547294114674668
0.1023087417685017
0.15599258157143867
0.09001199775931937
0.17557940781607886
0.08591859505184263
0.09298414640975732
0.1371420111583356
0.09539725048440212
-0.12940946040924362
0.09401824234788504
0.007537539796774388
-0.15705241148114088
0.14025095505558494
0.09648201145204287
0.09972881848460675
0.17437321862972155
-0.11638288175383858
0.14513596804257556
-0.10464779319178966
-0.17599298994487034
0.11544350770119785
-0.010346887766485666
0.021833508239312256
0.10088746564654825
-0.04310751828079052
-0.03705544914056319
-0.04581304903806238
-0.0833389267909488
0.10705766051793976
-0.1171545673166081
0.05833598330472062
-0.1551789072157361
0.0455145283523341
-0.1174262670644438
-0.0826289736612374
0.11904629283782282
-0.13292588077600648
-0.17595593379803162
-0.1766385738124663
0.06928471071445785
0.009867655306255984
0.07010068623104078
-0.070436746909881
-0.027519786188399807
0.03894122288534633
0.0914133072814185
0.1282045428016127
-0.08838100043796587
-0.1510948236734021
0.16018462598585487
-0.08343411797476602
0.08276580698604688
0.04695222379187168
0.015778962258058846
0.08804200674707338
-0.02757679205510473
-0.08562583729790701
0.10192663686481748
-0.02894478427751282
0.062425684897024915
0.14044433370158596
-0.1325257524954405
0.040449826506618505
-0.00022224317683953
-0.10692425760513825
0.06742774619570158
-0.07308570330830398
0.13951179170178674
-0.07310117498382387
-0.09763999694265982
0.018872604301075104
-0.03255739233867314
0.10054747864219364
0.16560870509184883
0.044364420151555194
0.1574346077555073
-0.028876048938887927
-0.05762453638235132
0.1445876273181784
-0.08640524722837158
0.023974256631558766
-0.1383662343287545
0.17512190329975874
0.14076731709665322
0.07458757495169036
-0.012274319463797008
-0.11158246435521788
0.09014457067125076
-0.04981565479948436
0.09202326632881395
-0.13341630855758962
-0.16522185248139445
0.1459317610737727
-0.06645400802270603
0.036640960271321396
-0.05693598539514872
0.02401364146670751
0.16434043046796015
0.1361133793881002
-0.06480250553333006
0.1495148689149285
0.10042906663016118
0.06979418592394869
-0.07528323121380665
0.015700337829281655
0.0009209297149133412
0.04584872903045281
0.1269184121415544
0.056708669994706404
-0.09618516571858052
-0.16053808424619567
0.0574035515795133
-0.04244451826541109
-0.07581523536897639
-0.14161923700407694
0.1009826722165313
-0.053035967468933506
0.14204694803409534
0.1650293213932435
-0.051170928320693865
0.013514581379891163
-0.11007762509562652
0.13123194957623863
-0.13172219618536
0.03283950592033281
0.014862302973776421
-0.07066953499490757
0.1698416020509453
0.044427568129718986
-0.026568250502503082
-0.027995102904703896
0.10444114555410358
-0.15410324149224927
0.15937006925257238
0.023634640281198212
-0.12493076783178061
-0.017162900258466052
-0.1453642319036409
0.06252981435157046
0.07382831364102976
0.11970472569999631
0.0889729121207449
-0.11785467136828008
0.1134476794447351
0.1736918975016181
0.17565164229502073
0.1564902819095998
-0.11950086040680132
0.0022393233388930843
-0.034809513074058406
-0.15496745886892727
0.16798889550872156
-0.09283978973914313
-0.13955912870805984
-0.12719781240456052
-0.13127562630039014
0.003864457590854025
-0.17123963172219325
-0.10433668240909338
0.1327828650804994
-0.010577812807308224
-0.08909376361321736
-0.15268409550491407
-0.04402386493339548
0.06135806390845298
-0.0488788285218292
-0.10627354038082262
-0.15332944750699157
0.08733024997024876
0.007037082933257027
-0.15849910579765902
-0.11270698003005676
0.00924481651584508
-0.06560365250184526
-0.07101158869153745
-0.09478408617394865
0.15648502115526566
0.16665280081121323
0.17476575964068183
0.04485516410323116
0.1420883972940562
-0.17191713745250542
-0.16634285938814253
-0.12242493550485112
0.011611656496732986
-0.12611465560971727
0.13904261819340125
-0.04373519933228089
0.0633061579933907
0.14714473905899755
0.09192442152099814
-0.13615169519935627
-0.02087741109194473
-0.08064114911940092
0.15006370251308354
-0.14850262557883356
-0.017164290969969926
-0.0708592832904816
-0.05713789483892946
0.12166306469142514
0.1727469405549832
0.14139924242829113
0.1117005677016586
0.07294917011283072
0.12585238693132436
-0.1689606513969344
-0.14395608434326737
-0.043559516767337006
0.14960737148940267
0.1753969711830384
-0.0708412232687003
-0.1685231134670448
0.13252394566980008
-0.10788187811848785
-0.052228237395389
-0.07738220523234741
0.009659269851933917
0.1551922959235258
0.04128373560308059
-0.0804584961834614
0.04874850652966496
-0.007660366100563821
0.14765117501457176
0.0935934908231652
-0.12948137594943687
-0.04271152862564496
0.09926071903887594
0.12794315742358614
-0.10103024055995748
-0.13029109404961076
-0.09611469457201573
0.16508643336403742
-0.14627484334449567
0.010612868910499127
0.17471845338535374
-0.08695719664343488
-0.08640541132597393
0.16568819901687817
0.020172688038559806
-0.019331985356916177
-0.13501331271874312
-0.15180235840670991
0.1263598069913136
-0.14947938529699675
-0.06534207190281213
0.003102461153044333
0.06751330717120928
0.04310001400176321
-0.011891620200449983
-0.11930148314670647
-0.09546957789892795
0.09429735220634333
0.15295937144192068
0.08034297684350393
-0.03448350370106582
0.023091176043429657
-0.08876137098270488
-0.017553453225964986
-0.09867558408653286
0.012625575988135554
0.04954498100021633
-0.06769738509703732
0.17320021149792272
-0.08953928965244341
-0.07156121178550327
-0.1636607335462308
-0.020914962618961416
-0.11878499450921808
0.07744855743065635
0.11434630533293692
0.04864805092377811
-0.07066537854697193
0.09582528267191852
0.14741566588523364
0.12247474595882246
-0.04947244881359712
0.04889647203632041
0.15112146472524293
-0.08485169118035547
-0.05614121219086121
-0.05240740939445145
-0.10983303381225726
0.08566142864108914
-0.1550894303675998
-0.10756334679072627
0.10824980345580497
0.09925009507254365
0.14181653629304147
0.12158108552417508
-0.03688589382818405
-0.16261037709415943
0.03473777729206254
0.11530728898645606
0.06451091646703806
0.05400648679007016
-0.03180314400014389
-0.08832775914496377
-0.1362224249411616
-0.12379339155020647
0.03955508255704437
-0.09099541230971717
-0.09442950699134416
-0.0515745456111714
-0.05278158551782504
-0.17310227548682808
0.09185022024918588
0.005531065349047251
0.01780678909005861
-0.036314263242706764
-0.08457168581848419
0.020107823947255035
-0.132555009474363
-0.13726546162863637
0.062240440998148856
0.12316763313225501
-0.12739090002805167
0.034786264589189736
0.14046929968432523
0.10509316306629589
-0.009782601572692432
0.12371767879736903
-0.07911235106671691
-0.16593591964331456
-0.04346542706548162
-0.022444194377916123
0.17447827368036783
0.019726776566696132
-0.11761103824253757
0.15204453101077034
0.04893874557196366
0.08091847954242923
-0.14596034812438619
0.10052004820965176
0.10379357115891102
-0.039955946578607446
0.13622364637394788
-0.12009112255986659
-0.03155114251760921
0.02955636023941698
-0.05499128628051442
0.05138752091701208
-0.12095224867010573
0.0689668934368052
-0.06215355940830005
0.09851912148473757
0.12010433092072899
0.022132659152648608
-0.06767347461701848
0.13264719441127373
0.1595423295171584
-0.08455225338595708
0.13067998870808245
0.08859961031331344
0.16980760305564876
0.08273771128806214
0.07360804697336354
-0.11792875562251776
0.10822194684136968
0.17391777972967462
-0.029805985885007047
0.17519484641864785
-0.10413740450586714
0.0804938069841545
0.07292292640719311
0.0992800022706229
0.17174733063786932
0.16510109816336613
0.10661702912664166
-0.03416717760312096
0.16769942046605313
0.1094456900501775
0.14356613629856665
0.10056286501476587
0.12898798038849596
0.15262288253342687
-0.006417559448317161
0.1285118706358425
-0.00172237633235513
0.07522747987398765
0.053512164990063754
-0.002512042626650986
-0.03662637360762965
0.02955525607167854
0.14497011878169086
-0.07732911583597255
0.09481352466265083
-0.14307626452888988
-0.02093812750235645
-0.026399659141075383
0.02071219616058181
0.0552595719316438
0.01421841772158774
0.0026483203673029615
-0.07697929104865045
0.09523395208110842
-0.027736521265327295
-0.10980439785098228
0.05435005889911673
-0.09661341701587822
-0.11779722511413168
-0.08798001526169831
0.09763259717678006
0.12732393979757395
0.15099593137844006
-0.17365778760123615
0.03817084796757769
-0.13196378620355642
0.07005832580149404
-0.04938651213393121
0.026421718318035754
-0.027244806041045122
0.006665737495397035
0.1269743174193312
0.018629880000327212
0.11469885500964072
0.08026558695091168
0.08628583567550045
0.16916802883626383
-0.05124061065852776
0.10168481187534013
-0.1284625719766892
0.0001017395635672051
0.08799079492449104
-0.03851755285194289
-0.10116587024736265
0.08124671349606254
-0.08623928800418226
0.04527010691071504
-0.006206659993895391
-0.04674910919431339
0.16106473781808203
-0.1275465530266353
0.11383263436840887
0.16417883142921363
-0.07387124118432457
-0.1119983060082945
-0.09074523456120157
0.04721933127988203
0.012304969133383428
0.034040922043692586
-0.11133640365063716
-0.01917298991287558
-0.010464768970573033
0.07368302945633542
0.06349387602736419
0.15723521784951794
-0.06949053103466209
0.009319939732673529
0.16960079396854813
-0.12459576677182409
-0.026082617285769515
0.06001194651874957
-0.12144714810275392
-0.03257729900128874
0.06326270411433194
0.012758383613479573
-0.029351595570111067
0.07458253737168144
0.15548565272397752
-0.08902611666925021
-0.08522019440841658
-0.11195975383563361
-0.12723095974109147
0.10841779568927361
0.1532874372374721
0.12300790419653435
-0.03623815939026651
0.023715352392720206
0.1579298988775693
0.005770153000494051
0.13128961986766183
-0.04605646109490336
-0.11387329250474812
-0.053338127144739345
0.05653907703773595
-0.08966277315191161
-0.14678251852308383
-0.13492530418404203
0.04950112089616331
0.12164337991999731
-0.1584034247897916
-0.1077589291864052
0.16712648734818408
-0.08864528551128308
-0.03093418036545592
-0.09814782660494824
-0.09289993623863559
-0.08146082643022848
0.10318256936815966
0.14592676499167237
0.16459887825240302
-0.13619532495259265
-0.08467218290416083
-0.06955853903194027
-0.15141742969706246
-0.12343525161611794
0.02554161691927193
-0.06398925767982705
0.17376557551487418
-0.15321303415383203
0.06317776188086593
0.08506401950974708
0.072399188336903
-0.020930184284296452
-0.16226001400150675
-0.12220247952161988
-0.019463586842396997
0.056228323075976465
0.03456005745872754
-0.11627393717485975
0.08285156801359761
-0.1475248257246242
-0.14295868751619112
-0.13057469932825197
-0.10469781356679612
-0.050982034141280705
0.10937551934416634
0.00648466018339842
-0.054845816528760846
-0.005558771258205745
-0.0015275905899003958
-0.0948529682414215
-0.12929148199162172
0.1341809442617053
-0.1617875850961668
-0.010528043052960158
-0.04342500812156887
-0.05932291543577377
-0.15359435704103458
-0.1346093765976602
0.03963237528604283
-0.005432813512355787
-0.07277433431319948
0.17232151498469017
0.10388393058316504
0.12612900344909325
0.012602923946532823
-0.1611299514313548
-0.10598073610373694
0.16567131131973709
0.03798717394714898
-0.00015724511591442064
0.08936193926575284
0.15970975345621022
-0.04639836083215089
-0.026994076435019693
0.16290023507353982
-0.0791150170479178
-0.08736386766938332
0.04820048087698973
0.016065993535053183
0.04624273690323873
-0.17169947763824397
-0.017757635876099544
0.08106319429145889
-0.10038411871618881
0.10451804742115615
-0.026341397671241742
0.02133851115678266
-0.14591684163869975
0.07605997391307821
0.012518872292572938
-0.16725419782535272
0.011211788576578357
0.15042358942792228
0.04644423795316695
-0.06311244611832517
-0.1707473320774112
0.10209336327427576
0.016746870186444246
-0.10196027763892586
-0.11155657426012015
-0.11581023606716508
0.044953707430241824
-0.03512209591737725
0.032100637153306376
0.1252030697321077
-0.017689766669422763
-0.12172009343931556
-0.17661759173520716
0.12562275722931823
0.0051855575192385275
0.02405786049774142
-0.08370937506857772
0.07654736262321835
-0.02266850275698132
0.08179231727271496
0.04852453071510778
0.1476551035213444
-0.07054853671763901
-0.04712371643073876
-0.05380353020852195
0.005089755170697992
0.014248642121596008
-0.0615111596752734
0.07946080614341078
-0.09251150892823999
0.057635473510457495
0.08421863114558792
-0.034816078380534785
0.080712280445247
-0.06468344544316756
0.11971812149458333
-0.08948616666984245
0.027283882989001224
-0.11282821583924489
-0.03420910483285426
0.1254704467617234
0.10854858815141506
0.06322110566748386
-0.0028796015584797064
-0.1088420160491192
0.060695751530981966
0.1598496272712915
0.061542394697544675
-0.04827707968467973
0.032574445349844064
0.019009727816953904
-0.011657930945306054
0.09091836714810086
0.012939837397857638
-0.07996878539320006
0.08304422685854267
-0.11485359310341138
0.1332358248995672
0.1516806948164638
0.03524675755839643
-0.05216400153357415
-0.10534964898573014
0.07297406627878204
0.15145230922905073
-0.03278091375392199
0.17580809460305058
-0.09562228428959192
0.011865368970358111
-0.14662019747707736
-0.07769755606314464
0.14644876838531262
-0.11445520456715501
0.01751576129891244
-0.16620124596339445
-0.07162483005110812
-0.006038391410055775
0.09880056410097048
0.15464414331718132
-0.16644181674984768
0.08825128105199595
-0.07607531398645972
-0.050912831891178345
-0.01818523303306196
-0.06712061562079374
0.11724047403881359
-0.06246282826966597
-0.1441310296734609
-0.0647926173242716
0.08604346144138621
0.12451656066655965
0.15929244658178057
-0.17103221644192793
-0.16452644616423365
-0.022034544779101387
-0.0028305696064221315
0.03503298719797795
-0.02058358754630087
-0.17316434194027483
0.0009093222538970637
-0.12755402535052526
0.07621943360644544
0.12913587963099382
0.07496881453856842
0.15400536984072677
0.09831527211568172
-0.07720236311696063
0.15834286163420672
-0.06270417846071763
0.12042904980279359
-0.019766711899812314
0.10601217841729516
-0.0012367957297751257
-0.07560894353417957
0.10395972063351057
0.08042626685044674
0.0028455329421437753
0.01427925487853317
0.03451226791403579
-0.07587802269587621
-0.030493847816511856
-0.056384860053101414
0.15830556053967212
0.15233555495225914
-0.1027931337530847
0.060592774256916074
-0.11082013265286476
0.17318297798731183
-0.0828462657336566
-0.16958698743388492
-0.0825251172635953
0.09300746012520344
-0.1452350944153848
-0.09318637318279167
-0.09771066601162495
0.05629926573302443
-0.06024295086307126
0.16432197209609545
-0.07183246765129964
0.015610902705201187
0.026007152835351988
-0.05227986083309654
0.14120466409343566
-0.1257132377214538
-0.1344110957260995
0.04859403468613357
-0.00891154891520635
0.06640045069286801
-0.08685604794617756
0.09944019023595695
-0.04239973291941606
-0.07152939690155935
0.002700574556051562
0.03561736985335716
-0.003610768828178193
0.17014743781250796
0.07392358979390239
-0.05533643833467207
-0.043905912581490895
0.021715743967909304
0.011264434688208784
-0.17588073193269765
-0.13404228668345905
-0.16253995578251043
-0.047744569009416635
0.13407222223974904
-0.172542692628719
0.020888174137934288
-0.007521240167955577
-0.048417260333059
0.0719753186000389
0.1614162378491461
-0.015282905532149865
0.04914761367625013
-0.1733119481873952
-0.06444533595027223
-0.10356682301921902
-0.07377068698687189
-0.11002162047649787
-0.010161810734194445
0.050676161143347415
0.036770208187372345
-0.10240049304992556
-0.1551655564524055
0.1123850738447035
-0.12431482271934925
0.01893697957678454
0.16782700226118688
0.08858435525157997
0.045483706682943575
-0.017851172263603724
0.029104970537279597
0.09874581547402274
-0.10414318401957957
0.13423152957248288
-0.031607452769334375
-0.12343349146199364
0.022564992445256876
0.0744186243720574
-0.04143545780653074
0.07256484861414365
-0.07223692421364292
0.0408433183405797
0.024504695263765607
-0.1162336791560624
-0.11002052443004706
0.06345088799412929
0.160919112794964
0.07401088180802656
-0.04600528229870245
-0.060426037116516555
-0.08168033565443365
-0.07162807054264052
-0.096152727787934
0.019311800984348506
0.15195340867580792
0.006864867999898114
-0.08022386547916636
-0.03632613816700684
-0.16711168836284454
0.08582253532389947
0.011088900993376883
0.03545300236853102
-0.02545874840457417
-0.13157989459593997
0.0581241207564524
0.07717406523587259
-0.036656313848396356
-0.14556266369729587
-0.09300220584578578
0.0333437783682437
-0.019539835065157753
0.027708000831740364
-0.16176705217369594
-0.03365740706529968
-0.08972710612744725
-0.1337921526052371
-0.04574134075321765
0.07529471518373596
0.042911843323916836
-0.07635692432324853
0.10853444958757255
0.034208747377623167
0.04549162323970716
-0.03914187838857805
0.08062947186650245
0.077424791941205
0.1563658350543875
0.13849784047597904
0.011003477262139788
-0.06057719170723476
0.07415440213510817
-0.1377785019527073
0.08204237487706152
0.023562070561730313
-0.16970682549376903
0.135017837503446
-0.06014095783194585
-0.014980194317995526
0.022614408364031197
0.13607558605670678
-0.04619596913920839
0.0165892330952484
0.06118363325609391
0.1587700380113489
0.17336830505987386
-0.134858711366763
0.16579412158266452
-0.1698179641412312
0.14935490810715848
0.15127439603538567
0.1698239268452618
-0.039902730049054695
0.06628205408418547
-0.06345813016684422
-0.10950898941607774
0.11344979133169632
0.14040603720366143
-0.09872711864469873
0.15646892702530027
-0.069145039448558
-0.09115291796241752
-0.05996716273008722
-0.04778122128472384
-0.06252844751904568
-0.0033288533580183403
0.031045033071548902
-0.13918951576809502
0.11579624157059827
0.07018833393476757
0.12013321283517922
-0.021323793313608674
-0.16929352610659928
-0.13991890626190684
0.15487933207740623
0.03950131863080816
-0.11878515695866952
-0.02585692282013352
-0.010593504409152242
-0.10264357511277535
-0.04220557039204253
0.1489821469388396
0.09708375877968625
-0.06052583738077495
-0.03934580531429503
-0.10556475863194811
0.029861691963542724
0.046776549411966066
-0.01758510226142882
0.06800225267733064
0.03173117301492774
0.11573370214982477
-0.04960848151676778
0.1411772040220792
0.07816998228314911
0.09379758154918172
0.1725859263224665
0.08454490392642496
-0.17287730069415028
0.0634526825031391
-0.13520199960135193
0.058349806613793936
0.09298354072580653
-0.04451866800421469
0.05583840597103949
-0.08320393132059783
0.04974147402635022
-0.10105912844593219
0.032675318219533935
0.008813897126957142
-0.05845206065738929
-0.03392129933480995
0.11524812625604748
-0.1727571319481895
-0.018442979770040467
-0.1239927752158314
0.08865958589091465
0.10374335923303084
-0.09612641721424037
0.0021768544751628633
0.11417262858782012
-0.1568586833317541
0.16204685918123124
-0.07253938769375264
-0.09192249202592617
0.1763952236726256
-0.09294851422444832
0.10421785644530157
-0.12413420659427257
-0.03963915663613319
0.08727438830732509
0.15819563174931353
0.03210772878872423
-0.0018152940797295301
-0.10302154349921867
0.13836084920539324
-0.13238132874585146
0.05892727799017491
-0.11780253145638873
0.011702430652542548
0.013538181976233302
0.16050041203034304
0.08331163973870774
-0.145398752200428
0.11448173842131285
-0.1417534389405497
-0.058684074664424775
0.06805535709832843
0.021352015170617487
-0.1351563058170369
0.016586342484444884
0.16357700421679625
-0.08225885014142757
-0.06820421493272111
-0.13655420234957094
0.08927354308326815
0.10854691274956237
-0.07370860316788562
0.16414730949501743
-0.14141794630755172
-0.13135263809212877
0.07967342260871774
-0.15285367545135392
-0.02705669769930629
0.04218620980666407
0.1274472185178956
-0.0021352340470181617
0.15414884659270758
0.07543058223108856
0.03899086221988738
0.06271099610524214
-0.15171129619110954
0.005937747617385571
-0.01825061841103898
-0.019618050937515393
0.03441298593513743
0.06856228315587921
0.09358457418798881
0.15698957857274531
-0.15607873256419505
-0.049144338969182556
-0.0540546072548648
0.020587114765975134
0.06284561127997851
-0.13339528976291806
-0.1319790526756649
0.16189962872172842
0.06062755251071279
-0.05436462743862011
0.03838381706699125
-0.026136997876342688
0.00620341184776133
0.16167196860181934
-0.025362018379238398
0.010821401196684802
-0.13706657895633292
-0.06197116937431347
0.07209761932652561
0.01548413339956152
0.12459022703385778
-0.15852696156425541
-0.1490314707076706
-0.14056762017815477
0.09778982067364148
-0.05208883629372513
0.03624432794662047
0.10442918665004342
-0.15395229101225222
-0.031993632168030334
0.11690167917662968
-0.005832122133229942
-0.050405825946093205
0.04501187837956835
-0.041879445612075905
-0.11115966049212367
-0.12741149586799863
0.14680578570543226
0.1483026053667549
-0.05171329421820304
-0.09281463914622763
0.016517078816036687
-0.13234525554059023
-0.016640072121312206
0.11998682603661691
-0.0010044897917491909
-0.045667696235753646
-0.08987808265345891
-0.15202038974101556
0.14820201945063163
0.1007181333974376
-0.08630247747860156
-0.11211153327962435
-0.16130750791086657
-0.14128292030897377
-0.10390348199700114
-0.1042921311744962
-0.00866603691598502
-0.10431690740951789
-0.028687344678047767
0.08458600936399341
-0.11618660230242525
0.16883607705194031
0.01210769336765503
0.018134758164548962
-0.171701252336437
0.059146679745821266
-0.029277962151780516
0.11550327027925494
-0.1722190577916237
0.16363563958605984
0.09956518631480683
-0.04392205764986596
0.14592301609729058
-0.058203274343276434
-0.1391411311380796
0.1578712834004033
0.09173923150728686
-0.10447334202243427
-0.14778077755796035
0.0006715704117880888
-0.14007170148862355
-0.17348092972232035
-0.16445036088535422
-0.0636072527476457
0.009684683050604562
-0.017096927719129303
0.14717217931196586
-0.14112736754093305
-0.02445237982447979
-0.07846137554654263
0.09128706668864896
0.11627363389895969
-0.17048319909835252
0.15933684612316618
-0.16742021517624908
-0.07012933382561982
0.10718586226837777
0.04687349324235446
-0.11352653175595676
0.11858263598522137
0.015005568967342994
-0.13256448182094493
-0.14584902704178623
0.01940113029522712
-0.008639453958773063
0.11989428456643053
0.04499026969245595
0.08631647554990743
0.06651229031646418
0.055569084822685154
0.12397761037324216
-0.15338722987345133
0.14180607519083133
0.12867168026497883
-0.03783996211426815
0.00553818132932211
0.15756726551807532
-0.14158083900339638
0.12314144035912437
-0.09464112530385967
-0.13976760155306175
-0.06186980987752468
-0.1375871044730593
-0.14567458546712087
0.005132989604423829
-0.05038962322520759
0.15003779382789534
0.080863128682785
0.07027016485408477
-0.04921702996254883
-0.08587533516174874
-0.07686032955008334
0.010419434559188206
0.008516844595650552
-0.07825696175014475
-0.17615256198602786
0.01753776312814786
-0.07842950078120442
-0.12046341454739205
0.10138742928609931
-0.16272247768589648
0.02757498701519775
0.02656096974764451
-0.0054179895353219645
0.10190490804700231
0.03625898956094711
0.08922939500951053
0.10285759564928112
0.07222343548599378
0.06543652319497573
0.09720881317656797
-0.05926381160193586
-0.08935324717522018
-0.011478686552573914
-0.07869845302552314
0.027297871433486345
-0.10971199937352244
-0.10476747329951074
0.06092415290499513
0.10483704971298377
-0.15606077136030755
-0.09893315354993265
0.015710604624455782
-0.03485653627581471
0.02652509308664399
0.14119016516194643
-0.0033830745286057818
-0.08140674079998392
0.0035457760220529693
-0.03685830280237415
0.029765192459630233
0.10016269849894166
0.02546967543166785
0.16347952731307075
-0.12944270264716223
0.06854476254378596
0.11109626781274487
-0.10240091482208712
-0.10974011661196709
-0.03543776731954307
-0.0002278880442438625
0.09410859703771196
-0.0729618424456252
0.17117688063935488
-0.13130096992487245
0.15610800142148437
-0.1706723119941889
0.0023103441485252296
0.13529341133218828
0.07513570811724336
-0.17655122182331687
0.056327973656598904
0.05654409020396107
-0.06038210255267095
0.025499750240713173
0.0930517442527034
-0.1413286530541628
0.08860601082577377
0.0034361376812819676
0.17001193579275567
0.06703463436569485
0.07418846863733054
0.09232067300748807
0.018833767135381343
-0.046290948424311265
-0.0017600007415624226
-0.008642161637083265
0.06387102173983454
0.13828900161098323
0.07442531030117393
-0.17593936216310296
0.0012160981557945048
0.008129948904889413
0.13619949943268156
-0.055327803571691224
-0.07931136832520397
-0.17277724343898582
0.12394590534179677
-0.1601175496132809
0.10119001221594967
0.047518432745323316
0.03068251992298174
-0.15104095350683022
-0.12018658498362082
-0.15052590597032672
-0.04093706896982172
0.17056334074065374
0.15886971781818002
0.006760819375970881
-0.1648964500729407
0.09960506092577713
0.05337872005811725
-0.09102191321256034
0.10948440222651595
0.08675968841904923
-0.1696841230129762
-0.07613483762423756
-0.16471432680202622
0.07942007014711938
-0.13148534483831542
-0.028957314756526006
-0.07869308839169341
0.127223754820617
-0.12817736211974995
-0.091005373795808
-0.030923200926831384
-0.003765748009940673
0.08800332723383048
0.1591199088328575
0.06162687293384542
0.04508955879702837
0.15185029825449314
-0.12298411933333034
0.10803699320233089
-0.02473765309483449
0.14684695886036045
0.10688350714296162
-0.039873116594276156
-0.07740434800491505
0.045605938752168215
0.0456471836742126
-0.15886231669152476
0.003515709949040437
0.05242347256152016
0.09253066187164179
0.13982299570727252
0.0009879708154390526
0.12770485965988443
0.10973867733946875
0.1277526265641954
-0.007117624272222184
-0.12463080541159811
0.16909145525098376
-0.08413621916906876
-0.13468669704439096
0.0786732915957776
-0.07869160615783409
0.0999834582046877
0.12372183009663232
-0.04847196107319067
0.09483146318879611
0.1088657171732094
-0.0931811649298278
0.12524029671801679
0.14152481316344062
0.15455385255192056
-0.15811480794570615
-0.11052349087974778
-0.0885085739508132
0.10272212870520696
-0.1655271877418084
-0.0034328840066532324
-0.06941923305300382
-0.027465701424721774
-0.02598381086231779
0.07611351479732978
-0.05289049173327319
-0.022105817647644934
0.08690091589975449
-0.018049317572924203
0.10831187859115585
0.08743826841979062
-0.12425544793883028
0.004831834615329534
-0.09980162595046076
0.062486715450920015
0.1724508528176974
0.0062501262651282734
-0.018791372485010786
0.04902451305652422
0.10174452384578363
-0.0762861098458731
-0.13071803540046503
0.09436114380486728
-0.034143240630481124
0.02374499146340534
0.05410925894702186
-0.1327263170844633
0.13488505818608432
0.13974373269256943
0.16807959108797682
0.011012797679382605
0.16569756033107333
0.13754904694003228
-0.0141194024109633
-0.0382430321298534
0.138212321880315
0.14384882380204345
0.1177724719099615
-0.034979881824989845
-0.13500492540763948
0.04782566162683159
0.03478542418750308
-0.13534870533072113
0.010024831244998172
-0.11300427582673143
-0.060447341854259116
0.13348112592089342
0.1746195459082975
0.017034320651591238
-0.010895502019094143
0.01208531201370156
-0.13993302273665825
0.05565247832820615
0.1313767680737357
0.05554279892395533
-0.13484723800758475
0.0945267602120198
-0.15722238573271521
0.0803144562396488
0.022889111990398253
0.15999411010041645
-0.14400888267324413
-0.05111070201532031
-0.01143959442275072
0.12473171791570951
0.17302495508270002
-0.012119201107769217
0.07282007872681667
0.15471588457108473
0.15953170765867894
0.019825705182679614
0.07326833635841676
0.06459289987426452
-0.1152537926797832
-0.12740815330566035
-0.014209186633452654
-0.05336798837932807
0.09677777803389342
0.1706235988571065
0.12869825112869374
-0.14723496061028685
-0.05989409955103399
-0.0016640363315233192
-0.003292174764404441
0.059269255178161555
-0.022929190879795655
-0.005494233198749164
-0.047973158184554714
0.01212063453529798
0.08812575565896202
-0.09669506227553173
-0.011849294648232672
-0.029197152077575284
0.09815962679620457
0.04816616439301448
-0.14009019870211778
-0.17572090523850786
-0.04734862356175618
-0.11201554370033354
-0.09223498766837128
0.11010072437244114
-0.10540036717305529
0.08213566184223865
-0.03565672495456901
0.14871764699263346
0.09399161460431227
0.1564602348760683
0.0922307654044802
-0.062330290182491956
0.12802560244992234
-0.030809751124639687
-0.014681773987707758
-0.021813044152408513
-0.09957760119765448
0.06757264828204762
0.15868280075100918
0.11770271249691064
0.059496948834468655
-0.11319890471288908
-0.05101654705964122
-0.04704372024231528
0.022020898838530333
0.1702230884911269
-0.14370935631674175
-0.15103235940932366
-0.009698999112852819
0.12911307258158572
-0.006210157766770016
-0.10865231777365036
0.042865479510122456
-0.12396442745111916
-0.07964664526646062
-0.16941165777604567
0.07890345965395837
0.14487993026392315
-0.08820089833300532
0.1566692683596825
-0.032672434868084264
0.008322043217526786
-0.11395222319302438
0.1352671340137272
0.13525576586352403
-0.13797942197205254
0.09885419154607072
0.03960251352052864
0.10395064416209135
-0.15198256332983642
-0.11874340161110547
-0.07309439779198496
0.17070920808327114
-0.12113717242596732
-0.12396512547724949
0.10070617297760998
0.021750937705092923
-0.14728467634394285
-0.15379524304710318
0.13916106380235962
-0.12746420371794687
0.024006624212990203
0.08763360227066529
0.05166192190561796
-0.07829754552139484
-0.08404646635530845
0.010088909671164426
0.08033512891207151
-0.08523542982152853
0.07411446299814363
-0.0980244550540562
-0.12332740497037199
0.08747038317493915
-0.1478700981772105
0.09669655677961993
0.04666241330559304
0.14344860254874162
0.018092713592980186
0.04234101575082989
-0.06141842831400478
-0.15742631908395435
0.15296047281982156
-0.16147036175552126
0.07330860251718099
0.047163153286672234
0.036736226111742605
0.07234476560756826
0.06042893342296019
-0.12165879144628998
-0.08573037327211465
-0.012564162453705924
0.08730338434576511
0.1471829944015206
0.04362706849347285
-0.09508385280633677
-0.04352612914245643
0.042718799650259036
0.008331682644624715
0.11048229207013419
0.1565460449400938
0.05538759560102084
-0.1422260862214339
0.051077868041075114
-0.11395179911909813
0.16012385497968884
-0.1017134328632718
0.10767642636528522
-0.0786119911902349
0.07039569446458206
0.1666307301958845
-0.07672577489728616
0.16987934872369434
-0.10917371829883146
0.13070374802944612
-0.03904918374244824
-0.04166844765528349
-0.06683354859588728
0.06349104454022603
-0.06490918200981985
0.07248788360097748
0.08123754114872392
0.12965689962117596
0.04774646960064389
0.07997318614488784
-0.0417922564612132
-0.12919769354250607
-0.16001262734639374
-0.15506936277130032
-0.1752271889730579
0.14433301956300307
-0.1187911407214354
-0.031376086128394466
0.1065961426562636
-0.16899934516983717
0.018982198850809647
0.04138036181029142
0.06314160734912515
-0.08499584714164961
-0.12721202445871332
0.03886952347973142
-0.08287689417939141
0.1346558377478859
-0.12484361498273121
0.0650193215499271
-0.13546663446289373
-0.024813372300187004
0.09418874217351407
0.04889128883771933
0.1238579298783096
0.09460033428520155
-0.06854786062577023
-0.07915522169449522
0.1374078984011671
0.07592441933605487
0.16953750567760684
0.007210557004677552
0.07431978664984457
-0.13883852260007037
0.07688680535570268
-0.16037059966813366
0.17214297125030373
-0.06845852591296453
0.13553589038572558
-0.06531936028602933
0.09204416426682059
-0.16685225771772944
-0.0032644370014486427
-0.04786023819752315
-0.12169234955363231
-0.02058089661283028
0.14113436263489804
0.14699337049284647
0.023521191623469908
0.008397621135236018
-0.04883302535109624
-0.038835468208922835
-0.06904908270760278
0.14926037293506522
-0.10448018427904364
-0.12039215555978883
-0.05051869537391909
0.014765305125287462
0.15794023742442642
-0.047381366525825516
0.10023532264904592
0.0565624593851991
0.04485544896641269
-0.03138908433623337
-0.09949022783382305
0.1627150061072068
0.15231730798879778
-0.1516231239507757
-0.030160767417730255
0.008574937879930584
0.07938898263062877
-0.14486733009770394
0.0856394585746147
0.15860757397171915
-0.12086531584848978
-0.17204429791104583
-0.13763797212410891
-0.08976521017634535
-0.042182930497251636
-0.11034237283911469
0.17273987803476876
-0.01846734213244366
-0.053697412714974246
0.002648205967014785
-0.0806941324598849
-0.12998460118078317
0.028595755619439663
-0.04002557541925695
-0.10570975191749238
-0.14320306424023105
-0.17629702499494992
-0.062438061431846624
0.12843279959571247
-0.005073363274550743
-0.1257648828267121
-0.06593777351786664
-0.04792724291881312
0.052943388267676465
-0.021520156731309137
-0.12848588939436173
-0.09971018051038404
-0.0022754368810603497
-0.058694345947674316
0.17375788721059343
0.06538088622368884
0.05490536828260999
0.04875027249183901
0.10722037450527777
0.06934063249284964
-0.09046632991448435
-0.1368546514142766
0.0002798826673304143
-0.04031236288572755
0.08816594080183125
-0.01837154366095795
-0.04770127254997581
0.09472202775849899
-0.14877908895854666
0.05941442444227401
0.14374179300011236
-0.047477061987543576
-0.08508679722375548
-0.12027551230716106
-0.04072306586525977
-0.08297628049649519
0.04180244093150256
-0.05135735186193955
-0.16606443630720247
-0.06330581152569183
0.15386100518743573
0.08263672611478771
0.1374307649801659
-0.008526879108181035
-0.08201751258684654
-0.0428702346779833
0.012511496343499484
0.09109433807420199
0.1404819484481545
-0.09907674798790912
-0.15443588205825343
-0.15684579956019942
-0.020675026219590758
-0.07920551189176622
0.06331851949031608
-0.047772210524179175
0.13481734040879592
0.01950638540548224
-0.14902173504270982
0.048080875052801474
-0.01342603191869342
-0.12534705611140604
-0.04838374307975156
-0.11725300280628025
-0.15369568347055904
0.09314869449554826
0.13443465647903646
0.053116120743915585
-0.09710770010592913
0.008900209601060331
-0.10623918145015018
0.1260295245282538
-0.11709131794648586
0.13132985753818596
-0.019108725951840242
-0.17502660694915156
0.10388123649124159
-0.02758777659152972
-0.06642480245927054
0.009588036596685954
-0.0710847724550303
-0.1625211445591269
-0.09419599703794779
-0.12851336900611238
-0.13963807449120427
0.08595995021213304
0.16242440291057286
-0.07227389102187014
-0.09686648620518906
0.02327931981174439
0.013584280461566765
-0.06336784411174433
0.10094785702535386
-0.08121979800909739
-0.03708317365614519
0.052402890437521235
-0.13946192488071707
0.1277154456582708
0.1704018143241046
-0.17333290862534784
-0.02696912106863491
-0.03630782936075091
-0.025710328055210615
-0.16854097695346792
0.17084600821413773
0.045896280559110395
0.07084390664444166
-0.06629930899244517
0.16530014810947047
-0.0774112253608616
-0.17308082471752292
0.09767087808036878
-0.0017966467656080935
0.0009434737856244694
0.0027681788544654255
0.10793066075882475
-0.10990607390358577
0.0032068511313338454
0.12987428300584614
-0.031367202281232166
-0.012320985371199654
0.1546191549769427
0.06652144580845933
0.10959633523883253
0.10441740134051385
0.16052447386144506
0.02921205868851892
-0.09814566374934665
0.013124906688791583
-0.08391007203742275
0.04980152229949834
-0.0941961108408419
-0.11709900721606292
-0.17385839644429865
0.014318991505756572
-0.06392484111259361
0.1330357483938037
-0.171235338339836
-0.02571662019367039
-0.015317641235029083
0.09542266324766213
0.13613593407812943
0.027434987738929887
-0.12773129929106616
0.156204982861112
0.02600978053890218
0.12176962814488376
0.07920990603484811
-0.026761036828853346
-0.08657890245656372
0.03277377045215691
0.09923906132653192
-0.07266469342123391
-0.09433065631936878
0.1416101069946433
0.174132900431067
-0.1616081160990987
0.09188841554997054
0.014015353498069892
0.001920537396036058
-0.16017678535181426
-0.059312288410972774
0.071716198094433
0.09663982812353214
0.029859269445419136
-0.06688597715613856
0.13619778879525707
-0.15043215513859162
0.15963969912068218
0.1128754829928795
-0.14527337864071474
-0.09087373665890318
0.0043510954404983445
0.05371190531234018
-0.06816020326689805
-0.15010534850687815
-0.05712975552167822
0.029906540796987298
0.009101769167015956
-0.1602120885471855
-0.1555328634763852
0.10436261849545092
0.15075715403072015
0.043809318289080676
0.14183552276906167
-0.012952074903498778
0.15616379712488987
0.11965890896533661
0.13771231119637511
-0.018532640396120344
0.03798375867157349
0.08049261430871742
-0.1594936203997411
0.13600835653576587
0.0637501832859812
-0.06850698306494808
-0.06881850497463361
-0.10285377780724278
0.0410457711711963
0.025740506334858648
0.13159962829008284
0.03534254144639036
0.10849998436442686
-0.085832096675857
0.05721885179372597
0.011037177136731932
0.16449200724633783
0.07780740111738634
-0.08674745315487686
-0.00705292181449062
-0.16481193438223302
0.06913187066943308
0.018940062703387196
-0.03609676912518755
0.006380963733570382
-0.17596330864324622
0.020592036779258444
0.0852769685611706
-0.10655628993496945
0.07507239363424498
0.058687828805867745
-0.03455237768529541
-0.058672350353478744
0.013884373056527222
0.048224288242419235
0.0024791918325049673
0.03775859779543554
-0.04482954045412591
0.08370676378081512
-0.14518183914191518
-0.1029891084790206
0.06263206580555902
0.14600790089074836
-0.15889496033994244
0.0775773932509372
-0.15967858352659092
0.11146358854542668
-0.11890184860117406
0.030901134662552787
-0.1716530943604444
0.06806577325278862
0.015129721968587475
-0.09010970752774666
-0.015442712703443799
-0.005720412259027179
0.05026647275045721
-0.050852303515514945
-0.15829011241099375
0.1533135558923175
-0.11385726700671209
-0.09710083608556008
-0.1382696205888185
-0.1074013650183765
0.03583247269773618
0.08923139358148867
-0.06638461416622539
0.08705945920404976
0.09184059576262048
0.04231519477540651
0.04381482678756646
-0.010723178987212577
-0.06049646611847582
0.13716876840433065
0.04584943307664243
-0.05241255697962456
-0.12267842859956929
0.1585434209546127
-0.13481744235824908
-0.009169394981643503
0.013478149414378944
-0.14229551308095043
0.009392133238295207
-0.08081987525105068
-0.1393241811861352
0.027479905707507545
-0.1632551540597805
-0.1349241783017866
0.07292064005918392
-0.1495836546422297
0.098895525990341
0.007720936987272928
-0.03596512915419321
0.019333231070909004
-0.07359494865155101
-0.10481456249005824
0.15094755904282095
-0.16434241021802273
0.15872982024410673
-0.10142870269553905
0.15251122420730379
-0.005817176118354779
-0.12247717709284368
-0.16923002480829794
-0.1253744169402365
0.12756299158565804
0.12877522556596857
0.10571456372721261
0.05089230964546933
-0.13031721634868496
0.04050084440729243
0.14427559202863355
0.01529664305227157
0.11493636078624273
-0.015967268629959088
-0.08908895502608569
-0.13392909787902166
0.0005046463354543844
-0.07926896523104533
-0.13082983116119237
-0.014749357662211932
-0.12042216359021803
0.07648781170561536
0.02512262995240721
0.08559137528138086
-0.031403330549352224
0.1272104627457346
0.16644967173415826
0.09402216249820823
0.17073357802823227
0.1611344974157888
-0.07659335964711787
0.11975964571937166
-0.12369812479166525
0.06184131262951766
-0.027070973334473725
-0.17424886102560025
-0.15340708225773428
-0.009428013075996285
0.02235546412530433
0.15059840557118848
0.103993276425383
-0.026366248315884216
0.05630819366982306
-0.14789601399338118
-0.007188550283633371
-0.11817726600250676
-0.12476772915955263
-0.143316660266934
0.0797398333727019
0.0692901143231275
0.10051375143041581
0.023702515637009945
0.0750708074638122
-0.10474824745893446
0.030946161232385045
-0.17519880584776767
-0.025024605432224338
-0.1558129825697506
0.029459598335537598
0.16828054210597884
0.13203685881541483
-0.07252027462505801
-0.031301659666447226
-0.051653860795907156
0.02629826499790989
-0.0819134953211629
0.1630679292605441
-0.059310495491939945
0.01748408884922485
-0.1667406593093659
-0.11730214375635137
0.07608367909197722
-0.0515909119589221
-0.07950763924600916
0.1744341943350092
-0.11638653777549471
-0.11406730262923424
0.005218735350932379
0.038949691587480774
-0.1288608532207183
-0.04694617291783073
0.1153899866538782
-0.10265251843165518
-0.0987300984390493
0.03829018080233822
0.01155063572355301
-0.1713070435468143
0.06396445859550386
0.15352625414858925
0.027806339555014707
0.03304510794029679
-0.05790470690906835
0.005129374223982369
-0.13645308945562248
-0.14305091314181473
-0.01860497977717282
-0.06110791876844861
-0.10806738180281088
-0.0008995051493765874
-0.1697794804953093
0.09247880879356643
-0.0940671993571015
0.15796807748833255
-0.08476411948186476
0.05413355317541192
0.1453757506142696
-0.16495759489316475
0.05994899557633101
-0.08369796942847876
0.13809222355431633
0.04397477868669515
0.008207209232824326
0.07087365394851843
0.15543256298179714
0.07233751749654753
0.08567692741998927
-0.1320997572748326
-0.03957745348322925
0.07109586188322722
-0.03185451226049379
0.05680484810488439
0.10493344912797191
0.03722792933150272
-0.11536622006072488
-0.16048769975084828
0.10045283254291017
-0.14116606443914717
0.1132092554637611
0.07137335839118432
0.0479601579598155
-0.039872813314681906
0.022322876105726263
-0.12742108336302269
0.03765754860516558
-0.0658443072971031
0.10298498461547333
-0.0658487947400503
0.013435827112942058
0.04665442354850447
-0.04053882372685702
-0.025974503752099136
0.1591140723833814
0.06512414245984856
0.035736350237693636
0.12262198239410144
0.010731556519416102
0.14815793973613128
0.014342736824542002
0.1493575511852361
0.10680231445542814
-0.09974664733156648
0.13469871278854215
-0.11493676547898742
-0.08592888286228412
0.00750871846788549
-0.024487450248296537
-0.006772003934774162
0.02211475122509634
0.10586156213878767
0.1523234557174604
0.07844085273166969
0.13978747234268746
0.07553275298606658
-0.0010103870346856113
-0.09483035405926911
-0.11664948996209988
0.019696446693784238
0.028451396186180172
0.0800173859845497
-0.07441883184083803
-0.0040412180989796865
-0.08336596783434726
-0.03686305115820606
-0.15974949975884434
-0.11086012447940842
0.11546602572079466
0.031258167894656394
-0.09668018201393937
0.022344032404095025
0.10418636964835885
0.025168531778656182
-0.06727204078057272
0.06432751407605572
0.02955870150099817
0.1260244452650445
0.13856558606967506
0.07808224030510234
-0.12882255882764287
0.17226589001096843
-0.17513734634297096
-0.13820997302531626
0.0042609506517705485
-0.054063366119084674
-0.058136021938766595
-0.11538818360049422
-0.09794375661012394
0.023490634461858114
0.07697412152587224
-0.08224428310164714
0.10510009678772733
-0.01796181924926588
0.0004995974938840274
0.17066537811329768
-0.17429715902058104
0.12197116795464412
-0.057471514811221015
0.13624204848630156
0.13275190365084108
-0.0981715379395426
-0.11716599238322205
0.028331466290178506
0.03379624406922213
0.17480176728170596
0.04800079122068217
0.058627937259036846
-0.13866043455361607
-0.10100626165187379
0.17334766488008174
0.036482603016408315
-0.1660741098619927
0.07760755485175033
0.1593428402370199
-0.06533458644389112
0.047691941363583436
0.16044014812129526
0.06341327065504984
0.044353912485398286
-0.05952959368865702
-0.03056545095673958
-0.06670953771412182
0.05505988116691322
-0.12547314561438166
0.01063306690701526
-0.1297199167399922
-0.16549632997746463
0.17230137591209374
-0.03931654241705379
-0.14701733169188844
0.0538755184075924
-0.08057203928038571
-0.151798986872784
0.025708833286036688
-0.17163396168539
-0.13088683380392205
-0.14574474753632777
0.06370213353523725
-0.08924339991012945
-0.061592829163091195
0.16454870677712038
-0.03574994659394331
0.02106223183331229
0.009208472049984323
-0.029599429107250677
-0.13685446807482965
-0.05013587501048945
-0.023438899609137594
-0.04901809419975103
0.08308337876241749
-0.08948316690365066
0.04183932505822304
0.17655825175243486
0.03598844856423406
-0.1458454951791674
-0.14784182858269498
0.06045525149736973
0.07368691976870514
0.08483458534598098
0.11221783835927548
0.0895515654541353
-0.00018455441187892847
-0.07529924602090053
0.012048605106036758
-0.03424468837956172
0.001326001622726719
0.04372499589944617
0.17336759003756247
-0.11424296312627812
-0.028647380202999662
-0.07735515069752706
0.06181127656279489
0.03588974300975586
0.01946011873643928
0.061315774691624296
0.15201847549284425
-0.17024568879445243
0.12976830885169846
-0.00527595661696094
-0.08569164953519705
0.1411421005674092
-0.11051579270631233
0.1657763025459085
0.0672485313992617
-0.11689290307478808
0.13022275800541605
0.08026999485472017
0.1561200387925724
0.060375222972562974
-0.13593609522463626
-0.15636535992941
-0.11202897648200609
-0.06890908314403563
0.057054164962945665
0.03912478863583028
-0.14812092958545164
-0.09179378533356504
0.13291621447918567
-0.15506188466587836
-9.038079868481716e-05
-0.008112605736180523
0.10226671198992916
0.08675357354296524
0.024647365405600183
0.1492072020919102
-0.15728519082357204
-0.03916278228002104
-0.07427792592823705
-0.12203721137832653
-0.04026360138561538
-0.12931835556184118
-0.08314936757801593
0.10888021528516587
0.04100307708226172
-0.029801607596108358
-0.02825702599323317
0.08122037391911689
-0.014182358900923835
0.012792618330915502
0.1531138220245541
0.051875067632653274
-0.08048660167871456
0.10413919807790241
-0.05434825436904288
-0.05676732876693165
0.04553474279606791
-0.03530929253066174
-0.06164968609776702
-0.10051092104260811
-0.08482618082600929
0.14604432847336862
-0.11854835175065437
0.1537226075102072
0.17270728963790577
0.0798562093902287
0.028256540495087804
-0.11178474128929577
0.031975247737839205
-0.13983881302206522
0.13812382210783358
0.03078681250637353
-0.0968832718186394
-0.11666691261890653
0.0018651154465098552
-0.042963519191567004
-0.07964676685577136
-0.0951633846720349
-0.07469690193584146
-0.16520935017978622
0.15001457508263955
0.1718401992838566
-0.16460396706712466
-0.0683997786541238
-0.13739141429195229
-0.004704496647792504
-0.01566195466385574
-0.14283086801403394
0.15896107035212906
-0.010270646045929812
-0.09587362966936777
-0.09618826727180797
0.1743851026296079
0.07963937757050771
0.0664340257589819
0.0036592345983206005
0.1545531330420873
0.09126346511948197
0.09513608219933298
0.1265342232279646
-0.14040674003025483
0.01675144347329512
0.09735550481482332
0.04816081874952019
-0.03364579615868375
-0.006578611672439441
-0.13316391177692594
0.12099127904302864
-0.07587819048151966
0.03969404022339009
0.161757601957703
-0.022127225013241315
-0.1761005087176812
-0.09000181968633739
-0.039931102967066416
0.12622938187368749
-0.15095734443536596
-0.05159991109318666
0.041134792285508974
-0.1766210909517887
-0.049280336807798385
0.1521807578454553
0.1194972933902106
0.0909704459077757
0.03164932597230852
0.038603573190649686
-0.1720942571316315
0.0218149947925395
-0.16390672764173203
-0.17383568138143457
0.03114148153814882
0.008440393818166452
-0.025072511994616145
-0.1683767484570028
0.031874018363737724
-0.04660784936066669
0.08361444357388877
-0.1732005205069981
0.026126555727458357
0.0782332746125394
0.014953625735020692
-0.11341782462121794
0.1495965224561203
-0.09197385875713496
-0.05279197226524465
-0.046669863107779826
0.10560329134165757
-0.07246128574277357
-0.1687764681584832
0.14659969894947994
0.15726501063441878
-0.05602823473667
-0.06386967417378314
0.14423689783243865
0.05100926573952687
-0.04019749635958342
-0.1539147000035139
0.04285078529265564
0.12367526462353959
0.091425163087485
-0.028983559301476013
-0.0962882730901393
-0.15970525343365463
-0.1633057463158852
0.1390555145234587
0.006478668563313618
0.12846402487428102
-0.1101153326547705
-0.08375571903684992
-0.03801345980103264
-0.0030846722757292477
0.14831158610242895
-0.03760609920773248
0.16799076872929553
0.09463095968929235
-0.0376571753915285
0.06559109861491082
-0.014586441823797128
0.15832939844086474
-0.09897995128902189
-0.12569680818296447
-0.15741082845670537
-0.026481993211414114
-0.0592496802246019
-0.030109725417704906
0.17032581226404153
0.152557487948408
0.15176703033457523
0.1586100839193151
-0.030914084276337406
-0.02963618807734711
-0.010695620071039129
0.10033256892231138
0.007443753350379517
0.16316071482338643
-0.1740166951901338
0.08091364952176525
-0.10287880552158389
-0.013089108011888662
-0.05336173660025266
0.0825831150557586
-0.09527226952479112
-0.10888132094102569
-0.1258571077992999
-0.14667330769402329
-0.10297836495070614
-0.03206167957404763
-0.12152467419450927
-0.10740335720814259
0.00931014373304404
0.06858321417801543
-0.027026189509856136
-0.05526654276634381
0.005919165630298855
-0.031980366801739074
-0.15052570618652392
-0.03403816915128509
0.020615447901567156
0.0327846247620526
0.07269151808290478
-0.1711640441821246
0.1103931087673201
0.06961446711131135
-0.06958487056101845
0.162243387879285
0.0244935571833741
0.1123826082789862
0.16651550734209009
-0.08243116584141337
-0.11466581226533354
0.13291763898043454
0.10088525514856651
-0.14906021023501995
0.05427860572883278
0.11581084062279125
0.03634767753546553
-0.008666026184191692
-0.009391105073990385
0.16864790650428543
-0.13049537604993813
0.14377503070775943
0.01959832787461164
-0.06295695924918261
-0.15101908198830602
0.16898613865421186
-0.08948155199845899
0.1507228033314626
-0.10601004175067909
0.013631095516689212
0.16759117258989983
-0.13585695556243663
0.01111990044597407
0.1371456550222577
-0.10008837526673817
-0.1322700440863161
0.02307059522464596
0.04478653454646174
0.0859845429216377
0.0034975818692967045
0.036576610537265825
0.04191153810405375
-0.045122146526039554
-0.002518500540344468
-0.03640949066777804
-0.028537376415524517
0.05749710022365258
0.13546729442818015
-0.07286116203955084
-0.026749733951228913
0.14856574515922857
-0.1571726455128
0.07791158249366811
-0.018551239210137193
-0.10653758053768955
0.08034652741035532
0.10624082766221335
0.043286510783515565
-0.00766139704829197
-0.0004912931068535521
-0.06965005542297767
0.016268284905749907
-0.15016884683648632
-0.1656749127503478
0.0020085348568970934
-0.06062292545759162
0.12234282228191021
-0.12965069934227777
0.02759570124120303
-0.020952079674337258
0.1095634615156581
-0.11914588410359503
0.07200978977236544
-0.06799711731820526
0.14544962274894102
0.020062778634517022
-0.10108644702930863
0.11243939911677525
0.10132304434554891
-0.03224429825924649
-0.13157344579131797
-0.02159341155891477
0.15469656493022813
-0.15862029535400318
0.011601629454462787
-0.07852084108205792
0.03652023952815194
0.17262161667378514
0.04665413921692347
0.06886490518302994
-0.006354392351812478
0.1518659753564413
0.08738714091956525
-0.03839790246856265
0.11156240867584433
-0.0006777673062817
-0.08843324352574594
-0.12210766657561385
0.16779574878193912
-0.11130905072783563
0.15080581264839762
0.15781301227272176
0.16751306285009882
0.13148154345122362
0.1633251418656139
-0.05877911376660824
-0.0936486276275186
-0.0264691003390526
0.14128432510076974
-0.16421380673281824
0.145198851700208
-0.13042121688947558
0.13272613539064881
-0.04255328841116275
0.17619511318409015
-0.07575990935535899
-0.07226087446620258
-0.00030113221692373366
-0.004837563236266877
0.09010453743090698
0.11512168755575594
0.17173389494515448
-0.10743252501412227
-0.034326544497247875
0.17185203794678314
-0.05154986906661862
-0.03807491493094589
0.14099471098191185
0.029414521403811057
-0.035796981583266566
0.008336635163571266
-0.09082867264929702
0.061793775902682445
0.011431781929247781
-0.052370572501200446
0.11676036994994338
0.14196179513040688
0.16485143506235422
0.053275126641004596
-0.1684278507743949
-0.1685980287521765
-0.14721375650560142
0.04393810694608618
-0.1719348725835971
0.04838894069856694
0.033731514167403956
-0.1607418178724786
0.05280223565872978
-0.09458419910790587
-0.15575834270377636
-0.013225565332570298
-0.014196823332732051
0.1594260229196753
-0.00905953987758285
-0.04644287326889912
-0.09727869588997631
0.17013325982544106
0.04437257793507477
-0.12638302843330018
0.059666712233863245
-0.0020280071122418314
0.14025563855003612
0.1121176161945162
0.014779489702407863
0.1486704580491928
0.097709906260688
0.14066440137460107
0.005245253416266668
0.10985307835368545
-0.10854881193556132
0.08196354989089806
-0.04321042169413562
0.16641882530057325
0.15253741443533872
0.04155365864628872
0.023686690677881015
0.08205429424232123
-0.1581124592410083
0.05268609696000081
-0.04125948429990863
0.015156643990564727
-0.13961722542278676
0.07279777950639506
-0.09059717518006126
0.11890344833055633
-0.013993075364179751
-0.11939512121366365
-0.12271422267742473
-0.17496661603438998
-0.027218002719399705
-0.00870290125635202
0.15177679862890076
-0.1655809222263708
0.009934944173603058
-0.03993186689199004
0.02809463917065455
-0.09768257490839313
-0.16319661403552221
0.04617064807964729
0.1763103451965547
-0.11458220975548715
0.044273362033105196
0.05444597031830643
0.09192686596302241
-0.03538752486473526
0.12344200786967856
0.07155502339540322
0.17205761323961694
-0.027481804752056742
-0.12785535403615578
0.012572197731905465
-0.07550146288773758
-0.05981974548786128
0.06322474212418222
0.08440072200085486
-0.014418115488284552
-0.081180074875755
0.026605778194915213
-0.09024915212518982
0.07664274160780057
-0.10486076666981803
0.023375298890223484
0.17323080081077535
0.13276201028677934
0.022764373730942755
-0.08069900028161274
0.16448447656149812
0.031577682570861396
-0.1220139360442907
0.039080772157517964
0.07722755881282804
-0.05219989607616594
0.1464082568560844
-0.03350874074311906
-0.02987878103524994
-0.16832405026841818
0.08531520916140319
-0.16359379701587606
-0.16040708807458826
-0.13249630253141445
0.13302049929789633
0.03172045933901373
0.053070794100292355
-0.013676553778885714
0.0353119735532012
0.021870475671962458
0.10704287271492365
-0.10482898560405413
-0.029072569364697626
-0.10520981320198075
0.12619242663343191
-0.004679809770674989
0.10014757231681248
0.14531876652346382
0.08910869673486184
-0.09327826322203933
0.08488262647591979
0.08975312674212103
0.1365029337053328
0.0038028963782402465
-0.12904961038005425
0.16064701475387488
0.07945192926953427
-0.08823838768237247
-0.1568701884634238
0.08712224090791901
-0.09060624610608982
-0.06544565149517606
-0.139567842750647
-0.1447590430545467
-0.025894210797955744
0.023186794943662648
-0.01960064857917143
0.1413835502567595
0.14879590966651093
0.16546791111233722
-0.027977784775789383
-0.1641858856787706
-0.13624773881498586
0.07958912436886371
0.033734964600521854
-0.015554407210335299
0.15337727029008844
-0.011345493617939411
-0.16188522361720073
0.07119696091945844
-0.0564949047950523
-0.07588739124704379
-0.004544729422911526
0.07305821615339426
0.13685651899113704
-0.1512063577159977
0.15239939796848195
0.030270958502332915
0.04000669022142478
0.1426771674975416
0.04983635442726156
0.04441136299668891
-0.02740326752391126
0.017640325569133673
0.13846021103322786
0.11092815686273233
0.03841775565572255
0.15613290901704327
-0.016774947849877275
0.13676938242257156
0.16262074871426882
-0.09997406848997868
0.008272552696998987
-0.007701589378643324
-0.07490740433274327
0.03643427152693272
0.01989168828752968
0.12943778889173427
0.13280943843947382
-0.02008642732813902
-0.06418465744872628
0.16075119088783732
0.025243240727960217
0.12399945088804672
0.14124510346158717
0.06777217639488047
-0.00808795845877015
0.14502339702234612
-0.08599148758948169
0.024404071397942487
