2 4096
32 128
-0.866439669155921
-1.4415021666454322
8.133314725416186
4.953816761151263
-3.248567784946006
-3.677889732890911
-1.5352138733040825
-7.867891050593779
-13.212272534801127
6.955343947881069
6.646653888667216
10.428229634951668
-7.509758573571541
-12.725180048310115
5.53240365993767
-17.85774329114273
-5.8558706079265335
-1.7105611595728198
-1.3365488443218647
-21.390759648945018
-2.1291953416910028
2.0023753340257393
-14.23870832306876
14.47088445665523
-7.930227464349024
-4.135632680465337
4.895172574534986
9.6320016958221
-2.559255092335476
10.858017816486724
-7.347566219900267
0.04968926594407016
-6.604900985600959
-0.18716303902598788
2.20246609447402
-7.249357468097187
17.748567163849135
-17.420596107965014
-3.041443296017521
-2.840577974164658
20.923766863927742
11.820831831211011
-1.6394080716486845
-6.917917188863117
4.494601025798414
2.210274389829964
-15.042488967250598
-10.751975456672206
-2.1696993532330295
-16.381900636489117
-2.318139867517165
-11.534900888904305
12.664738489532956
0.1674814146096507
9.98566005383989
20.043611904610106
-5.396044579083093
-11.285503629801411
-1.4093618488906896
1.3351408541172889
-7.407727566441204
21.251126394900027
8.414746094022533
9.01305838843056
-13.765744025679345
10.622020530319798
-4.265458483526594
11.151500364556226
-5.455439446574093
-13.957976163181506
-5.100710513845287
4.70561031092312
0.22940594891771215
-1.8159648355705742
-0.9797496891962129
-6.884617077981601
8.884438171896692
5.144234164105871
2.901919015639255
-0.3673094339026466
-7.423287069356737
-8.000703734072763
-1.145794802682396
-1.1044796865430595
-5.128378886314828
-1.7322374205419928
14.227574148312812
-3.8182836875935173
-14.835727946286625
3.670967044260478
-4.0752961597120265
-8.882961974884498
2.0442449024964664
-8.171789487276081
-21.284007148974528
8.433334030825511
-2.4368536793132405
-5.849302773243547
-13.783415064380446
-4.571931014362366
-5.863220522536829
-0.2989025192023356
-8.261037278273214
-3.7984044697888635
16.55963715932251
-3.1727259572462803
-6.119391293312502
-5.679863343046991
4.739408185843508
6.124616735008258
2.5708827622426575
10.00486373641805
14.315378372009885
12.314795157032531
-14.637136346600455
-6.699143132135325
-10.28539304959204
2.247790148720668
9.09946468464167
9.719532019026332
-12.602227365964175
5.357650635971841
10.235181083544362
0.5123411803612179
5.592827890848275
-18.958800796825145
16.51145058821139
-1.2600123430976737
-0.46475211607827926
-1.4419596888701702
8.699374296851106
5.741561582131289
-2.8894995513841097
-3.032231266818005
-2.2601125469659236
-9.607736176002375
-15.820453070014885
8.17393189241926
8.980839383458424
11.877890446447466
-8.43272227173639
-14.889622493442873
6.156917273962352
-19.421780633800083
-7.494442794171019
-2.534475162997933
-2.0038735531252683
-24.812983084177574
-1.7395948350576875
2.421898692031594
-16.368206589746006
16.262509641152086
-9.22443278285159
-4.603783088688983
4.654158780992878
11.599049617221656
-3.643028449260423
11.347729731979879
-8.679067126218287
0.3072638622729121
-6.947725395642621
0.46067326566969424
2.8574012664141963
-8.820994552287747
19.460072624602486
-19.815240200395007
-3.6306760766330615
-3.214528496305905
24.613014752667436
13.324368850602609
-2.0674114291396775
-6.922719438831026
6.358508066399547
2.076828974045676
-16.154297631586648
-10.970089341072653
-2.2335042067516855
-18.726221778893493
-2.3289693901238517
-13.789579439644795
14.81621015493518
0.16652383753425942
11.813524741558417
22.94726223929505
-5.390821285180563
-13.023426752859793
-1.6017921153160148
0.8118649500339854
-8.885674184179885
25.247305096719227
9.93488733996392
9.72788902827123
-15.959013280032238
12.350908320287049
-4.286718235856561
12.138517617692974
-5.983197483266715
-15.866078971363239
-6.203615171644923
6.105086227648954
1.0264140077882762
-1.761806543040564
-0.801767219427384
-8.805037287891206
9.419959659538844
4.628117752472106
3.4923609001699756
0.29613729821340995
-9.04136201003395
-9.002707903967362
-1.4526545474507258
-1.8929601684409403
-6.366027162909565
-2.3527728120407936
17.15230425159437
-4.0408558475662995
-16.84453077226152
3.5657234835199705
-3.9105303887683656
-10.306933993734921
1.9012291306031963
-9.836863659785685
-25.185448218200982
10.280662325467281
-4.0807021803995625
-6.146592910286558
-15.921111758156488
-6.111684849247411
-6.319219158302978
0.9043492913453143
-10.819964191990449
-3.915128595990128
20.34421051415238
-4.300469253392712
-6.121987984896604
-7.883293477546848
5.886477512426658
6.644153598450121
2.2963707078491273
12.465707399317958
16.672628307214065
14.115900650707356
-16.289317088798054
-6.900364398951851
-10.876201882228692
2.2681098173821987
10.687642188695033
11.07961546891654
-14.737318949378448
6.354031411844111
12.028780289408697
0.12876421513318972
7.202056806583757
-22.396704861450132
19.00791970112961
-0.2833013659999218
-1.0109526302149932
-1.2764798035109362
7.853488613519699
6.017136680284443
-3.1968541590056465
-3.442145031064924
-2.810687959702325
-8.496702116145784
-15.438357821941993
7.333293233973119
8.023135776893563
11.888017325378172
-8.722912249808356
-13.739241467337083
6.370407826366072
-19.39862824264635
-8.20037488401552
-1.708520339266708
-2.234956287305145
-24.777519056068442
-2.1039307108097813
2.9982446541470393
-16.649712446319953
16.642532395626066
-10.08082799867289
-3.9763470161007985
5.6291716578109385
10.428035284971243
-3.1700632376974287
10.768871387088398
-9.28657871510461
-0.6830072813706314
-7.73579385685387
-0.282291387341365
3.0101187691043534
-8.739378416296613
19.910557661741283
-20.101436035025714
-1.7254188291816919
-3.095468390686365
23.1627069058525
13.458188537514623
-2.8650461931631903
-6.473233038337418
5.6181989974823585
2.1773224399446023
-17.24773233689771
-12.293694681989976
-1.5448347279347625
-19.102088906877768
-2.252809579081364
-13.651694641049602
15.597551679710223
0.08254099320606499
11.060424580633768
22.661303233247285
-4.82732145536167
-14.046342132678248
-0.4972327849728861
0.03143595528311605
-9.191397614934816
24.932334129104174
9.331441047812755
10.290340733962953
-15.700900911445641
11.570407277098646
-5.2583851072149885
14.783109647743773
-6.303147311990555
-16.293813348826298
-5.732139470307559
6.073683387212056
0.910769795149687
-1.8985643219350208
-1.2643386402254344
-8.454328988543386
9.352422922867637
5.52491027588496
2.9936665286344852
-0.8209413592821583
-8.55262430591738
-9.009896813419005
-1.2977895732673357
-0.7370549249895099
-6.610257871481082
-1.4182870718048919
17.130849386614315
-3.842473624885582
-16.70920760167431
4.0330322321569305
-4.542116421723859
-10.402450109066242
1.9073999380282793
-8.81701596276825
-25.12654767592939
10.942300377969344
-1.4584831545050088
-5.500263920268294
-15.909968223115495
-5.324096978771039
-9.096016891752175
0.5745265876432396
-9.448963277389751
-4.8108447576256115
20.964062512162275
-3.811265354467239
-6.787631339323153
-7.215068623182389
6.783026736311153
6.910880805342108
3.7827542573789086
10.790107573021844
17.07715973364059
14.447176683947982
-14.84945050813058
-7.257496402297743
-11.694381944617216
3.2167836808350154
10.538989860724563
11.898792050816455
-15.114446912998124
6.1704355187918605
11.447142860913049
0.6213155029387405
7.2122349427845815
-21.65827848828428
19.108665284210197
-1.0686914110228285
-0.7986975453360292
-1.4404208368309126
8.332515115188999
6.821162049728125
-2.311217991241547
-3.8277277885687355
-2.866845010866333
-7.920277149427758
-15.021150629056846
7.843536004630652
8.261161178923418
11.087246526080968
-7.8301718085492915
-14.403668939410126
5.950218006603783
-19.20198700984822
-8.357423956191337
-2.2125170106610956
-1.734294695789774
-23.829457884192003
-1.7473935513529084
1.8054142745124806
-16.473296857284616
16.628125970496388
-9.166269621446228
-3.9484972709334194
4.821950594752108
10.750138725829713
-3.504808062618485
11.616592552939615
-8.07861230848708
-0.30279430723495326
-7.12044135286848
0.9084057808994652
2.9575491230255255
-7.571670163953781
20.682505223560852
-19.58536841887128
-3.0812483557227592
-3.615959211575574
23.961563472614902
13.623000889527388
-2.011252531449312
-6.340424809899096
5.609246753007537
1.4332735288348433
-16.14506826104131
-11.576464514254447
-1.0741386896175749
-17.988262030916278
-2.2007921285247702
-13.654633075543998
13.878720307976353
0.0342635810526533
11.693729996617348
23.13649131295935
-5.059328559648328
-13.171666495161718
-1.0154842048798143
0.6106152682114145
-8.73738004418087
24.11721135518881
9.704493301959266
9.826432668838985
-16.32288930950044
12.122675723514332
-4.078609353068144
12.979374877862126
-5.728184228397247
-14.780149563599407
-6.338283041555803
6.073554925497101
0.23594894698142482
-2.1930520425410553
-1.0321655877816156
-8.383212994001914
9.502473240052241
5.9648581602192605
2.3022564663726253
-0.29680995665255105
-7.783573127833364
-9.478499120210287
-1.420393844301944
-1.1616965726505935
-6.2836746746791805
-1.8992720778467471
17.651456079781173
-4.670600372731735
-16.296846081013374
3.8851515205659046
-4.149891074130073
-9.6310493070911
2.162198717639993
-9.306940762417733
-25.423997251841463
10.047146986376497
-3.069359183231062
-5.847859452285988
-16.010595400571656
-5.4134676979003045
-7.295727535812748
0.19922032663958747
-9.72845339329871
-4.567284035802015
20.512542487748416
-3.3935163133119475
-7.282232123504396
-7.309661817492949
5.15172023227209
6.461967194473564
2.949252937640201
11.882414676075717
16.183984784184602
13.737773961966806
-16.083201931298664
-7.160173121717153
-12.22463635517032
3.6700575621279516
11.474621544397824
11.567790604273265
-14.309833893908925
6.467550591346039
11.364845757028887
0.8534587019398476
6.855513071807256
-22.178723827227977
18.613882604787214
-0.5938910972915127
-0.7683024755163308
-2.329060918697214
8.587905353352326
6.532549859899427
-2.7976047162295745
-3.895870476738914
-2.1908770246225098
-9.667964570761274
-16.16498966900088
8.043303294926723
8.095564577938923
12.24753076560771
-7.583156596802163
-15.284556198707426
5.841904022729172
-19.576093374001026
-7.861829624852952
-1.8803056779735239
-2.4139415528100083
-25.338937626530353
-1.4881531913036947
1.8068199965827185
-17.01020727060413
16.746888035300444
-9.580887978451784
-4.368040842397357
5.7888693454356615
10.685787002983975
-3.5272160377457733
11.800631194486298
-8.41450235001551
-0.021839555983190286
-7.064492667789838
-0.6159283744341869
2.7843729587708834
-8.189524958113013
20.948273095806464
-20.38905911800464
-3.3343484041162172
-4.037030018326253
23.412164052522936
13.793705524632234
-2.288516563679517
-5.962040415298366
5.5611527562353205
2.1166045912557245
-17.0209390490228
-11.377651035764659
-1.5547766849421596
-19.379388184200973
-2.460555487470884
-13.60068072084559
14.815423333754909
0.13643462612506665
12.19466809118045
23.64913134362628
-4.89781701453135
-13.571523218523545
-1.7796999780062588
1.0123833171575614
-8.465035819223141
24.923572168249628
10.237431490866932
10.449024326244125
-15.774266328750505
11.436181527481976
-5.198522428238661
13.250553110428628
-6.077170199908846
-15.778392004139498
-6.228008439263218
6.3401026813225245
0.8114856302224687
-1.8736278774161608
-1.218916395753807
-8.707492390304488
9.275177339463474
5.804489041659881
3.421131884910026
0.17595379022233926
-8.759015300695308
-8.741822267110967
-0.602118449718932
-1.9421941268026746
-6.277233337375758
-1.3516773429145679
17.87044826390391
-3.9554810049232034
-17.48278561065289
4.246054245639507
-3.77073223461928
-10.983560546211306
2.1918747336686324
-10.023472661585878
-26.250501172791655
10.963446464842573
-3.4339123672276863
-5.315744234708224
-15.745844113852499
-6.342665284830445
-7.683218645059358
1.3574010117015607
-10.828182656046597
-5.243332846227639
19.463162557321354
-4.354603286158107
-7.48995649317977
-8.045908001478308
5.733806321058986
6.527069241415367
2.510218349318515
11.613095584177579
17.298758412311813
14.446969824256694
-16.161764919933006
-7.2619536754629515
-11.313020061971581
3.4453092810948256
10.626588006913249
10.95605285786729
-14.828752154356936
6.96264523321354
12.585313181840228
0.6568556043611229
7.68483676747549
-23.17192989277528
19.94979513169969
-0.45044066626758916
-0.6278959324946848
-1.2918791680548176
8.045441644249465
6.2033900330261105
-3.4582845298056504
-3.000014061596391
-2.908054932753238
-8.691989749127679
-15.011998013914894
7.493427226436213
8.47082509665096
11.26354989026777
-8.145271346097639
-13.739343871673887
5.5979549282980186
-18.273899627557093
-7.828051912564851
-1.809407643567574
-2.6945043760993626
-23.92297275305635
-1.126090038405589
2.2757756144845467
-16.239531051502887
16.080123788710626
-9.42219396894197
-4.442099995896486
5.117917110759212
10.286511431703536
-3.5120462815409685
11.586790075353226
-8.524097986383733
0.14621529827670762
-7.548748528816839
0.3347121239342035
2.1933937187439665
-8.526286021732187
20.116322719965112
-19.12309249798377
-2.9845108428721105
-3.558971368065911
23.37957040291756
12.91241244717787
-1.4284143536127891
-6.755259689418874
4.916590911658176
2.012692934142845
-16.644424140563455
-10.957594479391666
-1.1301651121835887
-19.105035762868447
-2.6438321740894253
-13.43067149290278
14.073733037289735
0.7787329143418988
11.757800926900702
23.08649986934994
-4.746533505522162
-13.031728896272819
-2.1563684434458463
1.2354363312737482
-8.86308897447616
23.739817666387513
9.256956178362973
10.114806760660318
-15.84613832856216
11.415003638089788
-5.174199078504596
12.160019682832122
-6.604665736678085
-15.78094751786154
-5.18209298395928
6.418468851896332
1.596846816147915
-1.3117646169426378
-1.0501612387608543
-8.613806434522989
9.167691458204619
5.795660298312872
2.9986434053893336
0.3504587139785278
-8.628589498830053
-9.219238702939572
-1.3370161371052438
-1.0374416357606062
-6.3314382464881875
-0.7913694033636066
16.924361539590187
-4.03232754383481
-16.715169162360805
4.646299490436013
-4.306466045702255
-9.941489643841576
2.3007806704448805
-9.742335610736642
-25.16706159503012
10.545982942689461
-2.952725126862072
-5.86474481217232
-15.641193165279793
-5.833449907065868
-7.201336498450083
0.9133668247865591
-9.489876131493322
-4.695066479973155
19.658203981227132
-4.778842115605516
-6.9882460737018715
-7.825462855084182
6.256464200292657
6.24014243443665
2.4203011460665618
11.687017860598575
16.547299462844165
14.310830854883857
-15.29561913030765
-7.008891327018349
-11.712278676067411
3.275140359031088
10.078505780891218
11.433449468538097
-15.007602956752125
6.223697348110939
11.872505869449192
0.0368520294165364
7.899109542326601
-22.073992460110485
19.124247151242486
-0.8457323088959513
-1.2080580740156326
-0.8005839843918539
7.365504410305669
5.378548967773366
-1.8268333032382682
-3.0627408444981197
-2.614533725527956
-8.052409716643915
-13.75397280051313
6.732190807369686
7.72039908487244
10.04248348529796
-7.875784173767021
-12.816745480829168
5.0199735573935245
-17.37956144057732
-7.408014642197597
-1.6991011226127843
-1.7557345229283379
-22.22246211449378
-1.335596843620246
2.2961724893597077
-14.88779070195231
14.752671871828554
-8.618236094702523
-3.331931926405893
3.9671360806251097
9.434749412951602
-3.0878473706622955
9.950193359775856
-7.1897630721903045
-0.9887902359145998
-6.390229249807365
-0.8268757627239569
2.489837670798656
-7.886285343580109
17.653083039397725
-16.893170683360108
-2.2373505382074548
-3.7612476464051356
21.32202684420176
11.644513031009364
-1.4259608225870497
-6.306629438216884
5.099641463167486
1.7974693337501937
-14.271982381689508
-10.962622255239923
-0.9837847483073623
-17.4026938497384
-1.2892930271800618
-11.332685377576679
13.488286283502791
0.07115548423741426
10.546430826607404
21.133593810339903
-4.481680431351113
-11.906853795311093
-0.43270655425797244
0.49109441783997776
-7.6864444756410215
22.115770537601534
9.428248709561277
9.009137103568458
-13.07546816745515
10.149303362953601
-4.326680201016461
12.262653067030838
-6.199874776739181
-14.609829978397581
-5.609111086781389
5.026868740120068
-0.324200692986872
-1.0729077560239368
-0.4736545076370887
-7.954867757669266
8.449476348517198
4.742148490189376
2.8582232329786073
-0.9023140337561144
-8.535625099014036
-8.294720680992016
-1.4004448229387436
-1.4022768299476913
-6.07946779003607
-1.1693679609312975
15.34903384784099
-3.775207240396663
-14.097163201066245
3.5803578403169865
-3.879722786516786
-9.803900383794447
1.9192212368659851
-8.785755636653837
-22.431420404669808
9.368082157279561
-1.8664350583921345
-4.952170114572931
-15.472871253175915
-5.6880104934247315
-7.575437094212029
1.1751021120163607
-9.608225054318417
-3.9272425016139563
17.5057729321766
-3.2329814349713275
-6.096313749861137
-7.116839653817662
4.698232900049293
5.937935613749207
2.9209402954468517
9.541621069519053
14.993018085253905
12.889561184922448
-13.848681725187665
-5.993822072691355
-11.326861067130952
3.082793703748485
9.271361813645784
11.268571086580776
-13.099611799419224
6.422517015995817
10.354745837951514
-0.15292877650331652
6.124014600844147
-19.233911553704065
17.560415649755026
-0.45258846246035045
-0.4650847511960367
-1.579728006862124
7.251271985668774
6.354456547785077
-2.992794172607082
-3.6584550379749676
-2.704653385416157
-8.059684591818106
-14.215951847516076
6.262825353278877
7.789237023770105
10.517701492846248
-7.46323718489106
-13.025515852305032
4.984225858544451
-17.65665172950523
-6.005824395775426
-1.26981441574324
-1.8558528136308847
-22.10766510742395
-1.9148491797301876
1.672835752552288
-14.37129353360295
15.98474820706557
-8.671027593848446
-4.164610682594241
5.363000869756352
9.058570898495335
-3.148923870129549
11.111617914710722
-7.591605892421313
-0.7803147719176955
-6.76569297256509
-0.40806511035650056
2.6981643088751843
-8.411824987260921
18.685901672923592
-19.007127217513045
-1.9902608442691367
-2.269042499943072
21.247689426760846
12.101878108041499
-2.276479242790376
-5.470450431908497
4.37797991016442
2.48699031183497
-15.819495001131624
-10.522015553563216
-1.7606879414946093
-17.865308298377197
-2.2389125035548507
-12.528251860920562
13.786209355330904
0.3611771240585065
11.298967727291245
20.150820365755095
-4.897890759000818
-12.032506787236802
-0.46291459718116296
0.7834225904685278
-8.132712104008627
22.51896952670432
9.482575676681355
9.348352138375953
-14.335403525147141
10.443999706940753
-4.791751359482344
12.130517305078762
-5.982116803102579
-14.10618306641146
-4.899899363849683
5.2972638799891305
1.0703052057946654
-2.0317439625901406
-1.1432567939130829
-7.694672430584289
8.542526467350905
5.599017779673635
2.560198209039337
-0.77958074696562
-7.665151713467024
-8.10383965088743
-1.3047670772153934
-1.4236237891968797
-5.227490868098801
-0.7784411776373316
16.149733339964413
-3.7961221371553466
-15.02993919287209
4.28532592717921
-3.82536090789112
-9.94185546993729
2.365822148109076
-8.933285108748736
-22.67827663240048
10.119153409944182
-2.6243885057144962
-5.093923185097627
-14.38929910539168
-5.262946124263484
-6.316501929324045
0.5621948020537437
-7.95564389195992
-4.5495948946961535
17.547212314791626
-3.3603463017933097
-6.296271919071842
-6.442344951940745
5.512320525239172
6.2022876089286205
2.5468505317873644
10.22087058168001
15.732792809132668
12.720236188256
-14.486846498970653
-6.618239585961571
-10.176077197083883
2.7969092909372373
9.245371744800066
9.942791207149536
-13.574423655474627
6.564905383763072
10.668774503408232
0.4245142442350953
6.784969692388798
-20.17854048492222
17.760691664129343
0.026185637124422675
0.07960885878899951
-1.2854991352826834
6.71481860298934
3.783561410000733
-2.5890499161179155
-3.794061680184378
-1.751561165638921
-8.06463401631653
-13.055445880351115
6.609395264263579
6.79845206384378
10.423237983553987
-7.3392936861335025
-13.14927709422867
5.347362896887981
-16.96108187731468
-6.8955722029936375
-1.4803622809860157
-1.8655337372268028
-21.264698631336767
-1.3045787061700818
1.9403873738080637
-13.25380807184395
14.336510740740998
-9.232213769748785
-3.5001846509260406
3.512537106330115
9.008275329033882
-2.716133384059675
10.230414012295759
-6.867147835437547
-0.2260731809358198
-6.420283638863617
-1.1136916808129997
3.2522082662809915
-6.884193230256085
18.105280396709333
-16.951386859533713
-2.9232842722760313
-3.2816274076885597
20.197173938182893
11.352626717904162
-1.5329620397730261
-5.330416648701286
4.612022899837375
0.9164573709786217
-14.058288523012465
-10.250977235269517
-1.5947302971322475
-16.396596693631118
-2.4874230016266643
-11.180196191741311
12.683275580734058
0.9102860207094309
10.27036219919414
19.2409292627261
-4.915564527912759
-11.911407303565149
-1.3908427366226586
0.35233284945996707
-7.823493533729061
21.21343232914756
8.651264638151611
8.57513658787539
-14.067947112540718
9.323700676095944
-4.130519411928826
11.470653501674294
-3.9600530660036988
-13.468472406439874
-5.144028641092771
5.21495723222919
0.8154949332502245
-1.7088261146769748
-0.5444236573763731
-7.44235957496926
8.227688682682704
4.935059437505268
2.498192007326206
0.2650784310305814
-8.01677083927947
-7.893741401193989
-0.03658846893832155
-0.4773216267472745
-5.259645536029256
-1.8596783363653127
15.47118768147313
-3.8293155090916913
-14.372737417018067
3.3517271501732973
-3.3243734408561867
-9.063286032948017
1.6170677571796959
-8.471683892042718
-22.265740366693084
9.409227628503746
-3.0034887467074705
-5.029541752043607
-14.251057355077526
-5.705473755154038
-7.2854577974513255
0.5463590463104852
-9.033301129282291
-4.127652285939285
16.509182831543658
-3.8578063995231475
-6.4276548978617605
-7.614359637792231
5.064165901366749
5.298428747063915
2.688136359508324
9.610844652016082
14.724918734852686
12.491301150174248
-14.138569130527356
-5.76719091875667
-10.103765158115879
3.0550561012854187
9.678245670828245
9.829666769383312
-12.408807730299143
5.392661915068686
10.657422253552417
0.9349962622333354
5.875585635179284
-19.38353293652656
17.826043949495602
-1.0692275125009654
-0.5380932919512068
-0.7006036703099986
8.473381632453009
5.804689985421928
-2.77810841210638
-3.336366597263683
-2.6066062063059428
-8.914188168197619
-16.22070569580079
7.377627420142773
8.434762166976025
11.739776116346158
-8.638317778447853
-14.833316574895642
6.068314031478696
-19.70540815048961
-7.804409529765019
-1.5041859436782885
-2.252037172863539
-25.51914675170546
-2.3747305430837145
2.5972022422905985
-16.234915001822557
17.24349880453443
-10.331267113702186
-4.509350587419557
4.6590172304931405
11.327331499763394
-3.986899914865395
11.522017965233939
-9.03349797849644
-0.12977265219501355
-7.867937718475269
-0.42414974260373345
2.921881878447837
-8.29819687362689
20.63494012778492
-21.0275554294582
-2.6343063916630753
-2.8360025658402708
24.437863671239704
12.68349110023817
-1.4652027649960577
-6.813076282075504
5.441810633642129
1.3497834719338062
-16.450701586210158
-11.74679923971921
-1.6767597365265585
-19.290183640231323
-2.6140928345961396
-14.228507516730415
15.333650642915842
-0.15206459096149164
11.828347195160823
23.400865936306936
-4.327212228854127
-13.550106270615116
-1.41100134705793
0.7089200365170094
-9.715639573903617
24.731174085444376
10.11015742375791
9.974366486551956
-16.758586675720725
12.066023118741525
-4.4653385611372745
13.358291716693431
-5.741186163611605
-16.196200519548796
-5.200052455344341
7.021546340209121
0.7994840073564099
-2.097369166087791
-1.3452492035788732
-8.682235937107516
9.158513001816605
5.500858567728526
3.16455588357919
-0.2618291571680443
-9.07139694834354
-9.056512095211565
-2.1051063078644177
-0.9753860001187649
-6.128141220819939
-2.1568905408626695
18.39466906498721
-3.988615990913895
-16.803640432431788
3.948700317537392
-4.222474198251251
-10.259059580231954
2.158879684857483
-10.219550351788863
-25.847209345265203
9.964275327808544
-3.5448379447938576
-5.949980324579713
-16.270549494511144
-5.734117912795445
-7.962396471170177
0.21560888928718344
-10.96385398102821
-5.0175235520850325
21.68078647471283
-4.854253449895841
-6.939462684565347
-7.539187912397952
6.035489836093965
6.32062092883887
2.267777948619366
12.12717206150536
16.68182960472598
14.558338405424513
-16.79123752089286
-6.94803721429827
-11.763705559093065
2.890434771289093
10.58069747030722
12.30689034067053
-14.53763056219249
6.978283177706279
12.131584575903736
0.2540163111346381
7.570802728019153
-22.610709807821536
19.48192649168765
-0.32339309795259474
-0.33320601702780533
-0.9488592747339265
9.668965371002134
6.650796952531466
-3.035152622204352
-3.7192384617541236
-2.2881378045134895
-9.38526478479748
-15.630787693246754
8.18151139729413
8.60072848364954
11.740087088413626
-7.902425948628678
-14.456605245081551
5.556802861142014
-20.17637572592733
-8.172693477290029
-1.7478400734515482
-2.2527170953520694
-25.929306367154584
-2.4538219377713824
2.3356509920649615
-16.962508911888616
16.712351161371522
-9.476865518479205
-3.816690890063506
5.2481982657519906
11.298641426546
-3.7116004068437527
11.869532492864135
-8.143181407277861
0.19915557944025827
-7.717619488146028
1.014177849901443
2.7044519609471815
-8.063719853948554
20.994985944227853
-20.428828408339164
-4.054507843994727
-3.959738676035098
24.669824769239533
13.782055662774086
-1.8390208923824134
-6.318809629473692
5.777924773449797
2.8340659414563913
-17.246359317379188
-11.414561491152044
-2.0479449565617953
-18.875972033753087
-2.436584778531983
-14.18099784454992
15.22742298501394
0.14319338120695616
12.031439589809565
24.221628781729255
-4.521012324061937
-14.404915505407377
-1.8949101012169096
1.1383874881763698
-8.927209732089505
24.68809822204975
9.58012363202997
10.938056302505496
-16.635568995008143
12.518979373386504
-4.940604452975665
13.075763263951195
-6.278272828739223
-15.794309781695183
-7.039611937468513
6.432815401310524
0.7035174788818116
-2.3380472774032346
-1.6626934958874338
-8.787978590704002
9.959166370461245
6.103238415318657
3.1359488768776123
0.07066574415725063
-7.70905844467956
-9.45898112119405
-1.6700156398878088
-1.9835300672085492
-6.153213078959537
-2.0802949707064755
17.090133420920573
-4.40629803396383
-17.180423266125924
3.622035267785193
-5.027029172610661
-9.815611741993903
2.3207895064120807
-9.267185098555514
-26.3615379952951
10.413274222681574
-3.3346979043078515
-6.220847566546392
-16.884815404447288
-5.918076801318328
-7.132380064871934
0.46633569617446946
-9.98882099405072
-4.84599270488903
20.278932724903925
-3.812935890166066
-7.72730382705284
-7.442873909235852
6.030868109027637
7.081996895588313
2.368826436709239
13.053697811652793
17.43064742346586
14.790272080022012
-16.26858820486578
-7.906568785904239
-12.375702047577791
3.933376416915398
11.31957253481608
11.632945563848649
-15.443957552382214
6.7253013428764445
11.413390645738382
0.7658068557710945
7.971082111923772
-23.066852667920138
20.322055415435887
-1.1126313946145234
0.3871009060283656
-1.109735815900833
8.219199115269422
6.274831182560395
-3.5841608538815977
-3.113032872548628
-2.6660609135343343
-7.90087915205492
-15.275325411113116
7.768116230373416
8.2300748145702
11.246000738639642
-8.087058814337384
-13.775336759357208
5.456028862722653
-19.454194727106273
-7.052404965093815
-1.7935898612238226
-2.670487732413169
-23.745784825795017
-1.8574176380097305
2.4447188618126217
-16.24971334726006
16.47621729583243
-9.313489230902954
-4.107864002807315
4.893133244128904
10.792959081358788
-3.498692349170836
11.771170603785214
-8.244170856540517
-0.4431394312592287
-6.6420810455506665
0.36013443359441516
2.8224553449580707
-8.0117487995283
19.576147474346616
-19.174840334487897
-2.8140015022442837
-3.5914562874782283
23.596141765131684
13.300628883537469
-1.5720729019547093
-6.763154630058898
4.854602040642763
1.8927841996484682
-15.8203430738868
-11.399170822157947
-2.2013029986307915
-18.717047319633306
-1.9753625608321024
-13.137079704417914
14.814314742961466
0.3269222218390428
11.447223451411874
22.30837263604676
-5.17316910746557
-12.985521347710192
-0.7351142166907194
0.8772243096422178
-8.766903111956372
25.065966647891436
9.277776964252325
9.653591148484827
-16.02803807357256
11.79182213544496
-4.858132746235229
12.354992422761503
-5.712483201477012
-15.332699151379655
-6.0778501809314065
5.730572659381304
1.5684697143906852
-1.9622317647798178
-0.40288457257679433
-8.04986910135501
9.288450985003864
5.574983106400109
2.819096907904784
-0.6600032428502688
-7.891813918928884
-9.085200841370366
-1.5143878690611332
-1.7060976416952147
-5.80047472296346
-1.1364170272706249
16.370694984360195
-4.18841228314532
-16.059741676978945
3.827456084222611
-5.159123656864143
-10.357547522055404
2.386413023207068
-9.88382173727739
-24.822546380622246
10.11228902783144
-3.2073773115410957
-6.450909580555419
-15.450971306585924
-6.362620149250406
-6.602319951396504
0.3541426434463613
-9.432469904100932
-4.8938565558062885
19.845930239087906
-4.120698502700209
-6.297836078444974
-7.010509804890535
5.407451910157254
6.494130585382919
2.5424893242632027
11.584530968345842
16.36306067431708
13.307146990210333
-15.484362180852322
-7.181378356134792
-10.978735889054155
2.435476057468184
10.815105659457481
10.739057771348003
-14.292632595414828
5.682952678838495
11.290181689210648
0.8125035546807081
6.064093298831926
-21.290493175834325
18.63916165985191
-0.35074406394125185
-0.09622915912823096
-1.0026838971651333
7.930334488563668
5.8751271044686675
-3.3062751045258123
-3.353484248676038
-2.9804190977864744
-8.408965637369738
-15.882434099364056
7.711485656053073
8.835133545400161
11.937001767248118
-8.578724771614926
-14.094845795323913
5.379793239996191
-19.439277140914268
-7.1253062627945685
-1.5932085766747612
-2.3547282419911415
-24.35151481529964
-1.8346768922482626
1.6558056244337254
-15.967634770421183
17.448726226494255
-9.167021829069935
-4.511972058883378
5.070963041072861
10.551200147691778
-3.126987748385736
11.824230392327246
-8.620127811964817
-0.47261974056329775
-7.669230445562676
-0.3147416779266752
2.448785809284765
-7.901082421517887
20.30476831916491
-20.09460106843961
-2.222157130109068
-3.508520005169942
23.354264337015962
12.998643029428107
-1.7585928923674667
-6.199986010628902
5.475309397277593
1.609760540688835
-16.70517376697575
-11.771145802189974
-1.7594376787666623
-19.11619331052503
-2.6700049742468464
-14.077666722676769
14.95144180134497
0.7904527313256722
11.487031207181186
22.61740192176456
-5.267171790221122
-13.460822512546919
-1.2178078708337925
1.0309195574590317
-8.91653467993336
24.576932907129837
9.614024856678427
9.534045800401165
-16.223076091811897
11.454144151067092
-4.497756656774166
13.380365287249033
-5.361132720266458
-15.84026296176441
-5.235357528668311
6.529515333566023
1.4202603479282956
-1.7289070312166843
-0.8218351047231268
-8.791055079324348
9.302871040259427
5.616306066710658
3.2872547536889565
-0.1842127054067194
-8.690054506545481
-8.309490531541126
-1.114864751161142
-0.8116577397244434
-6.442546299954233
-0.9004832426031204
17.12937367175809
-5.053972934944415
-16.9588382912636
4.0754642629442035
-4.494333347969624
-10.53213453925313
2.107903461315116
-9.877032867059652
-25.165461570792708
10.406854609821725
-2.786033006523446
-5.759542996480507
-16.14028342782018
-5.285880250459575
-7.442190478245787
1.3600547113156523
-9.73065982235409
-4.983231194889339
20.250393684790968
-4.234733795085627
-6.3386809906367265
-6.504916259915795
5.885741936653781
6.031144987176643
2.6300248679842646
12.266466182270849
15.340724127349556
13.878894286052674
-15.980171572851424
-7.273691145171711
-11.58777073058254
2.412707004334211
11.076831374477635
11.172201553938722
-14.576982019785053
6.781216475615835
12.196031791555871
0.7258106748980954
6.928467864049405
-21.576316731171612
19.184059046205945
-0.4461618549540486
-0.13479219339436227
-0.8112993650015546
7.765148174091325
5.432043479365133
-2.9065477752646993
-2.568497533048896
-2.8042310597942746
-8.007830416448545
-14.280364899546298
7.299185219597925
8.093370833051733
10.021082020803034
-7.217686660925571
-13.105493001761188
5.248046748707451
-17.07145953798342
-6.935698383768948
-2.11959237720575
-2.0420278695423586
-22.1425983941742
-1.9587091728556023
2.564086009473548
-15.206346682028121
14.984058010193053
-8.776791225311126
-4.428730132081846
4.460918444655457
9.959174572788177
-3.636253294188787
10.946165735810535
-7.594868858402894
0.47651083285333473
-6.256892710171634
0.5520571339942042
2.0739021949826646
-8.106228490928874
18.342131447034433
-18.700550031276446
-3.518236126337638
-2.825183402402872
22.27881981606947
12.773956539197835
-1.7541255902074446
-5.595171346760856
5.481952530764932
1.5659184564777864
-15.138704818058862
-10.096655688502477
-1.3470234328680135
-17.497981454929793
-1.8614079349249306
-12.944134316100284
12.868197247690636
-0.030606225349612885
10.982865097716422
20.93523319653271
-3.9821411598813534
-12.413053037854201
-1.4304863823482878
0.7984063309172839
-7.974130813876001
22.27484945683739
9.14617793861983
9.272374406936414
-15.737652011551798
10.99202338961101
-4.320139259250502
11.568554885143952
-5.396979526444823
-13.578742336328009
-6.029689030657201
5.739781582281305
1.5585163073338761
-1.8543925519725686
-0.8709454796229958
-7.768498698190016
8.043630938328725
4.947740963728624
3.010475298049928
0.11454945262450517
-7.753739369376619
-8.830706102690174
-1.8344268858410224
-2.2402935944548137
-5.244790307417807
-2.0349724974185732
15.99527290360967
-3.6829645073391473
-15.736759685195324
3.5219055391585763
-3.664709738448888
-9.356246734757955
1.6085282584228542
-8.56368545988244
-23.245161023318197
9.540510197135387
-3.8812844340675965
-4.875539909559986
-14.251231954259534
-5.611407485045592
-6.424093231539845
1.1381936013311074
-9.002366560660873
-3.9068850831114035
18.994458942541247
-3.884593933085357
-6.576752750910903
-7.232089896920832
5.891952132595088
5.895498473336713
1.4044051235812403
11.208367092073049
15.409869490337122
12.70268535263012
-14.346809640014355
-6.476450166490551
-10.362508424986256
3.0272182440978757
10.049988515340887
10.190658866276076
-14.375337802108
5.993135867905202
10.523429417673146
0.5006322360315768
6.883720557262005
-20.492262943329013
17.637784735177927
0.1444438292653684
-0.5428692873038413
-1.0101431836239165
8.14143625642576
5.034891853617976
-3.253801546026474
-2.8650960342482286
-2.3668115618772476
-9.145333246913681
-14.803692091622446
7.301712118068684
8.222994605169585
10.808346100178337
-8.34547904404928
-14.298153439016557
5.852128396945298
-19.05370315789587
-7.050706853722691
-2.525317527945704
-2.4627405898190595
-24.33674846026694
-1.1862413940635366
1.9476012947907675
-15.46474671118799
16.602945257237334
-9.249911424325367
-4.614285932815102
4.624977375848666
9.937078826667785
-3.1754902846466306
11.02959284376332
-7.8270508966628505
1.4746971899537247
-7.389113954879249
-0.3576657707696697
2.4701756604299123
-8.549744856495543
19.72334006460018
-19.568277385131807
-4.1009213637325015
-3.8313039274980283
23.076252653448968
12.857069132806835
-1.7074592923739091
-6.346279121217191
4.8508102178530645
1.444692820519175
-16.552677410501634
-10.776424925119562
-2.173529629068463
-18.595486919954773
-2.9227394476090716
-12.61544438821541
13.457044706209293
0.47622351886726233
11.100052015794011
22.61158656776927
-5.200209316894391
-13.254288628500225
-1.0621231152991346
1.1803596220766188
-9.361180889133156
23.64880398221544
10.276912743076918
10.4867577750498
-16.555552519787533
10.673583232403406
-4.89139347042442
12.510049381117085
-5.393322752971472
-15.29762223521292
-7.0146788145390095
6.466462947435658
1.5040096594505787
-2.0244079127927095
-0.7198754212476236
-9.253360207740519
8.95931143950858
5.680001953597503
4.089560878609282
-0.05576579642308538
-8.851649540115647
-9.290090691349723
-1.4442728886851393
-1.5951094034024769
-6.13760767926623
-2.0657910977514193
17.455920205404
-4.414547127108399
-16.73440924222658
3.0902251933283975
-3.2354716773159233
-9.686662826197054
2.213613596594555
-9.485822119475177
-24.72829161155259
10.18960947308477
-3.9001488004295752
-6.032404359801981
-15.959125584944202
-5.821673574476006
-6.769050976435781
0.7107346322761463
-10.11519857235712
-3.2759114227302875
19.423766373985814
-4.442318691973114
-7.550078541643692
-6.623966524168295
5.523228155835518
6.077785054028403
1.8163175653579797
11.876621890477969
15.38907799180051
13.064418983693988
-16.196035937747258
-6.1330326641279695
-11.977652001025184
3.842522520621644
10.014001071161708
10.29069958686004
-14.015742923626464
7.128200849559349
12.179129829119093
0.6643150825064722
6.611511020293126
-21.992810425109138
19.509421277509276
-0.2331143217297958
-0.08693250967373628
-1.4919736432789112
7.864071061118671
4.209906830684797
-2.5975345126424605
-3.5019538496777787
-1.4956297032322747
-8.048408009169265
-13.363679930754218
7.0580748988148905
6.232208631773402
11.34601641817083
-7.318062743019819
-13.712121123246083
5.352465492131869
-18.10755108500451
-7.391458231387693
-1.9505635918896016
-2.2107253884914075
-22.4681027397217
-1.1705320928645335
2.047841797017201
-14.939975773061393
15.05368131314681
-8.660655767481295
-4.339258399593004
4.217078632978309
9.386868044628157
-3.75947264856921
10.083381953547851
-7.24104878411159
0.03086950505612799
-7.347681963670508
-0.8332621389780394
2.1815006537811548
-8.097841292423535
18.933123260452966
-17.704500272707076
-3.2927604937047623
-3.3756717182997913
20.85934308704303
11.978129419345903
-1.3700237584458197
-5.819496898365313
5.219341978475619
0.6601711160566314
-15.562043702460201
-10.673269646750965
-1.6502270910999823
-16.69142435555468
-1.5922337997238032
-11.72844557846708
12.261509190918641
1.1548640979597824
11.296444693923481
19.891444114298796
-4.535494198814909
-11.52217684674358
-1.5688467424646197
1.3309177516521702
-7.438516188956166
22.03025711773776
9.232484776158735
9.481313299446821
-13.972056166623744
10.524665724784107
-4.21886492759315
11.56032770780244
-5.252499868428884
-13.824890792622876
-5.891439017051002
5.438097998211458
0.5605537015022354
-1.591546593810186
-0.6027846543276196
-7.473792240088358
8.574712238599972
5.196445419049653
2.8705559474736964
0.12711680519963914
-8.61233843458846
-8.25396044232546
-0.7278750639144398
-1.6595879582932676
-5.302337496928548
-2.0422086231498486
15.641320777782097
-4.153064017057128
-15.222753192931304
4.952633480680487
-3.8874148201805365
-10.034668139894793
1.4987886707665363
-8.718767127788508
-22.95817678543016
8.8674206209191
-3.328193262297127
-3.5818142766699355
-13.892191823672844
-5.843023631188768
-7.132369653675178
0.8046476254975314
-9.201809061068154
-4.395864521389871
16.389268449924874
-3.3893951028806035
-6.559378693370965
-7.312916224049559
4.71684672610839
6.056693357081064
2.542763371805904
10.302659872295239
15.057241152156445
13.141447901144538
-14.714095265088709
-5.17727994167693
-10.284220105279491
3.0993975425584512
8.969204334671634
10.30746625095962
-14.392994456346917
5.834112750492208
11.832358640683925
0.7163653530597074
6.390594336281726
-19.189436908175388
16.836628918016856
-0.23059486184183242
-0.15979840522673516
-1.1322693293020787
7.650246598492938
5.972908776775978
-2.960505215188808
-3.077576223172224
-2.1878724092528383
-7.686250419977422
-12.352878946555284
6.043078430254148
6.886957075438441
9.143991891371423
-6.856113834910684
-12.462142766261664
4.561762170328814
-15.801664253335977
-6.056496415368914
-0.5952873994739865
-2.540838347684901
-21.016532581258627
-1.9614424531584678
1.8251564758353924
-13.631900382537541
14.364419440063866
-8.42620321637272
-3.2983777512730565
4.503559648583179
8.968630834061509
-2.83752779838524
9.999327800777062
-5.741868441627528
-0.32160004527637426
-5.790147005063673
-0.48569444806326273
2.3868360431674285
-6.449915141509913
17.640326348614323
-16.241728265651627
-2.2866625246825936
-3.26299326822649
19.332592691537197
10.750907490957541
-1.1987129496122968
-5.311227636550728
3.8940822883710244
1.82540652199547
-13.649407556697057
-9.492737540768365
-1.849394385491319
-16.228323030305717
-1.867510547461939
-10.929044568311031
11.819486814174171
0.359082577698627
10.106416182530849
18.839592365992022
-4.050595851885889
-10.66392748262362
-1.0524356886398545
0.8545336648098997
-7.644398414028284
20.61704694740961
8.592374684297303
8.575205749790028
-12.990626482557188
10.053749486101404
-5.039025710229037
10.554206472555197
-4.664620567648184
-12.259578982807525
-5.425418438247991
4.61942221967292
0.5534783886405864
-2.439718871362241
-0.3929365690425564
-6.790049459476328
8.001295403549014
5.3288074669359435
2.3659202699327118
0.14691142458201367
-6.663660053856237
-7.915784007880006
-1.534446717545033
-1.0107493905178293
-4.509399902466799
-1.2908097022247813
14.666578695959727
-3.8359874559592306
-13.58141108450357
4.294769157984925
-4.013565346168988
-8.936583627099298
1.9862709709552544
-7.697731995199749
-21.22242503401403
8.379024520275674
-2.6212242839813302
-4.304589307563554
-13.23860107077203
-5.443077521118748
-6.09711153529414
0.7583406211110431
-8.280262994391009
-3.9525458869227608
16.10921442231528
-3.9208161608358805
-5.6146588909893484
-6.386943811464281
5.075515824526812
6.1669279567293325
2.063510880124212
9.01881807594819
15.011999452291885
11.813326948049088
-12.938454935809386
-6.095248696216836
-9.243484765777895
2.9737341672838897
9.539904318059904
8.680998484472406
-11.81938499990951
5.50884581767188
10.040890974805286
-0.16786921376106506
5.999232176589083
-18.807702454875336
17.257480298204776
0.3371455747325051
-0.3705878158138758
-1.8467198194007366
8.994956445362202
5.542826744046142
-2.822411127365088
-3.9830471617771206
-2.1834611071315937
-9.06781431213331
-15.295742801752938
7.584346151813466
7.187270167582262
11.069243458055675
-8.110735602475668
-13.639781309295202
5.736363911680765
-18.24646993608482
-7.93690383966849
-1.9745833849063095
-1.8398247385149817
-23.98616729634893
-2.1419922835239693
2.68778031163823
-15.396692665195996
16.08939627439196
-8.73721284764618
-4.789401888634296
5.226379612568485
9.352826750365779
-3.2019555384414082
11.289785480556835
-7.294552295430298
-0.27384558155647776
-6.77396508731609
-0.3033094570258767
2.662925114168564
-8.193706564826694
20.39688324862707
-19.342349832469274
-2.9316885648303797
-4.1823511103817115
22.743775400730364
12.980696396341145
-1.4676295241394304
-6.712822210663851
5.45463572128851
1.940955577261155
-16.564970810030083
-10.78007001862893
-1.1573077631877309
-18.750436253801166
-1.3979952526753923
-12.887058006237103
13.870401217995207
0.7130936900343336
11.876832292878422
22.894691715256364
-5.651181931629469
-12.609563458606512
-1.545996208698785
1.5348449414264416
-8.588955128105875
23.716534172682675
9.684958361376225
10.089779208197704
-15.213324293956816
11.56382154975622
-4.58133108796181
12.44023978391365
-6.513382786278927
-15.30909236490131
-6.107273399510107
5.650085537127857
0.36438858556418796
-2.1899595476203193
-1.4394766407086677
-8.493638121387349
9.400388966219273
5.364125692076698
3.1866330828578606
0.44095005182887403
-8.205325029442255
-8.354214035313687
-0.8835558240227277
-2.046379951857245
-5.638640651531939
-1.9282611793118465
16.093421490121933
-4.5320643963787175
-16.863302711440078
4.7530807187458874
-4.257371368317496
-10.68097540649418
2.115102452749157
-8.707622896682048
-24.6574234438385
9.427198288652614
-3.0918464229039904
-5.240690789729949
-15.691844741452039
-5.816633203092884
-7.185302997757506
0.6963117857753625
-10.198103606246931
-5.323081250929423
18.082582107840416
-2.9115251812172147
-7.028907960537495
-7.859297080785008
4.633251198024242
7.116646688528759
3.2681650529125195
11.117699766994221
15.744369014443262
13.226078712521748
-16.183291191992772
-7.232366937228872
-11.764135822167752
3.0075705220114264
10.696156678391098
10.3952253540259
-14.497060914549508
6.789981184433297
11.537740890327363
0.6686655654615721
6.951335689624426
-21.9840191156236
18.791869409807173
0.05381802548303352
-0.7360806272426934
-1.8696439296303127
8.275160074782702
5.066339583534184
-2.431581817500546
-3.6854530868626645
-2.20082594222475
-8.653617157268394
-15.280315921922595
7.215383686391944
8.076112796931545
11.712037592309919
-8.708096611633698
-14.422816813035213
5.892906872767237
-18.505662460974218
-8.51732788229696
-1.5316035159823407
-1.8673633325794934
-23.695274319655763
-1.605386989004634
2.325282820374927
-16.063234276339927
15.918004088972136
-8.903845005525419
-4.687116784272102
5.009669200794764
9.752148013694242
-3.915817605066132
10.88028476557907
-8.213134949288003
-0.1790022650985316
-6.907862672512268
0.11940286246880764
2.9751424059993097
-8.44614611005087
20.32112951974476
-19.00234506928472
-3.217665505400894
-3.7599072775195648
22.769661682847996
12.999885179411253
-1.4764472951743248
-6.163180202304622
5.002462145890443
1.7730877598745456
-16.39698958867793
-11.12841273533591
-1.11776721528697
-18.804868375253537
-2.1344883363663874
-12.347413390681574
14.301513017964734
0.8541246731028757
12.610196911028456
22.873058350488137
-5.160865397343174
-12.831974840711899
-1.449721670003961
0.9424496978303614
-8.454653911372885
24.126263728973676
9.674509274187432
10.376719631972414
-15.88203491714739
11.991238718634083
-4.913477164503498
12.345496136834514
-5.655501164339199
-15.539581744133155
-6.15542030284709
6.563644288237678
1.5326457026947484
-1.8394941514785672
-0.8926924116034267
-9.00043177514946
8.906957530727144
4.603126063025111
3.039716135856979
-0.11008284474148654
-8.531328313124641
-8.991472252699413
-1.4916805748775592
-1.4432090430709994
-5.061520969699776
-1.1958456125111743
16.674883110393612
-4.091376021365443
-16.01819789843025
2.955416049227354
-3.4633841695933687
-9.493349036584288
2.0894929069470503
-9.360013114401996
-25.595029611345193
10.561420610800193
-3.8338670783409188
-6.068484489530966
-15.74343899389725
-5.948696015414745
-7.736496435420271
0.38655269853714286
-10.350223957242584
-4.740436588658729
18.58968680718127
-3.7462149058704064
-6.899587109144402
-8.887597167589535
5.306557066153693
6.8025489720111665
2.5966926667399752
11.632296885888207
16.65034526488588
14.199045357601687
-16.512126634870928
-7.1385895707671825
-11.377487640819913
4.021333206979708
11.344378989561017
10.786410940033235
-14.123948615045435
6.562508352847178
12.101587374183495
1.280600039645794
7.487905509692354
-22.002685348146695
18.655769459403963
-0.6166211578480378
-1.028249388694872
-0.8786597475614063
7.615053156879597
4.9860216342320625
-2.2473322131830225
-2.099473716427537
-2.6020301495863416
-8.051315414216493
-15.04228073462285
7.555543671300577
7.332146837165
10.595768354551044
-7.30273841294935
-13.460465749143049
4.952676412126983
-18.165082535344112
-6.889058229861115
-1.9606023273307451
-1.9276748646452837
-22.74720291514731
-1.340208726983643
2.2821587866958173
-15.552923330772142
14.708713235363915
-8.370500738424541
-4.469632134552008
3.970428005472756
10.307363153578533
-3.5196138169903026
11.105173922549636
-7.92242658685516
-0.7156442342541928
-5.7971466209156395
-0.24009132101443764
2.0625892942726476
-8.056646798729792
18.044025587130303
-18.25751787154369
-3.3570670127630007
-3.0565519702714
21.575158642126404
12.126400316655928
-1.7120308585263544
-6.37989826741828
4.977166867571482
1.7535141549916067
-14.666542268686193
-10.609104236467472
-1.077831195631518
-17.84981244819302
-1.270775987097535
-12.241152606562624
13.570949705142436
0.070783092811741
10.84012253040729
21.035022508709822
-4.6726326319616405
-12.26123438483185
-1.120646916457336
1.0157142488191622
-7.686999885399238
22.222262990942056
9.154935196933462
9.457751815614394
-14.30274029369388
10.082376042085672
-4.025587987893572
11.306795935115327
-5.612220700680015
-14.403486172940093
-5.470047143051809
5.774393282567211
0.5658420821479087
-0.5876717322349642
-1.54141040102128
-7.586541549509917
8.839108884717243
4.649300279225133
3.66231634428662
-0.7931729450150619
-8.57207228526242
-8.056568716846252
-1.9701072787661407
-1.9088794944641545
-6.003347026991633
-1.2045397841994578
15.565478706456016
-3.3690445870531622
-15.151684873092275
3.575748389511692
-3.9024302253666012
-9.16314792283194
1.7721872708535704
-9.76153845710605
-22.85713077909829
9.169050729529133
-3.2506781287532083
-5.3696720316604205
-14.254353223489698
-5.852652336760985
-6.795944597198519
0.8833516059119483
-9.170407070593168
-4.520799600633182
18.02863641776362
-3.7850923281437265
-6.597813839694724
-6.77015389699903
4.56458917991428
6.467664798952151
1.5352530272558134
10.744479803969833
15.131904353028542
12.740414200369663
-14.236408485618094
-6.430593175967118
-10.393932134033518
2.9249432208873873
8.694160318083368
10.748041650662868
-13.417517452620634
5.494057865216073
10.819814366868366
0.31133911074698917
6.429863141147519
-20.035809317005924
17.117736090500106
-0.9811736463982146
-0.41449315551053506
-0.5764110293550553
8.815406333714431
5.323086794233008
-2.7364956267125136
-3.412775404150345
-2.0027696100488415
-9.21442499789782
-14.737219070904729
7.511864539830016
7.706833629775739
11.39436286628957
-8.02935076925554
-13.86404574564262
5.496196649887383
-19.30968491162928
-7.968709140322087
-1.4716961929226227
-2.252401684646627
-24.57290891481752
-2.360536551907993
2.65948220158556
-15.710501822840449
16.1331163353494
-9.159611999675795
-4.396161754517616
4.467989396408884
10.578749613030075
-3.570906426507486
10.638020123271335
-7.86268908884148
0.004108238410677236
-7.960382440445434
-0.12731680338069026
2.12332691711604
-7.892150973315665
19.549259794778326
-18.975194071548383
-3.1748892711514176
-3.2167500366499855
23.059961590957304
12.66038552763378
-1.1418571500649064
-6.425298373710577
5.55114905761356
1.8873604057152968
-15.983699277283744
-11.035600087885625
-1.3855584645286338
-17.984221634407934
-1.9575643210051645
-13.121344261444529
13.82312078468651
0.8405686220365455
11.084713839928583
22.47503967600102
-4.445996820666844
-13.550539817065673
-1.6254648558296563
1.3760875285168153
-8.79303541625292
23.5420721955269
9.56050445198268
9.676394615735067
-15.3837034574339
11.542209636295725
-4.618367181730673
12.781456084237576
-5.728382513165044
-15.21390289716716
-6.186426081909911
6.296280551746097
0.6026032884143396
-1.8224992828641788
-0.8436661259373007
-8.279300669709684
8.808940239160783
6.0853681373104065
3.216919133856907
-0.29883704433491676
-8.180781340652336
-8.506390905483949
-1.4165958723836873
-1.4359553907646643
-5.548373329845033
-1.9015930798681442
16.05152830091356
-4.2415951780400984
-16.30002525639031
4.156202093974765
-4.339987014022722
-10.23621374635468
1.9400806742057644
-8.418402233100638
-24.327512994737432
9.096353818099425
-2.6889848439560087
-5.0073883131416075
-16.07213109475157
-5.1551784676581764
-8.108075433188702
0.8683218939541906
-10.445311605928534
-4.926964633363282
19.273455091908776
-4.052792129650564
-6.8033172132950055
-7.185639325438418
6.148306983300478
6.242148189843632
2.137152113296276
11.548798338310315
16.045735909387798
13.940159697289632
-15.448078545898596
-7.225266167454183
-12.069132347464278
2.9312520588278717
10.53268891119214
11.657032239980264
-15.247502931006254
6.905769126104507
11.802275883470168
0.6264413473344215
7.815944743235079
-21.201403495497946
19.07393047257357
-0.23394773100045282
-0.14805076126178063
-1.578918276737566
8.271881305943426
4.9922615397816
-2.5549724325151653
-3.031458326910132
-2.753629998205257
-8.72619636499544
-14.753883925388408
6.761326770999083
7.753247237632787
10.392014060455773
-7.665640853479324
-13.120265314600166
5.7501221132176905
-16.694179257998037
-7.269979603604008
-2.2972425192962587
-1.8570739861889685
-22.999995140668798
-1.6131274163210108
2.0515661024517904
-15.263927322744014
15.352853582682489
-9.144774234267091
-3.845905306990807
5.278616794136849
9.201657060443228
-3.1147211954109197
10.688270667483568
-7.490274836443534
-0.42722977779596694
-6.765134332309641
0.46629956449484433
2.9404372952442728
-6.5057836994369564
18.700205801586186
-17.86851909645184
-2.2502356403492163
-4.00111415657518
21.10050111547188
12.397669901293375
-1.4840773352863668
-5.9764323632292085
5.323852238725272
2.442669219314737
-15.911223742855173
-10.7184595756691
-1.1882174662079388
-17.5335302586237
-1.9233019889199108
-11.730939431452635
13.58447422642835
0.25224327834807697
11.047132669569196
21.574007471386572
-5.555035023536855
-12.350274229212111
-1.5574290485857731
1.1272439902738245
-7.505099739694228
22.537580436897287
8.477732102452194
10.051202068173966
-15.116322771488024
11.214515311142613
-5.507023377684046
11.615588157967828
-6.335924433987033
-15.308705540311887
-5.300715275820152
5.050251966372358
0.9239230167412468
-2.3127414666654698
-1.1645826155792633
-8.220298908628568
9.431662291577682
4.880985848185508
2.403993373902246
0.5149161743073751
-7.809863559011104
-8.48022872735484
-0.855765538350503
-1.9222184647189762
-5.453019334694239
-1.3394417825096478
15.63397597698512
-3.6858750097049313
-15.122986504702565
3.8259898859042516
-4.119752787817316
-10.287660195947215
2.2622622722695467
-8.284965017621989
-23.993316843605424
9.10180312600944
-2.915935187567949
-5.5627896049296846
-15.077686463365087
-5.528526042535169
-6.182423919679355
0.3130892918608524
-10.046129659645784
-4.253408247743383
18.302437096109944
-3.0509593874154186
-6.693201243267781
-6.9928676315239
4.706101879372478
6.322175522060904
2.372968586786623
11.069325725368424
14.824765022030633
12.57256414112738
-15.744228237065673
-6.527435957125712
-10.7508846627597
3.767811567894609
10.817147323257911
9.571581708935764
-13.153792161566422
6.39177944636769
11.95007731226968
0.7866826571279043
6.70361453732973
-20.86761321333496
18.022320737159287
0.09094589431933423
-0.024946123242114995
-0.9350093844249839
7.433306871594049
6.092997140586001
-1.797274607113007
-3.1904173337235693
-2.594262316539697
-8.011006911330657
-13.401068131524932
6.367142227597899
6.959750863215068
9.18271169717998
-7.55324257392122
-12.23781205286084
3.861911693808398
-17.18951139291435
-6.887929446909233
-1.30614029682278
-1.758939290772679
-20.851764405857853
-1.1077837928313428
2.1267235917297818
-13.047434126987906
13.72332465492651
-8.586259339835326
-3.183822979649874
3.421270145341915
9.11230961918036
-3.1762203589656646
10.224259043207576
-6.181294426688993
-1.901673128960981
-6.555397709309879
-0.07429774067583303
2.764481322258569
-6.223385138833806
17.449067304541632
-16.426190860945052
-1.8000081932467142
-2.5981478413679846
20.26607826225101
11.042382007544802
-1.3812718772666044
-6.021210727784768
4.7060469858620815
2.2715005436286635
-12.985198269179667
-9.984567240021773
-1.3688842280714348
-15.76929971119293
-1.5482741524516201
-11.014244648881071
12.70478050107656
0.7395701372025436
10.094416297422056
20.16441044452972
-5.303781248918431
-11.535737929328088
-1.1072618827362597
1.1692821239030355
-7.567871781391818
21.387364903695715
8.099510527698467
7.871882870765397
-12.607361486263835
9.756897352055832
-4.0612603850651166
10.883919898782464
-5.768307479368222
-13.464634337928233
-4.975662890747534
5.011677433857675
0.3477762382961679
-1.4562057933245203
-1.2930761952034002
-6.993044077657448
8.548187704657852
4.736512927771348
2.0649550730169555
-0.11664638184192339
-6.807731716323107
-7.855046576006811
-0.9916148623128738
-0.6563889153977371
-5.253501097201492
-1.4279978439574104
14.037613910483424
-4.049484154260522
-13.846435235211866
3.5707201938939455
-4.277502346291105
-8.570621154243268
1.9698283634612417
-7.693455105998105
-21.841867646710746
9.085458079337135
-2.1146539294383278
-5.217361423425895
-14.183388541917882
-5.2743047422731095
-6.704813839994419
0.3471809219691943
-8.92748154279651
-4.747485064084236
16.53316270360876
-2.2140193308207565
-5.533452186226511
-7.045687235662185
4.882387520921643
5.737974230713718
2.906589238892217
9.37281341173043
13.815651775419653
11.49173113643201
-14.32799655287776
-7.532517941458211
-10.185520490308177
2.5177623987851954
10.019669008058324
10.424936520174388
-12.21244277021329
6.141223219793794
9.831279615772907
0.929996034525482
6.321969213061886
-19.074394844190802
16.824109775960522
0.02010718784565542
-0.6258780815118969
-0.6656861412099394
9.105962381744531
5.729169840569837
-3.533855628681495
-3.7862597429369163
-2.0668280861315003
-8.033409972282056
-14.061048039785954
7.758649712316375
7.184953872369777
11.070881889530767
-7.603735946017838
-12.739784977575997
5.371832207317462
-18.445451842103935
-6.603261622087548
-1.2427124022064995
-1.8888768231346356
-23.292575110936443
-2.104861850430447
2.211667279776245
-14.929792046278353
15.697741676228167
-8.189587005485782
-4.138240864188447
5.100222099492678
10.28784873067917
-3.216179131155433
10.724367157444169
-8.04647298538163
-0.5732199777528736
-6.672954623794171
-0.4520635029780559
2.3315691728717063
-7.5567756222926885
19.525927327230868
-18.372320630564303
-2.9798060194727443
-3.369120847173098
22.575092700733503
12.603008004637209
-1.1905845860868964
-6.3464968779163495
4.274231789888872
1.863811570094961
-15.428934466476218
-10.606489071057263
-1.725078308306715
-17.646272581970425
-1.9928329086645666
-12.454752070707418
14.003327523130924
0.16135466759361497
11.298646176672381
21.442947258832852
-4.093034513831644
-12.522289397999323
-1.307058938157929
1.776702452095723
-7.808710367905444
22.47180959533124
9.086613287269717
9.756573855169473
-14.655961804898183
10.994312085505769
-4.462659950772986
12.036846801681758
-4.57036194334407
-14.666234478663718
-6.1238786909376595
5.026468212658666
0.07676530695019494
-2.49040471673228
-0.8508304328606142
-8.290405484145207
8.807583410850077
5.813418438786479
3.0648986977742645
0.20186644045384944
-7.8094575679904175
-8.497611367504389
-1.0355692474419136
-0.7619616107367311
-5.696383218416673
-1.563598840674687
16.430439847500487
-4.129373141497625
-15.855960403897619
3.5221465650232306
-4.658897519925242
-9.024830325792877
1.430010778388615
-7.883803651927142
-23.171485018813
8.745993451942804
-3.2049624446891993
-5.249436673990481
-14.631239146182008
-4.812672899170721
-6.681152182036423
0.7350232031002395
-9.290118928427821
-4.2703813982627965
18.33040206009219
-4.98359958037773
-6.046203421362407
-6.337006522785227
5.638654205591093
6.2750906590085975
2.227296613528217
11.25425019785185
15.986580767378223
13.377812933146302
-14.832698534660079
-6.7432026471816044
-11.158625037328747
1.9896361657167692
10.669827898878433
10.160874810125058
-13.88339561940529
5.0665277960075885
10.289063152108495
0.6775012241773223
7.003479344048495
-20.19717369955918
18.92505050179757
-0.4926648209171258
-0.6798201324900944
-1.8629955203867252
7.967037373615284
5.670277480136455
-3.4120383727250845
-3.9765572726707417
-2.919345814441934
-8.981928590460868
-13.96190645308531
7.324684170453527
7.637199731380737
10.038073781673496
-7.0946259669971035
-13.937645610441319
5.0016062163627995
-17.75364776709241
-7.747444954760934
-1.256979878197131
-1.4271307110860667
-23.248829485295733
-2.0375320610549745
2.967065733770549
-15.3276228318969
15.439791770044412
-9.420572275995362
-4.4253625347155
5.344200331431461
9.73278948030139
-2.880501940843779
11.128149151549556
-6.831451077894112
-0.6130978591361809
-6.391358493396338
-0.29705307223644506
3.6334811502520554
-8.316179550197825
18.980966495084658
-18.526178179034364
-2.711568966839107
-3.867034686459287
22.5120010300045
13.258051396777397
-1.7424294065819446
-6.205023185202637
4.827565239823125
2.3376036628304453
-15.560545114712966
-11.742985433575654
-1.8232281649212534
-18.27624594120095
-2.0875755135391225
-11.744314271533028
12.66831558851485
0.3145080177057312
10.785744938376926
21.89083807284413
-5.681425822959073
-12.383199127634755
-1.262681109794945
0.4038625160828597
-8.163835329345527
23.722483233710633
9.082909250344729
9.553056554644863
-15.733364875249034
10.706562005576808
-5.1404931299123975
12.137628687933756
-5.9515698763019795
-14.271000771977787
-6.595298277606861
5.385432486620984
0.7977029255281878
-1.5306175680335006
-0.8441213081225211
-7.288900357691359
9.175851449413495
4.655492424837954
2.6599340865139744
-0.4663568987761729
-8.030272284632122
-8.872948656588473
-0.5147046729197093
-1.2912343029958413
-5.069188231128455
-1.5551010667504508
15.98786942626442
-3.2397948282601976
-15.9067331415286
3.884000003094385
-4.459591263352406
-10.089385513626917
1.5998594262813768
-9.028089433227937
-23.88438564122343
10.019141754109196
-2.660945309463076
-5.381622121197067
-14.60354482869694
-5.401956099860603
-7.742377787991721
0.7854733826061201
-9.347794047799923
-4.01760865236141
17.9462588989212
-3.6179934555967894
-6.0726106087890015
-7.557489589044738
5.579006704731804
6.7443361957312895
2.96673994478202
10.007790164897674
16.47117948520303
13.669817202374308
-15.170628066971604
-7.487316362583997
-11.307292950488264
3.2434112186193964
11.091908423389476
10.471460409463399
-14.055049018402906
6.279711457850601
10.469865790347969
1.017260236605074
6.935332733085177
-21.13431072217704
18.669346946123223
-0.31286924509018266
-0.7577014011719566
-0.973127308046182
8.301346979617064
5.3419617468931895
-2.9041668559221385
-3.5380428135012973
-2.2698034176117052
-9.625393107264104
-15.061607297849324
7.485489464833959
8.593996890882362
11.55269647175945
-7.847611412018549
-13.53220676711281
5.57968980606702
-20.230542413602564
-7.830783790841822
-1.5748596604765701
-2.1023747358033327
-25.30586705206841
-1.8581258194455026
2.4173891432615715
-15.9183110494907
16.29452900106817
-9.604554482042984
-4.3074406201957816
5.332632029307194
10.989837474591488
-3.8619599617671487
11.654432406128006
-8.246347700454367
-0.7579739143069717
-7.336501832122874
-0.014698124081485131
2.587796164971836
-7.834556350949717
20.013599293060054
-19.26726023357325
-2.4975550211393727
-3.333903605507186
23.499785087642156
13.599925650075937
-1.7707906659643433
-6.961626048112646
6.000220260785147
2.816421447362705
-16.593828323153573
-11.300967796695254
-1.1085236035345236
-19.608564704808064
-2.095162036580706
-12.979567985963286
15.073747533925216
1.0948732360904512
11.575753467248942
22.418433553417326
-5.917588955514771
-13.150000935260241
-1.9197505025954205
1.1747276390698032
-8.977849477234411
25.249769565370244
10.855003162788355
11.262909254603244
-15.114844552476265
11.328583489483963
-5.128225563093076
12.841091036367857
-6.224828225120289
-15.78186823579249
-5.751540629930247
5.619359333909858
0.5964535651737997
-1.6566961604759354
-1.0311105000227052
-8.01278453234475
9.886217067990879
5.8758788726433675
3.3396491347400103
-0.4049754948728815
-8.321529404443856
-9.104679616656089
-1.5218414351817553
-1.2032903791391643
-5.880440776787278
-1.339608545663901
16.289667640590025
-4.657392269689448
-16.804052727068992
3.675492487558759
-4.510467989450877
-11.094546872891183
2.3374164163189475
-9.135238053930815
-25.400243516189647
10.541606840933625
-2.230316118059771
-5.907713079593927
-16.813963723486662
-6.257692163464523
-6.946214622313641
0.6398872940948477
-10.490553778902445
-4.422365224949216
19.506809446147326
-4.0701486803955405
-6.8369374325403465
-7.4702238515902755
7.02347611157866
7.12538234347423
3.3112061395339287
11.012515503853463
17.1101838913924
14.318569108863588
-15.933597341899253
-7.493056657632547
-11.595777930310417
3.2716502506849126
11.037637801079148
11.175323362281906
-14.414985506820962
6.481319633084142
11.867261311335165
0.3934977910820172
8.166114935840948
-21.7504645905801
20.301321841346642
-0.9485903405885323
-0.41938306658108426
-0.9960758362412503
8.195873516900381
6.325072755204427
-3.012818917376499
-3.2521424148967415
-3.0773440551537776
-8.866177032083277
-15.430472572456111
7.814176103684797
8.337872139345928
10.829916477478335
-8.270411827487795
-14.22080102896388
6.747052214402765
-20.41558250779723
-8.213190889322767
-2.822538551704067
-2.330127317799176
-25.359253558971208
-1.9739571910181122
2.2201611574497226
-16.456582855701114
16.73886640156141
-9.449126411738197
-4.644193116976879
4.99497394576509
10.722689218889036
-4.129617327903247
11.541454470775523
-8.014467245066577
-0.6991021211112866
-6.930781088726989
0.3411475626540155
3.296034158149497
-9.51907004841145
20.51054593040028
-20.913529041025615
-3.272002306674676
-4.404372450010009
24.434024359498043
14.358131552496394
-1.7338609702646497
-6.67155308686678
4.710219693483298
2.2371316826524827
-17.251322857989553
-11.995680468595586
-1.581647805268912
-19.555326142930156
-1.885100779740194
-13.585720905737169
15.430840111687136
0.939466634566078
11.385832067286614
23.599207338485215
-5.549287724583641
-14.078770834352481
-0.41241363406149434
0.13364173708970473
-10.103302403830401
25.31772025324059
9.792195108683936
10.227473210221078
-16.587821991340167
10.941201146778612
-4.6188662724973035
13.645174770878658
-5.319707270685265
-16.50737326644497
-6.071826350333809
6.461603821341281
0.9436494113940175
-1.2060287710298074
-1.5659998772190244
-8.650558286437567
10.10309643877775
5.996047430865253
3.6499229116189875
-1.003725586981351
-8.4646132778557
-9.531139235728133
-1.82009571217586
-1.0756247455555807
-6.843347414815367
-1.2893258215721655
18.186206467164812
-4.111291154486667
-16.52298506601178
4.091088654175861
-4.591411461203751
-10.253375430132284
1.916159351580325
-10.157977083469007
-25.744523332779078
10.870777096962653
-3.4680499136456935
-5.6112736107113035
-17.08802121508277
-5.751345315809454
-8.599258182179348
0.6374521724504432
-10.495543160900407
-5.231201994337855
21.586386936945154
-4.118556383637181
-7.417256050492971
-7.824863910208851
5.85125148986158
6.801410455653649
3.4372623391246178
11.713550953633753
16.94515941463731
13.496587371524532
-16.025653291216674
-6.82748975312901
-12.142300153275317
3.8265331404564282
11.343538997034624
12.40905054888439
-15.38188958247444
7.023862721814329
11.718190308835831
0.7561971688704985
7.002519301040906
-23.381730971909434
19.65973694398447
-0.9427865326114456
-0.43035747634301147
-1.1577537902298471
9.271297882672476
6.586199993937209
-2.5369665622062265
-2.8642346933013547
-2.700528268468069
-7.841991000484753
-15.507883621024671
7.207565821490522
7.961725476724448
10.939287950083918
-8.187456875525314
-13.677467752698528
6.448641296552155
-18.488486959958575
-6.402518424145516
-2.074344524064357
-2.549180087325365
-23.064226762521894
-2.0541123847688993
1.9974497952877353
-16.135357277292147
16.51598965309555
-9.098888616141146
-3.985179728763717
5.134520859990998
10.47656507843372
-3.2801148406263008
11.077574469208717
-8.91121169020632
-0.30218156890715947
-7.2618761738823325
0.7521765774735021
2.229467046711867
-8.144585615571295
19.942413587218237
-19.152109141255533
-2.959419678987748
-3.060188450301053
23.63854515882683
12.94114161836761
-1.642499491117594
-6.782590005439014
4.967766492294955
2.0433355408478775
-16.589989094995964
-10.510879609623471
-1.9475654451617945
-18.26959191725514
-2.7424703026102235
-13.589096868182429
14.691644452724772
0.01727412332250982
11.461874402415754
22.26873847468598
-4.693548360172216
-12.869963427669225
-1.4417074317935037
1.2749737021234273
-8.140846549554233
23.55268161366963
9.415982246047717
9.649603425512765
-15.946969309994648
12.191733681617785
-4.492223324184694
11.67617417817402
-6.197374518164925
-15.281117983692084
-5.151850184924778
5.92467417323826
0.2479317438829085
-2.237610768357858
-0.7462774930997033
-8.51840307808916
9.344140303146402
5.658450044984283
3.0756629503371746
-0.19776694397343297
-7.953966606282121
-9.241266281387414
-2.343694460248871
-1.950349066424794
-6.149068874307151
-1.2527839391426647
16.838042946376717
-4.356791797400366
-16.414640607171766
4.833699704940493
-4.835603124226684
-9.261584964499155
2.2073298179423406
-9.397836485547515
-24.588561356126988
9.686827754672441
-3.4884239719829786
-5.8592656057583925
-15.388598204842724
-5.858369374935468
-6.421619638068296
0.2920965126546122
-9.165531723446417
-4.732188452517876
20.04298334567112
-4.065476317331585
-6.993151800787971
-6.741238819985845
5.44666990446872
6.239000201245087
2.019732519317887
11.746087629426189
16.006761035563045
13.645599345704165
-15.896333086689765
-6.863601703519246
-11.16805372185525
2.7115423303666506
10.595979588713954
11.071577630408305
-14.668404597082997
6.373007865231168
11.264615396170608
0.026872800105418614
6.672977397231797
-21.16834241924648
17.880670158067627
-0.014379301725071535
0.005025229217429671
-0.85322282269757
8.633272857838918
5.891317440651045
-3.416719597771157
-3.7120725662573943
-2.082493325929135
-9.019134423112414
-15.717729355059998
7.851518292032804
8.557273759498903
11.770390955325016
-8.163718003671876
-14.382637540172311
6.034362446155812
-19.48407806851844
-7.033570749295944
-1.9483392182415664
-2.0865395391860333
-25.985473581665435
-2.7803456737962553
2.473207393348676
-16.550951877347394
17.09084658932899
-9.473121410496617
-4.0580507387187446
5.0827468766117345
11.158578632400802
-3.71710288165441
11.987193254436589
-8.83058111420579
-0.7143028233711346
-7.398853449219609
0.11139233740775417
2.7809873540621526
-8.70813911661128
20.159303702720422
-20.892124611294197
-2.856939720197377
-3.0550460335589174
24.53525127750175
14.093031103252049
-2.5139896353720674
-5.997125551590013
6.112885336603105
2.3633032701699825
-17.81309140151021
-11.681696653676589
-1.8105980836895728
-19.089815298570688
-2.2290271776100608
-15.04379094676052
15.523440452887494
0.6267462555709121
12.221913744179917
23.29534345431196
-4.54348256252625
-14.61392279922329
-1.3486969778808011
1.3508744317072439
-9.153268167167584
24.717823037313703
9.438844987988775
10.028902407734504
-16.882108290477635
12.234939487630998
-5.330150282682521
13.429803777981025
-6.453367420346661
-16.23790004618766
-5.073821147242973
6.5890063772066725
1.2035867146263615
-2.6371164657670354
-1.1310044983030767
-8.328044728537407
9.814520905399569
5.908882296906624
3.541285310620426
-0.1729162211865963
-8.839931595099385
-8.984043879422227
-1.3629118180049502
-1.654631433918499
-6.199692679673328
-1.5091968811991618
17.508199773425144
-4.71565540279596
-17.467058438201047
4.403192114768587
-4.466606725137049
-11.04717843246045
2.184984079113072
-9.537135478822357
-26.095477463054387
10.56321584570791
-3.1303939080233754
-5.2420412878029605
-17.115529312032475
-6.016970237754054
-7.975356141720184
0.683425130386683
-10.15566259992752
-4.854675291596531
21.020782244707785
-4.358269653721122
-7.016275269615483
-7.155552461011519
6.176574779339516
6.795041561656135
2.4138649645012555
12.54104605466524
17.083931485113247
14.555495163993731
-16.068339022261057
-7.714295800577566
-11.786739250529875
2.5831951370640587
10.846642240143563
12.013859497685962
-15.862374842928805
6.7369001592632065
12.548152251742405
0.6480909449599446
7.1128751864474316
-23.080109030379962
20.36042898439304
-0.251987391116834
-0.34500235125239653
-1.9568295021429147
7.046621237472309
5.610158334837583
-1.879053015634422
-2.8530401565180785
-2.433912878004606
-7.407200996859174
-12.586045152848268
5.967111374688946
6.352989630874385
9.662729721239726
-6.36818522322951
-11.790050107505255
5.159153993021185
-14.841780174232683
-5.498389436935983
-2.2657790853570323
-2.171130137548389
-19.892633549629547
-1.4436360883196104
1.6088492176998423
-13.293514831432956
13.793502400753505
-6.984136261044296
-3.5131312232137226
5.449926871854425
8.481522709289873
-2.5183070031131556
9.62333651355474
-7.275565247113783
-0.024153369626714966
-5.352012861862023
-0.034304100923396336
2.4180035414712857
-6.760225817793003
16.214009352713553
-16.35314771271868
-2.282711939634642
-2.637711522963088
19.075569785664783
11.058432947406
-2.487758525151389
-5.088867145723092
5.002530328053234
2.3216102296085177
-13.773005762396267
-8.707367180422416
-1.713670364811378
-15.416399415576619
-2.1734950183768795
-11.04007406012842
11.740665968589491
-0.009185065507624546
9.467825677567836
18.58280562800597
-4.089848595477112
-10.974208297402894
-0.6399185459900495
0.7706671995016241
-6.711527468122774
19.95620928604928
7.521185667213676
8.428068903144352
-12.914797108031195
9.754306683034711
-4.274171449263673
10.033582784292925
-5.615365905146659
-13.028126555776987
-4.125321404552701
4.315017261441566
0.759745504086503
-2.2153844698893845
-0.8379448242076153
-6.728480788699312
7.620568802639109
4.226846283740773
2.274854469853094
0.13893398994701936
-6.655662344799264
-7.192105752405939
-1.1238126005927997
-1.6546110899551314
-5.276760108785128
-0.7519178244997022
13.75905336545447
-3.0135226988346866
-13.625662200170696
4.335342717456347
-3.808519923403725
-8.846191023063346
1.6907293699632264
-7.534909039485614
-20.967678847692877
7.864001445882566
-2.4051564606550375
-4.287453479941091
-12.029105742912554
-4.529847035455172
-6.186345513847594
0.5926891002710459
-7.674426124868805
-3.9518727522993813
16.475984790672722
-3.2378367211305017
-5.0587838082201
-5.777856177750066
4.521006387275209
5.935295979725785
2.2912116204026765
9.608736018883246
13.630215225070678
10.983994227315405
-12.79885130247822
-6.054680092487499
-8.132808480731287
1.8548808455101138
8.506504602747695
8.291645958560851
-13.049156321916998
5.7524161020759985
9.885503574565893
0.30524112576287965
6.055774872745127
-18.41119455779197
15.403898613272053
0.0960506930015449
-0.9411160111877096
-1.5545676457530775
7.948019741013913
5.988343455654502
-2.440526676322919
-4.092999076234704
-2.147008892751094
-7.517745445973971
-14.96622808706366
6.993054061878815
7.171158170937602
10.825879934418062
-7.606006103381819
-13.450757040860397
5.938877986299244
-18.826468800814936
-7.316929492884315
-1.5729971885903742
-2.382749631257171
-23.15713327868531
-0.9297452082575353
1.8367286415886248
-15.179364385849796
14.782217128581653
-8.666176659568208
-3.870939569885466
4.932406785194696
9.92364026908839
-4.177850095627176
10.65544588495127
-7.863533679460346
-0.5385533878527398
-6.118677157859258
0.30943430728720583
2.9037738069622194
-8.02317116837393
19.76271842976667
-18.383602052290854
-2.8007121937124917
-3.1820898527268273
22.294251216423245
13.267320982583156
-2.275845440328464
-6.49899822725244
4.405699151781524
1.9682510564279903
-15.35184848544574
-10.249543031846022
-2.330502353661
-17.760667454717293
-2.453098161932693
-11.903451583056817
14.288234810034066
0.7439517135836193
11.327713576567142
21.05487960743967
-5.0649933809735765
-12.854681698961889
-1.0075208536909677
0.6599061693748871
-7.651650986340138
23.71063092865727
9.95563170597036
9.795966283117673
-14.150020453451368
10.805053678902125
-4.379489259396155
11.785181135812973
-5.446325971538024
-14.046804037372793
-5.85513452274362
5.647381265490456
0.7797265039932589
-2.1970713620101314
-1.1736815343405633
-7.870844879232415
8.881337797308296
5.420922030477719
2.2912387438220105
-0.3326687032668298
-7.712735202318355
-8.625199832897353
-1.5971861551714244
-0.6656356196350992
-5.469843359221555
-0.8631509547128979
16.644737683067223
-4.217300172473241
-15.609368170101758
3.1915487735719883
-4.3987220797613364
-9.080098769559285
1.8139776252080857
-8.636609039517275
-24.324843173533193
10.475166468787918
-2.6853325422962304
-4.9102993361277
-14.499874205955903
-5.864381656117884
-7.110067872361753
0.004047232936292736
-8.655607579201764
-4.7846479430762585
18.69416206466866
-3.7563491815948393
-6.661136080980952
-7.450283684604773
5.907396223763564
6.23311226846799
3.428228522703009
10.692241085036816
16.916190912498642
12.710117364068637
-14.72924779481543
-6.8666760991306575
-10.512636315629445
3.3556941520728296
10.433298000347174
10.322258330518302
-13.057533567524995
5.774335471467267
10.55993191029192
0.6501369021613052
6.84704194447688
-20.644556646558552
18.16098339415446
-0.6246970958613807
-0.055602167994431635
-1.0882994990213422
7.758857168969274
5.57511349585345
-2.9580732409084294
-2.814752781977756
-2.055848232343534
-7.393256196954994
-14.383596361158947
6.774896097161995
7.215136920871503
10.666550791435924
-8.06604087359303
-14.234169330771696
5.909575723565871
-18.13988895356621
-6.645671449447185
-1.3425322391283772
-2.6702419583949957
-23.011627010738163
-1.7329660688885897
1.5184040461875532
-15.4341407850584
16.045599598096214
-8.673160188415846
-4.41553727361016
4.568465129369272
9.905109085551608
-4.171289569335556
10.8235875507527
-7.375994258752499
-0.04396293467434804
-6.693408717636168
-0.3593524927432165
2.5643820393480983
-8.480922451888084
19.70418769101008
-19.152739045182955
-3.5660277566243685
-3.4147599350590143
21.522010466120378
12.755553057347333
-1.324803112222844
-6.115136246948277
5.029311451600235
1.1373884184210759
-16.133814243173795
-10.957397953463186
-1.5482349905077537
-17.893001725154328
-1.8320727236226686
-12.795076724241378
13.50429375774171
0.9186543702323645
11.592814694981435
21.119201961965604
-4.93492213140522
-12.434345298243507
-0.5559951131090188
0.6538784359601418
-8.437859906487876
23.30154198366779
9.927189455446683
9.774845879435263
-15.09214747370786
10.873582436427045
-5.008548608088126
12.571805325550116
-5.374996347755836
-14.543173284306576
-5.6690563067577155
5.904058916714503
1.2933682034687837
-2.241022793045727
-0.3463613705159839
-8.256758897283522
8.847347375926054
5.704796680329657
3.344516712564577
-0.3289618377770406
-7.796028222427951
-8.468281952676339
-1.7673849084178914
-1.6700003859910073
-5.424432251153764
-1.2153136530462494
16.61490866757302
-5.015501186482831
-15.240472818773235
4.597621134197059
-3.7812933696960576
-10.495921577631018
2.0751067731371147
-9.31303520034656
-23.679028331343645
10.192560222190565
-3.3093517963802017
-5.19062227581787
-15.02816790636134
-6.229679088911422
-6.8195674416259315
0.8840092566179648
-8.743008448562296
-4.643615637199521
18.670818716622883
-3.544229994496073
-6.538915355853153
-6.741957250935431
5.089280619178488
6.177926742224619
2.4964745781106554
10.757454113392905
15.9453310883154
12.962948404712648
-15.006834456301915
-5.935243924293224
-10.975774626843677
3.013859710641399
9.544469444022942
10.282179004791594
-14.097452907640681
6.473493941473797
11.67783825712304
0.40811213991089623
6.135581676942299
-20.752584887662067
18.161240631821958
0.17332679784772842
